const float weights[64000] = { 0.07930037, -0.00661992, 0.03391238, -0.03920462, -0.07325286, -0.01110505, -0.01949423, 0.08061727, 0.07481080, -0.07253907, -0.03344047, 0.05205134, 0.05676488, 0.06114274, -0.05213544, 0.01284503, 0.05186672, -0.03771292, 0.05437463, 0.04956736, -0.06651824, 0.01509276, -0.04940807, 0.01899283, 0.01965246, -0.04125480, 0.07908220, 0.05225071, -0.02468823, -0.08194841, 0.06389808, 0.07093588, 0.07005033, -0.08473609, -0.08998375, -0.17613493, -0.02941843, 0.10160623, -0.06601118, -0.10040443, -0.18059535, -0.31009945, -0.09674457, -0.55365783, -0.42127022, -0.65326893, -0.50767261, -0.53260529, -0.45600063, -0.42372793, -0.17768587, -0.11095103, 0.06584675, -0.02850026, 0.00961434, -0.03781805, -0.00864794, -0.04742457, 0.04505982, -0.14878811, -0.30939335, -0.04072670, -0.13758132, -0.03801863, 0.47451219, 0.69376314, 0.53857368, 0.37853563, 0.00594306, -0.16280338, -0.00136051, -0.03891288, -0.19366919, -0.43339935, -0.39805916, -0.52164775, -0.00037734, -0.00199285, -0.43681315, -0.24281289, 0.19692762, 0.28935063, -0.03046362, 0.06163660, -0.06946906, 0.05855993, -0.05013091, -0.14593160, -0.39816821, 0.15413788, 0.34835133, 0.56202871, 0.32367110, 0.23521511, 0.15953159, 0.15413851, -0.25021818, -0.21477047, -0.04978152, -0.03593160, -0.03617474, -0.21696776, -0.12687208, -0.38597363, -0.51944041, -0.22435713, 0.11495224, -0.16282807, -0.00490505, 0.10573152, -0.02753806, -0.07398491, 0.02603789, -0.07960234, 0.11774365, -0.19089030, -0.44320324, -0.13134825, 0.20335077, 0.28380856, 0.22113730, -0.07381491, -0.09216986, 0.27139708, 0.11438370, -0.00135627, 0.00297018, -0.28643620, -0.32484382, -0.27479756, -0.19632334, -0.24631107, 0.12060144, 0.08231368, 0.31302980, -0.04269681, -0.13648629, 0.05450313, 0.19744895, -0.07629088, -0.04764279, -0.01037689, 0.08355745, 0.33260047, 0.41892511, -0.13335851, -0.17786917, 0.00278108, 0.17194809, 0.17886564, 0.02182611, 0.22446012, 0.12280250, 0.00134039, -0.26076412, -0.38043004, -0.42656890, -0.54039800, -0.23549816, 0.22802174, 0.23899734, 0.14506792, 0.03499894, -0.09382072, -0.14851964, 0.17848437, -0.08358020, -0.12269010, -0.06557123, -0.05099676, -0.23885231, 0.45644981, 0.13004284, -0.25556210, 0.01296186, 0.06980187, 0.09505302, 0.16869150, 0.06760807, -0.11978542, -0.00588499, 0.05039402, -0.17016803, -0.43852895, -0.45298937, -0.28393829, -0.21973249, 0.19153729, 0.42133728, 0.00951456, -0.07046178, -0.00622763, -0.53127778, -0.15923472, 0.01924546, 0.08780606, -0.07025126, -0.30002448, 0.19519483, 0.40240344, 0.14792664, -0.32657486, 0.10865900, 0.22309506, 0.15031861, -0.02576697, 0.02867872, -0.01019829, 0.20339280, 0.09135709, -0.17684266, -0.26883647, -0.46858570, -0.31383693, 0.14689499, 0.24660870, 0.19239615, 0.14459643, -0.18743657, -0.25484154, -0.29865405, -0.31175795, -0.12628360, 0.08138540, -0.40360862, -0.13643730, 0.02434839, -0.01977899, 0.27635100, 0.01616640, 0.21420085, 0.32770717, 0.21241413, 0.04036833, 0.03932340, 0.08699934, 0.14130948, -0.02485691, -0.19862109, -0.73728603, -0.46620038, -0.04439097, 0.32317945, 0.40261701, 0.24767749, 0.09920964, -0.08950291, -0.31986508, -0.37240234, -0.25886855, 0.14289501, -0.01863578, 0.28750741, 0.01834751, 0.05323935, 0.01171145, -0.11051062, 0.08828062, -0.10607472, 0.06244300, 0.10640838, 0.31089216, 0.12596895, 0.06510178, -0.11768132, -0.23005128, -0.70355976, -0.86766040, -0.19846478, 0.34975457, 0.44387484, 0.62797362, 0.42070296, 0.14496711, 0.10260192, -0.33636597, -0.67100340, -0.61005199, -0.11718555, -0.28587341, 0.21872196, 0.02938689, -0.47212535, 0.05441467, 0.14438038, -0.03138410, -0.15034321, 0.09944393, 0.29251868, -0.00359264, 0.09205037, -0.05309493, -0.34540999, -0.74893731, -1.11002517, -0.76598394, 0.13352960, 0.50391060, 0.57614654, 0.55901653, 0.50859249, 0.23833877, 0.30485979, -0.10296073, -0.58865565, -0.86880451, -0.35084555, 0.03820967, 0.08164892, -0.01440758, -0.13944052, -0.30001435, 0.09385120, -0.18096235, -0.04751996, 0.12702017, 0.20133406, 0.12675309, 0.02814930, -0.34423807, -0.43807200, -0.72985661, -0.80115098, -0.04796901, 0.65498799, 0.56727767, 0.39584777, 0.51445603, 0.62396109, 0.54899991, 0.53522855, 0.27170572, -0.11299766, -0.39708745, -0.06933229, -0.38547260, -0.01552303, -0.08458243, -0.33214828, -0.14665270, 0.26323584, -0.12356553, -0.28947681, -0.22056778, -0.07633696, -0.07152491, -0.23033714, -0.41146484, -0.51920378, -0.52334327, -0.15536243, 0.49634129, 0.81226623, 0.57822573, 0.18427922, 0.42039716, 0.41223469, 0.60585260, 0.57815552, 0.58129662, 1.04562688, 0.64765286, 0.16771828, 0.07767851, -0.08706020, -0.15350674, -0.35174149, -0.16937059, 0.01796819, -0.10586023, -0.15260640, -0.28018624, -0.14056543, -0.21568708, -0.39498651, -0.35643700, -0.24315134, -0.00538405, 0.34756783, 0.63821793, 0.57664073, 0.45295754, 0.25575188, 0.34510624, 0.37512183, 0.22341970, 0.35647079, 0.28413904, 0.89990950, 1.20558548, 0.68675578, 0.27554938, -0.33039621, -0.25399044, -0.21107250, -0.10253993, -0.15039733, -0.34139869, -0.11840852, -0.22387539, -0.36408994, -0.40271553, -0.32267204, -0.04168583, 0.06074303, 0.40214339, 0.45758981, 0.49341866, 0.38569301, 0.31702259, 0.20564516, 0.25175887, 0.16778938, -0.04551420, -0.12595177, -0.04677892, 0.02371485, 0.75492299, 0.63594747, 0.39389426, -0.27119780, -0.27306780, -0.45010772, 0.33155847, -0.15278856, -0.29275644, 0.13977496, -0.14456612, -0.12966156, -0.40205705, -0.28239250, 0.03768606, 0.03511147, 0.36722532, 0.56642848, 0.41937169, 0.14877498, 0.17741258, 0.00772887, 0.21673314, 0.17862140, -0.13249689, -0.15674627, -0.32777846, -0.15412034, 0.43321627, 0.51439744, 0.38313064, 0.08673508, -0.34217921, -0.13289617, 0.40434220, 0.10092989, -0.14924301, 0.30333981, 0.10233058, 0.01126097, -0.26147947, -0.07049299, 0.04133173, 0.12095839, 0.29028210, 0.38747621, 0.30306041, 0.05114534, 0.15525901, 0.00343183, -0.03071701, -0.11152535, -0.17880622, -0.09031519, -0.14860304, -0.09542561, 0.47681633, 0.82543516, 0.29034758, -0.04479184, -0.25681469, -0.25224251, -0.15543465, -0.10709710, -0.08815890, 0.25486472, 0.18417642, 0.09031054, -0.05263977, -0.21932250, 0.05447638, 0.29186070, 0.38221699, 0.20526722, 0.10562069, -0.02562965, -0.07054736, -0.03858056, -0.00842301, -0.07181748, -0.07740136, -0.25797722, -0.28761220, 0.09823575, 0.61077422, 0.68764627, -0.11388731, 0.39809856, -0.17765121, -0.21037443, -0.50213516, -0.22849211, -0.01837896, 0.14622602, 0.07040648, 0.05687587, -0.11344896, -0.13227305, 0.10653937, 0.28040978, 0.44286740, 0.17179048, 0.13062605, -0.08518854, -0.12036963, -0.17950287, -0.00967647, -0.12063982, -0.33590147, -0.31368545, 0.07870872, 0.07640455, 0.35140756, 0.51647234, -0.03002315, -0.01916857, -0.15899622, -0.21796004, -0.38078290, -0.21886022, 0.13778298, 0.10504054, -0.00585705, -0.03075802, -0.01318501, -0.10984602, 0.00393478, 0.00765586, 0.14982234, 0.08150543, 0.08096019, 0.03342317, 0.01818236, -0.11887617, -0.02925741, -0.15786241, -0.16470098, 0.04423482, 0.04702461, -0.21175373, -0.04119589, 0.45146933, -0.18745798, 0.06757533, -0.13135348, 0.12325938, 0.10537919, 0.05520426, 0.03819063, 0.03562117, 0.09542906, 0.02188974, -0.11562390, -0.08954237, -0.17523296, -0.18392071, -0.07059155, 0.04166939, 0.05638263, -0.02691372, -0.23528248, -0.45991647, -0.24620561, -0.02372955, -0.04134211, -0.08687247, 0.14690170, -0.01507425, -0.02787643, 0.10982658, 0.00906572, -0.01823020, 0.08524051, 0.21301505, 0.27308071, 0.48774880, 0.00674515, 0.04786254, 0.27247721, 0.04994154, 0.11962039, -0.04125788, -0.01541430, -0.04313133, 0.16502377, -0.03726560, -0.10397666, -0.00289701, -0.03485020, -0.38652614, -0.07287426, -0.00579389, -0.11944555, -0.05655366, 0.17791215, 0.24486746, 0.04592700, -0.06540705, -0.01325611, -0.02893236, -0.01592448, 0.14584900, 0.23260817, 0.65028757, 0.24453956, 0.29734361, 0.20564392, 0.17989983, 0.10738663, 0.03132822, 0.09304535, -0.03273651, -0.03418369, -0.03232563, -0.15417060, 0.03736088, -0.30223745, -0.41626084, -0.33471912, 0.11353073, 0.04340945, 0.01159057, 0.20498945, 0.55229872, 0.08871583, -0.46647108, 0.03580613, -0.06938449, 0.00976838, -0.13903563, -0.25086856, 0.19532238, -0.06555523, 0.06630746, 0.25446022, 0.00600992, -0.05284111, -0.12606645, -0.02749013, -0.00355313, 0.01767582, -0.01244042, -0.01557091, 0.01565256, -0.15131792, -0.22303393, -0.22587301, -0.04597390, 0.12514642, 0.28291810, 0.48360282, 0.30160642, 0.21474205, -0.49640229, -0.00681548, -0.06085816, 0.08242046, -0.12298856, -0.07212713, -0.00316781, -0.33052269, -0.03391615, -0.05224085, -0.04672573, -0.25648287, 0.14138630, 0.15618865, 0.24874401, 0.08988589, -0.08079553, 0.07345480, -0.04590489, -0.41574258, -0.21635284, -0.06474042, -0.15155692, -0.11343756, 0.03754039, 0.43311781, 0.20575453, 0.35664248, -0.25032452, -0.00702380, -0.01602854, -0.07725236, -0.15561216, -0.22138095, -0.14859697, 0.05496925, 0.05695034, -0.04158906, 0.00539652, -0.24815497, 0.08924372, -0.00129838, -0.12628411, -0.03937225, 0.08087855, 0.12617180, 0.01329571, -0.20234437, -0.28370243, -0.24436171, -0.03784537, -0.17618458, -0.45411453, -0.18822877, -0.34226531, -0.06768033, -0.03572786, -0.00501668, -0.02166734, 0.00063728, 0.06341670, 0.01556586, 0.16727468, 0.49002102, 0.55899930, 0.72020751, 0.51607913, 0.17953889, 0.07276768, -0.05572100, -0.40881115, -0.15921658, 0.24219747, 0.18419029, 0.46506175, 0.45482829, 0.09387035, -0.22151227, 0.06778686, 0.07651830, -0.05196245, 0.35232770, 0.33277500, 0.08209977, -0.02185351, -0.01470147, -0.01198161, -0.05181099, 0.03990176, 0.05994410, -0.05843406, -0.07865987, 0.19892776, 0.20140308, 0.17387025, 0.13186996, -0.16430762, -0.14179693, -0.06772269, 0.20229971, 0.70572120, 0.41756308, 0.54782015, 0.56280714, 0.42477316, 0.28106269, 0.06756573, -0.23936912, -0.31498179, -0.20359258, 0.02107887, -0.00987694, 0.07761277, 0.00471327, 
-0.05913895, -0.04213528, 0.07962512, -0.05369907, 0.01825207, 0.05257516, 0.00478557, -0.01619040, 0.02478281, 0.07411567, 0.00598771, -0.05728859, 0.10498525, 0.23784804, -0.07329878, -0.03918844, 0.01526447, -0.06644927, 0.02829141, -0.04299952, 0.02148616, 0.07233711, -0.03797686, 0.07660928, -0.04727187, -0.01676198, -0.08393580, -0.01022350, -0.07283115, 0.06182162, 0.08303293, -0.07282330, 0.03145615, -0.05417730, 0.15923394, 0.14074990, 0.06657371, 0.47941378, 0.73383808, 0.55875677, 0.36326256, 0.33799735, 0.08022887, 0.04491329, 0.01080590, 0.50253636, 0.89411765, 0.77855754, 0.54479313, 0.53343755, 0.34764504, 0.21728542, -0.06136609, -0.04255702, -0.01650957, -0.05144479, 0.00766965, 0.04853890, 0.02998655, -0.11964060, 0.06966597, 0.32437420, 0.21606877, 0.30890819, 0.38214776, 0.51111174, 0.45945299, 0.60141301, 0.72801989, 0.46449095, 0.28973004, 0.26483685, 0.06371784, 0.16112472, 0.21173875, 0.56155795, 0.64808226, 0.89039493, 0.95985508, 0.72226095, 0.42825148, 0.14915484, 0.01949430, 0.07274453, -0.01565558, 0.08201236, -0.31501791, 0.01555767, -0.07779805, -0.14215088, -0.09563517, -0.13208546, -0.19781363, -0.03746480, -0.09455662, -0.12668282, -0.02797638, -0.05989843, -0.10558904, -0.11891691, -0.15718880, -0.13679349, 0.08839809, 0.22788924, 0.26111448, 0.69195908, 0.84033740, 0.66980708, 0.45030403, 0.22859158, 0.19584711, 0.03568090, 0.00865356, -0.02998760, -0.35938621, -0.11849737, -0.19301051, -0.45634693, -0.74697840, -0.53781390, -0.79919130, -0.45419648, -0.35302711, -0.54284286, -0.36129251, -0.17058766, 0.10089081, -0.01611709, 0.10910845, 0.18383999, 0.09507117, 0.14641196, 0.31767717, 0.25105259, -0.00254617, 0.52728248, 0.32692614, 0.25707263, -0.10294148, 0.15562432, -0.00967543, -0.01593420, 0.37429005, -0.28004533, -0.41413423, -0.69052416, -0.85543686, -0.64527607, -0.53960323, -0.24105087, -0.15730792, 0.04605066, -0.02711448, 0.05731994, 0.04241519, -0.11586536, -0.12715918, 0.13204330, 0.14936906, 0.19349959, 0.11785229, 0.24227330, -0.09245393, 0.04484749, 0.27554461, 0.34174037, -0.12731485, 0.26102880, -0.00979092, -0.01679624, 0.06735311, -0.25298822, -0.62065613, -0.92201626, -1.08860326, -0.46794048, -0.29728979, -0.27371138, 0.09871695, 0.13586998, 0.19510354, 0.07861399, 0.03559801, 0.11977824, -0.01040970, 0.16368096, 0.08764982, 0.11210403, 0.12417359, -0.10859635, 0.06919663, 0.04368765, 0.22456294, 0.77930105, -0.71098208, -0.15581286, -0.02914274, -0.30892575, -0.23455539, -0.71552444, -0.95203716, -0.82103634, -1.00709856, -0.50849575, -0.29537261, 0.09062275, 0.45270169, 0.35736072, 0.17640920, 0.08920097, 0.02360878, -0.07289653, -0.10134698, 0.02953452, 0.21088673, 0.04472290, 0.05292505, -0.09854151, 0.08164360, 0.36939219, 0.74247146, 1.05877256, -0.56206053, -0.19022946, 0.18246648, -0.27810046, -0.43938383, -0.85360694, -0.97562104, -0.77253413, -0.82298279, -0.66028774, -0.26979342, 0.30524412, 0.26707524, 0.46926948, 0.26326188, 0.00963045, -0.19873321, -0.21633080, -0.35663599, -0.12113345, -0.15376851, -0.24060917, -0.27659976, -0.08309017, -0.02804048, 0.37656975, 0.82467330, 0.45222676, -0.19050717, -0.19838899, -0.12093951, -0.29112828, -0.48356175, -0.77387363, -0.54650950, -0.94706833, -0.96717554, -0.64131767, -0.16748638, 0.17549776, 0.11296371, 0.34562060, 0.16681617, 0.07396055, -0.11761436, -0.49377137, -0.56023955, -0.50166494, -0.58693695, -0.52330875, -0.45422563, -0.18813752, -0.30496314, 0.07753821, 0.79708540, 0.12810238, 0.21248497, -0.07981198, 0.01146599, -0.04903319, -0.46383411, -0.54880267, -0.50066632, -1.01580453, -0.81815892, -0.46286467, -0.15026748, 0.12803207, 0.07467441, 0.21165496, 0.13509654, 0.12142225, 0.08868864, -0.16718498, -0.46330968, -0.58219278, -0.42973483, -0.60072500, -0.48853123, -0.04482744, -0.41805816, 0.11248977, 0.78125352, -0.27744454, 0.17926198, -0.11651151, 0.03334183, -0.09475669, -0.33360243, -0.57997185, -0.91215646, -0.90252101, -0.45443264, -0.11400831, -0.16822937, 0.04817615, -0.09428521, -0.20050158, 0.08810537, 0.27978045, 0.18722083, -0.08634425, -0.12623428, -0.41612786, -0.34787789, -0.28534624, -0.36722106, 0.03004143, 0.23985083, 0.41863880, 0.82068670, 0.08345734, 0.11318514, 0.30767572, 0.04500518, -0.18515198, -0.46747589, -0.21086822, -0.91164726, -0.62974560, -0.15402141, -0.07643891, -0.13044354, -0.02347256, -0.15891315, -0.04000477, 0.06848823, 0.01829144, 0.03359082, 0.09361184, -0.16884634, -0.34088668, -0.25162083, -0.24817348, 0.00658613, 0.50393325, 0.70533985, 0.81629819, 0.82510847, 0.00589804, -0.38245678, -0.20541845, -0.02644217, -0.07764029, -0.27761978, -0.05235742, -0.55194747, -0.28449759, -0.04658439, 0.01245924, -0.20309526, -0.20012969, -0.14594194, 0.04084746, -0.03279142, 0.02226390, 0.22521979, 0.34394985, -0.20687377, -0.51364511, -0.30118102, -0.03373709, 0.15958171, 0.32842523, 0.44528416, 0.50080901, 0.11508253, -0.51438481, -0.69315290, -0.32226747, 0.30914527, -0.20042139, -0.10592967, -0.11723732, -0.47403818, -0.24911793, -0.21314248, -0.03537151, -0.05369933, -0.06755482, -0.07503554, -0.20051421, -0.11275336, 0.05424534, 0.45242989, 0.09841071, -0.19350179, -0.59496492, -0.55194688, -0.21838224, 0.19733784, 0.09393046, 0.07539173, -0.12182636, -0.00687504, -0.44255695, -0.80617136, -0.14165266, 0.19615082, -0.14484751, -0.10063238, -0.05656236, -0.45234725, -0.31297618, -0.18721601, -0.13918936, -0.03169104, -0.02848745, -0.06199721, -0.04979197, -0.00844587, 0.19405580, 0.34910551, -0.17071642, -0.39236331, -0.43548843, -0.10493182, -0.30928656, -0.06520465, 0.22057068, -0.18296561, -0.17226543, -0.28103048, -0.28273097, -0.96518999, -0.40129548, -0.11265796, -0.18257149, -0.15058795, -0.21039708, -0.48132125, -0.35743186, -0.16583180, -0.11972429, -0.00085037, 0.09485294, -0.05802310, 0.03354397, 0.19496651, 0.12895073, 0.07744984, -0.22711369, -0.40693790, -0.31452888, -0.09587223, -0.17928825, -0.19821444, 0.09692667, -0.07002148, -0.21340823, -0.33683664, -0.07304479, -1.00071490, -0.36137691, -0.08197372, -0.18279323, -0.30754480, -0.21584871, -0.75644976, -0.22472583, -0.11548265, -0.04953244, -0.08150058, 0.12595811, 0.24291003, 0.29540727, 0.21420905, 0.09353430, -0.02487572, -0.34432453, -0.29082763, -0.18727872, -0.02005607, -0.08111569, 0.16508208, 0.04651770, -0.04223663, -0.11535345, -0.12283227, -0.20394140, -0.63339913, -0.48968700, -0.14034912, -0.04368366, -0.07416764, -0.40218294, -0.39903909, -0.19899379, 0.03941300, 0.25037485, 0.13228028, 0.32639840, 0.28634211, 0.29833910, 0.43016750, 0.15623620, -0.04598372, -0.27407569, -0.21243304, -0.09849329, -0.06084929, -0.03604616, 0.12843762, -0.11997928, -0.06917606, 0.07237749, 0.35303017, 0.03576860, -0.32261950, -0.31332767, 0.03762425, -0.18688086, 0.27155367, -0.27345231, -0.31782228, -0.24446434, 0.07944588, 0.14364834, 0.26122656, 0.25572509, 0.25543347, 0.44435278, 0.28104109, 0.16054644, -0.07837353, 0.03536293, 0.02450617, -0.06635775, -0.16071256, -0.03690434, -0.04453529, 0.13885471, 0.22746499, 0.25107884, 0.08356734, -0.20076057, -0.42061704, -0.16116297, 0.06259128, -0.05326757, 0.09050950, -0.18328191, -0.09406369, 0.08711319, 0.09394602, 0.05409528, 0.16415833, 0.24057667, 0.17278294, 0.31978300, 0.26739553, 0.01566974, 0.09224611, 0.08187542, 0.02751523, -0.03814969, -0.06155469, 0.12208404, 0.06914562, 0.11861514, 0.22188051, 0.15146677, -0.09108398, -0.18395761, -0.22267731, 0.01462266, -0.00752566, -0.00254233, -0.34184885, 0.24464814, 0.20300318, 0.33346072, 0.32568890, 0.25382927, 0.27185282, 0.42406824, 0.16885895, 0.30881357, 0.09631903, 0.09225581, 0.11332522, 0.01874685, -0.01580387, 0.07335570, -0.01996299, 0.11435251, 0.28291655, 0.42592022, 0.01537440, 0.05228559, 0.21789390, 0.21808989, 0.24825536, -0.12997951, 0.03605405, 0.08480331, -0.28418094, 0.21078421, 0.35744968, 0.39375442, 0.20741887, 0.18987601, 0.22792427, 0.22412769, 0.08851340, 0.03304293, 0.02374992, 0.01388099, -0.04084679, -0.02907594, 0.02505659, 0.07774687, 0.02810478, 0.07827830, 0.17887810, 0.01149818, -0.52410197, -0.10213499, 0.12771045, 0.31322905, 0.35333481, -0.13062605, 0.04595476, 0.08195698, 0.08374280, -0.36214074, 0.21113133, 0.32241541, 0.34008378, -0.07516786, -0.11507729, 0.04404582, 0.07358306, -0.06378447, 0.01868658, -0.05554758, -0.01280856, 0.05051016, 0.23902591, 0.05598878, -0.08404157, 0.01719657, -0.16525634, -0.69483554, -0.68392068, -0.05089664, -0.21566521, 0.25501943, 0.32440543, 0.08227002, 0.05742755, -0.01584237, 0.08879959, -0.63050318, -0.59034050, 0.05438440, 0.09336630, -0.10390604, -0.07675249, 0.03901372, 0.16425887, 0.21064237, 0.32822233, 0.08629869, 0.11293533, 0.10477753, 0.13039847, -0.28834805, -0.22751918, -0.33423781, -0.19949777, -0.59540725, -0.42465407, -0.32578552, -0.46677220, -0.08988522, -0.14105722, -0.06160604, -0.00640016, -0.00571992, 0.01735271, 0.01151991, -0.50779998, -0.77411991, -0.15894467, -0.19998407, -0.45030937, -0.00351329, 0.41527167, 0.35475260, -0.02267825, -0.21345983, -0.27891418, -0.35570601, -0.83357787, -0.79793948, -0.70388001, -0.23733421, -0.53968310, -0.51922613, -0.05684301, -0.11216579, -0.36190969, -0.14148256, -0.00629563, -0.00873851, -0.01685592, -0.03018679, -0.06470288, -0.02299356, -0.31143638, -0.36395505, -0.38590935, -0.24565341, -0.03816026, -0.06138621, -0.23629338, 0.09673724, 0.15922973, -0.41285560, -1.05111694, -1.10097635, -0.87717193, -0.57913822, -0.28169191, -0.29371569, -0.53764856, -0.28595057, -0.24790758, -0.06452414, -0.03696360, 0.05751696, 0.02082285, 0.04880262, 0.03853421, 0.08375596, -0.05119709, 0.00847792, -0.04305005, 0.01957037, -0.03759284, -0.28558490, -0.23630056, -0.33954087, -0.19712631, -0.13186575, -0.13006583, -0.26624775, -0.59069330, -0.23415999, -0.13464189, -0.34259975, -0.25707647, -0.13173419, -0.15776828, -0.10925083, -0.14876242, -0.07016791, 0.00633670, 0.06442354, -0.00159534, -0.02035875, 
-0.04578690, -0.01618162, 0.03163847, -0.05726770, 0.01925746, 0.03268088, 0.04228679, 0.04582908, 0.05604135, -0.05354752, 0.05797663, -0.05157852, -0.00558082, 0.06515130, -0.06565007, -0.09070963, 0.01254129, 0.03104994, -0.07182642, 0.03483938, 0.00305408, 0.04183894, 0.01389577, 0.02949341, 0.06673617, -0.02725817, -0.00043948, -0.06562690, 0.07271364, -0.06417665, -0.07654493, -0.00449394, 0.07204563, -0.06816643, 0.03401605, 0.22953576, 0.05046433, -0.04072716, 0.18727818, 0.00639758, 0.07141848, 0.23401612, 0.14554365, 0.11329508, -0.13321857, 0.09604339, 0.26102000, 0.26795861, 0.34594956, 0.24245015, 0.30241767, 0.17648752, -0.05018270, 0.03965004, -0.06195259, -0.07079827, -0.07841799, 0.00309648, -0.04178391, -0.02654572, 0.21222207, -0.02732137, 0.15562569, 0.22724777, 0.29260468, 0.01456283, 0.20141125, 0.13034980, 0.09617107, 0.08197661, 0.38400728, -0.03007134, -0.26680270, -0.20021980, -0.29452747, -0.18364383, -0.11452061, 0.54737228, 0.80779135, 0.50293314, 0.28916186, 0.06353737, -0.08236241, 0.02366235, -0.06779030, 0.06070765, 0.20396155, 0.13464439, 0.00544321, 0.00062958, 0.27173802, -0.14811304, -0.07417039, 0.47941715, 0.07556785, -0.45897523, -0.35021791, -0.15607981, -0.35843080, -0.15336244, 0.03948138, -0.05960054, -0.37742889, -0.14180321, -0.02107309, 0.26373452, 0.27160177, 0.03260101, 0.11067975, -0.14009172, 0.24599898, -0.03771130, 0.02411713, 0.05380398, 0.05891360, -0.33184955, -0.22643097, 0.13717873, 0.27879429, 0.17105442, 0.49412099, 0.53832614, 0.21881808, -0.34588492, -0.16122405, -0.12331927, -0.18986394, -0.21314250, 0.00532776, -0.13548999, -0.12865052, 0.14136283, 0.16617614, 0.05958981, 0.09354834, -0.14312382, -0.52687877, -0.56594181, -0.49142691, 0.08084168, -0.06062117, -0.02486848, 0.27405149, 0.06761984, 0.35005507, 0.54213035, 0.52392060, 0.16710952, 0.00768432, 0.03196494, -0.25087273, -0.41935873, -0.25415003, -0.38866857, -0.50105286, -0.06611932, -0.49699092, -0.55104446, -0.11134937, -0.13699839, -0.06850678, 0.08029948, 0.22433193, 0.23460412, 0.01245002, -0.49190629, 0.30243400, 0.22974361, -0.02249019, -0.20626304, 0.07890075, -0.07176606, -0.07210477, -0.16620560, 0.05805503, -0.36310217, -0.42230630, -0.47327259, -0.58516550, -0.42471352, -0.22326198, -0.48021528, -0.35001117, -0.26363945, -0.30384171, -0.16970268, -0.16800234, -0.18729317, -0.14658378, 0.18733540, 0.12467689, -0.03573674, -0.01044881, -0.36859414, 0.10241316, 0.18346807, -0.06432125, -0.56279051, -0.04856690, -0.45341238, -0.70511210, -0.82913172, -0.75474548, -0.44049048, -0.51742804, -0.48753515, -0.38170844, -0.18669428, 0.02064889, -0.09313984, -0.01449679, -0.01160621, -0.13655856, -0.07029693, -0.27150425, 0.00536623, 0.22268331, 0.04873187, -0.01390596, -0.04049648, -0.16984750, -0.32924482, 0.04930707, 0.06703233, -0.32135186, -0.46469647, -0.09776819, -0.53584361, -0.45880061, -0.64729393, -0.65346265, -0.44870636, -0.37371966, -0.53311056, -0.18701646, -0.08806285, 0.02975227, 0.04388680, -0.10277266, -0.12596072, -0.27872685, -0.20945993, -0.29568207, -0.16862737, -0.25388724, 0.02927341, 0.00792901, -0.19469404, -0.09372108, -0.21638192, -0.20938602, -0.50032914, -0.31631866, -0.56822187, -0.12760137, -0.34965521, -0.39005813, -0.85321784, -1.03348422, -0.58742201, -0.19775376, -0.03913812, 0.16704789, 0.22660571, -0.13688122, -0.05462918, -0.11768734, -0.00911702, -0.19001576, -0.30172420, -0.25593114, -0.24107113, -0.26234996, -0.17004597, -0.05152421, -0.05494872, -0.01249804, -0.28028697, -0.70861632, -0.31744602, -0.24671400, -0.34028625, -0.34664288, -0.44896606, -0.56056315, -0.69920170, -1.15116763, -0.31816345, -0.06924237, -0.05397497, 0.08039255, 0.04071813, 0.09323693, 0.01601703, 0.11682507, 0.29606417, -0.19818723, -0.38311997, -0.22018029, -0.23809236, -0.69290459, -0.42798179, -0.27297145, -0.24535236, -0.42108101, -0.22931232, -0.40383220, -0.15095675, -0.21294755, -0.57369471, -0.51186752, -0.70268703, -0.65585846, -0.78312999, -0.62662351, -0.11464263, 0.14406511, -0.07449900, 0.09234053, 0.19354287, 0.17114207, 0.09424421, 0.40122119, 0.41939288, 0.24495551, 0.06476910, -0.00047754, -0.06694279, -0.40674496, -0.46425167, -0.72116905, -0.56598508, -0.74290931, -0.47064528, -0.51247591, 0.01766517, -0.01378994, -0.23507582, -0.44292894, -0.98726636, -0.76978689, -0.69241261, -0.18232514, -0.05078678, 0.06098093, 0.11107560, 0.20963548, 0.21415427, 0.31006500, 0.39971384, 0.61422795, 0.49747935, 0.40818021, 0.36954278, 0.47031122, 0.38223699, 0.09333757, -0.00233664, -0.24524340, -0.48758885, -0.35170177, -0.39072764, -0.23354256, 0.13031387, 0.02255044, -0.14624316, -0.56386489, -0.55899876, -0.69698501, -0.74829382, 0.00888579, 0.25405866, 0.17765792, 0.27176157, 0.16833356, 0.00231722, 0.34116349, 0.49353319, 0.49618858, 0.38023245, 0.38553733, 0.50091660, 0.67510068, 0.71566844, 0.42291579, -0.03483608, -0.58223683, -0.78140467, -0.68717951, -0.51458979, -0.23854001, -0.33904403, -0.20615235, -0.20439890, -0.33730003, -0.05733499, -0.19391093, -0.54371601, -0.17587137, 0.09297077, 0.03820922, 0.11845633, -0.02941260, -0.03527512, 0.14375657, 0.34503183, 0.24480304, 0.27740628, 0.35682034, 0.17400642, 0.27648416, 0.49520662, 0.13896295, -0.61569095, -0.80585265, -0.82633442, -0.68653792, -0.60799718, -0.52306837, -0.13466631, -0.22352909, -0.01066608, 0.06376029, -0.19201538, -0.04284798, -0.70560771, -0.58404356, -0.50761753, -0.27799356, -0.05860772, 0.25135419, 0.14492631, 0.16440172, 0.27901453, 0.35673586, 0.12085231, 0.26314700, -0.01428671, -0.04904924, 0.11141311, -0.02641728, -0.53368294, -0.76478279, -0.64062375, -0.59735262, -0.79572737, -0.43711030, -0.11880187, -0.05244448, 0.02136001, 0.29787591, -0.31400338, -0.06726245, -0.60859615, -0.74977046, -0.47982350, -0.38414183, -0.38269064, 0.11359806, 0.36614966, 0.13815792, 0.07099862, 0.22619282, 0.00777950, 0.20685749, -0.31637767, -0.37706128, -0.46276388, -0.33183876, -0.62532842, -0.68773621, -0.49059504, -0.42165738, -0.57467210, -0.20114879, 0.04172761, 0.01075079, 0.00168926, -0.10190228, -0.15540239, -0.25870797, -0.62928051, -1.01152396, -0.67350596, -0.38440910, -0.23360203, 0.33942777, 0.15801217, 0.12372524, 0.07798424, 0.14669321, 0.12862635, -0.03562321, -0.42370963, -0.58650947, -0.48350686, -0.48020589, -0.52935684, -0.78478414, -0.42647818, -0.55367959, -0.35180146, -0.10830434, -0.06762826, -0.34101731, 0.02427737, -0.21501854, -0.07290000, -0.22866154, -0.56139731, -1.05789292, -0.83436823, -0.49762854, -0.04001521, 0.20297770, 0.03751756, 0.10504603, 0.03468873, -0.05863649, -0.00249600, -0.19484518, -0.48179203, -0.60874432, -0.43443841, -0.54677671, -0.26875079, -0.55881053, -0.40590417, -0.60829967, -0.35406715, 0.00667881, 0.25708857, -0.00609574, -0.36580008, -0.24536660, -0.22766253, -0.36719766, -0.32286906, -0.60501337, -0.36499733, -0.59816462, -0.12198419, -0.01809386, 0.06315090, 0.16037136, 0.05633464, -0.06598107, -0.22660452, -0.22843531, -0.42284703, -0.30684423, -0.20740713, -0.12799476, 0.07801121, -0.00661071, -0.29171678, -0.25453138, -0.10946151, 0.24619354, 0.36643043, -0.04873290, -0.16752636, -0.52483284, -0.80269730, -0.27728170, -0.21240507, -0.14128302, -0.38060492, -0.48741224, -0.39788383, -0.22606322, -0.01710140, 0.10942539, -0.02497623, 0.14968237, -0.19328018, 0.05309547, -0.03220955, 0.12863399, 0.21710007, -0.00068314, 0.24600185, 0.11582264, -0.14664450, -0.07196020, 0.14032137, 0.25100833, 0.06923780, 0.05086521, 0.07095107, -0.40180466, -0.45755064, -0.62696314, 0.08280154, -0.26485407, -0.46267775, -0.31310117, -0.15048626, -0.18432869, -0.14732000, -0.07153553, 0.07930801, 0.01385715, 0.00569389, 0.05783458, 0.13340878, 0.25291905, 0.18112729, 0.28893641, 0.08411256, -0.22324042, 0.01972392, 0.18247949, -0.01093845, 0.29523233, -0.06845921, 0.16658713, 0.03927829, -0.15864022, 0.02899115, -0.17779782, 0.19655311, -0.13191527, -0.19681001, -0.09271468, -0.31278467, -0.09163275, -0.30715442, -0.07565478, -0.15095593, -0.14686918, 0.10655628, 0.14285058, 0.09074429, 0.39623582, 0.18922801, 0.32331380, 0.20707940, -0.20281671, 0.06715593, 0.52323341, 0.22980468, 0.28251386, -0.00271069, -0.02739045, -0.07060703, -0.24660075, -0.45884040, -0.46762043, 0.03521954, -0.10201465, -0.05766023, -0.07424957, -0.19292746, -0.22447373, -0.32082170, -0.03341670, -0.25562170, -0.40946841, -0.39333639, -0.11774132, 0.21575600, 0.24145022, 0.08565096, 0.16261107, 0.35177973, 0.13344125, 0.29742074, 0.34528112, 0.30858123, 0.44234541, 0.03320143, 0.06767506, -0.07415396, -0.13787156, -0.51702881, -0.27569592, -0.01128203, -0.03168621, -0.10191292, -0.07053457, -0.05958275, 0.01080054, -0.27056098, -0.32377627, -0.41029969, -0.42855939, -0.38022831, -0.30423215, -0.04314738, -0.03170034, -0.08468766, 0.09983394, 0.41569546, 0.17199676, 0.43652526, 0.23386402, 0.38968170, 0.12852176, -0.04455595, 0.00877244, -0.01555156, 0.02814079, -0.33769324, -0.31070542, -0.07257346, -0.17227678, -0.03663238, 0.18071972, 0.13997301, -0.10564411, -0.24670298, -0.24631341, -0.03114228, 0.03740306, -0.12774119, -0.09570688, 0.04591598, -0.21794526, -0.43229890, -0.10420007, -0.12975278, -0.12076882, 0.19742407, 0.11622442, -0.05546682, -0.11857130, 0.03767218, 0.08266058, 0.07952271, 0.03470830, 0.10219049, 0.25460902, 0.14432728, 0.11343859, 0.30931428, 0.32840383, 0.38041165, 0.41574872, 0.28436476, -0.03623695, -0.23395106, 0.39128563, 0.36960810, 0.29205936, 0.07449973, -0.37852797, -0.37544924, -0.16217940, -0.06474465, -0.27017638, 0.23615006, 0.11031771, -0.02134724, 0.02845678, 0.05465219, -0.01650157, -0.01452187, 0.02153253, -0.05693338, -0.09456315, -0.19326150, 0.02962136, -0.01395459, -0.11809532, -0.23783749, -0.52469558, 0.20466571, 0.10057186, -0.44003150, 0.36603826, 0.30797687, -0.03499983, -0.13993166, 0.04429615, -0.07021439, -0.07129913, -0.25513798, -0.15648736, -0.02291863, -0.01086242, 0.02814262, 0.06359468, -0.04596731, 
-0.04602082, 0.03904797, 0.05664761, -0.03373747, -0.07544087, 0.07336956, -0.00488117, -0.03154496, 0.06243826, 0.00188429, -0.01174448, -0.07883663, 0.11729251, 0.16416834, -0.07145038, -0.04565236, -0.05975059, -0.02915411, 0.03512490, 0.02298261, 0.03536447, -0.07503214, -0.01267344, -0.07510453, -0.05516521, 0.03984013, -0.06991317, 0.05592758, 0.06904269, 0.02619334, 0.07088264, 0.00375273, -0.02016696, -0.01358665, 0.35885194, 0.49747151, 0.21470220, 0.26995847, 0.51079768, 0.69653559, 0.65514576, 0.49734515, -0.08291434, 0.13132717, -0.19245550, -0.02848983, 0.56107295, 0.54232895, 0.70587647, 0.49308583, 0.37784138, 0.32766375, -0.07979535, 0.04813344, 0.03631032, -0.00719854, -0.00677077, -0.06279537, 0.09488320, -0.00728452, 0.30785343, 0.38216946, 0.57350791, 0.84882289, 0.45522296, 0.13198808, 0.51891327, 0.63371885, 0.69662923, 0.61105806, 0.49370959, 0.47347435, -0.10417174, -0.07785334, 0.03392899, 0.44228527, 0.54786164, 0.45932335, 0.45152315, 0.68282604, 0.13291919, 0.06247154, -0.05529096, 0.00107475, 0.02529346, -0.00740284, -0.17771123, 0.16005316, 0.25502831, 0.04274844, 0.26688763, 0.62444967, 0.41842219, -0.11445897, -0.35823771, -0.11988103, 0.36415115, 0.76021320, 0.75957483, 0.59908253, 0.43973982, 0.22059180, 0.13161983, 0.25683531, 0.39028510, 0.55211717, 0.61042726, 0.75787956, 0.46042696, 0.08258992, 0.03772376, -0.03602285, 0.04300133, 0.05360024, -0.25860047, 0.01216839, -0.11205828, -0.07064357, -0.50721288, -0.27317721, -0.21817411, -0.12665689, -0.53714198, -0.62039763, -0.46078378, -0.11686593, -0.01127449, 0.09126314, 0.31525302, 0.50032753, 0.19847143, 0.40677333, 0.35027167, 0.35587266, 0.40429506, 0.87046635, 0.35281143, 0.25645763, 0.21372537, 0.06703400, -0.00803294, -0.07358418, -0.18139927, -0.43165663, -0.24685510, -0.03616405, -0.00860086, 0.08310464, 0.13923423, 0.08152650, -0.35242736, -0.45173004, -0.29239684, -0.07302859, 0.05575536, -0.06636459, 0.00765651, 0.02374109, -0.01263213, 0.04341713, 0.15374060, 0.51019144, 0.54008311, 0.39162272, 0.08666961, -0.17355156, 0.21229511, -0.04460193, -0.06707572, 0.02280077, 0.28519449, -0.42610630, -0.52276838, 0.12824312, -0.15873578, -0.18823610, -0.09685899, -0.20595351, -0.16022837, 0.10958602, 0.23623104, -0.04795539, -0.19344181, -0.20308001, -0.36632130, -0.13098320, -0.31606570, -0.09286702, -0.06652740, 0.23847428, 0.49880010, 0.63868552, 0.42902270, 0.23056929, 0.02786573, 0.10622129, 0.00444015, 0.43407252, 0.35766011, -0.27106395, -0.56090325, -0.19719267, -0.48634222, -0.22935878, -0.31966117, -0.09680730, 0.16986856, 0.22742468, 0.19009650, -0.06263016, -0.00616391, -0.12874669, -0.17535585, -0.05946991, 0.03082711, -0.06513888, -0.00463363, -0.01016576, 0.11205947, 0.36122522, 0.60557020, 0.47504145, -0.05631793, 0.18146697, 0.28694111, 0.54865438, 0.41243619, 0.16986229, -0.35899287, -0.16685721, -0.12749085, 0.15571313, 0.07965139, 0.15762722, 0.20051800, 0.18195611, 0.29945493, 0.16540977, 0.15076391, -0.00117158, -0.10600901, 0.09712954, 0.08468074, 0.03397250, 0.08325522, -0.20683162, 0.00725258, 0.12912431, 0.53329194, 0.36784339, 0.02426733, -0.19531786, 0.18899372, 0.51429600, -0.01588384, 0.24108779, 0.40610656, 0.08645907, 0.27314538, 0.19990072, 0.03445404, -0.03304805, 0.14778192, 0.20748520, 0.19935139, 0.09790681, 0.14179638, -0.07583199, -0.09428088, 0.13638909, 0.16916057, 0.19968404, 0.11029495, 0.09728280, -0.02442819, 0.23425111, 0.21078339, 0.13509566, 0.24463665, 0.54043055, 0.12455601, 0.45439360, 0.19371295, -0.07565334, 0.57071835, 0.24588293, 0.14297709, 0.02418489, -0.26649284, -0.00654198, 0.28478405, 0.23568934, 0.19290255, 0.29282242, 0.13385110, -0.05539788, -0.15759215, 0.09601204, 0.17406680, 0.22901364, 0.30306309, 0.11272368, 0.09874201, 0.07471283, -0.00846582, -0.01504979, 0.05474256, -0.00014505, 0.02640118, 0.51355064, 0.12096021, -0.05065551, 0.26135129, 0.05300759, 0.12415947, 0.06321957, -0.22941306, 0.18140143, 0.21456674, 0.26921511, 0.14577700, 0.12029544, -0.16690585, -0.36532098, -0.18159899, -0.02096039, 0.05756692, 0.10750702, 0.03506614, -0.06212335, 0.04666952, -0.03496548, 0.14054659, -0.05458833, -0.02016970, -0.26342252, -0.02015666, 0.46699193, 0.13145667, -0.21274462, -0.18874539, -0.04397503, 0.05113534, 0.14030270, 0.02533701, 0.02924229, -0.02010722, 0.09702723, 0.03483340, -0.25794441, -0.32032198, -0.12307448, -0.03768544, -0.08599100, -0.11525494, -0.16371191, 0.03352350, 0.03710024, 0.14604586, 0.25770667, 0.35498849, -0.16052611, -0.50051403, -0.19761305, 0.06549688, 0.28620118, 0.57139260, -0.19516890, -0.35320231, 0.05230995, -0.07868921, -0.29492709, -0.26130983, -0.21673274, -0.25461039, -0.15919094, -0.37729183, -0.56261349, -0.27977273, -0.15621428, -0.12591620, -0.24934955, -0.19628032, -0.15309954, -0.14010619, -0.05394097, 0.04431447, 0.73358375, 0.18595070, -0.45288280, -0.67411059, -0.19822657, 0.24331835, 0.24089178, 0.71915710, -0.30138656, -0.49613300, -0.07006583, -0.09924497, -0.41274306, -0.25405854, -0.35772416, -0.20582888, -0.17482664, -0.45889151, -0.30567077, -0.13961540, -0.25116706, -0.35825700, -0.23703115, -0.17610276, -0.14891186, -0.28501162, -0.01318499, -0.09640241, 0.23198123, 0.31076628, 0.05611506, -0.45066908, -0.29356721, 0.27544320, 0.12507521, 0.53082651, -0.22389904, -0.49570149, -0.27937713, -0.13286577, -0.30068132, -0.47111946, -0.20503122, 0.00052042, 0.04424964, -0.05825948, -0.19776605, -0.29554972, -0.54650337, -0.42746294, -0.27771872, -0.02691834, -0.05965137, 0.15432647, -0.03805264, -0.17853892, 0.30843002, 0.41784263, 0.08623747, -0.70510584, -0.41093317, -0.04252769, 0.02174703, 0.36629868, -0.12648432, -0.34122306, -0.17664236, -0.13250516, -0.25083935, -0.50488591, 0.10778569, 0.26963770, 0.27336305, 0.15383725, -0.08560824, -0.42277062, -0.36143759, -0.38534060, -0.13554062, -0.20187956, 0.07703307, 0.13559622, -0.08817305, -0.13644607, 0.10431630, 0.27529877, -0.23334306, -0.90583158, -0.58621174, 0.02423515, -0.08538245, 0.06398240, -0.60018969, -0.14218438, 0.06315577, -0.17624921, -0.21187630, -0.06681480, 0.24547596, 0.29917192, 0.20290866, -0.03098001, -0.21423557, -0.31679583, -0.27741784, -0.09611341, -0.23221368, -0.10142767, 0.01052745, 0.11802196, -0.06161029, 0.10116852, 0.11379965, 0.45398191, -0.32154897, -0.31617758, -0.42633468, 0.18182018, 0.03862365, 0.08600383, -0.80436510, -0.01389249, 0.12630290, -0.21602611, -0.12126037, 0.27579364, 0.46482506, 0.28239393, 0.08442503, 0.15414536, -0.12115201, -0.15747756, -0.10877624, -0.07734323, -0.16664039, 0.04313144, -0.01116397, 0.17737168, -0.16899951, -0.19039032, -0.09558345, 0.07520501, -0.37111595, 0.00887805, -0.26062495, 0.04080881, 0.43665913, 0.14882371, -0.65333509, 0.06871427, -0.06555439, 0.03742625, 0.08436891, 0.62905902, 0.74569631, 0.65761596, 0.56673938, 0.58985358, 0.32998675, 0.11775246, 0.01738009, -0.22766198, 0.06187862, -0.07176441, -0.02673776, -0.06702340, -0.36188957, -0.18085043, -0.19921109, -0.04627148, -0.46517515, -0.57752520, -0.03502201, -0.02786864, 0.03020561, 0.10112698, -0.49507248, -0.31599361, -0.18509579, 0.16385102, 0.48141703, 0.47707334, 0.59470904, 0.65328008, 0.81530863, 0.92714030, 0.56787205, 0.30773187, 0.06505782, -0.28065330, -0.09402229, -0.01327722, -0.05575934, -0.21715702, -0.22351743, -0.09744085, -0.34713018, -0.44893870, -0.51512432, -0.21215118, -0.02869960, -0.02257410, -0.08562130, -0.63711745, -0.67854840, -0.21431507, -0.05798515, 0.19896452, 0.56272012, 0.35035387, 0.19920108, 0.19859444, 0.29284477, 0.55613649, 0.64959025, 0.36873788, -0.06510311, -0.15894289, 0.12481906, 0.10091427, 0.22936738, 0.05527632, -0.14950980, -0.23797722, -0.66856390, -0.56634605, -0.15849252, 0.20052382, 0.08219108, 0.05901672, 0.00011538, -0.58445686, -0.62964261, -0.09277341, 0.02674966, 0.01058122, 0.29107961, 0.09755071, 0.10739077, 0.00640486, 0.06338479, 0.13639425, 0.26131368, 0.19239354, 0.20275229, 0.10966227, 0.23016192, 0.17968474, 0.21062832, -0.32371205, -0.54335701, -0.79412508, -0.87981075, -0.93117154, -0.12861650, 0.34655321, 0.02731768, 0.00076992, 0.02669688, -0.34146723, -0.50895864, -0.07367371, 0.01468575, 0.05052691, -0.17032871, -0.22221835, -0.08275460, -0.09184022, -0.11113581, 0.18700029, 0.25663209, 0.26329386, 0.27703547, 0.35410956, 0.42359924, -0.01244815, -0.07177304, -0.35237387, -0.53189778, -0.84818339, -0.91866386, -0.90235335, -0.42390046, -0.24704972, 0.01510265, -0.02412642, -0.03745141, 0.06443278, -0.26948366, -0.57316518, -0.40771061, -0.28307715, -0.31052259, -0.32801357, -0.24551648, -0.17313346, -0.03538313, 0.20428425, 0.42198375, 0.41091937, 0.24142706, 0.26643518, 0.36917821, 0.08941975, 0.03442630, -0.12861648, -0.29715830, -0.66582566, -0.66167116, -0.57058215, -0.39210120, -0.14641507, 0.03152137, -0.01157299, -0.03216515, -0.44427001, 0.33271429, -0.33876631, -0.76422155, -0.54106444, -0.38109130, -0.42212760, -0.35791549, -0.26486662, -0.18896876, -0.12504283, 0.05831635, 0.02896406, 0.02017620, 0.04615718, 0.09129789, 0.09428193, 0.19962041, -0.08567870, 0.13994296, 0.05733347, -0.35114312, -0.30366322, 0.01169053, 0.01123284, -0.03819193, 0.05852237, 0.03877150, -0.01264642, -0.10818769, -0.36973211, -0.55552387, -0.28917485, -0.06658145, 0.05805400, 0.03544302, 0.07267036, 0.16554467, -0.23076162, 0.04614495, -0.15344402, -0.07634229, -0.09455156, -0.15021457, 0.00305076, 0.25023261, 0.15229817, 0.18975404, 0.16310416, 0.18876293, 0.01308079, -0.00170650, 0.07326897, 0.06782473, 0.07479236, 0.01567906, -0.00934384, 0.04965898, 0.10617901, 0.32519996, 0.24290736, 0.08127329, 0.21927713, 0.17838657, 0.45793945, -0.06214115, -0.08993755, 0.46283510, -0.11976619, -0.19437419, -0.13796034, 0.13283391, -0.01058927, -0.00528307, 0.04422476, 0.28497404, 0.10037628, 0.25241473, 0.06098828, -0.07194883, 0.03979922, 0.02371403, 
0.04808437, -0.02005016, -0.03118074, 0.00927371, -0.04594934, 0.05631378, -0.04792588, -0.05080238, 0.03208313, 0.03984320, 0.01198834, 0.07233658, 0.06037368, 0.00689460, 0.01713550, 0.05837836, 0.07082570, 0.03515211, 0.07110114, 0.06182424, 0.06918583, -0.07730797, 0.01014297, -0.00364004, -0.00046569, -0.04482499, 0.04651647, 0.02773995, 0.08405188, -0.05413133, -0.04894607, 0.00791558, -0.05320890, 0.03648977, 0.33020902, 0.30472460, 0.17260222, 0.20663539, 0.34418622, 0.37643704, 0.41730899, -0.01044690, -0.16855827, 0.56497508, 0.46927255, 0.54807264, 0.70573843, 0.65189213, 0.70802671, 0.51365149, 0.25274381, 0.22254890, 0.07440782, 0.05679109, 0.02961773, -0.02308204, 0.01868431, 0.04836740, 0.07945482, 0.04342601, 0.33846387, 0.18513976, 0.40665033, 0.48640591, 0.74529105, 1.18250430, 0.85268885, 1.26826727, 1.33308792, 0.78373516, 0.43068063, 0.47105742, 0.12257823, 0.00872889, 0.04188796, -0.00057594, -0.00159110, 0.31298757, 0.26534921, 0.12686332, 0.55320519, 0.46821108, -0.06264573, 0.00034162, -0.02689089, -0.00694852, 0.34431645, 0.39570388, 0.29217947, 0.34687060, 0.45843381, 0.21220794, 0.07110140, 0.20198166, 0.00277611, -0.22222528, -0.22009014, -0.06723713, -0.11775099, -0.12085045, 0.05529193, -0.01761390, -0.31611958, -0.14658003, -0.00998229, -0.05753775, -0.11073741, -0.02464500, 0.16014178, 0.08653625, 0.12645897, 0.01043586, -0.04878934, 0.00144364, 0.33382219, -0.10641726, 0.03412456, 0.35064089, 0.37064230, -0.09712645, 0.05285976, 0.19545023, 0.13462350, -0.11708947, 0.00063917, 0.05833858, -0.06364166, -0.22910920, -0.21230610, -0.16002153, -0.26260453, -0.13661170, -0.21798177, -0.56918460, -0.49577418, -0.34374318, -0.33388081, -0.23012403, -0.05794353, -0.06406619, 0.03019024, 0.03516946, 0.55719543, -0.05466412, 0.33702564, 0.21093684, 0.28294331, -0.04143222, -0.06647521, -0.16989088, -0.03169319, -0.22114728, -0.06877344, 0.00071358, -0.29118109, -0.13201596, -0.36700183, -0.17833151, 0.08703742, -0.18373418, -0.18261532, -0.08172719, -0.20922007, -0.00660725, 0.17286901, -0.04321221, 0.08494761, -0.18354750, -0.04829437, -0.04217638, 0.08346194, -0.00538499, 0.04851528, -0.47211802, -0.21255656, -0.26485422, -0.61254221, -0.25955775, -0.13462347, -0.04857396, -0.16700420, -0.23266070, -0.31342942, -0.22592573, -0.17257662, -0.32122937, 0.06891714, -0.52671361, -0.36200801, -0.01247249, 0.13330020, 0.22437043, 0.02407883, -0.00211865, 0.06634872, 0.32299337, 0.03432822, -0.21207745, -0.25237101, -0.69217616, -0.34379780, -0.88615805, -0.43133539, -0.25051552, -0.45267868, -0.12207323, 0.01040463, 0.07156611, -0.08310096, -0.26254389, -0.13476476, -0.21639168, -0.29895934, -0.31984410, -0.18079372, -0.54407728, -0.18499723, -0.18436658, -0.00592953, -0.01947556, -0.18873125, -0.17708820, 0.21329129, 0.19806044, -0.01672378, 0.00100193, -0.30591717, -0.66219467, -0.48013285, -0.69396478, -0.21751578, -0.22960100, -0.36561626, -0.21936914, 0.14837037, -0.02127169, -0.16961187, -0.07036267, -0.11470861, -0.34352648, -0.44780716, -0.17358132, -0.45941728, -0.33684057, -0.00668101, -0.21340577, -0.07732171, -0.16621083, -0.51324505, -0.75937295, 0.00635357, -0.04087177, -0.04276141, -0.24049281, -0.38489780, -0.05430125, -0.30150357, -0.32933837, -0.17153303, -0.04570540, -0.08405518, -0.22078033, -0.01340575, -0.07090113, -0.14338848, -0.08268700, -0.06146944, -0.16049123, -0.35678619, -0.19387063, -0.52801365, -0.54079574, -0.15464681, -0.13144784, -0.03216599, -0.26031986, -0.39224645, -0.52508277, -0.10367592, -0.10353076, 0.06004567, 0.00128782, -0.27534217, 0.00865779, -0.21468775, 0.20890196, 0.15231501, 0.18216752, 0.02353226, -0.10678599, 0.01752969, 0.11183227, -0.00691730, -0.00022615, 0.06498719, 0.00681236, 0.08086241, -0.21458191, -0.49575958, -0.46994922, -0.31184641, -0.19776127, -0.20106807, -0.09857188, -0.60426176, -0.48273689, -0.20597790, -0.20518072, 0.01909141, 0.23573506, -0.16608502, 0.09321517, 0.29595172, 0.11599674, -0.15580301, 0.03741294, -0.07939624, -0.16740820, -0.04120430, 0.06408615, -0.23821431, 0.01306599, 0.10453683, 0.14519893, 0.05744867, -0.13338216, -0.10864978, -0.06243655, 0.25884810, -0.15537865, -0.36219358, -0.01855053, -0.84718239, -0.32639521, -0.51269454, -0.12034570, 0.07927282, 0.26743716, -0.16016150, 0.24313040, 0.33217818, 0.15402628, 0.00799600, -0.15995915, -0.13777849, -0.30650902, -0.31696531, -0.04153305, -0.03143455, 0.06202567, 0.31278315, 0.26911747, 0.20193297, -0.01293860, 0.09324355, 0.13154371, 0.24425884, -0.06287339, 0.09435435, 0.10270869, -0.06799906, 0.17528754, -0.33467010, 0.29363567, -0.00309843, 0.11529819, 0.10893107, 0.63246512, 0.41838148, 0.33456397, 0.12429851, -0.09238135, -0.16992331, -0.52052772, -0.31930029, -0.03773681, -0.08888557, 0.29526705, 0.25965181, 0.31477645, 0.19545791, -0.13170351, 0.11885104, 0.13663191, -0.05946863, 0.04376713, 0.00279146, 0.33890793, 0.05481234, -0.32976934, -0.17364326, 0.03097525, 0.00984021, 0.10083875, 0.22818480, 0.45425543, -0.25469038, -0.10195216, 0.05187263, -0.07929143, -0.18750377, -0.46075290, -0.09211224, -0.03225459, -0.14459842, 0.33892664, 0.27029103, 0.22061130, 0.15449730, -0.51983076, -0.17636670, -0.12929375, -0.11413070, -0.04662202, 0.19801398, 0.32372424, -0.02804390, -0.07584837, 0.15419225, 0.30226403, -0.04345082, -0.04477460, 0.22740468, 0.43017790, -0.71053106, -0.29333705, -0.15300253, -0.04528221, -0.26345864, -0.38677987, -0.04012683, 0.16927695, 0.15143751, 0.52839679, 0.31524256, 0.09384062, 0.06786793, -0.46094337, -0.27577299, -0.00564864, -0.04274305, -0.13704570, 0.23125692, 0.09110474, -0.00398925, 0.07563663, -0.21503192, 0.28682467, -0.08170229, 0.06354379, 0.32469174, 0.29221812, -0.10451893, -0.29859081, -0.09847831, -0.17164163, -0.24966349, -0.00271406, 0.42940646, 0.48959205, 0.14356902, 0.40900329, 0.38506538, 0.14421187, -0.17288890, -0.35100105, 0.04533860, -0.14065497, -0.15303363, 0.02858375, 0.29464209, 0.32971340, 0.43336815, 0.42689371, 0.21807998, 0.29695612, 0.00508323, 0.12337364, 0.17257929, -0.12774242, -0.35070601, -0.48965287, -0.21622545, -0.36216146, -0.21527889, 0.03888368, 0.38319883, 0.44539529, 0.14274512, 0.22851995, 0.39471969, 0.06501985, -0.21431573, -0.08491301, 0.06016174, -0.03980317, 0.05087261, 0.08925740, -0.07215514, -0.04326075, 0.10237283, 0.21619280, -0.01649624, 0.05283841, -0.02922723, 0.03648596, -0.01550661, -0.34427178, -0.42675349, -0.71381181, -0.53450209, -0.10972139, -0.10873143, 0.04535528, 0.10549622, 0.17687254, 0.22024015, 0.21260990, 0.22651982, 0.15225893, -0.10958121, 0.34276083, 0.42865306, -0.07490841, -0.05272757, 0.07194524, 0.12333558, 0.47900417, 0.49828285, 0.71532750, 0.13583833, 0.30206913, 0.10441408, -0.19155377, -0.10421839, -0.35409817, -0.59274966, -0.63426155, -0.53196752, -0.22286414, -0.27917278, 0.03705797, -0.02682372, 0.20373337, 0.29195586, 0.25667000, 0.23595251, 0.28426570, 0.21178843, 0.35389864, 0.34980938, -0.04053118, 0.22165723, 0.29121867, 0.23000617, 0.49227571, 0.28810501, 0.73677647, 0.60120296, 0.28348792, -0.06583895, -0.18185388, -0.35171324, -0.44439474, -0.20353840, -0.44687715, -0.12607327, -0.24478593, -0.21339542, -0.20371789, 0.04352219, 0.18735343, 0.22890499, 0.06734105, 0.24182214, 0.10610321, 0.20160189, 0.30147114, 0.40438023, 0.27100298, 0.31079903, 0.19911869, -0.15445344, 0.11136486, 0.01617714, -0.08439746, 0.53612655, -0.05127497, 0.11214167, -0.00362684, -0.19318552, 0.07230584, -0.26201546, 0.15088227, 0.12716570, -0.15922053, -0.11723476, -0.21278369, 0.01985140, -0.19780394, -0.24371321, -0.14676133, 0.02669821, -0.11060919, -0.13318512, -0.20383778, 0.06833861, 0.25528598, 0.38282722, 0.02633207, -0.25546700, 0.05532798, 0.04149539, 0.26283404, 0.68030882, 0.06657087, 0.18612537, 0.02637957, -0.01585848, 0.15942048, 0.07050043, 0.72042096, 0.26637587, -0.00101549, -0.09990472, -0.25746197, -0.43798149, -0.53972447, -0.46270347, -0.42963448, -0.30507308, -0.16661730, -0.24103567, -0.35172221, 0.00149697, 0.04696839, 0.34136993, 0.05574136, -0.28775918, -0.29072320, -0.50646222, 0.02041823, -0.00806243, -0.04752977, 0.06699345, 0.00874045, 0.19683349, -0.16768058, 0.12731823, 0.54819804, 0.24264279, -0.05872990, -0.29059336, -0.31592381, -0.49360931, -0.21711849, -0.01778134, -0.40301406, -0.66807652, -0.29599404, -0.24608476, -0.10406324, -0.15940586, 0.12748198, 0.35887811, 0.14311042, -0.08167783, -0.26158082, -0.33434030, -0.14056984, 0.23216434, -0.07213769, 0.02542111, 0.07363159, -0.03523329, -0.47951716, -0.39127421, 0.29451123, 0.26401734, 0.03782241, -0.02396145, 0.03784553, 0.03101069, -0.35067871, -0.54348147, -0.88893300, -1.03583956, -0.68143147, -0.70548368, -0.62039411, -0.38987643, -0.09325850, -0.27912968, -0.02066565, -0.37149334, -0.44208008, 0.03947634, 0.36752197, 0.29501784, 0.04032875, 0.03331132, -0.08314537, -0.07807253, -0.26899797, -0.41095138, -0.08914675, 0.06812573, -0.09349528, -0.25329694, -0.64704448, -0.69819403, -1.03774047, -0.69431829, -1.04975414, -0.97426534, -1.31721020, -1.27486563, -1.38817894, -1.36942065, -1.11330700, -0.64659500, 0.16086335, -0.06746978, -0.57512468, -0.20824882, 0.05092069, 0.17714037, -0.07375149, 0.04370452, 0.04446357, 0.02168878, -0.09933160, -0.00672998, -0.10819562, -0.19422521, -0.06099365, -0.26972938, -0.46056640, -0.39052212, -0.33991864, -0.56534386, -0.62620568, -0.77185780, -0.69125187, -0.58116335, -0.64102966, -0.56148154, -0.47834972, 0.03118310, 0.18837522, 0.29349521, 0.09752543, 0.04276212, -0.01303293, -0.06603089, 0.03505208, -0.05718936, -0.02119236, -0.07308903, -0.04656280, 0.02751461, 0.02978106, 0.06417231, -0.09226824, -0.09684802, -0.07432285, -0.38177124, -0.17734444, -0.13247246, -0.05591049, -0.05148764, -0.08698702, 0.04405063, -0.13536437, -0.05842445, 0.01786120, 0.22460611, 0.11153465, 0.04967138, 0.02834051, -0.01380572, 0.02781270, 0.01459003, -0.04892846, 
0.07321449, 0.06706708, 0.07110132, -0.08372828, -0.01732992, 0.07382586, 0.03649608, -0.02363796, -0.00709318, 0.02381970, -0.02840544, -0.06223492, 0.08857448, 0.05791235, -0.04418300, -0.03282462, 0.02391985, -0.00499164, -0.00660998, -0.05950481, 0.04442982, 0.03089871, 0.04356084, 0.07819495, 0.07074163, -0.02663003, -0.06582663, 0.04239977, -0.05810470, -0.06397670, -0.05452236, 0.08406404, 0.03971239, 0.09139361, 0.30696288, 0.30607530, 0.21133199, 0.39262515, 0.43714115, 0.12453430, 0.20335926, 0.29863104, 0.33896852, 0.06146375, 0.02877928, 0.06161716, 0.33299625, 0.55147707, 0.42701980, 0.29394487, 0.19749588, 0.06973559, -0.04747742, 0.04575906, -0.04747822, -0.05818300, -0.04702358, 0.08072182, 0.05387720, -0.30231807, -0.03522187, 0.30414259, 0.46762702, 0.45416388, 0.61037117, 0.28038970, 0.40461689, 0.24190925, 0.31284842, 0.49406219, 0.13059826, 0.20772333, 0.45236424, 0.29251161, 0.15019937, 0.83992893, 0.73857826, 0.37723905, 0.79260868, 0.39307272, -0.26380324, -0.35125673, -0.02033684, 0.03545107, -0.00947819, -0.07376010, 0.11170615, -0.09204167, 0.36566287, -0.27295795, -0.05713851, -0.09571210, 0.16194980, -0.08652009, 0.01703069, -0.07246428, 0.05955167, 0.31218922, 0.32822126, 0.35302931, 0.23999362, -0.14285541, -0.19896963, 0.34331742, 0.33774531, 0.36835533, 0.16354750, 0.08143377, 0.24446067, 0.01248473, 0.20128442, -0.06858493, -0.06474870, -0.05627942, 0.04783616, 0.20748691, -0.06147738, -0.35092679, -0.56337392, -0.60284340, -0.71282476, -0.26850781, -0.31993055, -0.20803876, -0.09453218, -0.05717859, 0.04531784, 0.09214745, 0.09500545, 0.13484146, 0.05528990, 0.42461497, 0.22330968, 0.38901889, 0.16499251, 0.54089886, 0.48239127, 0.19852604, 0.06699093, -0.16088460, 0.06543464, 0.01711440, 0.20889196, -0.02850757, -0.34148315, -0.46575809, -0.39775762, -0.36824009, 0.04933016, -0.03345336, -0.23354325, -0.21047167, -0.08504472, 0.13635752, -0.06639475, -0.35379007, -0.29942065, -0.14177969, 0.06009182, 0.07286372, -0.02381118, 0.04946055, -0.05892752, 0.03605438, 0.08851542, -0.19948743, 0.08780596, 0.12771916, -0.06541383, 0.01282428, 0.29839140, -0.26911387, -0.07302563, -0.04677192, -0.34008738, -0.26818812, -0.02605625, -0.27832124, -0.18716288, 0.03232764, 0.06749492, 0.04219988, 0.11281844, -0.05284650, -0.20320305, -0.20445247, -0.16139340, -0.23793747, -0.23629737, 0.10608355, 0.12580343, 0.06538121, -0.01706980, -0.06637666, 0.17903185, -0.15328270, 0.10980008, 0.47570193, 0.18607171, 0.07959536, -0.36761132, -0.12883045, 0.02766342, 0.13508883, -0.01289149, -0.07127728, -0.12565604, -0.01053968, 0.02122506, -0.14851086, -0.02927922, -0.21763116, -0.04135237, -0.08002038, -0.07977492, -0.26358315, -0.35518706, -0.09179123, 0.01672844, 0.25002742, 0.27591234, 0.27736455, 0.05300700, -0.07552250, 0.35600963, 0.61948544, 0.48174870, 0.16891268, -0.30560413, -0.09422123, -0.11019278, 0.13144723, 0.17391530, 0.02293700, 0.11534973, 0.16035239, 0.14668868, 0.03810384, -0.06531665, -0.00861663, -0.30769777, -0.28549585, -0.05322314, -0.10576790, 0.03281994, -0.08509121, 0.01073069, 0.37988046, 0.47155571, -0.00559965, -0.52421314, -0.29354677, 0.15044901, 0.74021113, 0.02652076, 0.09629612, -0.08197311, -0.11834847, 0.11567658, 0.13784797, 0.06938889, 0.23929670, 0.12135311, 0.33164638, 0.45678419, 0.31308445, 0.05791737, -0.13659114, -0.22746666, -0.16721222, 0.05005385, 0.07011878, 0.06554487, 0.29456884, 0.19518043, 0.40844655, 0.51937032, 0.50560862, 0.12372635, 0.33853388, 0.12588497, 0.55542529, 0.32905823, -0.16813469, 0.24006175, -0.08036789, -0.17010474, -0.07524508, 0.21141227, 0.33584532, 0.23463836, 0.54455882, 0.60584646, 0.37578398, -0.13251860, -0.34253770, -0.36831236, -0.06785373, -0.03291636, 0.22201936, 0.18996635, 0.31403303, 0.24612789, 0.28073984, 0.50512725, 0.85618037, 0.69083244, -0.12349286, 0.16029724, 0.45610037, 0.61583447, 0.15965608, 0.11569668, 0.14820535, -0.01530478, 0.21496560, 0.15098569, 0.32733485, 0.17387442, 0.54263455, 0.57212287, -0.05955398, -0.78014636, -0.68671757, -0.19543448, 0.16783883, 0.17547944, 0.11306135, 0.03208654, 0.10201985, -0.02826655, 0.14175202, 0.26664859, 0.33029291, 0.36175767, 0.14640491, -0.00673302, 0.39686704, 0.55613238, 0.21305333, -0.10874725, 0.28807068, 0.31957626, 0.36287242, 0.38503355, 0.35176829, 0.35818982, 0.54173303, 0.22579180, -0.42580575, -0.74239957, -0.41577694, -0.02586929, 0.05080603, 0.10105012, -0.09441005, -0.11593886, -0.29139844, -0.01187151, -0.06619538, 0.01312279, 0.06875414, 0.26368099, -0.19282916, -0.00892308, 0.10581319, 0.78813529, 0.02181839, -0.09462029, 0.15956940, 0.34628138, 0.37589014, 0.34691504, 0.28309545, 0.31293446, 0.34325379, -0.04462830, -0.71413398, -0.60152984, -0.25247273, -0.14176555, -0.12124867, -0.20688821, -0.28151038, -0.36654529, -0.32856554, -0.17600408, 0.09205560, 0.19195569, -0.26561415, -0.19668774, -0.18953307, 0.32087016, 0.01613078, 0.70042485, 0.11625614, -0.02024913, 0.43257368, 0.30657101, 0.22481777, 0.36094221, 0.18394385, 0.23361297, -0.11225492, -0.53896207, -0.82460815, -0.41352233, -0.07709050, -0.31477091, -0.33225912, -0.36875382, -0.65413213, -0.47094473, -0.38409546, -0.09656834, 0.25610933, 0.56123382, -0.47433582, -0.48096085, -0.08829324, 0.29532513, -0.15422948, 0.42482430, 0.01357015, -0.11316165, -0.02780563, -0.13329729, 0.06454448, -0.07696644, -0.01179359, -0.19287594, -0.33615148, -0.76903141, -0.71483082, -0.47611552, -0.23453569, -0.36383846, -0.25859421, -0.41330370, -0.55226308, -0.55383569, -0.12801412, -0.20123264, 0.22218020, 0.25247267, -0.52523404, -0.82015008, -0.26728395, -0.04202596, -0.16191952, 0.06310722, -0.11378869, -0.26444256, -0.32479140, -0.16226584, -0.17234965, -0.26049483, -0.32809877, -0.37617239, -0.72047085, -0.78588223, -0.54773444, -0.17263485, -0.00278261, -0.16266160, -0.17879556, -0.37180007, -0.24796143, -0.24618948, -0.18430695, -0.35943839, -0.20042965, -0.09924967, -0.65956789, -0.97327125, -0.33267277, -0.02119467, 0.01996790, -0.05450630, -0.25247782, -0.18293194, 0.00385551, -0.17919372, -0.11123332, -0.24117477, -0.49382132, -0.40097043, -0.36630872, -0.49537465, -0.29329818, -0.16149683, -0.07654789, 0.01090874, -0.03200180, 0.13990672, -0.14558320, -0.08655789, -0.24760689, -0.09517536, 0.02958798, -0.30715647, -0.46326402, -0.55306566, -0.31214800, 0.35042229, 0.07136760, 0.15074228, -0.28942937, -0.21575816, -0.11422300, 0.05402354, 0.18130435, -0.00579886, -0.22653490, -0.29282516, -0.41950023, -0.32707834, -0.24955583, -0.04914762, 0.03919928, 0.10778952, 0.30115837, 0.22116430, 0.17079264, 0.13756755, 0.01296060, 0.11137684, 0.14113617, 0.09718450, -0.22129378, -0.51619887, -0.39946762, -0.00461008, 0.49420068, 0.33854270, -0.21478064, -0.00300583, -0.13095385, 0.28393406, 0.05933281, 0.41607544, 0.18381886, 0.06037034, 0.04163431, 0.06023360, -0.08231298, 0.08732042, -0.01951229, 0.11551044, 0.20474571, 0.09447329, 0.14637005, 0.25525668, 0.02586743, 0.07707319, 0.29929262, 0.36931333, -0.01503472, -0.64471960, -0.17350250, -0.01914626, -0.00312732, 0.15809253, -0.28966004, 0.05437658, -0.08880817, 0.03255470, -0.13955124, 0.11428345, 0.31505638, 0.05479252, 0.20523097, 0.28305981, 0.12032431, -0.04192456, 0.03711388, -0.12807840, 0.05103501, 0.02943905, 0.23052523, -0.01969829, 0.11917060, 0.20911321, 0.03945143, 0.13143763, -0.34689960, -0.23299237, 0.01451483, 0.00163005, -0.09830534, -0.58592671, -0.09258065, 0.24079950, 0.25883722, 0.12163100, 0.08890101, 0.06441652, 0.03338469, 0.08586497, 0.23912837, 0.17587827, 0.09608915, -0.02861971, -0.07202864, -0.13821726, -0.11846538, 0.08377346, 0.07164861, 0.27568275, 0.35727167, 0.15349288, 0.07040173, 0.02270407, -0.40211177, 0.04709321, -0.08761240, 0.00506400, -0.05575450, -0.52441537, -0.24784487, -0.14492936, 0.09362192, 0.00600914, 0.13245615, 0.04070080, 0.07473176, 0.10897572, -0.14356312, -0.22980097, -0.07838139, -0.22230646, 0.02959995, 0.09116375, 0.14749983, 0.16274901, 0.35272536, 0.20506421, 0.27606127, -0.00500565, -0.11474344, -0.15203738, -0.20357886, 0.28320366, -0.11388441, 0.01623905, 0.07891671, -0.23264369, -0.30704409, -0.36034083, -0.11413501, -0.04523952, -0.10588187, -0.12545033, 0.32609460, 0.14935333, -0.02742814, -0.06215103, -0.21787393, -0.00052541, 0.13221110, 0.16949749, 0.03139971, -0.00464878, 0.17571968, 0.17619850, 0.24707189, -0.06094882, -0.30407318, -0.14122038, 0.17641456, 0.26503852, -0.01552745, 0.02572181, -0.04326882, 0.09640565, -0.01225826, 0.00233112, 0.15667193, -0.29521021, -0.25464591, -0.09169160, 0.06776836, 0.04567916, -0.02506565, 0.05763317, 0.07701837, 0.16981195, 0.04036861, -0.08753873, 0.14383219, 0.27906904, 0.31776947, 0.13437212, 0.16348363, 0.03466195, -0.38941258, -0.07682139, -0.05198577, -0.05779281, 0.08117842, -0.07221725, -0.00736028, -0.34603947, 0.29257116, 0.14659749, -0.23336278, -0.32015699, 0.01664879, 0.33582586, 0.13738936, -0.13362823, 0.14576370, 0.27586329, 0.01041247, -0.01852349, 0.29893070, 0.23197052, 0.25484577, 0.16052946, 0.16693152, -0.16465947, 0.17872043, 0.37531576, 0.25111052, 0.28640565, -0.11707237, -0.09820187, -0.03539200, -0.00662036, 0.08023354, -0.04029049, 0.02744181, -0.19887498, -0.33719522, -0.30218139, -0.10069812, -0.09666049, -0.22150128, -0.23346168, 0.06056972, 0.06375438, 0.20174409, -0.03381485, 0.40009490, -0.02415584, -0.31615996, 0.13710190, 0.42116678, 0.16292723, 0.13118613, 0.40345833, -0.11696493, -0.09920876, 0.11394140, -0.04126773, 0.02742390, 0.05776245, -0.00797254, 0.04260702, 0.07412861, 0.11359114, 0.40775737, 0.50291491, 0.29115137, 0.48814043, 0.54854780, 0.66356879, 0.23591377, 0.14590648, 0.80148023, 0.12897514, 0.13281128, 0.10576296, 0.34550595, 0.08356716, -0.13551265, -0.15305611, 0.07901786, 0.18443608, 0.29572582, -0.08128916, 0.05329555, -0.07206016, -0.05730548, 
-0.07600379, -0.01177410, -0.04086309, -0.07765590, -0.05644671, 0.05736937, 0.00042163, 0.04965466, -0.08025364, 0.01498591, -0.02860407, -0.03955935, -0.04240096, 0.04966193, -0.04852157, 0.00677945, 0.02000051, -0.00507452, -0.00509636, -0.04859200, 0.07822376, -0.07221235, 0.07244972, -0.01480893, -0.03900098, 0.07273857, 0.05795937, 0.04490776, 0.01958445, 0.04329977, 0.00460134, 0.06175988, 0.04344079, 0.01165074, -0.07119575, 0.06611551, 0.05262514, -0.07452490, -0.04793493, 0.04274633, 0.02949205, 0.01316213, 0.03512398, -0.05692680, 0.01311933, 0.10220326, -0.09868893, -0.02493710, -0.02907418, -0.10718402, 0.00653409, 0.04906224, 0.04971609, 0.07209177, -0.01770618, 0.00542367, 0.03180529, -0.04742371, 0.02448377, -0.10762460, -0.02003151, -0.00445449, -0.12911122, -0.03781697, -0.30984020, -0.46524674, -0.43365982, -0.36355069, -0.39678910, -0.21711151, -0.38604450, -0.15619123, 0.43788031, 0.42811057, 0.47354907, 0.42677438, 0.28999445, 0.15784931, 0.25445995, 0.16329321, -0.15283622, -0.02241608, -0.01631626, -0.00308695, 0.04424632, -0.07681723, 0.03079090, -0.08565205, 0.07583562, -0.23035772, -0.30053401, -0.34892571, -0.06548948, 0.00458823, -0.04232220, -0.51505560, -0.35589960, 0.01262814, 0.12393904, 0.09927716, 0.29979354, 0.22825620, 0.54072744, 0.71411097, 0.32425052, 0.01606244, -0.21161069, -0.38602698, 0.20778249, 0.16963665, 0.36423224, -0.07825983, 0.07597122, -0.06791248, -0.09111044, 0.07419687, -0.57418138, -0.59440905, -0.49817875, -0.29799369, -0.27540123, 0.01422739, -0.02473372, -0.09023912, -0.06459535, -0.16802421, 0.05255048, 0.16673699, 0.29062137, 0.44070458, 0.49327892, 0.17124286, -0.03428543, 0.22991048, 0.31762382, 0.29327804, 0.68216729, 0.59519696, 0.38780361, 0.08033097, 0.03548877, -0.07014617, -0.13838038, -0.17997827, -0.68649250, -0.73879802, -0.53391159, -0.02769006, -0.05707382, 0.06706181, 0.17982997, 0.20752430, -0.07854401, 0.10902714, 0.09574851, -0.08274165, 0.00736525, 0.11928668, 0.12322902, 0.08129556, -0.04197281, 0.20245294, 0.27304262, 0.40856668, 0.55080879, 0.49221170, 0.15011172, 0.17857589, -0.01677508, -0.04489193, 0.19629648, -0.51451826, -0.42766023, -0.30884230, -0.17229612, -0.00762914, 0.02719419, -0.05864339, 0.17122719, 0.04642749, 0.10334969, 0.13861884, 0.17404896, 0.18001468, 0.20685734, 0.16445015, 0.22672413, 0.45091745, 0.30944476, 0.39952874, 0.33348960, 0.03418069, 0.41912410, 0.71087092, 0.40027991, 0.05560314, 0.01117306, 0.01886449, -0.07075815, -0.48350909, -0.80507821, -0.27978662, -0.20157504, 0.13076791, -0.04801703, 0.04744792, 0.08412029, 0.29986912, 0.16132814, 0.18270740, 0.15717427, 0.16048622, 0.36027277, 0.32708243, 0.38399169, 0.42040274, 0.52266723, 0.42507145, 0.18573140, -0.01520707, 0.05248727, 0.35607225, 0.58214313, 0.30105171, 0.06226323, 0.02809161, -0.44606838, -0.68375081, -0.86856389, -0.28036636, -0.17361878, -0.11489247, 0.00306851, 0.10791712, 0.13079017, 0.39573732, 0.21643013, -0.11482984, -0.08618160, 0.05996019, 0.13596958, 0.17384011, 0.27255088, 0.02786135, 0.01335285, 0.16900733, -0.04062309, -0.04974204, 0.05400953, -0.04569924, 0.64885861, 0.21072951, -0.03035715, 0.04693496, -0.59859848, -1.01966500, -0.42701930, -0.19250667, -0.11847012, -0.06766328, 0.03860625, 0.02711254, 0.22975045, 0.40599144, 0.23995100, -0.07962362, -0.44240549, -0.61390036, -0.63844478, -0.49851021, -0.43856931, -0.67780566, -0.84637606, -0.34989849, -0.44058844, -0.43932489, -0.03402544, 0.05950161, 0.46612003, 0.24754342, -0.06774290, -0.13013460, -0.28849143, -0.89981592, 0.08202518, 0.05529122, -0.15517865, 0.08936743, 0.41835022, 0.35498503, 0.30098474, 0.20243715, 0.13682419, -0.28757882, -0.65486562, -0.71505201, -0.62011606, -0.55523902, -0.54661977, -1.17518127, -0.99486798, -0.55915225, -0.82384527, -0.95913237, -0.28524229, 0.00302612, 0.44894981, 0.24878223, -0.12354130, -0.15720618, -0.41305101, -0.96660787, 0.16854331, -0.05882367, 0.03950580, 0.06431020, 0.30384564, 0.08546453, 0.20629285, -0.03695549, -0.18775828, -0.30816314, -0.54540819, -0.39589828, -0.18522292, -0.02524219, -0.02543681, -0.19002508, -0.65137661, -0.49863002, -0.80315560, -0.84368020, -0.35058320, -0.28730306, 0.34327278, 0.20599155, 0.01369181, -0.21823311, -0.35823819, -0.39008859, 0.12050682, 0.05498783, 0.30567074, 0.15917619, 0.11686277, -0.00079587, -0.02355697, -0.08143300, -0.21388745, -0.39698932, -0.44478050, -0.32468840, -0.23519669, 0.06619450, 0.20137613, 0.14154992, -0.02153813, -0.37469488, -0.52012742, -0.30283436, -0.12745169, -0.55058688, 0.17949760, 0.11663935, -0.05797425, -0.07043799, -0.41310683, -0.08099879, 0.19524664, 0.13252799, 0.20265870, 0.19872929, -0.05668379, -0.21029475, -0.17575411, -0.22775322, -0.09995151, -0.25162861, -0.10845875, -0.19857353, -0.39237189, -0.20491768, -0.25416809, 0.13865297, -0.07397769, -0.08208948, -0.30938438, -0.15882750, 0.15867896, -0.12047782, -0.29744944, -0.03052033, 0.25957462, -0.14138313, -0.37896419, -0.21185572, 0.08935577, 0.09482563, 0.10124288, -0.06856715, 0.09745336, -0.13111106, 0.03981652, -0.22201112, -0.32508636, -0.26159009, -0.24772015, -0.16360985, -0.34909931, -0.34229445, -0.31199756, -0.14816101, -0.00235523, 0.13123837, 0.08730444, 0.30008730, 0.33080089, 0.00114212, -0.41226715, 0.00430368, 0.12261900, 0.04205922, -0.02075066, -0.34219119, -0.21507870, -0.32866183, -0.27214220, -0.27795509, 0.01360513, -0.06908006, 0.17988488, -0.01632508, -0.04419776, -0.22887215, -0.26597145, -0.45193040, -0.28975832, -0.28947628, 0.00573052, -0.06674887, -0.17116193, 0.25351325, -0.06896269, 0.14559147, 0.18540515, -0.24820811, -0.50107044, -0.03206031, -0.08641636, -0.00196151, -0.41859114, -0.26492265, -0.49380943, -0.33727482, -0.22493638, -0.10910349, -0.19238587, -0.20670700, -0.07944039, -0.10502914, 0.07067069, 0.07421003, -0.15532513, -0.34647083, -0.43657142, -0.18329355, -0.02598244, 0.07097805, -0.04054891, 0.17791513, 0.23054920, -0.01661775, 0.01826583, -0.24442667, -0.55849254, 0.00157638, 0.02291270, -0.07742102, -0.12619433, 0.06772206, -0.20916381, -0.21614701, -0.09117458, 0.03984354, -0.16356035, -0.32808712, -0.00843554, -0.04899417, -0.00315537, -0.25450435, -0.48059374, -0.57306534, -0.52439874, -0.13443373, 0.15182008, 0.09756149, 0.08763095, -0.01278945, 0.20018518, 0.09313780, -0.01340462, -0.31570727, -0.59285033, -0.24474713, -0.09546041, -0.15745486, -0.06348179, 0.12157676, 0.04521259, -0.38456297, -0.30522028, 0.00985852, -0.09277838, -0.22054783, -0.26373824, -0.34994566, -0.48874703, -0.71319598, -0.79796141, -0.55365014, -0.13983621, 0.05006407, -0.02129279, -0.07382499, 0.03317589, -0.02593980, 0.15539287, -0.07750776, -0.03866926, -0.18575893, -0.38135085, -0.29477799, 0.06780922, -0.16621108, 0.41207412, 0.12154618, 0.22317183, -0.16464233, -0.05313164, -0.05713600, -0.00875126, -0.26422560, -0.34831780, -0.23620370, -0.31684002, -0.59134513, -0.41675770, -0.16722399, -0.03777608, -0.09997708, -0.12675475, -0.13417372, 0.04255940, 0.05221270, 0.02980354, 0.02688644, 0.23041739, 0.05330104, -0.32495502, -0.18163931, -0.03616616, -0.02574934, 0.18573906, 0.19855699, 0.32624781, 0.04036480, -0.04046193, -0.23933257, 0.03461201, 0.11171529, -0.07957198, 0.13821584, -0.06455678, -0.04276643, -0.12609267, 0.16453423, 0.20747744, 0.00081298, -0.12532355, -0.03062614, -0.04839793, -0.09996796, 0.14839801, 0.06437813, 0.16072860, 0.18945260, -0.19508868, 0.06960967, -0.03914769, -0.23752391, -0.31679463, 0.01972645, 0.24675782, 0.21675076, -0.02856927, 0.09573764, 0.02456320, 0.10209361, 0.17475407, 0.20033269, 0.33884063, 0.21041995, 0.34726816, 0.27818775, 0.15015410, 0.02388057, 0.03780495, -0.13397636, 0.14908798, 0.20512873, 0.06881423, 0.35034379, 0.21600026, 0.35067919, 0.14498240, 0.09003167, -0.06298307, -0.08358826, -0.16478623, 0.05090883, -0.25002697, 0.16260122, -0.13811353, -0.10867730, -0.08711825, 0.06642161, -0.01980506, 0.17530224, 0.25475466, 0.11676732, 0.10421950, 0.18822418, 0.23909637, 0.08055741, -0.01352558, 0.07172554, 0.04862177, 0.15056321, 0.22085476, 0.36409846, 0.20648196, 0.32349795, 0.40151012, -0.01259753, 0.02068537, -0.03730355, -0.27021480, 0.00703213, 0.02425745, 0.15314865, 0.07651848, -0.08806510, -0.14315912, -0.04807473, 0.03772853, -0.01593449, 0.16373836, 0.18648484, 0.10072041, 0.10675153, 0.16207722, 0.01886765, -0.08233432, -0.11071008, 0.04789926, 0.06428543, 0.12726812, 0.24750645, 0.25191197, 0.28825831, 0.42150450, 0.00214510, -0.06377307, 0.04749881, -0.19566661, -0.18590078, -0.18878677, 0.10260760, 0.18981987, 0.16831829, -0.02171365, 0.05805016, -0.05993333, -0.06315214, 0.11236127, 0.10283961, 0.03695784, -0.04255540, -0.04521624, 0.15621622, 0.26303479, 0.14606448, 0.05630141, -0.19594488, 0.01319795, -0.08290139, 0.29677260, -0.10690644, -0.07148568, 0.02006250, -0.03812569, 0.07681971, -0.01293975, 0.10281519, -0.31683788, -0.43410975, 0.15336888, 0.37452248, 0.34940803, 0.36070210, 0.15483074, 0.30665833, 0.29862693, 0.20895237, -0.07052206, 0.13524961, 0.23960531, 0.36372674, 0.31321198, 0.28537059, 0.21810395, 0.32754534, 0.59557801, 0.58830690, 0.46439973, 0.02102719, 0.00157241, 0.04294034, 0.02948132, -0.00792356, -0.05407008, 0.06293776, -0.03450238, -0.41146499, -0.49861428, -0.73099709, -0.85770011, -1.00749409, -0.51706761, -0.23417069, -0.28613675, -0.07938794, -0.16143082, 0.06329229, -0.23462941, -0.38520262, -0.02320171, 0.14735538, 0.12701482, 0.01669717, 0.31975493, -0.09009500, -0.00045400, -0.03649448, -0.00159289, -0.04462394, -0.05672377, 0.02275667, -0.03893512, -0.03518995, -0.04777169, -0.00331422, -0.03940713, -0.04843880, -0.13793652, -0.14178623, -0.09575833, -0.08945621, -0.19421963, -0.28105885, -0.41587916, -0.44720897, -0.37006405, -0.53125000, -0.61577529, -0.40395203, -0.12658837, -0.24112943, -0.03680261, -0.11647670, 0.01816255, 0.07678495, -0.07087997, -0.08127372, 
0.04902443, 0.04542761, 0.08404370, 0.07494307, -0.01372587, -0.07672145, -0.06859048, 0.04064091, 0.05345789, 0.03642493, -0.00258468, 0.00707701, 0.13174574, 0.04973154, -0.17980300, -0.05678109, -0.01047479, -0.03073966, -0.04062745, -0.03418230, 0.04158155, -0.00882474, 0.06038573, 0.03818319, 0.07593945, -0.01392140, 0.06962418, 0.06493521, -0.03564566, -0.05555476, 0.05999368, 0.06968794, 0.05455667, -0.07728361, -0.04123213, 0.19917150, 0.33106598, 0.42370790, 0.38959587, 0.48613340, 0.44104311, 0.47946066, 0.52310491, 0.17755251, 0.10903987, 0.21165860, 0.43421012, -0.04855344, 0.10027775, 0.04599374, -0.24501996, -0.20736691, 0.04896041, 0.04064909, 0.01109199, -0.00550824, -0.01946510, -0.05125128, 0.05439702, -0.05252341, -0.02285993, -0.01009953, 0.10325356, 0.17827848, -0.00199558, -0.37956733, -0.19391954, 0.05275941, -0.18958095, -0.02068302, 0.34896788, 0.25036108, 0.05590083, 0.04714891, -0.39659077, -0.21490739, -0.18006083, -0.02789529, 0.21318492, -0.20491473, -0.07536035, -0.07003588, 0.03620116, 0.04519761, 0.02904724, 0.07265239, -0.05967069, 0.03906482, 0.39513707, -0.27442122, -0.13736868, -0.00917315, -0.16672352, 0.01871797, 0.09457684, 0.38123566, 0.06742492, 0.28375760, 0.42178667, 0.21222772, 0.04171696, -0.14631489, -0.23316163, -0.01580885, -0.05814186, 0.34992695, 0.06767730, -0.25047302, 0.07811471, -0.10489316, -0.06682949, -0.04347123, -0.06743479, 0.07280012, -0.15293282, 0.27041247, 0.15140374, -0.13297008, -0.12276938, -0.01781067, -0.15704851, 0.30746365, 0.15577355, 0.27586460, 0.30269548, 0.39814091, 0.11749361, 0.04028350, 0.19321154, -0.01771051, -0.17811517, 0.09189404, 0.31087577, 0.43967035, 0.27468207, 0.16314118, -0.14510950, -0.24875399, -0.24815248, -0.17431091, 0.03384236, -0.08343530, -0.22177966, -0.03217547, -0.07254178, 0.12311876, -0.05669198, 0.10109645, 0.37460148, 0.52839512, 0.54000992, 0.34921336, 0.15262975, -0.26101619, -0.26935542, -0.48808464, -0.20331615, -0.17691068, -0.02584443, -0.03567475, 0.06637946, 0.06860861, -0.15376343, 0.06446224, 0.03046616, -0.29769883, -0.24245678, 0.15468769, 0.07081456, 0.07896905, -0.13546428, -0.23464997, -0.06021745, 0.27156863, 0.11582338, 0.30144000, 0.33281600, 0.28856367, -0.00000436, 0.02420933, -0.29643270, -0.57533133, -0.85952276, -0.60201013, -0.11347643, -0.03381488, 0.07605855, 0.23760144, -0.01295470, -0.10024933, -0.00361043, 0.21201903, -0.07005455, -0.12690461, 0.11365921, -0.16937914, 0.04495334, 0.28559771, -0.24866919, -0.10462742, -0.27674815, 0.16511866, 0.10625749, 0.29475930, 0.11057274, 0.17552991, 0.03337105, 0.12777935, -0.22550599, -0.72799790, -0.79093081, -0.34276488, 0.13693553, 0.31553933, 0.32933059, 0.21231529, -0.05246306, 0.06633674, 0.05093740, 0.31544343, 0.13386481, -0.23397300, -0.21237606, -0.30806312, 0.31174099, 0.27847311, 0.03049238, 0.02231491, -0.18487939, 0.11669428, 0.12894441, 0.20250116, 0.22238347, 0.25369880, 0.24819143, 0.21654354, -0.12913562, -0.47346127, -0.67931134, -0.10734706, 0.21752368, 0.29687646, 0.10489584, -0.08642185, 0.14209393, 0.08146302, -0.04199892, 0.17846587, -0.00434568, -0.18080205, -0.40643179, -0.36913881, -0.12879825, 0.15625519, -0.12532279, 0.02630045, -0.02273934, -0.01734466, 0.06022282, -0.08224336, 0.14388581, 0.20131916, 0.33919290, 0.22262041, -0.15246035, -0.67235744, -0.93860811, -0.28146455, 0.43743330, 0.14712249, -0.04684479, -0.22907686, -0.00601600, 0.10165545, -0.25584832, -0.35089895, -0.16330351, -0.05456029, -0.44112659, -0.01163881, -0.05965992, 0.37570813, -0.07391534, -0.00596053, 0.22625521, 0.11607355, -0.08009375, 0.01079643, 0.23385628, 0.33175734, 0.30830887, 0.32495534, 0.03943005, -1.03894806, -1.11711836, 0.16894962, 0.18549131, 0.17786048, -0.12027414, -0.04010494, -0.04072431, 0.17129688, -0.16388823, -0.59417659, -0.00263024, 0.30315802, -0.14265047, -0.00710655, 0.14305334, -0.15895312, -0.11909454, 0.14777823, -0.03645640, 0.00044677, 0.12439208, 0.02019441, 0.21494071, 0.36072925, 0.50167596, 0.50271201, -0.19054914, -1.11078012, -0.53037184, 0.13672663, 0.31482610, 0.14576432, 0.02584001, -0.07414924, 0.02150386, 0.20423752, -0.03275648, -0.30186129, -0.14616470, 0.13082169, -0.15168227, 0.07292285, 0.16444515, -0.03288256, -0.06282872, 0.09545356, -0.27193108, -0.00852660, 0.24301535, 0.10555579, 0.22561507, 0.32761985, 0.42970541, 0.46261218, -0.47831598, -0.88368326, -0.62677491, 0.08451020, 0.10296668, -0.08354383, -0.00688613, -0.09709272, 0.19805750, 0.16060995, 0.15956393, -0.01845204, 0.27569425, 0.03507513, -0.06126812, -0.07488076, 0.06194041, 0.14485145, -0.21596260, -0.01286079, 0.04893183, 0.14413524, 0.11694419, 0.09170742, 0.22219226, 0.26349798, 0.22803341, -0.06835855, -0.66294283, -0.78343159, -0.36893067, -0.05663550, -0.03775163, -0.05768108, 0.01962852, -0.09007832, 0.04048233, 0.22801743, 0.29609925, 0.32482439, 0.45339936, 0.14273895, -0.75865740, -0.28390086, 0.00337650, 0.04813458, -0.02419718, -0.09391668, 0.14626417, 0.34239441, 0.05891338, 0.15338407, 0.16732058, 0.31154031, 0.07390790, 0.02832267, -0.33646291, -0.34303555, -0.13082010, 0.05185529, -0.12868951, 0.04714447, 0.04135323, 0.02005396, 0.11837633, 0.17850122, 0.12514935, 0.42275009, 0.88436955, 0.34706959, -0.11214060, -0.17397717, -0.05170925, 0.31142154, 0.41062158, 0.16817923, 0.37132710, 0.29603845, 0.10903291, 0.24298324, 0.05541968, 0.08986699, 0.01143616, 0.02655901, -0.10031010, -0.03515551, -0.04940898, -0.09630136, -0.28034213, -0.24631086, -0.12747565, -0.12270192, -0.06347296, -0.03379881, 0.08897550, 0.20431143, 0.30962014, 0.03704646, 0.01684531, -0.36440274, -0.08246257, 0.17397925, 0.18039773, 0.23930851, -0.03435522, 0.17353937, 0.23238504, 0.11118700, 0.09335319, 0.02897106, -0.07339606, -0.17877430, -0.27799013, -0.45786068, -0.10808916, 0.00119103, -0.07428302, -0.39334500, -0.26593679, -0.01700476, 0.08167268, 0.21447711, -0.00079858, -0.06749770, 0.09728885, 0.31799337, -0.27326858, -0.28116179, 0.00297956, 0.05354002, 0.21752883, -0.22907402, 0.09709372, -0.00287823, -0.15295525, -0.20273694, -0.02899907, -0.08359479, -0.08700794, -0.21080098, -0.43409765, -0.45555586, -0.12632497, -0.02209017, -0.04780992, -0.23290178, -0.25496876, -0.23512055, 0.10148404, 0.24685542, 0.14548899, 0.16837995, 0.50819385, 0.27625880, -0.18092330, -0.37706214, -0.21951407, -0.03806471, -0.02372966, -0.28571609, -0.04280424, -0.16625278, -0.30441877, -0.28298905, -0.05876837, 0.08200022, 0.02724699, -0.21092042, -0.21397245, -0.22085330, 0.10764136, -0.14658985, -0.09607593, -0.08444081, -0.10017836, 0.06792554, 0.23816939, 0.37518156, 0.25192177, 0.05369654, 0.54749799, 0.16049658, -0.47971934, -0.30338153, 0.00570119, -0.03655265, -0.21683043, -0.19497146, -0.12896019, -0.12186603, 0.09894050, 0.13325031, -0.02516090, 0.07349190, -0.13204041, -0.29815805, -0.51835835, -0.05327073, 0.27294245, 0.02245431, -0.23024271, 0.00210119, -0.06408130, 0.04776963, 0.26013947, 0.36328179, 0.20557451, -0.00526971, 0.28089383, -0.11392264, -0.40939111, -0.00982485, 0.02487598, -0.00240671, -0.24701674, -0.22381701, -0.24971533, -0.35073614, -0.22371639, 0.00503715, -0.07126784, -0.15883259, -0.23181237, -0.21860147, -0.07181615, -0.08143504, 0.02118334, 0.04658954, -0.08168536, 0.05892407, 0.07640209, 0.00999195, 0.14410600, 0.25982979, -0.00177107, -0.16432376, 0.04654766, -0.16346665, -0.22191362, 0.08064461, 0.05414426, 0.02207991, -0.27534097, 0.08578802, 0.02632570, -0.31267256, -0.21477634, -0.11643802, 0.06977117, -0.12077646, -0.13227959, -0.06067438, -0.12936680, -0.09276234, -0.10108715, -0.04872311, 0.00363467, 0.03545139, 0.04229290, -0.01865537, 0.26506877, 0.18318754, -0.06731370, -0.08514152, -0.02405961, -0.16638179, 0.32482171, 0.06438503, 0.07208280, -0.05787688, -0.24134864, -0.31627283, -0.05667043, 0.20039687, -0.12411605, -0.11038893, -0.03547536, -0.14009541, -0.22376919, -0.09526435, -0.25921568, 0.10372820, -0.05537906, 0.06930169, 0.05571731, 0.08408637, 0.10112183, 0.12749392, 0.06475414, 0.20604908, -0.27940759, -0.38377449, -0.57116783, -0.05597870, 0.36849207, 0.01213478, -0.02974749, -0.01183693, -0.22523849, -0.27590352, -0.23581950, 0.02680249, 0.02144960, -0.17888403, -0.39046949, -0.35357979, -0.03447933, -0.08158984, -0.07102435, 0.14192891, 0.28077275, 0.10246532, 0.22113882, 0.22607793, 0.12340204, 0.05833247, -0.13442379, -0.10365934, -0.51011735, -0.47100720, -0.60736573, -0.05773532, 0.42102519, -0.08042148, -0.06522822, -0.06439763, 0.16865413, 0.34014136, 0.29682386, 0.34487236, 0.05416186, -0.09485715, -0.39546543, -0.25689882, -0.04415726, 0.07787447, 0.16483268, 0.33445439, 0.33712372, 0.11168838, 0.18009421, 0.20491578, 0.04091022, -0.11054423, -0.43879598, -0.30504265, -0.40384641, -0.63097036, -0.62272596, -0.25871909, -0.08276685, -0.07031317, -0.02947617, -0.01891994, -0.24841563, 0.27068278, 0.36175632, -0.09317971, -0.12831578, -0.31894994, -0.32275620, -0.51544690, -0.49988520, -0.05908310, -0.05306468, 0.13932997, 0.04087886, 0.24109890, 0.05840407, 0.23202673, 0.06490833, -0.23051830, -0.33441472, -0.23667845, -0.04866171, -0.26165023, -0.12754102, 0.24853708, -0.07833232, 0.07582652, 0.07385891, -0.02353705, -0.05606844, 0.05109697, -0.32907665, -0.45277727, -0.63593233, -0.71889436, -0.08826932, -0.33034986, -0.60559732, -0.74304509, -0.40207541, -0.45086753, -0.57274777, -0.16721728, -0.12483982, -0.16106310, -0.22876154, -0.25825906, -0.33748907, -0.37117326, -0.40789136, -0.36824661, -0.24870542, 0.03021831, -0.08283643, -0.06773019, 0.04868331, -0.07973149, 0.03265886, 0.01222323, -0.03682780, 0.01846779, -0.12528779, -0.27726513, -0.32388940, -0.40219253, -0.11152916, -0.19051597, -0.20411193, -0.41563049, -0.79001105, -0.42135668, -0.59530514, -0.58879274, -0.67445523, -0.50892287, -0.07949598, -0.30112886, -0.46565199, -0.19754504, 0.06595995, 0.03103976, -0.05250457, 0.04002612, 
-0.06206001, 0.07770901, 0.07990909, 0.04351748, 0.02097030, 0.08315123, 0.01327416, 0.06776815, 0.04905678, -0.03822238, 0.06341777, 0.05012590, 0.00070203, -0.10441016, -0.02263599, -0.05859282, 0.05585372, 0.04060833, 0.03549158, -0.08408422, -0.00463191, -0.06448190, -0.01830406, -0.02950060, -0.02388893, 0.03770278, -0.00716724, -0.01909215, -0.01229393, -0.07516354, 0.03687293, -0.04178519, -0.07776468, 0.07501463, 0.03304424, 0.04074657, -0.08786044, -0.09705039, -0.02304278, 0.08873870, 0.07798445, -0.16456126, -0.20433816, 0.03399314, -0.34639788, 0.05713409, 0.32750502, 0.40896511, 0.16181083, 0.08271625, 0.19847076, 0.11358763, 0.03360693, -0.06671502, -0.07749576, -0.04999074, 0.06394064, 0.00697654, 0.02851857, -0.16108228, 0.04537307, -0.04362164, -0.12744230, -0.17173441, -0.33110178, -0.03847689, 0.13891380, 0.27754423, 0.02344274, -0.13350576, -0.02151532, 0.73846984, 0.73268557, 0.61477739, 0.17891702, 0.47603622, 0.29716760, 0.59819901, 0.45461863, -0.05973237, -0.20026882, -0.22220552, -0.05377714, -0.00173853, -0.05419857, 0.06911457, -0.18918878, -0.12154382, -0.35498288, -0.08315478, 0.00537457, 0.10825677, -0.06847421, 0.27004778, 0.04316955, -0.06065617, -0.02367208, -0.07102260, 0.20184855, 0.27819833, 0.08834244, 0.01500152, 0.07160148, -0.12897982, -0.22140618, -0.22735432, -0.20243511, -0.33503887, -0.26156351, -0.38844034, -0.16358998, -0.05501095, -0.03366451, 0.08152705, -0.23073325, 0.20633282, 0.54982716, 0.68523598, 0.37264535, 0.13909417, -0.09666310, -0.17006473, -0.22754635, -0.09187911, -0.08748058, 0.04369573, 0.05659629, -0.01532525, -0.24916270, -0.37474081, -0.36504117, -0.20717423, -0.18818931, -0.08432461, -0.11397237, -0.06130621, -0.42134789, -0.55342340, -0.36121228, -0.01481739, -0.03837760, 0.01470883, -0.12739766, 0.13552983, 0.37584832, 0.92914742, 0.59696537, 0.14175415, 0.18713275, 0.22473499, 0.10027272, -0.14062281, -0.25405616, -0.19458525, -0.05566972, 0.02935193, -0.23160262, -0.52556086, -0.53353375, -0.55902022, -0.31365985, -0.33359727, -0.19742741, 0.29960942, 0.02760534, -0.23481095, -0.13657287, 0.05697731, 0.01942788, 0.02537523, -0.11113480, 0.42454046, 0.54737598, 0.87698483, 0.61191082, 0.20597738, 0.05885990, 0.05271580, -0.12570350, -0.13685657, -0.37558287, -0.26597789, -0.28253955, -0.50692433, -0.47009793, -0.39936984, -0.19520350, -0.17972735, 0.01487251, -0.00810018, 0.02294804, 0.19432126, 0.28916648, -0.33943489, -0.14494796, -0.26091188, 0.08850760, 0.43981129, 0.14026369, 0.56476706, 0.36458457, 0.54811275, 0.35820755, 0.14789833, -0.14284396, -0.11030069, -0.12629454, -0.06790565, -0.31558147, -0.40766722, -0.66114146, -0.62367362, -0.20123321, 0.30045545, 0.21757358, 0.37675062, 0.39411131, 0.11339974, -0.05494786, 0.23738678, 0.26833096, 0.08547201, 0.14936304, -0.21915230, -0.05096070, 0.42060563, 0.44018418, 0.66172767, 0.39833972, 0.29543254, 0.14211237, 0.02996087, -0.13640717, -0.08422038, -0.09302796, -0.19208442, -0.58780146, -0.52597767, -0.30492073, 0.29407877, 0.25003523, 0.47286233, 0.08648303, -0.00000637, 0.13037951, 0.04069275, 0.05410159, 0.11217510, -0.01507548, -0.01547230, -0.45237821, -0.28499761, 0.06220585, 0.60515445, 0.61415952, 0.66835618, 0.29440749, -0.01793937, -0.16750443, -0.11204306, -0.15194921, -0.24263932, -0.44508564, -0.35517144, -0.21268182, -0.10751126, 0.39720541, 0.63298976, 0.54647022, 0.10474130, -0.00107385, -0.17606719, -0.06388885, 0.01236340, 0.21315184, 0.06870388, -0.15230349, -0.07063375, -0.18252099, 0.27384725, 0.01321618, 0.55017930, 0.82318956, 0.51710886, -0.03151772, -0.23738110, -0.51092821, -0.34420949, -0.42523387, -0.44101736, -0.36114207, -0.31680259, 0.03055853, 0.06790642, 0.19448023, 0.57762784, 0.13590533, 0.01636245, 0.00295294, -0.11100996, -0.08071286, 0.13614689, 0.19861160, 0.06173294, 0.27229932, 0.60468447, -0.07362383, -0.04616864, 0.11583127, 0.35366455, 1.00169861, 0.22675435, -0.10150301, -0.47768241, -0.63874245, -0.56916559, -0.50192809, -0.41816828, -0.19767417, 0.07057824, 0.23025861, -0.01476814, -0.00532894, 0.06203287, -0.08200856, -0.02395800, 0.09585724, 0.14015564, 0.05149278, 0.18241438, 0.04040459, -0.29188120, -0.32845846, -0.08089805, -0.50397438, -0.07558591, 0.07747044, 0.37443185, 0.67120695, -0.22331105, -0.65633869, -0.73797220, -0.57635152, -0.23775436, 0.03931136, 0.01376678, 0.21964189, 0.53735280, 0.44901472, 0.08922609, -0.02488721, -0.10086418, -0.01402712, -0.14918153, 0.17300653, 0.11013000, 0.04315457, 0.02242502, 0.01488498, -0.42199919, -0.39400750, -0.19613315, -0.20622104, -0.07646426, 0.04859251, 0.13206357, 0.45198023, -0.28828546, -0.50303310, -0.23427875, 0.01353272, 0.10584886, 0.36061099, 0.26850933, 0.20725970, 0.36185443, 0.27170059, 0.22425422, 0.01049759, 0.05607650, 0.07853033, 0.09748237, 0.26294965, -0.01533427, -0.03963282, 0.16902339, -0.11604827, -0.32277390, -0.06017626, -0.34437925, -0.51005626, -0.36079112, -0.06208100, 0.25013080, 0.54522091, 0.03776114, -0.01822508, 0.12797157, 0.11007596, 0.22862808, 0.25138405, 0.20447792, 0.10838728, 0.17412725, 0.23994905, 0.15259625, 0.11297639, 0.19737248, 0.09791858, 0.24122572, 0.12407797, 0.10090610, -0.02138251, 0.20899326, 0.20823674, 0.27219957, 0.34230158, -0.07956197, -0.52244109, -0.27901506, -0.07726038, 0.28506461, 0.57547241, 0.37711680, 0.39568698, 0.47491863, 0.37040541, 0.32683465, 0.14570506, -0.08391310, -0.00280737, 0.15561572, 0.21704806, 0.22500654, 0.05601071, 0.18864419, 0.09522130, 0.19978960, 0.01089569, -0.03215266, -0.03246651, 0.32634756, 0.50445861, 0.62362182, 0.54630888, 0.20314567, -0.05224211, -0.18211195, 0.23501107, 0.32951543, 0.41404009, 0.53353357, 0.37000802, 0.61697710, 0.46789512, 0.24520403, -0.01691960, 0.06040957, -0.02902518, 0.24463238, 0.27926770, 0.23079029, 0.11046510, 0.04064548, 0.14639050, 0.20003349, 0.24946298, 0.26063120, 0.28374749, 0.44261980, 0.47851744, 0.59113961, 0.40177986, 0.05333356, -0.11450899, -0.00226868, -0.07613194, 0.22047490, 0.47732097, 0.29666409, 0.61384141, 0.42559463, 0.37310550, 0.09652006, -0.11570722, -0.05106702, 0.06891424, 0.04245444, 0.07391509, 0.19642296, 0.10123380, 0.10245862, 0.15296039, 0.18884827, 0.37507242, 0.19564664, 0.09046812, 0.40377328, 0.58627915, 0.53700268, -0.05318776, 0.06141907, -0.20599204, -0.29880634, -0.23966800, 0.13047120, 0.40271702, 0.58156282, 0.51231229, 0.12391561, -0.07687395, -0.12518157, -0.01921049, -0.01024315, -0.01363207, -0.01026084, 0.23736605, 0.17035912, 0.14940371, 0.07556983, 0.29275185, 0.22981796, 0.28843230, -0.06505538, -0.25729725, 0.24348620, 0.25139776, 0.19876677, -0.22425294, -0.06916320, -0.02355715, 0.07815175, 0.05376833, -0.18901643, 0.78563958, 0.72253191, 0.58532286, 0.04245100, -0.05556645, -0.23396206, -0.25029859, -0.16092199, -0.21098755, -0.10710252, -0.02237577, 0.20041507, 0.38538879, 0.29376432, 0.23978272, 0.14152090, 0.24926408, -0.18155719, -0.19199549, 0.06433667, -0.16575804, -0.30391750, -0.38162038, -0.42422599, -0.32247749, 0.25452441, 0.03233919, 0.11684542, 0.37927470, 0.41026834, 0.32300544, -0.25222170, -0.06029454, -0.12396891, -0.11574677, -0.13677920, -0.20922130, -0.11005767, -0.11733554, 0.03056319, 0.22789782, 0.05583576, -0.02886732, 0.03543670, 0.14589638, -0.17241009, -0.21790171, -0.30648652, -0.40982550, -0.29516119, -0.40804023, -0.49471316, 0.04624321, -0.04490354, 0.05052061, -0.11012638, -0.01096250, 0.13424219, -0.14716160, -0.28708243, -0.16478550, -0.24303988, -0.05567675, -0.13372120, -0.01644522, -0.09607436, -0.07713174, -0.22435156, -0.18565866, -0.12484518, -0.03844567, -0.16765709, -0.15136126, -0.14202641, -0.47850066, -0.44791609, -0.37171966, -0.33529109, -0.20534231, -0.21951456, 0.26456365, 0.01138900, -0.04576272, -0.05343938, -0.01039002, 0.03171509, -0.32795346, -0.03325743, -0.13165560, -0.12880480, -0.16499570, -0.03872784, 0.13677542, -0.23335630, -0.29785720, -0.40366304, -0.47924110, -0.22409055, -0.16832778, -0.30704352, -0.14895710, -0.09362198, -0.28853855, -0.26995802, -0.25149956, -0.39917612, -0.08652091, 0.04414329, 0.42257962, 0.00173271, -0.07946125, -0.05392509, 0.29800472, -0.03190273, 0.00842052, 0.10550949, 0.16581787, 0.11421923, -0.24772651, 0.08230150, 0.08732527, -0.08671668, -0.08316409, -0.09649149, -0.19361994, -0.08214604, -0.24732143, -0.44766274, -0.37931186, -0.28154409, -0.29482463, -0.13717304, -0.26202711, -0.43402633, -0.32269040, 0.07214694, 0.50414151, -0.01606105, -0.04335498, -0.06686226, 0.22437264, 0.50792819, 0.92159081, 0.48927727, 0.45237333, 0.30344355, 0.11414442, 0.21896818, 0.01858707, -0.07600632, -0.17073143, -0.06378914, -0.04313260, -0.23339300, -0.34708044, -0.22675808, -0.27480820, -0.27767545, -0.32669535, 0.19321568, 0.08613744, -0.38619640, -0.27191418, 0.32506329, 0.29119176, -0.05908552, 0.02786234, -0.07910259, 0.02297275, 0.21752945, 0.55226398, 0.35899809, 0.09115060, 0.30268106, 0.18394518, 0.11685596, -0.29932457, -0.15959588, -0.09758902, -0.13193150, -0.20150231, -0.25896245, -0.31609583, -0.43908080, -0.28155345, -0.73227268, -0.65810090, -0.29670539, 0.24920671, 0.00263925, 0.00458965, -0.04947766, -0.04760669, 0.06067117, -0.02998871, 0.04816207, -0.04810246, -0.03414423, -0.15769516, -0.25885862, 0.09171295, 0.55615807, 0.39779955, 0.15215673, -0.10212956, -0.12847671, -0.05447023, -0.20546484, -0.18298405, -0.03617117, -0.14262332, -0.45314237, -0.65181839, -0.58647352, -1.00863779, -0.66214842, -0.51203650, -0.39324543, -0.35503700, 0.08979207, -0.01242872, -0.00870443, -0.06289777, -0.05423006, -0.00959976, -0.04067439, 0.09799614, 0.13042828, 0.18319282, 0.23483102, 0.42024574, 0.66808373, 0.75785750, 0.57551467, 0.63560796, 0.93753338, 0.18000051, 0.08178801, 0.10321788, 0.11027017, -0.02714472, -0.23558259, -0.27333799, 0.08519100, -0.04368535, 0.37249333, 0.07089440, 0.02781571, -0.07351487, 0.03493271, 
0.08189882, -0.06008004, -0.03929400, 0.06124770, -0.07472153, -0.00186263, -0.03199820, -0.03070324, -0.00058699, -0.05741496, -0.07653604, 0.05653148, 0.00932988, 0.00156268, -0.01940692, 0.01262858, 0.04075407, -0.07472464, 0.00490630, 0.04759007, -0.00778023, -0.06630091, 0.06582996, 0.03578608, 0.07674139, 0.07340022, -0.05525786, 0.02191245, -0.01661023, 0.05401892, 0.00718413, -0.02538700, -0.06951632, -0.05516551, -0.00242231, 0.15482965, -0.00826565, 0.02807118, 0.11963553, 0.35967132, 0.24400945, 0.24295686, 0.26534602, 0.32917100, -0.39410496, -0.47119433, -0.06678966, 0.00695152, 0.15835133, 0.13075943, 0.19434580, 0.05036748, -0.02692723, -0.03028917, -0.01190285, 0.01283102, -0.07470989, 0.03075418, -0.08103380, 0.34647378, 0.33359450, 0.13482936, 0.26249704, 0.64025629, 0.55251974, 0.36027372, 0.48171148, 0.39721513, 0.06296807, -0.40778217, -0.54478192, -0.54475725, -0.24793845, -0.57224762, -0.67064512, 0.25577825, -0.02860289, 0.10845234, 0.24134071, 0.33864659, 0.11169654, -0.02524476, 0.03108203, -0.07422387, 0.03877880, 0.06876046, 0.31008992, 0.26295742, 0.49258441, -0.20822372, -0.17157346, 0.12611857, 0.18707268, -0.30262259, -0.17381094, -0.42342860, -0.65659225, -0.92165589, -0.86514401, -0.78059262, -0.54421657, -0.28736353, -0.47185314, -0.38016430, 0.01817484, -0.18965636, -0.13234740, -0.61243463, -0.52434182, -0.26888409, -0.14218301, 0.02419488, -0.08159414, 0.07734059, 0.21524020, 0.44294378, -0.16619363, -0.37842315, -0.05048676, 0.21148995, 0.06014845, -0.18613663, -0.38932618, -0.23988487, -0.63748735, -0.68635511, -0.20852560, 0.18845643, 0.11875510, -0.06251281, 0.02900294, 0.25429395, -0.12513338, -0.22522762, 0.26024270, 0.37960398, -0.44885150, -0.50218409, -0.18059452, -0.02615734, 0.07675412, -0.03047728, 0.32290506, 0.46898010, 0.22629827, -0.21667738, 0.04987173, -0.04055352, -0.13428462, -0.12706964, -0.33499134, -0.67873800, -0.78221279, -0.47244170, 0.12246203, 0.16098446, 0.06536213, -0.05536257, 0.03526356, 0.02717542, -0.20237084, -0.26365054, -0.05379217, 0.13977103, -0.07163175, -0.77059907, -0.12300389, -0.03609677, -0.03080419, -0.09847347, -0.05887977, 0.18063639, 0.14910951, 0.11179481, 0.27061650, 0.12985961, -0.17746605, -0.39684483, -0.19535965, -0.38159266, -0.55973834, -0.16780092, 0.21541193, 0.00170752, 0.07418181, 0.02565223, 0.21593419, 0.03138453, -0.06181504, -0.02541038, 0.03034589, -0.04819627, -0.32433137, -0.80664706, -0.19080494, 0.06058409, -0.02931071, -0.31954351, -0.16399200, 0.04581708, -0.30137902, 0.23097785, 0.13706400, -0.14813630, -0.22454497, -0.00995158, -0.06803166, -0.45057312, -0.41652945, -0.11644878, 0.08706082, 0.02252971, 0.12872258, 0.19857149, 0.10976446, 0.06338240, 0.04892417, -0.06002384, -0.05533163, 0.03188037, -0.12067746, -0.29079971, -0.19466141, 0.11067745, 0.32225105, -0.48718050, -0.34868303, -0.07672401, -0.55127716, 0.08892748, 0.16232762, 0.01861337, 0.15222245, 0.09495308, -0.13241601, -0.44100785, -0.35710061, -0.20623386, -0.01618194, 0.02571776, 0.18894748, 0.14804521, 0.00797159, 0.30064654, 0.21224718, 0.05945681, -0.02777110, -0.08181375, 0.20503351, -0.13318531, -0.18882751, -0.08933527, -0.01723939, -0.44181666, -0.42369992, 0.00613928, -0.25602713, 0.21870895, 0.15845056, 0.26983270, 0.18747416, 0.12749268, 0.12470449, -0.26055771, -0.46498513, -0.34291801, -0.11532980, 0.13355641, 0.29871219, 0.22624548, 0.26533049, 0.36233649, 0.30189851, -0.07569972, -0.09164399, -0.12535499, 0.11451653, -0.36984175, -0.26275885, -0.33432499, -0.13918425, -0.14936538, -0.08229745, -0.25458139, 0.16001545, 0.30304253, 0.21573862, 0.17985074, 0.22184649, 0.36675850, 0.03512136, -0.05950468, -0.31116268, -0.07551453, 0.17126851, 0.39514160, 0.35026890, 0.26619244, 0.28255153, 0.44041842, 0.46991476, 0.27984893, 0.29860410, 0.08220489, 0.12554808, 0.23980696, -0.19571295, -0.14035623, 0.03319473, 0.37369046, -0.29263136, -0.10533036, 0.09046499, -0.05425246, 0.16319393, -0.00002110, 0.12239810, 0.12762713, -0.04094255, -0.16214718, -0.62704223, -0.01656990, 0.30300581, 0.46122760, 0.02817323, -0.20526189, 0.07928954, 0.27658525, 0.38769481, 0.54640198, 0.38668987, 0.40224224, 0.22208710, 0.05715921, -0.03886502, 0.53407115, 0.05847908, 0.06493742, -0.33979717, 0.05930799, -0.22696513, -0.22417149, 0.21404122, 0.08738341, 0.12193941, 0.05239881, -0.23794124, -0.31858355, -0.21990195, 0.29589379, 0.45355237, 0.21902946, -0.08929761, -0.37721649, -0.38062450, -0.19094144, 0.08667806, 0.31401461, 0.11727910, 0.17293453, 0.20766824, 0.09212019, 0.08301124, 0.10522068, -0.02626895, 0.20647314, -0.50903261, 0.20300412, -0.07913110, -0.03907408, 0.32296544, 0.34441561, 0.43773285, 0.08092887, -0.22440608, -0.38344947, -0.18669492, 0.18662943, 0.21277952, -0.13466467, -0.27694562, -0.35503775, -0.45612916, -0.45466071, -0.22621001, 0.01772438, 0.02305688, 0.21393222, 0.02094057, 0.25656414, -0.48495358, -0.27093542, -0.02999038, 0.02969308, 0.07726496, 0.00769615, -0.02039150, 0.10622609, 0.17984767, 0.31726852, 0.34465113, 0.17367098, -0.29416564, -0.17834738, -0.11483096, -0.05283150, -0.09467178, -0.31794187, -0.18680978, -0.27319452, -0.43247840, -0.46316063, -0.15753283, -0.07015246, -0.07523180, 0.09084762, 0.40013009, 0.13148150, -0.58618093, -0.17897804, -0.01335854, -0.03572226, 0.18665598, -0.28482905, 0.16370849, 0.14937881, 0.16234121, 0.42958871, 0.38731480, 0.07861130, -0.53744060, -0.43942371, -0.16601862, -0.12417121, -0.12912412, -0.24928831, -0.08497064, -0.43875030, -0.47333726, -0.43282199, -0.14088111, -0.04173258, -0.04364599, 0.26321349, 0.22638939, -0.21595655, -0.52195567, -0.32059500, -0.08915807, -0.07588237, 0.25931388, -0.34098017, 0.11566880, 0.30371773, 0.23465243, 0.38824585, 0.38559496, -0.09881301, -0.62501889, -0.45297229, -0.32653531, -0.13205674, -0.07870619, -0.07457576, -0.27965459, -0.47616616, -0.25225481, -0.38583755, -0.11196902, 0.17025344, 0.06563152, 0.11635239, 0.07000437, -0.47009838, -0.13780391, -0.32675853, 0.05665717, 0.06340312, 0.08774910, -0.41430455, 0.12824631, 0.31914616, 0.16989355, 0.22811484, 0.22053452, 0.30293047, -0.14603081, -0.43153435, -0.25014299, 0.12951334, 0.05945406, 0.04528676, -0.14844646, -0.28905770, -0.31047150, -0.14206323, 0.10805536, 0.10193986, 0.14390612, 0.06245516, 0.05991957, -0.13582586, 0.15324140, -0.34443659, -0.31062862, 0.00972453, 0.19079946, -0.71170288, 0.07447529, -0.07064153, -0.19387336, 0.03060463, 0.39096931, 0.38680580, -0.02441268, -0.16702774, 0.05904512, 0.20817815, 0.24888800, -0.05825179, -0.46224052, -0.39671895, -0.29759663, -0.18123329, 0.07665452, 0.08082014, 0.06118423, -0.07049593, -0.14760795, 0.18517768, 0.22677907, -0.17422809, -0.01519140, 0.29489055, 0.30225924, -0.67675143, -0.11813039, -0.04683828, -0.13037024, 0.08552576, 0.25580272, 0.37257540, 0.03530908, 0.03388865, 0.03178115, 0.18513745, -0.08965437, -0.49836126, -0.56061125, -0.29893085, -0.25348178, -0.27942750, -0.04387019, -0.00110197, 0.08929936, -0.18066047, 0.15710598, 0.27783188, 0.14913915, 0.15496595, 0.04420312, 0.32539931, -0.08801864, -0.08185012, -0.03324848, 0.05944759, 0.06022083, -0.02278234, 0.16132386, 0.11538685, 0.10514619, 0.14021119, 0.13797173, 0.06183250, -0.06836964, -0.56713635, -0.36672810, -0.26115781, -0.30031335, -0.43050474, -0.15912069, 0.09926116, -0.07669732, -0.18643232, 0.07974520, 0.32242337, 0.29248664, 0.01482520, 0.14743368, 0.04409955, -0.37667120, 0.42940626, -0.08030409, -0.14466207, 0.01361810, 0.19548970, 0.02820073, 0.06787923, 0.15234298, 0.02653915, -0.11917965, -0.17128968, -0.26496625, -0.37158689, -0.41900408, -0.32593057, -0.19874708, -0.37164128, -0.10641899, 0.06448340, 0.04845959, -0.16480052, 0.13298582, 0.36046609, 0.50418508, 0.03511458, 0.16228522, -0.01830743, -0.44014561, 0.11731134, -0.45653263, 0.09580035, 0.23070224, 0.22868927, 0.26687902, 0.26127547, -0.07587758, -0.25328845, -0.15692440, -0.03787033, 0.00248439, -0.13489582, -0.04662991, -0.07756653, -0.21746521, -0.02283869, 0.00334361, 0.21598384, 0.08869546, 0.08847088, 0.00930601, 0.47430399, 0.52117831, -0.01231856, -0.05465189, 0.07364661, -0.32762921, -0.56658822, -0.65903276, -0.14142065, 0.06066501, 0.33661744, 0.16110525, 0.30424988, 0.20738424, 0.00504417, 0.08322457, 0.14621606, 0.21958642, 0.09715714, 0.08023271, -0.02531466, -0.39822003, -0.26304761, -0.12868947, -0.12571162, -0.19931552, -0.01097653, 0.13985218, 0.39349124, 0.50959206, 0.00449447, 0.02544063, 0.01833834, -0.32815057, -0.58402735, -0.23320931, 0.11433750, -0.27339655, -0.11040852, 0.20224978, 0.12541218, 0.09347691, -0.02089516, 0.00338653, -0.00079946, -0.13748874, 0.03601227, 0.01745409, -0.22805397, -0.49616781, -0.36103806, -0.50837654, -0.36805332, 0.07384455, 0.06401560, 0.18098602, 0.31534454, 0.06336610, -0.02300770, 0.03314675, -0.06553303, 0.02427786, 0.07845063, -0.43390459, -0.55353534, -0.93980592, -0.53055412, -0.21490487, -0.05224855, -0.65504789, -0.51672739, -0.63506681, -0.19751751, -0.52152437, -0.86565995, -0.60063332, -0.89827490, -0.76800448, -0.30588895, -0.49758732, -0.41718206, 0.34567976, 0.21300174, 0.08179726, 0.08435415, -0.01028080, -0.01747619, 0.07964706, -0.04069463, -0.03110656, -0.04408394, -0.08544187, -0.52075458, -0.90723616, -1.08347380, -1.00745797, -0.71468419, -0.70656747, -0.55583638, -0.25660634, -0.62212437, -0.93165219, -0.80489731, -0.66922295, -0.73009038, -0.34765989, 0.04258927, -0.41706446, -0.45494440, 0.08917601, -0.37242502, -0.22475435, 0.03627117, 0.01106362, -0.06516460, 0.00874402, 0.07424525, -0.02580751, 0.01703355, -0.03682275, -0.13106611, -0.30279052, -0.51456755, -0.42883399, -0.41997585, 0.23512423, 0.14729321, 0.02622415, -0.34216180, -0.61303288, -0.57668728, -0.51247603, 0.01728311, 0.00796273, -0.41331616, -0.19096550, -0.18845141, -0.00944583, -0.15591402, -0.07202065, -0.05260771, -0.01250876, 0.02660956, 
