const float weights[12704] = { 0.04855773, 0.00390899, -0.03837792, -0.03991625, 0.04029074, 0.04769410, 0.08467646, -0.06245812, 0.03420385, 0.08258940, -0.02780345, 0.00817920, -0.02716422, 0.12359352, 0.15750711, -0.04414387, 0.01120032, -0.05594901, -0.02707269, 0.03012763, 0.07549396, 0.00221254, 0.01882853, 0.00707322, -0.02819198, 0.00356573, -0.08146656, -0.06381133, -0.03375037, -0.06800859, -0.06738694, -0.03271317, 0.00693131, 0.18177812, 0.51522237, 0.84588021, 0.71962959, 1.02747655, 0.83544719, -0.33666512, -0.47482404, -0.72063714, -0.71183562, 1.65598977, 1.31900060, 1.34278071, 0.79419947, 0.47087130, 0.39571884, 0.10701416, 0.47188243, 0.56354612, -0.07168760, 0.08359796, 0.01978826, 0.00789195, 0.02012616, 0.07890582, -0.07909458, 0.19069907, 0.31624547, 0.57396716, 1.27419817, 0.83259898, 1.19444919, 1.81209028, 2.60605311, 2.18100405, 2.44339323, 1.18088269, 0.70416480, 1.28302920, 0.13529257, 0.43814176, 2.28496909, 1.75802314, 1.68260443, 1.14565849, 0.03290628, 1.38135242, 0.83523965, 0.03012103, -0.03949403, 0.02684887, 0.06090964, -0.03613717, 0.07864026, 0.78555775, 1.26358521, -0.52116561, 0.82084465, 1.06331062, 1.57207572, 1.94430339, 1.45675147, 1.51789284, 1.85988140, 0.96809077, 0.13982667, 0.68958426, -0.06688286, 0.18040557, 0.56832379, 0.20468836, -0.13105676, 0.44261986, 0.14957945, 0.14958546, 0.55287629, -0.67410034, 0.03485711, -0.07506856, 0.01372065, 0.01831850, 0.00310260, -0.56795096, 0.61705524, 0.88300067, 1.13782096, 0.95298868, 0.36324805, 0.43501446, 0.75519478, -0.20199758, -0.09079940, -0.66424680, -0.17240012, -0.23603147, -0.38477570, 0.22117659, 0.34636635, -0.43961751, -0.70374984, -0.47377399, -0.46758795, -0.05553709, -0.75371325, -0.77521855, -0.24404004, 0.11018254, 0.05814885, -0.07762203, 0.67795950, 0.41187403, -0.14126083, -0.53156471, -0.04169328, -0.19675519, -0.19287401, -0.14472452, 0.24044383, 0.34560713, 0.47165012, 0.19463204, 0.57024479, 0.86752176, 0.73579597, 0.08205733, -0.30594110, -0.19723928, -0.24982542, -0.34527087, -0.30406442, 0.03595298, -0.06514617, 0.04528022, 1.49647820, 0.53904271, -0.03192138, -0.04150169, -0.43961981, -0.50665087, -0.56565136, -0.60850739, -0.32639399, -0.10397297, -0.08184286, -0.24980457, 0.42427734, 0.32807386, -0.08420121, 0.10385240, 0.47379127, 1.25823796, 0.86635423, -0.25015634, -0.12732497, -0.08280938, 0.08713260, -0.00395791, -0.08930103, -0.14451832, 0.29142952, 0.43228540, 0.71907622, 0.10889477, -0.04222827, -0.98336452, 0.06126218, -0.46458456, 0.05679386, -0.47131285, -0.61071652, -0.28918338, -0.02609316, -0.27932152, -0.05553129, -0.03417296, -0.02845852, 0.24213392, 0.70630550, 1.07864773, 0.39940763, -0.38946858, -0.61149818, -0.18310693, 0.19118175, 0.18950200, 0.00410866, -0.30081490, 0.07241601, 0.70993626, 1.13811707, -0.38234138, -0.91937083, -1.22216535, -0.70185471, -0.40793443, 0.40894324, -0.58723837, -0.39792576, -0.53020704, -0.41730970, -0.60683089, -0.24818252, -0.34787065, -0.26833293, 0.31587243, 0.50288719, 0.75891989, 0.13422939, -0.38585261, -0.35930938, 0.19262321, -0.17871739, 0.03900513, -0.25683138, -0.80874604, 0.25449002, 0.93384331, 1.85072994, 0.68572211, -0.30868745, -1.09625566, -0.06078429, 0.23228094, -0.43396708, -0.61403161, -0.19288000, 0.15948099, -0.14092676, -0.42736834, -0.11098269, -0.33647868, -0.34025398, 0.03163439, 0.67474627, 1.04337919, -0.16900377, -0.37140900, -0.17233019, -0.10614481, -0.36947161, -0.32859364, -0.09710682, -0.10443932, 0.14761099, -0.01757770, 2.75124359, 0.94799596, -0.31940210, -0.81576014, -1.16046536, 0.16753544, -0.57204401, -0.12309071, 0.55838656, 0.07043684, -0.48421776, -0.31873858, -0.38528371, -0.47795531, -0.49365059, -0.01722796, 0.66937107, 0.63301766, -0.04990270, -0.36143255, -0.13700283, -0.22990160, -0.16788127, -0.15980317, -0.43099964, 0.09823514, -0.49275598, -0.78882104, 1.83872545, 0.15139496, -0.19477330, -1.33636081, -0.80185622, 0.04300897, 0.18313928, 0.02699010, 0.03366303, -0.01544660, 0.02170430, -0.31872809, -0.10105462, -0.34877348, -0.43889630, 0.50732994, 1.01141620, 0.73372912, 0.11127163, -0.29312861, -0.22064935, -0.00310857, 0.13635451, 0.17797714, -0.06119161, -0.11832999, 0.19309016, 0.39519957, 0.16231440, 0.10807684, -0.18760318, -1.19861495, -0.40228999, -0.19309056, 0.55176979, -0.17694212, -0.14704388, -0.42396680, -0.29466563, -0.25964007, -0.30262145, -0.88277054, -0.78060549, 0.76533520, 1.58975005, -0.03374761, -0.22792871, -0.58921844, -0.30883175, 0.22147994, -0.25202632, 0.01496614, -0.05344071, 0.12560627, 0.38311011, 0.64827234, 0.44835478, 0.27766544, -0.02025473, -1.06724763, -1.38243318, -0.29981485, -0.10020258, -0.09012254, -0.30518994, -0.23899086, -0.47758648, -0.40225509, -0.39314312, -0.83135128, 0.16912803, 1.81613863, 1.12778783, 0.03463573, -0.18375978, -0.43112823, -0.18404058, 0.25885668, 0.03587208, -0.05649621, -0.49544668, -0.06390648, 0.81092960, 0.23036306, 1.38314664, 0.67497027, -0.72070372, -0.28687787, -1.18219101, -0.08511970, -0.50664032, -0.24315766, 0.57609951, -0.16098353, -0.16207324, -0.15582590, -0.57250583, -0.33755264, 1.01846182, 1.50316525, 0.39389876, 0.05751488, 0.03257922, -0.16387178, 0.19843747, 0.10521549, 0.30076885, 0.19922800, -0.02715472, -0.41990682, -0.05831098, -0.46760610, 1.16856217, 0.28744909, -0.62406868, 0.51879054, -1.60024583, -0.45762154, -0.13126890, 0.05666923, 0.53147900, -0.16615266, 0.08882019, -0.07283325, -0.42002609, 0.11533808, 1.01742053, 0.75143009, -0.00679516, 0.24651122, 0.36170992, -0.06429906, 0.14817712, 0.22609730, -0.00829591, -0.19204944, -0.20523186, -0.37667274, 0.24042028, 0.86694050, 1.46216583, 0.43764150, -0.34076294, 0.54305267, -0.60844851, 0.20319989, 0.67585105, 0.40157947, 0.08958216, -0.34114292, -0.26066449, 0.38121891, 0.03342081, 0.77867240, 0.98070085, 0.75138247, 0.06478881, 0.08932494, 0.10957675, -0.08823879, -0.08524228, -0.20609641, 0.02956691, -0.66803282, -0.19431178, -0.45179051, 0.04849215, 1.05304730, 1.58667195, -0.42655861, -0.00091477, 0.24865727, -0.97017390, 1.00455105, -0.10896850, -0.23520671, -0.32496625, -0.30545807, -0.22680040, 0.28965959, 0.34069192, 0.59493923, 0.91177446, 0.21113022, -0.40346417, 0.05451292, -0.02878546, -0.05377336, -0.37496239, 0.01906588, -0.13259773, 0.10225140, -0.36092064, -0.22656101, -0.81212401, 0.45713863, 1.03021574, -0.81925333, -0.78913009, -0.07004537, -1.24047375, 0.48040169, -0.54380274, -0.50602013, 0.00470459, -0.41055283, -0.30832824, -0.22922499, 0.41595286, 0.87137485, 0.34833932, -0.11881306, -0.33750999, 0.14379364, -0.15776135, -0.29674250, -0.23424004, -0.18946992, -0.00458749, -0.35348392, -0.07170228, -0.36583722, -0.54898083, 1.10402596, 0.86254913, 0.34559983, -0.02769701, -1.03904915, -0.95985925, -0.43143401, -0.80267227, -0.38496965, -0.23954757, -0.43038672, -0.20650451, 0.28898868, 0.73912293, 1.04315436, 0.61750287, 0.31282625, 0.04478423, 0.20689784, 0.29972616, -0.03486596, 0.10606644, -0.06485239, 0.00433519, -0.05698751, 0.19679439, -0.11338644, -0.02371269, 1.51794708, 0.97760290, -0.06351537, -0.06312242, -0.35117498, -0.59632695, 0.00590381, -0.07287810, 0.10528924, 0.04995901, -0.09023315, 0.03166782, 0.21140234, 0.41916880, 0.31321499, -0.16225134, 0.09978915, 0.31403357, 0.04241349, 0.27886423, 0.09186041, 0.26499292, -0.21997075, 0.30916470, 0.64495403, 0.24949759, 0.33559293, 0.58754069, 1.23769987, 0.07303879, 0.20438078, 0.08009496, 0.04674848, 0.37533078, 0.36790359, 0.24539331, -0.17120284, 0.56320691, 0.16942672, 0.18815726, 0.36797348, -0.08315584, -0.44234502, 0.12520151, 0.22714043, 0.15022196, 0.02311862, 0.42437801, 0.17401342, 0.04874923, -0.07849826, -0.46771616, -0.09721868, -0.37340420, 0.06182114, -0.43593869, 0.17224960, -1.03032660, -0.21537469, 0.03208125, 0.04163684, 0.98944473, 1.68527114, 0.42145726, 0.16322465, -0.11615297, -0.16429026, -0.04670789, 0.00906751, 0.11169627, 0.00471902, 0.27897409, -0.20354651, 0.21723852, 0.02128910, -0.00556920, 0.43998915, 0.22644253, -0.46073252, 0.07598598, -0.27749449, -0.05428014, 0.42308298, -0.18056735, -0.03786629, -1.51833105, -0.26001376, 0.08325809, -0.01461949, 0.71303964, 0.98236787, 0.50146866, -0.18897076, -0.59686267, -0.60545182, 0.05139295, 0.07074419, 0.11818940, 0.06797983, 0.15879400, -0.23851588, -0.03586359, 0.09368812, -0.07896067, 0.12163622, -0.03095097, 0.33471566, 0.65837830, 0.22899911, 0.63988268, 0.58230209, -0.30617300, 0.27073485, -0.66687936, 0.06335282, -0.08150050, -0.01202294, -0.63855588, -0.65657341, -0.31307682, -1.18132925, -0.54988110, -0.25799891, -0.11847050, -0.04151707, -0.15875304, 0.18108018, -0.14526896, -0.01769126, -0.01123738, 0.17253947, 0.05665512, 0.10198341, -0.01665371, 0.45765445, 0.78877580, 0.37387490, 0.31023324, 0.62675864, 1.07847893, -0.11982995, -0.03908443, -0.01388049, 0.04026784, 0.03651335, 0.83486527, -1.15357244, -0.25200322, 0.35411754, 0.30780485, 0.30153614, -0.25968921, -0.19484885, 0.19988014, 0.04024166, -0.30414674, -0.03848798, 0.10721382, -0.26202783, -0.28078559, 0.24930809, 0.18860699, 0.56357646, 0.51460814, 0.17322874, 0.23668094, 0.46875063, 0.47241506, 0.27583125, -0.07047902, 0.03837709, 0.00342691, -0.07869178, 0.02013611, 0.14551768, 0.46335423, 0.49387476, 0.59589887, 0.43466669, -0.02110066, 0.40670598, 0.54271132, 0.44997668, 0.66483802, 0.43125826, 0.33620894, 0.05562808, 0.19238937, 0.05787672, 0.12847291, -0.15728156, 0.20389673, 0.97148460, 0.46978694, 0.84856939, 0.42727777, -0.32189226, 0.07081319, -0.06123888, 0.00462580, 0.01297819, 0.02826352, 0.07646231, -0.60252339, -1.02294159, -0.44610974, -0.03046762, -0.15263009, -0.52466178, -0.45102388, 0.39283308, 0.41293502, -1.24137914, 0.26613212, -0.11202477, -0.16092895, -0.59831357, -0.08657662, -0.40916166, -0.30969077, 0.42251992, 0.41201586, -1.01576090, -0.01398656, 0.03618786, 0.07175739, -0.06669679, 
-0.00673819, -0.06844264, 0.02690152, -0.06574985, 0.06353800, -0.08435025, 0.05538566, 0.01646017, -0.03933997, 0.01553866, -0.08442497, -0.07228799, 0.19911264, 0.42795882, 0.10477516, 0.00775170, 0.08075815, 0.02554115, 0.02273144, 0.03385770, 0.03775834, 0.03966919, 0.02512933, 0.03777874, -0.00743181, -0.05903115, 0.01111571, -0.05203554, 0.06304657, -0.03655694, -0.02333656, -0.00499640, -0.08085564, 0.10431428, 0.58060867, 0.78801435, 0.70110714, 0.52879381, 1.10094273, 1.38047838, 1.57471228, 1.31752968, 1.02430129, 1.23495293, 0.90574402, 0.90438455, 0.41024995, 0.50558144, 0.66899937, 0.32842761, 0.36841124, 0.23024002, 0.04929012, -0.01937465, 0.02747823, 0.05136204, -0.07823180, 0.08526471, 0.06668682, 0.41886529, 0.34115115, 0.38240433, 1.43679821, 1.92619336, 2.29654598, 0.70417911, -0.13970761, -0.22897831, 0.51647836, 1.43061662, 0.76834953, 1.51245213, 1.94790030, 1.49508381, 0.62808603, -0.44295061, -1.06135380, -0.14153819, -0.14493662, -0.37364763, -0.00935698, -0.07239214, -0.00910960, -0.04713612, -0.00441577, 0.04827724, 0.41652924, 0.66161138, 0.90496254, -0.43854913, -0.35481980, -0.68843782, -1.22022331, -0.10640645, -0.58774334, -1.12083173, -0.66784090, 0.19552264, -0.02144478, 0.35871437, 0.61159927, 1.21284378, 0.52806300, 0.80115205, 0.79040706, 0.68018460, -0.01265190, 1.05590832, 0.21723691, 0.05317232, 0.04459567, 0.05630101, -0.00467414, -0.18608263, -0.59062910, -1.45267296, 0.12946536, -0.28211871, -0.47747669, -0.38774198, -0.36808819, 0.22342154, 0.00867407, -0.11627973, 0.08799267, 0.11772781, -0.01939002, -0.27329651, -0.07250588, 0.25266811, 0.00713512, 0.56519824, 1.42199039, 1.18605042, 0.83539069, 0.68898278, 0.20945533, -0.10343875, 0.05657591, -0.02282427, 0.06444757, -0.02283044, -0.25249732, -0.81514460, 0.09541604, -0.22056995, -0.09802102, -0.26990914, 0.00703938, 0.07087223, -0.15655920, -0.39894703, -0.11708148, -0.09068628, 0.16767237, 0.01815393, 0.20323917, 0.39404702, 0.04686093, 0.14338252, 0.57038736, 1.98909295, 2.04680753, 1.19290471, 0.88360417, 0.94724727, 0.50084156, -0.00880054, -0.05106877, -0.11068458, -0.49970946, -0.74878228, 0.19830328, 0.07977365, -0.42066139, -0.06493898, -0.00189400, -0.38485673, -0.33135206, -0.32483602, -0.31512898, -0.26646081, -0.15779904, -0.16522114, -0.30495879, -0.27209958, -0.58055872, 0.16401792, 0.03483944, 0.51668847, 1.02840483, 2.21866131, 2.78675747, 1.75677955, 1.16180468, 0.50931841, 0.04683494, -1.36291099, 0.27728030, -0.82200485, -0.43116176, -0.18818346, -0.26851827, 0.11205450, 0.11096147, -0.07560453, 0.24244870, 0.21547441, -0.34861133, -0.35837868, -0.23695274, -0.45566955, -0.47801265, -0.53844732, -0.37235484, 0.06043372, -0.01744140, 0.17187889, 0.43436971, 1.52228665, 2.32689571, 1.96358061, 1.28727663, 0.93782437, 0.89448333, -1.07501101, 0.33335665, -0.20020294, -0.75360924, 0.06907038, 0.11795171, -0.08566791, -0.35277507, -0.13244624, 0.00483417, 0.06793398, 0.17568003, -0.13050970, -0.27115557, -0.18226328, -0.34535158, 0.14109150, 0.10122606, 0.20248012, 0.05022830, 0.01404897, -0.10552531, 0.42488593, 1.33817744, 1.29142237, 1.92157710, 0.62899983, -0.41122863, -1.25935721, 0.41624328, -0.25792927, -0.79034871, -0.21715374, -0.18180841, -0.07237545, -0.32552326, -0.25513420, -0.45550972, -0.17150332, 0.16284296, 0.29155460, -0.08726522, -0.23353480, 0.16916580, 0.12404996, 0.20322262, 0.11262700, 0.10352838, 0.41157588, -0.27853549, -0.37921843, 0.35892254, -0.37180066, 0.45554653, -0.99034441, -0.47864380, -0.99723190, -0.48927963, -0.63772738, -0.53592396, -0.31788829, -0.18163492, 0.14032349, -0.14537957, -0.05690898, -0.00860657, 0.07625798, 0.22382145, -0.20235643, -0.15976475, 0.18359238, 0.13281244, 0.33270460, 0.05244249, -0.01010067, -0.21967126, 0.12501915, -0.40054762, -0.26023385, 0.58226705, -1.27259564, 0.03478324, -0.42516512, -0.12510920, 0.89474410, -0.73372114, -0.23879908, -1.00353169, -0.23528633, -0.23468940, 0.22214231, -0.08664632, 0.20962846, -0.04951742, -0.37759012, -0.26728106, -0.37677947, -0.29235524, -0.02020203, 0.01998916, -0.35267043, -0.27400780, 0.05713300, -0.58665413, 0.15359949, -0.54236645, -0.37333876, 0.09923159, -0.54326618, -0.43231276, -0.42992696, -0.04860555, 0.78941065, -1.01850522, 0.89183295, -0.75703341, -0.04836170, -0.30123526, 0.04955202, -0.04061564, 0.03698801, 0.09922931, -0.19304247, 0.27780843, 0.33283833, -0.34480891, -0.30440885, -0.33563742, -0.43190277, -0.19430961, -0.25239578, -0.02705022, 0.25353068, -0.22330338, -0.57267803, 0.57132107, 0.08497743, -0.37557817, -0.80213404, 0.36631396, 0.99839818, -0.51147968, -0.18063657, -0.65624648, -0.03326815, -0.33997789, -0.17687194, 0.00705699, -0.00978579, -0.02565156, 0.06998546, 0.42282158, -0.02908074, -0.31794432, 0.15179724, -0.13298799, -0.31601813, 0.09985141, 0.10360631, 0.24859793, -0.01565626, 0.29448146, 0.44843590, -0.01375338, 0.03217383, 0.45770228, 0.83877838, 0.93605340, 0.34967300, 0.26951215, -0.14171149, -0.70914048, 0.08677956, -0.05561054, 0.04228264, 0.09027801, -0.02808108, 0.22711793, 0.30404621, 0.05122332, 0.01242056, -0.08360646, -0.07338221, -0.05334970, 0.07335738, -0.09051949, 0.16328847, -0.05518965, 0.13601479, 0.20738499, 0.14000268, -0.14211306, 1.41206384, 0.96199191, 0.37008783, 0.71437627, -0.71094352, 1.48092926, 0.26643124, 0.01139944, 0.18441139, 0.09939889, 0.37613356, 0.40904972, 0.42930689, -0.03218471, -0.19121869, 0.01791963, 0.26457274, 0.19694588, -0.32008785, -0.11436334, -0.07199736, 0.10693922, -0.09174154, -0.30150795, -0.18596487, -0.34846115, -0.05718106, 0.30819651, 1.41742980, -0.19225863, 0.31130981, -0.78656340, -0.95610470, 0.25380677, -0.18959093, -0.21171033, 0.54714125, 0.24902844, 0.11834729, 0.12811387, 0.17094612, 0.17049034, 0.24262767, 0.15276738, -0.00862188, 0.61647934, 0.31357348, 0.03468163, -0.10477566, -0.13892594, -0.26996705, 0.08330797, 0.07899644, -0.46293139, -0.02058847, 0.09074540, 1.91293430, 1.23675680, 1.24116457, 0.03871727, -1.05209124, 0.58370912, -0.82463247, 0.34610033, 0.48121023, 0.62522095, -0.02542744, -0.06376667, 0.32855761, 0.23973136, 0.28118226, -0.24876410, 0.01185922, 0.49823239, 0.02346043, -0.03705136, -0.13524191, -0.03019249, -0.26183349, 0.08587878, -0.01598023, -0.37394714, -0.33344287, 0.97162664, 0.32553220, -0.32401261, 0.98974270, -1.06838417, -0.71306759, 0.07074837, -0.63288379, 0.30024335, -0.07575233, 0.02426625, 0.18234406, 0.05551526, 0.22990353, 0.01047965, 0.07604755, 0.42537868, 0.24091256, 0.22067577, 0.08396365, -0.10189676, -0.25229970, 0.06135307, -0.20838851, -0.03908830, -0.24109194, -0.25908694, 0.46358868, 1.13268566, 1.13833010, -0.80391783, 0.82941824, 0.12608573, -0.76360452, 0.39087507, -0.29616117, 0.21757203, -0.61133277, -0.09863584, 0.10437284, -0.11339864, -0.00883282, 0.21179084, 0.25047126, 0.05600855, 0.34835017, 0.20359243, 0.45514157, 0.24391118, 0.00864051, 0.12928240, -0.26375380, 0.16211991, -0.01296285, 0.13393255, -0.15728681, 0.34326211, 0.35952985, 1.71290243, 0.82241666, 0.02675316, 0.88386309, 0.77504712, -0.42988259, -0.09594018, -0.65676481, -0.05158249, 0.13173769, -0.23819578, 0.12172054, 0.21927793, 0.54734921, 0.80448443, 0.34227419, 0.04911904, 0.41563007, 0.36765510, 0.31787041, 0.34677327, -0.32497159, 0.13560964, 0.10350168, -0.13672885, -0.85636914, -0.08508459, -0.35123318, 0.30958775, 0.05568574, 0.15465121, 0.40936735, 0.03343154, -0.16562656, -0.16554560, 0.13028331, 0.04776024, 0.05242839, 0.01185441, 0.41000319, 0.07950201, 0.17280138, 0.02510290, 0.28245759, 0.06537291, 0.13560131, -0.06682458, 0.50538188, 0.18561307, 0.04446425, 0.21481200, 0.48703110, 0.05384630, 0.33733359, 0.12207475, 0.65090138, 1.17973208, 0.04194871, 0.15940456, -0.02523919, -0.06702885, -0.35105506, -0.83918047, 0.13594469, 0.41003999, 0.21250761, 0.29135936, 0.28500307, 0.11603214, 0.19857916, 0.05117263, 0.23354632, -0.09413547, -0.02595580, 0.04661672, 0.15790251, 0.13230298, 0.21622708, 0.13236417, 0.75074911, 0.23853888, 0.06995887, -0.45740539, 0.28991732, 1.14587486, 0.14239831, -0.08547214, -0.00374670, 0.00401610, -0.37760568, -1.09304214, -0.17327014, -0.46700507, -0.24007833, -0.00306817, 0.36771479, 0.04121246, 0.15235226, 0.32009533, 0.24112013, 0.35793379, 0.13893117, 0.50473547, 0.07960469, -0.15528971, 0.22454742, 0.42219594, 0.58253700, 0.13851470, -0.20333016, -1.10624754, -0.01883100, 0.69562733, 0.05600573, 0.02490392, -0.02338850, -0.75841206, -0.90991443, -1.74200094, -0.91017985, -0.83193684, -0.66796184, -0.46288365, -0.05188518, -0.32604977, 0.10880250, 0.24969944, -0.12946925, 0.10944146, 0.14597377, 0.12757953, -0.31610069, -0.14829068, 0.14303933, -0.35500684, -0.43081665, 0.02056496, 0.17134160, -0.19480713, 1.13829589, 0.68755001, -0.01179986, -0.06777786, 0.07097879, -0.78988224, -1.01513278, -0.86987484, -0.98648214, -0.88494837, -1.54875183, -1.39499414, -1.00677454, -1.05264676, -1.06776977, -1.18089461, -1.08103526, -0.50276655, -0.50760400, -0.87021410, -0.99616933, -0.60698771, -0.99369746, -1.42916095, -1.21463823, -0.64757544, -0.66703784, -0.47544694, -0.76811296, 0.53018016, -0.00969859, 0.00819772, -0.03245400, -0.08223620, -0.37426934, 0.29659492, -0.18798235, -0.54079598, -0.71780914, -0.66498160, -1.63614035, -1.57473040, -1.02381289, -1.74854982, -1.68485427, -2.29921746, -1.93187749, -1.58856606, -0.92487758, -0.58879864, -0.52769011, -1.81358671, -1.88378823, -1.47299314, -0.74214250, -0.89158237, -0.03967933, 0.00223269, 0.05785628, -0.06996507, 0.05340679, -0.08054633, -0.01138925, -0.00091646, -0.02888137, -0.83897209, -0.97073603, -0.98037463, -1.57925940, -1.22874606, -0.75978750, -1.00362694, -1.24038744, -2.16110396, -1.28513467, -1.36672127, -1.39820433, -1.23276687, -1.21086550, -1.10541773, -1.18734455, -1.21877337, -0.86215585, -0.02577878, -0.02767973, -0.02284936, 0.08095823, 
-0.04259442, 0.07662928, 0.06193495, -0.04799940, 0.03994498, -0.06346756, -0.02968705, 0.05242249, -0.08150591, -0.06751438, -0.04813978, 0.07103132, 0.18677427, 0.10665933, -0.13975500, -0.03852132, -0.05249501, 0.04961281, -0.03947679, -0.05928707, 0.07519563, 0.02247119, -0.07756075, -0.02860815, 0.00677780, 0.02507047, 0.01087807, -0.05554456, -0.06333967, 0.06803307, 0.03153134, 0.06284027, 0.03840514, 0.16123478, 0.66043526, 0.63512081, 0.82508296, 0.63552177, 0.62585032, 0.60394639, 0.60581642, 0.59689963, -0.11727621, 0.19676873, 0.45130506, 0.76817942, 0.27496165, 0.46270773, 0.85469729, 0.84393024, 0.85814643, 0.72056031, -0.04013978, -0.00045792, -0.06708997, 0.00828652, 0.03531247, -0.06586591, 0.01288726, 0.28270084, 0.11427462, 0.20922321, 0.78434777, 1.38788319, 1.40776050, 1.57059097, 1.63430476, 0.89796191, 1.55943203, 1.42539918, 1.45517397, 1.21932817, 0.85043746, 0.09449925, -0.24921218, 0.46893650, 0.45083463, 0.99096113, 0.90971887, 0.84766185, 0.09831169, 0.14525563, 0.04084705, 0.01330803, 0.02081218, -0.04942493, -0.19384207, 0.57312936, 0.12128861, -0.01126346, 0.91711569, 1.86035478, 1.57719731, 1.30522609, 1.42405725, 1.38744307, 1.80054963, 2.69442821, 1.85828209, 0.78108829, 0.44168797, 0.29434165, -0.02599900, 1.02769113, 0.35426408, 0.70758325, 0.74503833, -0.43001825, 0.02167053, -0.02986666, 0.33154914, -0.06629322, -0.06811240, -0.31391385, -0.65929645, -0.68158722, -0.66223228, -0.05055400, -0.08411483, -0.53053927, -0.46573743, 0.23163389, -0.00216446, 0.08293413, 0.05586495, -0.30666789, 0.40766585, 0.63534248, 0.32378680, 1.39137423, 0.68130064, -0.14609075, 0.18514219, -0.30539140, -0.14598203, -0.37452814, 0.12476066, 0.88448399, 0.72150528, 0.67231774, -0.01745255, 0.08447769, -0.75012368, -1.05589056, -0.28045884, -0.72051823, -0.49557912, -0.29680821, -0.35034055, -0.40893719, 0.25210980, -0.12435160, -0.23470044, 0.02917400, 0.04135923, -0.12345659, 0.09982907, 0.35992509, 0.02284319, 0.29501587, 0.48614895, 0.64834207, 0.21005052, 0.20348351, -0.29615754, 0.40703574, 1.21952641, 0.59745729, -0.07207575, -0.29138207, 0.07028604, -0.24329869, -0.22872263, 0.34200335, -0.14941135, -0.37264374, -0.38895535, -0.16818862, -0.04150258, -0.20465828, 0.25014028, -0.09097824, 0.04820900, 0.29051256, -0.19617933, 0.07664231, -0.03865051, 0.14939177, -0.07669686, -0.44998783, 0.38155815, 0.16626997, -0.25113717, 0.60195345, -0.51638561, 0.91197485, 0.07452036, -1.31025302, -0.51398051, -0.06087556, 0.53374964, 0.59659296, -0.35214353, 0.09518281, 0.12928967, -0.33176166, 0.03194841, 0.02323317, 0.05901182, -0.43811765, -0.12966082, 0.55046791, 0.36294019, 0.23965657, 0.36676329, 0.16955374, 0.09711884, 0.07561455, 0.04119918, -0.58691180, -0.13950861, 0.40846485, -0.93719149, 0.94618160, 0.50993586, -0.08202401, -1.10514355, 0.00220892, 0.04579728, -0.02566967, 0.16245177, -0.16450194, 0.04301739, 0.07031395, -0.09053957, -0.17212722, 0.12747101, -0.05808206, 0.01715182, -0.21022752, 0.33220178, 0.11077729, 0.03983874, 0.15636486, 0.29312649, 0.20236664, -0.20262770, -0.13786872, -0.01631083, -0.04719177, 0.29170194, 0.87742203, 0.01468452, -0.90614051, -1.14695370, -1.09561360, 0.00206306, 0.21102473, -0.03285382, 0.02238821, 0.22343159, 0.06908694, 0.18284221, -0.07965037, -0.13543729, -0.23425056, -0.07574344, -0.27382910, 0.04828012, -0.23464397, -0.03607481, -0.02723523, -0.03757817, 0.39551109, 0.08964665, 0.28309393, 0.07047313, 0.56973559, 0.57697290, -0.39315972, 0.04089595, -0.13431999, -0.12535131, -2.14428258, 0.08601154, 0.22970085, -0.26923656, 0.18122891, -0.02563250, 0.11942800, 0.17679234, -0.03848235, -0.16040543, -0.28617665, 0.16659598, -0.17645945, -0.02657083, -0.28918666, -0.06819455, -0.05517202, -0.19991384, 0.10327927, 0.46129459, 0.62516469, 0.68970191, -0.06658474, 0.49087298, -0.82774383, 0.09531314, 0.66133010, -1.78663313, -1.75000024, 0.14955649, 0.09710535, -0.05312461, -0.03403057, -0.02300428, 0.11146633, -0.11974789, -0.03334875, -0.35722554, 0.19493017, -0.09946395, -0.33991510, -0.46097711, -0.57476950, -0.15549925, -0.26104745, -0.74536371, -0.00378376, -0.31934145, 0.68844140, 1.29468286, 0.70769984, 1.29675364, -1.07241404, 0.05952103, -0.56572169, -1.57998621, 0.00418453, 0.08018413, -0.01076576, -0.16401096, -0.00670503, 0.09344777, -0.04062989, -0.22915752, -0.00846418, -0.04654031, 0.03887456, -0.48919708, -0.56970018, -0.41565409, -0.37691694, -0.38490343, -0.40441471, -0.17570966, 0.10195424, -0.60059845, 0.31765622, 0.70145589, -0.06075842, -0.20607504, -0.92672580, -0.00276897, -0.42874515, -1.11394393, 0.29230663, -0.50636661, 0.19223364, -0.50573695, -0.30401260, 0.02515707, -0.11848972, -0.20428392, 0.26706177, 0.11705319, -0.23353828, -0.37013504, -0.37096861, -0.13367212, -0.09934340, -0.28226137, -0.02895220, -0.28186432, -0.32074949, 0.22428972, 0.52156776, 0.18235631, -0.56314337, 0.05103157, 0.41231135, 0.92724735, -0.74408191, -0.68156415, -0.24302897, -0.40637437, 0.28117406, -0.00580259, -0.31158435, -0.13580585, -0.08272105, 0.00556763, 0.20995679, -0.22376968, -0.35269615, -0.27740532, -0.53959286, -0.35817933, -0.37994099, -0.55700445, -0.48030528, -0.26433462, 0.28785154, 0.27078560, 0.02551189, -0.09440721, -0.66434240, -0.62754768, 0.15409002, 0.80248654, -0.54372156, -1.06815720, -0.55511349, -0.37232098, -0.02249459, -0.03784957, -0.05772279, -0.04517615, 0.11980326, 0.01487598, -0.06683961, -0.20092189, -0.17669481, -0.36023173, -0.65220088, -0.35670495, -0.74649537, -0.60958141, -0.27159750, -0.25556234, -0.46766919, -0.40218151, -0.39649847, -0.47128102, 0.24789530, -0.58289272, 0.73644429, -0.71001321, -0.57632107, -0.71336323, -0.15868007, -0.29754406, -0.15081975, 0.12532555, -0.39078569, -0.12871285, -0.30828100, 0.01182275, -0.03120671, -0.01385256, -0.19610609, -0.46376958, -0.53458858, -0.53913748, -0.54442167, -0.54451233, -0.08345662, -0.17949800, -0.38937071, -0.20023198, -0.49297681, -1.28833544, -0.34698698, -0.49148321, 0.70947021, -0.04320280, -0.73868877, -0.27546352, -0.73245877, 0.16173716, 0.26844782, 0.23259786, -0.06956014, -0.04410049, 0.11413543, -0.17857119, -0.08467218, -0.58489108, -0.48688757, -0.45021057, -0.46997139, -0.07104298, -0.08223973, -0.07121298, 0.34985781, 0.23154774, 0.00681432, 0.09189963, -0.03809259, -0.03648793, -0.43001559, -1.38765132, 0.67296970, -0.50477225, -0.78125334, -1.05434680, -1.15040207, 0.24309963, 1.12683070, 0.98991227, 0.72809589, 0.80423260, 1.02539206, 0.85737050, 0.83878201, 0.44617817, 0.17747319, -0.03272473, 0.05432771, 0.20948169, 0.45316491, 0.52358240, 0.68332237, 0.45075619, -0.03974982, 0.20933822, 0.24946491, 0.83895570, -0.73783326, -1.25943947, -0.86022669, -0.11010411, -0.59892839, -0.56548333, -0.97316372, 0.26251569, 1.10546780, 1.11666656, 1.22326255, 1.44342637, 1.75009382, 2.13247132, 1.83276713, 1.88246810, 1.48912573, 0.66756916, 0.47056103, 0.24337532, 0.61059040, 0.44126892, 0.53800714, 0.28302222, -0.12246133, 0.93486410, 1.01042497, 1.43368399, -1.00585389, -0.89032674, -0.87489247, -0.02607012, -0.18435574, -0.45621550, -0.12116513, 0.23334616, 0.45955747, 0.24286148, 0.45784643, 0.43417913, 0.69724232, 0.40930092, 0.63576126, 0.94222587, 0.85994560, 0.39850548, 0.42590991, 0.04213288, 0.31652090, 0.08512543, 0.37632355, 0.28751996, 0.00302806, 0.55009377, 0.66167480, 0.58542067, -0.87745243, -0.85702646, -0.06804650, -0.19013116, -0.45094681, -1.64734292, 0.04462057, 0.07666606, 0.10633340, 0.51159060, 0.45759419, -0.29571763, -0.02352299, -0.23311369, -0.18584241, -0.01113777, 0.13440670, 0.45967868, 0.41545603, 0.17273885, 0.49707341, 0.08547793, 0.41183347, 0.24250287, -0.08586031, 0.55460334, 0.79811651, 0.28240907, -0.06992740, 0.63237476, -0.00224982, -0.27513286, -0.15481254, -2.42264032, -0.51650929, -0.00628093, -0.24586454, -0.13289601, 0.12858561, -0.03852935, 0.04737625, -0.14385210, 0.03153379, -0.10377356, 0.26059985, 0.41053697, 0.43596557, 0.36147460, 0.22320172, 0.16108729, 0.38012069, -0.05069161, -0.00303957, 0.26616499, 0.92209029, 0.38558212, 0.68577415, 0.25724077, -0.01601660, -0.02236395, -0.02525504, -0.46908557, 0.03710243, 0.38868299, -0.15306184, -0.47187963, -0.63434547, 0.12202488, 0.21202974, 0.18686315, 0.37764388, 0.17075256, -0.02819411, 0.24171530, 0.20826066, 0.64912921, 0.34151909, 0.27794191, 0.29888248, 0.47614244, 0.19204560, 0.82371736, 0.61999637, -0.16859208, 0.14128654, -0.99131209, -0.02285714, -0.04388688, 0.06592950, -0.79959291, -0.24167898, -0.55320805, -0.60324574, -0.31714171, -0.08867966, 0.17958146, -0.01358849, -0.21880533, -0.03709518, 0.32018119, 0.24520935, 0.18047683, 0.45479667, 0.43143076, 0.11122743, 0.29227203, 0.51229292, 0.18396366, -0.53340691, 0.23268273, -0.04527248, 1.01142609, 0.47759622, -0.85783648, 0.00981158, -0.01591282, 0.04214959, -0.17707588, 0.67361283, -0.03137667, -1.48033369, -0.44475323, -0.70996326, -0.35278419, 0.03757488, 0.28774449, -0.00771532, 0.14646572, 0.36163616, 0.14626095, 0.46356300, -0.05752961, -0.08026618, 0.19895543, 0.55940777, 0.15957266, 0.18409312, -0.18239143, -0.39501110, 0.82055843, -0.57378250, -0.71620548, -0.02248746, -0.02126122, -0.05594210, 0.02313974, -0.13277730, -0.08585639, -1.06122339, -1.19142234, -1.31878495, -0.50026834, 0.00013264, -0.24512073, 0.19254999, 0.05627364, -0.13036217, -0.26972964, -0.38939473, -0.86699754, -1.36667681, -0.78177601, -0.63768262, -0.33881623, 0.35106304, 0.30032629, 0.21497063, 0.19258705, 0.00392540, 0.06676193, -0.07515153, -0.04626419, -0.06210957, 0.01286999, 0.08323677, 0.01082176, 0.21186560, 0.74876970, 0.38877097, 0.41032919, 0.28636479, 0.61662084, 0.67757517, 0.46949124, 0.29519731, -1.02220798, -1.24501228, -0.59855688, 0.11637832, -1.10905123, -1.07125592, -1.14341295, -1.47672391, -1.05641675, -0.89873403, 0.01029468, 0.00933780, 0.04345500, -0.03813878, 
-0.06890961, -0.02588119, 0.00729030, 0.06087172, 0.02175672, -0.04082229, 0.08325814, 0.04017688, -0.05564151, 0.05788009, -0.06554238, 0.02503024, 0.08172512, 0.20195562, 0.01894992, -0.05738633, -0.03212422, 0.06606793, 0.06785554, 0.07099614, 0.03240284, -0.02264870, 0.06574345, 0.04718289, -0.07876708, -0.03076168, 0.08266237, -0.04232544, -0.00718551, -0.00402900, -0.06608944, 0.05973698, 0.05452240, 0.01912956, 0.14107199, 0.10382275, 0.21071453, 0.08467381, 0.18787403, 0.25492188, 0.40418282, 0.50669324, -1.07372165, -1.15954328, -0.70166630, 0.77237839, 0.32705927, 0.43005094, 0.64596844, 0.29024759, 0.11801938, 0.01326850, -0.06623144, -0.05828585, 0.01509050, 0.07677671, 0.08190034, 0.06849357, -0.00916548, -0.05609620, -0.01901397, 0.08882292, 0.33005139, 1.04240060, 1.23861110, 1.69060802, 1.68916047, 1.94215572, 0.85496968, 1.18371320, 1.46364701, -0.03333939, -0.29598102, 0.41403818, 0.15393429, -0.32864511, -0.19754687, 1.01081002, 0.62546730, 1.26091671, 0.82129091, 0.32151571, 0.06100002, -0.00476098, -0.02474262, 0.02041970, -0.98845184, -0.83941966, -0.12511523, 0.52909148, -0.33292761, 0.16197430, -0.06380086, 1.01635194, 0.58321273, 0.02681786, -0.05015413, 0.72372544, 0.69696856, 0.01685117, 0.34606767, 0.68923765, 0.51787722, 0.89358062, 0.69951469, 0.33321142, -0.01306944, -0.61901915, 0.00079021, 1.26264858, 0.99760395, -0.02102495, 0.01156434, -0.07032069, -0.95390141, -1.08286881, 0.33262986, 1.18134332, 0.48055795, 0.23832542, 0.30097061, 0.33969465, 0.19568755, -0.30478692, -0.20480686, 0.11298883, 0.02694187, -0.54512823, -0.19947924, 0.08884147, -0.30287081, 0.01316046, 0.10760190, -0.46373752, -0.77600664, -0.40287870, 0.13846816, 0.87694925, -0.45936388, 0.77060378, -0.06224665, 0.03905477, -1.04266918, 0.36031988, 0.59798861, -0.39246148, -0.81885439, -0.40918607, 0.70457953, 0.17525658, 0.25164473, 0.13513064, -0.19078542, -0.10755729, 0.10821898, -0.09077179, -0.02578365, -0.15584464, 0.09945251, -0.20752920, -0.39984882, -0.10060604, -0.95011461, -0.27517816, 0.56224322, 0.35417673, -0.37093252, 0.79355597, -0.05617655, -0.12461592, -0.36821309, 0.81734699, -0.03943015, -0.56132418, -0.22171025, -0.10773347, 0.27111501, 0.29386222, -0.03982219, 0.13009669, 0.11052048, 0.01506970, 0.19772646, 0.05179368, -0.17029180, 0.19354087, 0.19168760, -0.11261852, -0.12578927, 0.48891443, -0.17558119, -0.22001106, 0.08117290, 0.55762368, -0.83125627, 0.19897029, 0.08440907, 0.88783157, 0.12380403, 1.49000299, -0.08379432, -0.49143502, 0.20538110, 0.16635726, 0.27112672, 0.14998256, 0.00524434, 0.09402107, -0.07336812, 0.08646656, 0.04575997, -0.28978780, -0.21352927, -0.02970999, 0.08947425, -0.13626841, 0.02286607, 0.33512026, 0.00830965, 0.13836689, 0.33209646, -0.03669971, -0.25958410, 0.14865188, 0.01793845, 1.59100473, 0.10406864, 0.38634714, 0.11651788, -0.30564502, -0.43902448, 0.21861196, 0.19730578, -0.13160628, 0.19908628, 0.06479134, -0.10212230, 0.00572142, 0.31326175, -0.04199150, -0.22122534, 0.02610997, -0.01994748, -0.01077447, 0.15534851, 0.03445049, -0.03930643, 0.87928671, -0.00753848, -0.62594175, -1.20106649, -0.98630440, 0.51183116, 1.10523248, -0.17082176, 0.50457627, 0.59082949, 0.39577764, -0.32348269, -0.06401964, -0.19272994, -0.14271094, -0.09631180, -0.08643764, 0.15402757, -0.07155953, 0.04807563, -0.02687893, -0.07457311, 0.02118229, 0.02494864, 0.13769399, -0.05079735, -0.06737601, -0.12649585, 0.14630499, -0.19125129, -0.75440365, -1.28561199, -0.35283628, 0.54049313, 0.65444249, 0.99331379, 0.08985919, 0.25984466, 0.84656185, 0.10573151, -0.02617419, -0.56562823, -0.13140577, -0.10073931, -0.09222796, -0.36935979, 0.24080172, 0.03845651, -0.25551984, 0.03383769, 0.02569217, -0.05336165, -0.10927514, -0.10865109, 0.14349753, 0.01279016, -0.80939251, -0.71293360, -1.27839601, -0.95763403, -0.31582266, 0.26113471, 0.78353870, 0.86368430, 0.54834598, 0.58211499, 0.21501441, -0.05168649, -0.00871813, 0.01583984, -0.05878862, 0.33302015, 0.17790806, 0.25149864, 0.21273193, -0.20595464, -0.10539102, -0.17090978, -0.20497498, -0.02208677, -0.00414176, 0.15076716, 0.26683044, 0.34943646, -0.43678525, -1.27234912, -1.41473699, -2.36146116, 0.43952531, -0.00341627, 1.14715779, 0.75211084, 1.40469909, 1.16664267, 0.31190360, -0.44647157, 0.22380534, 0.46791521, -0.05130760, -0.09769721, -0.24736306, -0.36241326, -0.47437674, -0.62711078, -0.33053312, -0.11371119, -0.16765508, -0.18952081, -0.40379679, -0.61803442, -0.45366189, 0.02845768, -0.28232464, 0.11536635, 0.33798549, -0.34295231, 0.66812301, -0.14354244, 0.53806257, 1.34904420, 1.82976294, 1.46183252, 0.50182551, -0.11949150, -0.51195753, -0.23223032, -0.30750290, 0.18758334, -0.28009894, -0.73309219, -0.69693577, -0.44394186, -0.36121112, -0.23150490, -0.20598412, -0.25568473, -0.41376960, -0.46568558, -0.49205914, -0.03983020, 0.41464496, 1.03001046, 1.50020230, 1.12330639, -0.35674191, -0.18763718, -0.05920518, 0.84652156, 1.71843374, 1.26806462, 1.16337931, 0.39439771, -0.17435052, -0.16784796, -0.12948042, 0.23743662, -0.08075412, -0.52898759, -0.25076234, -0.58550060, -0.45409331, -0.37760141, -0.35061288, 0.26050735, 0.68221700, 0.37345302, 0.58053088, 0.59236413, 0.63627136, -0.09980714, 1.52707601, 1.01409304, 0.62230819, 0.10017659, -0.26639298, -1.07481563, 1.11557662, 0.68222857, 2.11677408, 1.10184968, 0.31174791, 0.51048642, 0.13787214, -0.17410325, -0.44769683, -0.70974863, -0.42249104, -0.25556651, -0.18009293, -0.30592468, 0.36010528, 0.10276031, 0.59483737, 0.22723922, 0.43718323, 0.22327104, -0.20508128, -0.40467018, 0.59014904, 1.16105914, 0.71563959, 0.49012652, -0.55416745, -0.00742009, 0.62744868, 0.49756429, 1.52383888, 1.50396359, 1.30950642, 1.40485692, 0.34942353, -0.02384621, -0.33031631, -0.66638124, -0.43831876, -0.22443573, 0.03850767, 0.37685508, 0.68709791, 0.05624227, 0.23106198, -0.01590955, 0.32063890, 0.33409014, -0.17865878, -0.26391542, 1.01762629, 1.02084327, 0.68771863, 0.01991113, -0.24733700, 0.85265046, -0.27905467, -0.07677294, 0.60095406, 0.60542268, 1.12288225, 0.94028884, 0.68313432, 0.97466451, 0.63946885, 0.23167422, 0.12252494, 0.08259799, 0.13231044, 0.18316187, 0.05491750, 0.06670686, 0.03272351, 0.08804405, 0.07459802, 0.20978743, -0.06190891, 0.44544429, 2.48629808, 0.55648983, 0.17077650, 0.94426173, -0.31937903, 0.60416734, -0.50973409, -0.29135841, -0.15069476, -0.44239932, 0.28849784, 0.60199118, 1.30166817, 1.52849722, 1.21847796, 1.23361254, 0.62864333, 0.04050778, 0.05378504, -0.02798965, -0.07516164, 0.23052484, -0.09454598, -0.34477663, -0.05325662, 0.04733390, 0.19558606, 1.15210819, 1.96812987, 0.25694242, -0.84025288, -0.42295250, 0.96620351, 0.43982881, 0.46045434, 0.28641090, -0.69304085, -0.51749086, -0.25213522, -0.18751676, 0.40556222, 0.48744333, 0.90940040, 1.14057899, 0.64427376, 0.38988236, 0.09199466, -0.34796932, 0.04186677, -0.08162946, -0.13243379, -0.36490405, -0.03496889, -0.03270456, -0.00938130, 0.48080102, 0.26662701, -0.25567266, -0.78138083, -0.05787282, 0.46161285, 0.13781570, 0.62562746, -0.35420212, -0.29386258, -0.31405666, -0.31203669, -0.49305815, -0.13085066, 0.01006163, -0.01592742, 0.35515767, 0.55465251, 0.40707302, 0.20078868, 0.06117100, -0.14486369, -0.34316090, -0.16839401, 0.31132579, 0.14755672, -0.45964482, 0.14510623, 0.27140340, -0.04104729, -0.30882812, -0.60599220, -0.50700337, -0.23398411, 0.38336268, 0.05514992, -0.63578314, -0.16108313, -0.42841330, -0.34888539, -0.13127623, -0.09042910, -0.16117506, -0.30381855, 0.01980476, 0.15768225, 0.30896986, 0.05605327, 0.12950972, -0.21852635, -0.25498497, -0.01905175, -0.04511134, -0.10554985, 0.14657257, 0.66773409, 0.21693222, 0.97195762, -0.09618445, -0.06351004, -0.56800479, -0.32898203, 0.60566437, -0.28653741, -0.33840394, -0.24820685, -0.25278351, 0.05471999, 0.03255608, 0.17649846, -0.00775270, -0.07776399, 0.16670632, 0.20066325, 0.26767078, 0.31098133, 0.17709312, -0.30739722, -0.04706687, -0.47433031, -0.22645193, 0.05686025, 0.17178126, 0.30481502, 0.30146343, 0.76278633, -0.75438786, -0.06689243, -0.08017156, -0.05272397, -0.93899143, -1.16093218, 0.14741637, 0.59741342, 0.36882746, -0.09037200, -0.15497114, 0.15409036, 0.07850723, 0.14867471, -0.17169632, -0.28174627, -0.03108696, 0.19637445, -0.08157600, -0.19434874, -0.12504287, -0.19457252, -0.14274338, 0.24680489, 0.84913498, 0.15678985, -0.48341918, 0.84979165, -0.59497690, 0.03343522, 0.06643008, 0.03437002, 0.21013872, -1.69926989, -0.27378780, 0.50611907, 0.11478519, -0.38613963, 0.01257942, -0.30965525, -0.52272981, -0.11497771, -0.21483631, -0.00169038, 0.31499860, 0.51051140, -0.05772541, 0.31653899, 0.34504217, 0.39799190, 0.16988724, 0.35306820, 0.10259932, -0.93595225, 0.60562086, 0.60568243, 0.58554161, -0.04948889, 0.00912020, -0.03073783, -0.35478318, 0.71928531, 0.26446173, 0.14933611, -0.03295435, 0.08387005, -0.17065591, 0.00237951, 0.00110118, 0.34556586, 0.10370334, -0.13184504, -0.15987024, 0.27449545, 0.36811793, 0.48950374, 0.57351851, 0.06814227, 0.47186023, 0.88318038, -0.09290969, -1.26737189, -0.84291947, -0.54266065, 0.34920511, 0.04251887, 0.04458849, 0.00437930, -0.07747609, -0.59821087, -1.10477245, 0.63987499, 0.73332649, 0.79816443, 0.68438214, 0.45264214, 0.52108580, 0.68514436, 0.76127177, 0.93107194, 0.58225876, 0.24917600, 0.62784135, 0.65363884, 0.15064873, 1.11203063, 1.22072589, 0.65795654, 1.00761092, -0.09476355, -0.00564946, 0.02655550, -0.08119971, 0.07795635, -0.04594915, -0.05889857, -0.00611810, 0.07966515, 0.27964765, 0.68045670, 1.30792439, 1.25017512, 1.26494145, 0.32597959, 1.13595974, 0.36840379, -0.20250005, 1.31509316, 0.48675317, -0.05564119, 0.94377655, 0.89972204, -0.36929721, 0.97094405, 1.12313557, 0.89039487, 0.85216480, 0.05649171, -0.00947950, -0.00410696, 0.05986841, -0.03696574, 
0.06641741, 0.07056428, 0.01566029, 0.07294814, -0.00293670, -0.08094760, -0.00250784, -0.08380071, -0.01500352, 0.03931177, -0.08601265, 0.05812398, -0.10857318, -0.05606255, 0.02420841, -0.01039334, 0.07573353, 0.00634137, -0.06530178, 0.05608082, 0.07854436, -0.05775956, 0.01760388, -0.04033606, 0.01884152, -0.03735545, -0.01342135, -0.06122723, -0.01230922, 0.08277467, -0.07773098, 0.06165338, -0.14233856, -0.18459676, -0.55844253, -0.81032008, -0.56637549, -0.69871777, -1.57204342, -1.96954620, -1.81531370, -0.44535279, -0.22345956, -1.41291702, -1.55519605, -1.51278865, -1.59916461, -1.02644372, -0.86623830, -0.35851920, -0.67967767, -0.62972504, 0.07912236, -0.02722051, -0.05423554, -0.06351727, -0.00120942, -0.04965119, 0.06489085, -0.16252141, -0.85098356, -0.79389083, -0.85760629, -1.30895150, -0.47614425, 0.80347198, 0.41391641, -0.11291472, -0.39851362, -0.60811174, 0.00213042, -0.93371695, -1.61600840, -1.52156150, -1.09511840, -0.96550685, 0.13383007, 0.26234224, -0.32347643, -1.04458213, 0.47897977, 0.46057269, -0.01693878, 0.01110414, -0.03923325, -0.02262008, -0.79384750, -0.97288603, -1.19734573, -0.38881510, 0.43365464, 0.70098424, 0.55508226, 0.27612436, 0.13146566, 0.04752468, -0.51371533, -0.52848941, -0.44368973, -0.72224069, -0.26185173, -0.20718381, -0.33215415, -0.83680886, -1.25734997, -0.99423248, -0.89892113, -1.13273513, -1.12150836, -0.66456562, -0.50280470, -0.07455406, -0.07034726, -0.00936888, -0.79109287, -1.41185975, -1.03012848, 1.23888135, 0.84292400, 0.46288273, 0.39991367, 0.25195912, 0.31177232, -0.03591090, 0.49253049, -0.13353290, 0.28493658, -0.47197151, 0.19336353, -0.28926447, -0.21123274, 0.36481512, 0.01661852, -0.80903900, -0.39378113, -0.33211213, -0.10625322, -0.13848349, 0.06257926, 0.51319313, 0.08036356, -0.07441805, 0.52782851, -0.32085916, 0.13685870, -0.35233995, -0.33753052, 0.13832283, -0.11022652, -0.18238768, -0.65715080, 0.27389789, 0.19205366, -0.09707222, 0.00877030, -0.01486051, -0.03213001, -0.09864891, 0.00326377, -0.07006923, -0.07543739, 0.00069194, -0.16926095, -0.17030549, -0.67558891, -0.07021745, 0.66971654, 0.61573988, -0.03727779, -0.03107600, -0.58825213, 1.44726813, -0.06503303, -0.23181103, -0.07195292, 0.34589106, 0.18600404, -0.05499114, 0.19301748, 0.12904468, -0.02645701, -0.12870573, -0.28817201, -0.28634921, -0.12990761, 0.22832802, 0.24498986, 0.11761913, 0.07504434, 0.07079049, 0.19062594, 0.29455805, -0.67636234, -1.14365876, -0.24943505, 0.51563787, -0.00932113, -0.08073059, 0.60487139, 1.25291526, 0.87698704, -0.00544811, 0.34133333, 0.03519488, -0.06051493, -0.20873690, -0.11661775, -0.26093382, -0.24506670, 0.00174615, -0.41106814, -0.15291737, 0.09104834, -0.12381700, -0.00385678, 0.11880168, -0.05594559, -0.31798911, 0.14383547, 0.38337785, -0.05678007, -0.53605169, 0.04898153, 0.40405619, -0.15898752, -0.18223423, 0.01119099, 1.02073061, 0.80736351, 0.38077533, 0.27380088, 0.30921781, 0.29072741, 0.11674388, -0.15854955, 0.09700692, 0.03232932, 0.04871755, -0.70103896, -0.40181151, 0.03467389, 0.21403122, 0.44440034, 0.36740869, -0.19485547, -0.13989952, 0.17470349, -0.32561505, -0.43946907, -0.18307659, 0.31103510, 0.44685358, 0.05789242, 0.03176035, 0.40802109, 0.03496114, 0.10900754, 0.51074606, -0.05035530, 0.01295546, 0.10724907, 0.01437477, -0.05241628, -0.18292481, -0.16754916, -0.62668854, -1.15201294, -0.23869626, 0.82154083, 0.85634214, 0.08744011, 0.31959724, 0.34705323, 0.00402268, 0.03354762, -0.08753463, -1.01325202, -1.04864764, -0.02688712, -0.86444086, 0.13134097, 1.21968901, 0.40510431, 0.51429904, 0.21200919, 0.03752075, -0.17799602, -0.10057990, -0.42504954, -0.26481205, -0.37653098, -0.34877843, -0.49520820, -1.08518302, -0.40361255, 0.86519659, 1.01882541, 0.67910194, 0.41177920, 0.73942846, 0.53741992, 0.65155661, 0.75281394, 0.73477656, -0.58853656, -1.00938475, -1.06331801, 0.34148020, 0.49483794, 0.45970345, -1.20232689, 0.64206129, 0.10333842, 0.21491110, -0.31613106, 0.06445684, -0.44004428, -0.06237661, -0.27048838, -0.03814136, -0.17966598, -0.41728061, 0.64478618, 0.92121291, 0.12932393, 0.26119393, 0.23792046, 0.48137626, 0.79155511, 0.77148604, 1.07178044, 0.51126236, -0.01750938, -0.94977802, 0.16259214, -0.88077158, 0.12846795, -0.45540380, -1.24698424, 0.31362692, 0.04653403, -0.04334176, -0.61133164, -0.23558086, -0.02004339, -0.05590715, -0.44489178, -0.25790927, -0.09806178, 0.17401043, 0.51545942, 0.35210186, 0.32217017, 0.65650237, 0.17597759, 0.57898998, 0.50039679, 0.77696079, 0.75399983, -0.38197547, 0.30441099, 0.18671951, 0.30153236, 0.07364274, 0.03387928, -0.75147808, -1.55087709, -0.54412872, -0.29036042, -0.36578482, -0.09541064, -0.15474650, 0.24133420, 0.16261111, -0.18117136, 0.15695368, 0.06536124, 0.46807140, 0.34726182, 0.42680892, 0.33579391, 0.49061504, 0.34498245, 0.40503314, 0.29622510, 0.50367242, 0.41535696, -0.73139960, -0.51228231, 1.40406942, 1.30958462, 1.09309626, -0.85898995, 0.09971251, -1.15555489, -0.22690061, -0.46802184, 0.05373079, -0.14160952, -0.27796957, -0.35292366, -0.23144184, -0.15446708, 0.12011267, 0.15376523, 0.76404321, 0.38543898, 0.09378515, 0.60614783, 0.56890363, 0.45826626, 0.23967203, -0.10458878, -0.10450397, -0.82241350, -0.94420904, -1.07994521, 1.10430706, 2.73541856, 1.23161042, -0.68871784, -0.27138415, 0.80521947, 0.55611479, -0.31330293, -0.29833889, -0.10717668, -0.40329292, -0.20743607, 0.01571782, -0.27754980, 0.00930350, 0.09968447, 0.43918741, 0.40939704, 0.04188933, 0.41016504, 0.49078602, -0.06723940, 0.36629662, 0.04379213, -0.37333649, -0.47830588, -0.70723999, -0.62470168, 0.83411682, 2.05399203, 0.96243173, 0.36079571, -0.24633744, 0.60554522, 0.12105145, 0.18403190, -0.15486135, 0.43735573, 0.19299604, 0.15790446, -0.00820118, -0.04888150, 0.07964336, 0.45110586, 0.30814871, 0.17770302, 0.49364874, 0.78007758, 0.59852815, -0.04215536, -0.04581561, -0.20612986, -0.15712272, -0.31249779, -0.31765184, -0.09708851, 1.00769496, 2.38603830, 1.03456903, 0.07694629, -0.27829742, 0.72089338, -0.84692520, 0.48957285, 0.22086574, 0.07671219, 0.22107369, 0.41100669, 0.20091009, -0.01994241, -0.03332385, 0.37690449, 0.55114949, 0.34815830, 0.52581894, 0.57855731, -0.36140838, -0.40046349, -0.34548742, -0.29525411, -0.20389019, -0.30981418, -0.60293436, 0.14586908, 0.08696480, 1.57614005, 0.26392582, -0.49504030, -0.11409087, 1.14424384, -0.95105582, 0.25493848, 0.26806077, -0.23610613, 0.16365829, 0.49213728, 0.17552370, -0.15405434, 0.23813175, 0.87159073, 1.33106673, 0.48862317, 0.24794418, 0.00067439, -0.38751164, 0.07833528, -0.10039727, -0.12422233, -0.12036392, -0.22992942, -0.08846552, 0.43408069, 0.09353236, 2.02034664, 1.02864850, -0.00946810, -0.87300652, -0.13349885, 0.19039546, 0.14424257, 0.08663077, -0.22829661, 0.18996650, 0.15527873, 0.53172588, 0.16076605, 0.05453133, 0.07393818, 0.41158134, 0.00037433, -0.15433280, -0.13546726, -0.22104175, 0.10253190, 0.18712209, -0.14753117, -0.20558028, 0.18533073, 0.10304549, -0.44617400, 0.14985964, 1.63686025, 0.63824856, -0.04261608, -0.18432467, 0.24039318, 0.97856671, -0.04200399, -0.22483286, 0.03209685, -0.02576543, -0.25082329, -0.20254622, -0.10356664, -0.42711917, -0.15617688, -0.11125097, -0.35998416, -0.20033200, -0.14721875, -0.24958803, -0.23813115, 0.17088430, 0.00964790, 0.05544467, -0.00429979, -0.06319417, -0.84606504, -0.19784966, 1.72703242, -0.07725112, 0.08160209, 0.00244858, 1.20558846, 0.33109543, -0.37256351, -0.06420442, 0.11854332, 0.06756531, -0.33320054, -0.21411940, -0.08077575, -0.20910734, -0.49400532, -0.33623418, -0.25383434, 0.09952810, -0.03038634, 0.06835144, -0.12955806, 0.07683699, -0.16461508, -0.34743556, 0.04669926, -0.24816787, -0.95023888, -0.43287039, -0.11510767, -0.34862971, 0.08809739, -0.11082432, 1.14224374, -0.54755855, -0.25910279, 0.30657417, 0.23041569, 0.04722098, -0.05218257, -0.08673458, 0.17724399, -0.14306127, -0.41941568, -0.28566909, -0.23891710, -0.32435992, -0.16220644, -0.13963629, -0.35612613, 0.10714342, -0.07350414, -0.17673026, -0.18725161, -0.60574883, -0.55341071, -0.61383593, -0.89645451, -0.58619326, -0.06795750, 0.08443734, 0.60362107, -0.85947698, -0.20935261, -0.47820616, -0.09402106, 0.22167550, 0.25403160, 0.02981819, -0.23201725, -0.23722237, -0.06365269, -0.23674168, -0.31839177, -0.11367406, -0.02848582, -0.03910757, 0.61283422, -0.03142219, -0.33753943, 0.31641379, 0.46349105, 0.48696694, -0.44658217, -0.60033792, -0.90609211, -0.00765385, -0.07288229, -0.06918979, 0.54972845, -0.31790173, -0.10332772, -0.04075821, -0.38436186, -0.44123369, -0.62557143, -0.48937401, -0.23921441, -0.22934914, -0.35881656, -0.20690610, -0.28375804, -0.10766794, -0.01323810, -0.50171119, 0.00199195, 0.08914381, 0.22768840, -0.09949349, -0.38822085, 0.32318488, -0.06007525, 1.29656518, 0.76875550, -0.02788798, -0.00706443, -0.06256867, -0.12557444, -0.92300534, -1.26082432, -0.55593753, -0.10893177, -0.52470261, -0.70385003, -0.52035403, -0.05857541, -0.07783272, -0.34958643, -0.10427301, 0.24174422, -0.53695792, -0.40854457, -0.47122669, -0.47167075, -0.81385326, 0.14487615, -0.91981095, -1.50875163, -1.09816325, -1.19321167, 0.01202539, 0.04841793, 0.07079409, 0.02631259, -0.01925863, 0.07813488, 0.09343150, 0.12772675, 1.13806736, 1.06595993, 0.92333239, -0.04729617, -0.31910133, -0.41937611, -0.71239883, -0.74661630, -0.74534529, -0.37583029, -1.12713969, -0.94486135, -0.14557126, -0.32817632, -0.93764925, -0.44491449, 0.48250267, -1.50600553, -0.60251784, -0.03143093, -0.06611824, 0.03831296, -0.07305344, 0.02178084, 0.06993881, -0.07594839, -0.05044868, 0.03844058, -0.08858749, -0.29459527, -0.53168499, -0.80241412, -0.46599430, -0.89543736, -0.88535094, -0.84617382, -1.39426351, -0.41044638, 0.53058052, 0.83215344, 0.28311867, 0.63907534, -0.06143233, 0.16152060, 0.25850546, -0.86676872, -0.43784553, 0.00554893, -0.03382123, -0.08594429, 0.00013578, 
-0.03643886, -0.05134270, 0.06210634, 0.07325146, -0.01080702, -0.04690177, 0.03322129, -0.04580926, -0.03031131, -0.07474620, -0.00147334, 0.01911493, -0.06176637, -0.00604852, 0.05401920, 0.07374266, 0.03786906, -0.06498948, 0.04313518, 0.05981512, -0.08455512, 0.08616671, -0.08032491, -0.08357981, -0.07315608, -0.05526027, -0.00295839, 0.07571590, 0.01801109, -0.00945865, -0.06556033, 0.02348223, -0.02743580, 0.04570775, -0.05365541, -0.08011220, -0.33692682, -0.71209407, -0.67520744, -0.02549291, -0.64281327, -0.40440649, -0.11903109, 1.06063008, 1.27305782, 0.03464709, -0.96504831, -0.21266522, -0.41848278, -0.22449474, 0.02059992, -0.06123126, -0.00877548, 0.03518251, -0.04085663, 0.06530166, -0.01519071, 0.02546504, -0.03433307, 0.82556570, 0.77012694, -0.10216048, 0.50620466, 0.55291373, -0.04182838, 0.59828186, 0.70476121, 0.65320820, -0.16006869, -0.24767841, 0.30630267, 1.08743536, 0.53459507, 0.16710091, 0.54422915, -0.10711569, 0.22256126, -0.23757701, -0.69795746, 0.03403155, 0.47750747, 0.90606529, 0.07861646, 0.01568652, -0.01605491, 0.06885509, 0.84620315, 1.16040111, 1.17103040, 0.31194395, 0.46238554, 1.78105879, 1.11993206, 1.40632856, 0.78731889, 0.43770951, 0.56896824, 0.96388626, 0.59270704, 0.19946474, 0.98878282, 0.39927530, -0.35118935, -0.38270485, 0.09842004, -0.63143361, -0.83502787, -0.85417449, -0.78476131, 0.34253252, -0.26479650, -0.04737468, 0.00927042, -0.07407348, 0.96462345, 1.14728677, -1.22402835, -0.36351794, 0.01624884, 0.22296643, -0.71197075, -0.07827800, -0.22064678, 0.28450891, 0.14896446, -0.02224258, 0.09282020, 0.05869425, -0.33762193, -0.25694442, -0.14136465, -1.12945199, -1.04279232, -0.91195297, -1.17786908, -0.37438217, -0.33544573, -0.37833411, -0.04554268, -0.91871446, 0.04028909, 0.07411648, 0.83873415, 0.95617950, -0.82813001, -1.12285268, -0.91695803, -0.59100014, -0.61566359, -0.53945255, 0.05021565, 0.58655852, 0.06004062, 0.63113981, -0.02090175, -0.30715579, -0.00438362, 0.08395784, 0.44615960, 0.20479926, 0.46254712, -0.43559390, -0.16485865, -0.86057979, -0.99392992, -0.35266426, 0.04241984, -0.71467131, -0.06914181, -0.05742595, 0.64014333, -0.06633741, -0.96733165, -1.51643002, -0.39132842, -0.72742641, -0.46551642, -0.13273381, 0.75257695, 0.78721106, 0.65184754, 0.98667997, 0.83180994, 0.69351315, 0.74067736, 0.63953286, 1.20698965, 0.45374644, 0.52920842, 0.23284304, -0.06343929, -0.80410028, -0.43383554, 0.02280067, 0.98532468, 0.08104865, 0.00687760, 0.35507205, 0.58467519, -0.68503982, -0.77633631, -0.86264700, 0.12030607, -0.69166589, 0.10690503, 0.03128034, 0.43738595, 0.34987563, 0.97354239, 0.68506604, 0.51473290, 0.39775881, 0.78276110, 0.29228476, 0.72273791, 0.51980442, 0.31711850, 0.18974018, 0.03365321, -0.11916956, -0.35219634, 0.13136965, -0.53148884, 0.01232781, -0.87111014, 0.66159892, 0.23243211, -0.56854773, -0.87129056, 0.03170684, 0.19427899, -0.43558556, 0.08853569, -0.05298705, -0.02143165, 0.44885653, 0.50239372, 0.67453164, 0.79721785, 0.58158803, 0.74903065, 0.36499032, 0.54463208, 0.62495196, 0.00703432, 0.31572852, 0.64908189, 0.02361868, 0.23628432, -0.19582929, 0.41457087, -0.26017091, 0.04158391, 0.83382618, -0.39283624, 0.32505879, -0.78705758, -0.46152231, -0.05064924, -0.34377804, -0.36311421, 0.05792608, 0.12943642, -0.09066939, 0.13255362, 0.48227623, 0.72091246, 0.67159748, 0.18797839, 0.55122870, 0.35380426, 0.50388342, 0.16414653, 0.00464878, 0.53820878, -0.17065394, 0.86713713, 0.74054557, 0.46176782, -0.62206227, 0.00561502, 0.80788803, -0.08025065, 0.18577772, -1.42016494, -0.67852652, -0.31685963, -0.35129049, -0.14168109, -0.29916835, -0.45381245, -0.48209655, -0.45115325, -0.18487151, 0.46202281, -0.21097058, 0.24634133, 0.08623151, -0.08933549, -0.00243151, 0.17700668, -0.02099935, -0.05561358, 0.28051406, 0.54004282, 0.38634008, 1.65601134, -1.03191507, -0.02708331, -0.29052931, 0.23552510, -0.80718982, -0.79231071, -0.30890766, -0.23422325, 0.09626763, -0.09367149, -0.88678443, -0.52603626, -0.35452214, -0.59764820, 0.11454692, 0.50768268, -0.31657836, -0.11016800, 0.31591466, 0.27338424, -0.17306581, 0.43235540, 0.37472922, 0.37574515, 0.33509120, 0.62920415, 1.48215556, 1.94179583, -0.01299577, -0.12597826, -0.68126923, 0.28603682, -0.70524615, 0.52242190, 0.13329738, -0.12724771, -0.25441900, -0.33028585, -0.12109912, -0.38895759, -0.57206106, -0.77698290, -0.38048914, 0.19504513, -0.17597641, -0.30339518, 0.05273715, 0.24551266, 0.06165832, -0.14045760, -0.23941740, -0.23675974, -0.04207108, -0.89108598, 0.41086018, 1.62955129, -0.31760281, -0.00750300, -0.48729384, -0.06470433, 0.17072262, 0.49983495, -0.05186908, -0.30787578, -0.07251450, -0.14212897, -0.41753826, -0.11792697, -0.18207055, -0.79779065, 0.19004433, 0.43197557, -0.29947135, -0.06480566, -0.11300793, -0.09798640, -0.27407315, -0.11812180, -0.42520517, -0.01061637, -0.65746516, -1.17026877, -0.68322361, 0.25412735, 0.06885426, 0.05317752, -0.57618326, -0.43503600, -0.54574007, 0.24397078, -0.37645423, -0.20204104, -0.02503455, -0.14176029, -0.08930288, 0.08589949, -0.41827479, -0.63592881, 0.00946021, 0.08906996, 0.06862003, -0.09581329, -0.24626571, -0.10265099, -0.38102734, 0.22893676, 0.20247105, 0.00474596, -0.21579142, -0.97288626, -0.61814958, 1.42870891, 0.34565750, -0.00332156, -0.21662071, -1.49793100, -0.90371656, 0.05648622, -0.20509408, -0.12973292, 0.05805524, 0.20921420, 0.00418199, 0.14628436, -0.26986217, -0.57314241, -0.14320174, -0.41868916, -0.39114434, -0.46258682, -0.37189829, -0.02893220, -0.26057664, -0.14309800, -0.26572213, -0.90408409, -0.58546895, 0.08228626, 0.39580658, 0.95021623, 1.00787687, -0.24120964, -0.01014284, 0.53119653, -0.37446573, 0.64303690, 0.10065084, 0.29756045, -0.02013712, 0.15860581, -0.07069663, 0.14641900, -0.02524668, -0.30726895, -0.24079449, -0.24588743, -0.58452517, -0.26286525, -0.22156079, -0.09420498, -0.68894678, -0.69643766, -0.55738741, 0.00060829, -0.01595527, 0.28360671, 0.60345781, 1.51970398, 1.09039927, 0.05627558, 0.09896150, 0.85614938, 0.68714505, 0.33043611, 0.66000289, 0.61836869, 0.18795174, 0.01087770, -0.04374333, 0.14837219, -0.24034864, -0.10409003, -0.38571721, -0.32461524, -0.10720331, -0.05250844, -0.05859143, -0.15110189, -0.09923311, -0.45676890, -0.82518315, -0.15263873, 0.07611645, 0.21885875, 0.02417706, 0.89854825, 1.42473388, 1.12261152, 0.00540007, 0.97563219, 0.89520347, 0.65973526, 0.53114861, 1.07891297, 0.34791994, 0.13952698, -0.04406098, 0.41069439, 0.01805260, -0.72047257, -0.13852353, 0.19955388, 0.00135335, -0.16002543, -0.14739250, -0.12934406, 0.00055592, -0.14384121, 0.06254724, 0.35466120, 0.16896564, 0.19508326, 0.52483362, -0.36589858, 0.72379613, 0.09361585, 0.12748867, 0.55759883, 0.33423939, 0.80516732, 0.78812397, 0.80883849, 0.31676343, 0.12495035, -0.45123890, -0.39867797, -0.78666621, -0.21950379, 0.16619550, -0.19784039, -0.14234377, -0.13720000, -0.26906928, -0.02421441, 0.36267003, 0.66061968, 0.40898696, 0.29231447, 0.17494322, 1.00172246, 1.35096753, 1.05865479, 0.65149420, 0.02127041, -0.84811306, -0.03251832, 0.81014192, 0.86568034, 1.24369538, 0.97495383, 0.22799154, 0.42525816, 0.01453140, -0.55327958, -0.59543276, -0.37654889, -0.02519237, -0.15061240, -0.20036983, 0.06162504, -0.09380835, -0.12102942, 0.74343848, 0.12996732, 0.26214448, 0.54391062, 0.22931048, 1.36228943, 1.72339272, -0.17061193, 0.37179509, 0.00940093, 0.05273855, 0.72123480, 1.06362951, 0.70169234, 1.14179432, 1.88774526, 0.92100680, 0.09939155, 0.14059974, 0.11652209, -0.46894976, -0.50292277, -0.08012177, -0.03930678, -0.10418233, 0.25426912, -0.25186193, 0.14227623, 0.09665478, 0.06238195, 0.83357275, 0.48623139, 0.44604096, 1.15886426, 1.07043993, -1.01102912, -0.03500412, 0.06707561, 0.07015788, 0.36361077, 0.91985381, 1.40768981, 0.80774391, 1.25096631, 0.35822853, 0.62281048, 0.51046282, 0.38250712, -0.05478254, -0.06478808, -0.26831004, 0.08387456, -0.31323895, 0.01824818, -0.35222331, -0.09089660, -0.17100967, 0.21681499, 0.10168470, 0.62707877, 0.94411880, 0.59819907, -0.10170019, -1.27069449, 0.06925093, -0.05442189, -0.06237433, 0.14075676, -0.07977255, -0.11525082, 0.49046317, -0.25742057, 0.10780176, 0.61959130, 0.30953610, 0.52579224, 0.36457020, 0.11053496, 0.06545260, -0.10408869, -0.12817238, 0.15456945, -0.22029209, -0.07309718, -0.04764684, 0.11245291, -0.25497684, 0.52447051, 0.68608457, 1.12880540, -0.32104942, -0.80042690, -0.00331744, 0.08412895, -0.00355183, -0.20407394, -0.13539785, 0.78677183, 0.16064951, -0.18380114, 0.08933061, 0.37677145, -0.24743332, 0.09548046, -0.17794009, 0.16652639, 0.35250792, -0.16459167, 0.40556830, 0.06603813, 0.15839231, 0.27999523, -0.07238610, -0.04092556, -0.63455969, -0.43883219, 0.25240052, 0.84320068, -0.57975960, 0.11953603, -0.06264284, 0.03412167, -0.06060103, 0.14926860, -0.07303330, 1.03139734, 1.10460472, 0.08918507, 0.22622025, 0.70907503, 0.39427608, -0.02919017, 0.28995815, 0.35853708, 0.58260959, 0.53839976, 0.11501060, 0.28973952, 0.15602951, 0.41373509, 0.45305386, 0.49220058, 1.18177652, 0.70540887, 0.89105445, 0.77688384, 0.48927468, -0.02350349, 0.06552455, 0.06856351, 0.07877968, 0.01245347, 0.46020481, 1.12849665, 0.65963805, 0.48062840, 1.33930147, 0.68114173, 1.53706837, 1.24997962, 0.67001432, 1.28871679, 1.11848426, 1.59432638, 0.85043073, 1.03958309, 1.25671637, 1.45570016, 1.12193489, 2.55046535, 1.34294832, 0.70030177, 1.04619062, 0.59210765, 0.02138544, 0.00860128, -0.02693534, -0.06839814, -0.04246363, 0.04383290, 0.00115204, -0.15835975, -0.89460778, 0.41405120, 0.52490759, 0.42367339, 0.50215060, 0.92291445, 0.85780275, 1.08042729, 0.46151406, 1.61681032, 0.98356658, 0.99818999, 0.80134678, 0.80866444, 0.77604705, -0.02245825, -0.75408387, -0.79211628, -0.98879039, -0.06837203, -0.07186259, -0.07143599, 0.05898419, 
0.03006975, 0.05116041, 0.05499671, -0.02988891, -0.03495520, -0.02317458, 0.00832557, -0.07968609, -0.02278011, -0.04448174, 0.05504851, 0.03460369, -0.01109827, 0.12179545, 0.14196542, -0.06473938, -0.00820969, -0.07373376, 0.04031892, 0.07399258, 0.07678875, -0.06013567, -0.00164289, 0.01913866, -0.04516220, -0.02193987, -0.04427082, 0.01126710, 0.01876420, -0.04186764, 0.06711698, -0.07578957, -0.00019520, 0.01757475, -0.31611860, -0.39328974, -0.18267077, -0.56522179, -1.12362564, -0.22142927, -0.12077846, 0.67132419, 0.82330459, 0.46157002, 0.74102324, -0.63656026, -1.63599110, -1.18328810, -1.25204468, -1.06733882, -1.18416142, -0.97932094, 0.04563914, 0.05627091, -0.03451794, -0.03495169, -0.03449478, 0.02242608, -0.27241734, -0.22170170, -0.78785843, -0.23272732, -0.22699963, -0.55631781, -1.39600980, -1.82830346, -2.07128215, -1.89249778, -1.66192365, -1.20128334, -0.25243747, -0.62692505, -0.64137614, -1.14604187, -0.74583840, -3.02559042, -1.83446598, -0.70442277, -0.38341007, -1.39099503, 0.30879650, 0.48568788, 0.05841382, -0.05843156, -0.01605619, 0.04639027, -0.84486526, -0.90231776, -0.81236243, 0.17516172, -1.39426696, -2.61056900, -2.63212824, -2.66988873, -2.47154880, -1.84987652, -3.24908757, -2.50455642, -1.30161095, -0.41216967, -0.58769810, -0.28668761, -0.15981685, -0.40170524, -0.92017227, -0.10149485, 1.02288580, 0.78483599, 0.79075170, 1.33319271, -0.79826236, -0.01696715, -0.05118983, -0.06024459, -0.63064694, -0.08068074, -1.36584222, -1.43788815, -1.18255556, -0.83481574, -0.84855002, -0.53280669, -0.04308736, 0.07907881, 0.25765252, 0.08722148, 0.19917528, -0.02485729, -0.21308373, 0.23728521, -0.08900665, -0.12930244, 0.05955149, -0.10493971, 0.19968000, 0.20838682, 0.72158355, 1.04072332, 0.59002441, -0.28364810, -0.01675654, 0.02563045, -0.72426873, -0.00847048, -1.06192803, -0.35315734, 0.07035013, 0.27861121, 0.40350872, 0.24925424, 0.36742389, 0.71738321, 0.52663177, 0.44377118, 0.41335446, 0.38577005, 0.12577809, 0.27299309, 0.03854164, 0.20844851, 0.02922603, -0.17825022, -0.17554793, -0.30585298, -0.24903257, 0.99526793, -0.21192566, -0.42345667, -0.05291409, -0.23231092, -0.17979574, 0.23491041, -0.92236590, 0.41421229, 0.17035188, 0.22793414, 0.34431064, 0.19572704, 0.10125963, -0.02831523, 0.35186014, 0.29828167, 0.21746022, 0.53966737, 0.32040682, 0.42154527, 0.00011628, 0.40298611, 0.22862117, 0.14515693, 0.07417889, -0.20943570, -0.07961331, 0.28221741, 0.79960281, -0.28100491, -0.06898380, -1.53634989, 0.89323872, 1.22099698, -0.97163349, -0.35194620, 0.36715916, 0.04358969, 0.44923389, 0.14970841, 0.42067021, -0.00997429, 0.00272487, 0.23611215, -0.09670732, 0.41427425, 0.30114245, 0.17716514, 0.03861564, -0.18652435, 0.08970889, 0.29753807, 0.11885802, -0.24299265, -0.36206469, -0.36928263, 0.26889262, 0.18574087, -0.57814580, -1.17245793, 0.64009833, 0.82402867, -0.78208768, -0.15311234, 0.65583658, 0.47633681, 0.26046702, 0.53930682, 0.12110173, 0.57357579, 0.15571314, 0.22986564, 0.15138979, 0.28371435, 0.58426076, -0.00509347, 0.35172388, 0.27168757, -0.12574890, 0.07826417, 0.14558251, 0.08449088, -0.31496477, -0.12354463, -0.00049081, 0.71396405, 0.02160752, -0.96277589, 1.47520804, -0.22853348, -0.87364101, 0.47253323, 0.73980594, 0.18819121, -0.30991951, 0.51802802, 0.42969769, 0.41196638, 0.58743691, 0.61601865, 0.51246214, 0.17740518, 0.28013420, 0.34648570, 0.50423574, 0.55919665, 0.25458384, 0.20784944, 0.02761897, -0.06703593, -0.46007261, 0.02966307, -0.22063312, -0.03930030, 0.00330240, -1.08870041, 0.83945173, -0.14754011, 0.29312882, 0.96743017, 0.58779085, 0.20337762, 0.16265668, 0.64357793, 0.17614967, 0.43903354, 0.35934219, 0.20247495, 0.21963415, -0.03156954, -0.22323109, 0.17837079, 0.48609924, 0.59792989, 0.36810255, 0.34553456, 0.41641808, 0.07334881, -0.60479045, -0.37033564, -0.83232689, 0.66787589, -0.00667513, -0.38505256, -1.16416311, -0.18766488, 0.00992832, 0.25212872, -0.13620882, 0.26312736, 0.52202505, 0.59200555, 0.31839067, 0.05349153, -0.07443544, -0.42593193, -0.37551576, -0.31572533, -0.28585720, 0.10532366, 0.09303452, 0.17777574, 0.06617001, 0.02889368, 0.14994922, 0.10808331, -0.65973800, -0.73508674, -0.09391534, 0.44207510, 0.06600515, 0.89420825, 0.58207250, 0.37801260, 0.00190755, -0.29984412, -0.24150844, -0.09492888, -0.14768665, -0.10764378, -0.28695256, -0.21014224, -0.55794650, -0.38743278, -0.69757032, -0.16125798, -0.17404801, -0.07700841, 0.04536045, 0.23827752, 0.52313137, 0.23294017, 0.52455568, 0.73319328, 0.78042740, -0.45770118, -0.27048695, 0.78869057, -0.12327997, 0.59893286, 0.10951670, 0.45880419, -0.32094792, -0.68675017, -0.32182097, -0.10145257, -0.58627588, 0.15290159, -0.07446710, 0.13528538, -0.21837613, -0.17633890, -0.31538486, 0.25326359, 0.01706557, -0.11152408, 0.14533481, 0.00705923, 0.50064278, -0.00808744, 0.32848004, 0.38039878, 0.60473418, 0.43278125, 0.36654225, 0.80877501, -0.74144304, -0.02033307, -0.81817657, -0.14161441, -0.23764883, -0.18048714, 0.04696727, 0.06260611, -0.27028543, -0.39228231, -0.09590057, 0.03594480, -0.08095562, -0.03664164, -0.05538143, 0.14274412, -0.14224264, 0.35144904, 0.02729173, 0.08768450, 0.02391108, -0.18997349, -0.12621298, 0.10286715, -0.35959047, 0.21267515, 1.09969032, 0.68580192, -0.61123526, -0.79894233, -0.94030952, 0.12976080, 0.99263340, -0.11688285, 0.23756196, -0.01379753, 0.10562862, 0.16428287, 0.27635163, 0.05608033, -0.11933809, 0.00920177, -0.12104494, 0.23631842, 0.00001253, 0.42980355, -0.21147215, -0.14214572, -0.22774735, -0.08874580, 0.07973218, -0.10821961, -0.18801022, 0.17879781, 1.18704820, 0.62309647, 0.19806510, -1.10829759, -1.20806718, -0.92973095, 0.31382474, -0.39245728, -0.11934639, 0.10377093, 0.57008791, 0.57257569, 0.34697822, -0.18419227, 0.02784808, -0.22130677, -0.08462787, 0.36683267, 0.22757475, 0.29744500, -0.21906613, -0.40964583, -0.28837770, -0.18877247, -0.43726420, -0.18873502, -0.32171798, 0.10746688, 0.10240439, 0.66299897, -0.04015044, -1.11027157, -0.15710510, -1.04681778, 0.40752766, -0.43907008, -0.37219730, 0.21847898, 0.57117623, 0.68930256, 0.39812529, 0.27740601, 0.52267146, 0.32903716, 0.34051058, 0.42001721, 0.05682344, 0.06070710, -0.08968908, -0.56131905, -0.24790919, -0.23147391, -0.23304850, 0.11574019, 0.78839046, -0.34247944, -0.32251945, -0.19166681, -0.80115646, -0.56590104, -0.67670476, -1.05480397, -0.44790795, 0.11420187, 0.13444264, 0.03968221, -0.29838592, -0.28117585, 0.08204773, 0.29079944, -0.15037948, -0.23236601, -0.06682545, -0.00475662, -0.34509635, -0.26553822, -0.08702614, 0.18815051, -0.09700455, -0.12564187, -0.05567148, 0.17857419, 0.19407092, -1.14219475, -0.18986881, -0.21999986, -0.35364804, -1.21199882, -1.30236471, -0.42626202, 0.08054884, 0.23471947, 0.27279693, -0.46390414, -0.32499909, -0.56129849, -0.05798842, -0.09220257, -0.34532475, -0.64322740, -0.56314379, -0.30931619, -0.37036017, -0.24092631, -0.18969180, 0.08435223, -0.05294749, 0.08796510, 0.22897910, 0.04649987, -0.57008886, -1.38400149, -0.23314179, -0.87693721, 0.07063907, -0.77642548, -0.09227920, -0.46539432, 0.07745088, -0.04186202, -0.11210432, -0.21956000, -0.27874318, -0.52833223, -0.41568023, -0.36672086, -0.45128310, -0.27587759, -0.62360877, -0.27933833, -0.25820556, -0.46597213, -0.60330141, -0.22576062, 0.07191693, -0.02818403, -0.16183633, 0.11669856, -0.67019212, -0.32229432, -0.63247848, -0.39421487, -0.54845899, 0.48495030, 0.09392665, -0.56860340, 0.00296693, -0.27939481, -0.36590645, -0.53752583, -0.49879280, -0.00886113, -0.56146836, -0.21500738, -0.10167924, -0.06793104, -0.32222682, -0.36691883, -0.07929135, -0.35784575, -0.45824835, -0.33757314, 0.04800396, -0.28487220, -0.13324305, 0.33132511, -0.00540760, -0.39224225, 0.04527611, -0.00924575, -0.55040723, -0.39682215, -0.05951837, -0.08516243, -0.76476330, -0.63099211, -0.02633077, -0.10248162, -0.08726458, -0.08938358, 0.01686830, -0.02540187, -0.03894547, -0.22437544, -0.03014708, -0.32253712, -0.07657565, -0.05612896, -0.34411407, -0.24982956, -0.12611647, 0.13003844, 0.35775447, 0.33784682, 1.02441621, -0.25706798, -0.81599611, 0.05692190, -0.04696452, 0.06347322, -1.15281630, 0.41153473, -0.66991395, -1.21579409, -0.42012012, 0.09202433, -0.02546616, -0.21364102, -0.18026173, -0.05074884, -0.08510254, -0.01135087, 0.09294377, -0.10799087, 0.03795597, 0.12322348, 0.35477027, -0.08422706, -0.23613435, 0.42020160, 0.25166193, 1.33195961, 0.27426997, -0.10949003, -1.01571012, -0.00280312, -0.06402798, 0.07991536, -0.30808264, -1.26210141, 0.55173779, 0.20862693, 0.04612437, -0.16779676, 0.09537742, -0.30643222, -0.25298843, 0.29408067, -0.05961385, -0.30607799, -0.31022319, -0.21528241, 0.17114550, -0.54793483, 0.05137924, 0.34868935, 0.76231837, 0.45042431, 0.76654106, 1.69847596, 1.22969937, -0.18284601, -0.30738428, -0.05803791, -0.06495616, -0.08213265, -0.56104660, -0.29750830, 0.34995267, -0.23180856, -0.68519723, -0.23655875, -0.62623680, -0.72017992, 0.56139445, 0.74082834, -0.28208184, 0.16882472, 0.57756180, 1.30238187, 1.01277888, 0.60236394, 1.44536936, 1.69196880, 1.81540155, 0.74058443, 0.03617463, 1.16221440, 0.77156782, 0.15060942, 0.04896884, 0.03883584, 0.02835260, -0.01337840, 0.03699549, 0.27754402, 0.33431473, 1.19999135, 1.27834976, 1.40439665, 1.48187947, 1.52596724, 0.89533108, 0.56635058, 1.58509934, 0.81183445, 0.87977231, -0.01512702, 0.50663435, 1.30987263, 2.13245893, 1.06023395, -0.64934355, -1.46257687, -1.29884827, -0.08648476, -0.07269031, 0.02183358, -0.02236899, 0.06313235, -0.03996172, -0.04017073, -0.00907549, -0.02485565, -0.01258700, -0.04657010, 0.05027724, -0.02894370, -0.19379330, -0.06415290, -0.61510026, -0.45553982, 0.35325685, -0.34969628, -0.62386429, -0.43772271, -0.66522413, -0.53193450, 0.40803537, 0.20177770, -0.10277516, -0.66685981, -0.65514308, 0.12028307, -0.01485687, 0.08183308, 0.05395855, -0.01235262, 
-0.04442085, 0.07321458, 0.03339766, -0.01865943, 0.08176170, 0.07624584, 0.08553958, 0.06150495, -0.00726663, -0.06818399, 0.00640992, 0.00756214, 0.24427687, -0.06946407, -0.30189016, -0.15319002, -0.06813999, -0.02032049, -0.01095311, 0.03532882, -0.01854356, 0.08575647, -0.08200565, -0.00700632, -0.07400392, 0.05752926, 0.07962088, -0.03794595, 0.03198020, -0.02078222, 0.06757683, 0.05541539, -0.03361651, 0.08817209, 0.22345242, 0.45145494, -0.36164081, 0.02520567, 0.38814679, -0.03861201, 0.92993641, 0.44968441, 0.59573871, 0.53903604, -1.00295472, -0.04423895, 1.41152215, 1.66688561, 1.31549180, 0.89146852, 0.28322580, 0.32360592, 0.07534954, 0.05027406, 0.03905956, -0.07375968, 0.03267275, -0.05965756, 0.00031376, -0.73891419, 0.19225956, 0.90784836, 0.74161559, 0.68202084, 0.60061467, 0.52103037, 0.84872693, 1.12032199, 0.61352253, 0.25260228, 0.18386139, 0.47857651, 0.37842074, -0.33753860, -0.18380690, 0.23036557, 0.18980847, 0.45984179, 0.39219415, 0.04473847, 0.68404752, -0.55063617, 0.02296393, -0.03973550, -0.07679189, -0.06206790, 0.41294441, -0.99191123, -0.22392401, -0.37902573, -0.40511352, 0.59254944, -0.32107013, -0.26603499, -0.40707505, 0.59255320, 0.12081911, -0.48691034, -0.48782122, 0.15907475, 0.17751512, -0.12305056, -0.20858891, -0.04647554, -0.54245436, 0.01760817, 0.51733595, 0.31430826, 0.30426955, -0.20540148, 0.57290238, -0.00290965, -0.07986765, -0.08138460, 0.65313196, -0.57071698, 0.67277384, 0.78230751, 0.71521634, -0.08261753, 0.14032733, -0.72939879, -0.27053267, -0.10343608, 0.00132779, 0.04465592, -0.32257161, -0.64114249, -0.07721222, -0.14782691, -0.36932930, 0.17689174, 0.00543270, -0.07679931, 0.09053996, -0.12895937, -1.00568843, -0.25619248, -0.53743196, 0.80657715, -0.02407432, 0.03332344, 1.02285993, -1.00448370, 1.12595069, 1.16853940, 0.80523366, 0.34213695, -0.15506858, -0.52239370, -0.19179797, -0.37881356, -0.01866055, -0.21577471, -0.13956420, -0.09878937, -0.57912433, -0.49654406, -0.43086946, 0.01292833, -0.07832710, -0.09598187, -0.60771936, -0.19134170, -0.62235177, -0.12458789, 0.08135814, 0.79538411, 0.03768895, -0.30725017, -0.15764014, -0.55027699, 0.41893655, -0.10954408, -0.31362998, -0.05086487, -0.27543488, 0.07041296, -0.24183539, -0.04889723, -0.05975542, -0.08334557, 0.13041519, -0.01043313, 0.07769427, -0.15496500, -0.28078875, -0.39929107, -0.23063783, 0.01320051, -0.54017711, -1.01508284, -0.86797214, -0.60570270, -0.64086998, -0.15614697, 0.38921720, -0.08244730, 0.22029407, -0.50229931, 0.57766372, -0.21765564, -0.33525988, -0.01094049, -0.44983920, 0.04164056, -0.11485254, -0.25973693, -0.02438626, -0.05213573, 0.09719371, 0.21459343, -0.02488384, 0.16193411, -0.21168110, -0.07317854, 0.05988896, -0.29790038, -0.39671016, -1.44668424, -1.51488960, -1.02962434, 0.37920871, -0.58439267, -0.75744510, -0.33465344, 0.26255023, -0.09878775, 0.58055639, 0.09418160, -0.11741389, 0.30434996, 0.19572636, -0.14592080, -0.17844170, -0.22102886, -0.42519444, -0.07277833, -0.08446945, 0.03250880, -0.02243688, 0.17525503, 0.01882602, -0.15657105, -0.33747858, -0.11122331, -0.72445017, -1.55080593, -1.37160003, -0.76989776, 0.00654618, -1.07358253, 0.48772097, 2.22731495, 0.08997226, 0.16214922, -0.10413887, 0.00870637, -0.07949650, 0.15287352, 0.05917337, -0.37881625, -0.07867067, -0.13595460, -0.06456215, -0.17542204, 0.26202142, 0.50427908, 0.12827183, -0.22700891, -0.09969040, -0.22037525, -0.15525293, -0.04472275, -0.40814325, -0.61822778, -1.08768952, -1.55272627, -0.88630849, -0.42803645, 0.36114824, 2.72352266, 0.05712134, -0.60437316, -0.77120101, -0.41283509, -0.30214068, 0.11601323, -0.11565863, -0.09061307, -0.11159861, -0.17272203, -0.09648203, -0.08793187, 0.30103105, 0.45955616, 0.00212115, -0.33020228, -0.20793855, -0.15049429, -0.53298312, -0.27395672, -0.43258625, -0.60908931, -1.14092803, -1.75053430, -1.51770651, 0.38061088, 0.71965247, -0.25863060, -0.01598296, -0.37717924, -0.08451983, 0.19699168, 0.06021826, 0.59857565, 0.39288503, 0.50567651, 0.45849395, 0.19472621, 0.20675194, 0.03726503, 0.21820024, 0.22858797, 0.40153560, 0.03550142, 0.34481552, -0.11118263, -0.30315658, 0.11115164, -0.43997741, -0.31768084, -0.70676708, -2.12644386, -1.46657920, 1.09383225, 0.36503422, 1.02856290, 2.00275040, -0.05817764, 0.41359907, 0.32549721, 0.74452662, 0.86577636, 0.30036771, 0.45346159, -0.08468061, 0.32451603, 0.08980461, 0.08886383, -0.24120913, 0.26134220, 0.31221792, 0.05756496, 0.36313179, 0.03531085, -0.22572702, 0.53463376, 0.92538083, 0.95637852, 0.51024687, 0.55156225, -1.91845655, 0.81000698, 0.08673357, 0.54433829, 1.12746763, -0.89612168, 0.59420210, 0.61363381, 0.64818501, 0.31615040, 0.13656148, 0.17274971, 0.23344731, 0.00411164, -0.28827614, -0.35851273, -0.18558733, 0.53995889, 0.48001951, 0.05398087, -0.21201620, 0.06356225, -0.21138202, 0.83028013, 0.98196304, 1.15981627, 1.31578815, 1.47313929, -0.98092765, -0.55109310, -0.83785838, 0.88323617, 1.08880329, -0.74774671, 0.54476392, 0.44952434, 0.35500729, 0.29231414, 0.16621551, 0.03250014, 0.05303809, 0.06424960, -0.04220577, -0.20904452, -0.10756853, 0.13852955, 0.33222222, 0.10092843, 0.16780312, 0.44720966, 0.34233809, 0.71351469, 0.95167363, 0.86684245, 1.00242376, 0.69251007, -1.65597427, -0.58371592, -0.81151259, 0.37791941, 0.03389526, -0.84379756, 0.06609509, -0.07959772, 0.02149373, 0.27763951, 0.16371416, 0.11704818, 0.05944978, 0.19416083, -0.07782076, -0.11159955, -0.00646341, -0.04093024, 0.14691040, 0.19402675, 0.21892868, 0.27380025, 0.34421876, 0.40611741, 0.29986885, 0.47244453, -0.24850355, -0.37673545, -1.67523026, -0.75379556, 0.46610498, 0.37315220, -0.54811102, -0.91678399, -0.14607859, -0.09702589, 0.36959130, 0.55057162, 0.24657144, -0.02425674, -0.06477381, 0.19320090, -0.19550444, -0.18272999, 0.28005815, -0.03201147, 0.00800518, -0.28431985, -0.00564555, 0.00415883, 0.11161856, -0.44451433, -0.53678459, -0.98670083, -0.92163140, -1.00538719, -1.50209188, -1.16182399, 0.00129851, 0.72337615, 0.23935395, -0.76959372, -0.87985379, -0.29132214, -0.09580680, -0.04959157, 0.16381957, -0.07391089, 0.42178726, -0.05585194, -0.12326318, -0.08461248, 0.33962813, -0.04819283, 0.00295484, -0.04253985, -0.09248942, -0.34204140, -0.30829093, -0.59096426, -0.49612513, -0.82689959, -0.85617203, -0.03607379, 0.02067621, -1.49410009, -0.26798102, 0.57524729, 0.69368798, -0.26215485, -0.40357861, -0.43660313, -0.45555118, -0.28947219, -0.37039086, -0.05934531, -0.15114206, -0.07154283, 0.20402326, 0.27231026, 0.22500339, 0.05205843, 0.03109350, -0.01483961, 0.25540075, -0.17662960, -0.12770623, -0.36946529, -0.57207900, -0.82281750, -1.24058020, -0.64887875, 0.68211156, -0.33671987, 0.22392602, -0.96626240, -1.24133945, -0.32350987, -0.47603345, -0.10122886, -0.20336489, 0.05331961, -0.35991374, -0.42750838, -0.26486501, 0.23390055, 0.46103343, 0.05518627, 0.03186405, -0.09958094, -0.24504985, -0.24302083, -0.25299609, 0.12835597, -0.10093792, -0.26585820, -0.15197375, -0.56325531, -0.80046242, -0.68324196, 0.32309446, 0.71187818, -0.08447377, -0.95993000, -1.30164456, -1.54982305, -0.66453695, -0.66484410, -0.49046466, -0.03619461, -0.38998601, -0.34221631, 0.07827727, 0.43803027, 0.45917422, 0.05464387, 0.72148341, 0.09848860, 0.21258485, 0.12529109, 0.02487632, -0.06933933, -0.37189808, -0.15473247, -0.93899679, -0.54085845, 0.04912644, -0.15561883, 0.75574750, 0.46624631, 0.31450048, -0.09241804, -0.94568163, -1.91152418, -0.83381695, -0.54479015, -0.45558041, -0.32730052, 0.10952725, 0.19630507, 0.21705569, -0.01501728, 0.11523765, 0.11788771, 0.04726756, 0.24141967, 0.21584494, -0.03042920, -0.02910571, -0.31208381, 0.02163797, -0.22994055, -0.80515742, -0.63738823, 0.27825299, 0.25775358, 0.38546750, -0.01059600, 0.39430848, 0.22909388, -0.16477573, -0.46483129, -0.85041153, -0.14898255, -0.42887425, -0.35979769, 0.18468110, 0.27183822, 0.19443105, -0.40001166, -0.27901930, -0.17613730, -0.20445572, 0.12452196, 0.19590747, 0.17177126, -0.02974150, -0.84990865, -0.50185364, -0.65009654, -0.98475254, -0.25510567, 0.45075902, 0.22171280, 0.92815244, 0.08793840, -0.04346589, 0.08322871, -0.72542351, -0.85956389, -0.76046997, -0.60766912, -0.37600338, 0.01833698, -0.16731369, -0.46682641, -0.32985139, -0.40691638, 0.03307018, -0.07321551, 0.00229142, -0.07041893, -0.09552374, 0.21882878, -0.09097978, -0.11898857, -0.52127153, -0.31847730, 0.00725580, -0.33953765, -0.65479499, -0.51302713, 0.50227898, -0.02849647, 0.01400474, -0.06231080, 0.53831792, -0.19806944, -0.02615716, 0.26890934, -0.27071425, 0.16426052, -0.11376701, -0.17265557, 0.28515664, -0.12526515, -0.28235307, -0.54392540, -0.52066040, -0.15572841, 0.08116613, 0.04772851, -0.05025154, 0.23883615, 0.38034570, 0.33275315, 0.32195818, 0.62320262, -0.57367998, -0.10941315, 0.55335110, 0.05383314, 0.02377748, -0.05161001, 0.80795920, 1.23019600, -0.38073239, 0.51937944, 0.18908671, 0.28996670, 0.26267093, -0.36734742, -0.60356325, -0.33346295, -0.39363873, -0.24007192, 0.19866572, -0.73697257, -0.84750766, -0.77133602, -0.43948862, -0.67110568, -0.16502459, -0.15240856, -0.43066722, 0.06284308, -0.44544417, 0.59641683, 0.02147520, -0.02356034, -0.00514205, -0.05684917, 0.05594796, 0.16530807, 0.22799486, 1.12052667, 1.81192863, 1.72870183, 0.89192694, 0.81308734, 0.69160306, 0.06239026, -0.29098341, -0.64036852, -0.08363698, -0.28075391, -0.48981011, -0.22159719, -0.21076587, -0.30348971, -0.32041371, -0.08699445, -0.24619408, 0.49286002, 0.55216330, -0.04771361, -0.03418975, 0.04823574, -0.00984266, -0.05795322, 0.06470142, -0.04738397, -0.02653037, 0.08715462, 0.11536887, 0.12311138, -0.36473110, 1.63858640, 0.53144026, 0.10868349, 0.29678226, 0.89308387, 2.62233758, 3.22252774, 2.36257100, 2.09753466, 1.09806967, 1.17158329, 0.64460409, 0.85341120, 0.81510693, 0.64095730, -0.01991378, 0.06697671, 0.08297139, 0.07503331, 
0.07212490, -0.04653306, -0.07155224, -0.03876564, -0.00556964, -0.06301872, 0.04948013, 0.07677640, -0.02974396, -0.05772324, 0.00654051, 0.02107715, -0.34625316, -0.14745240, 0.38955688, -0.01738962, -0.04265314, -0.03867273, -0.01114888, 0.04332511, 0.04503322, -0.03965962, 0.05128890, 0.00890843, -0.03728217, 0.07631798, 0.01269205, 0.07322697, -0.03750411, -0.03902052, -0.05922063, 0.06273767, -0.10013802, -0.17571080, -0.53226924, -0.98169535, -0.96248817, -1.09281373, -0.49968350, -0.32326454, -0.80718607, -1.40475667, 0.59735250, 0.64270771, 0.49401501, -1.26208615, -1.48496830, -1.10751069, -1.20277655, -0.86538190, -0.38573846, -0.39447662, 0.02382287, -0.01893695, 0.05464965, -0.00142743, 0.07105376, -0.08092652, 0.03645600, -0.11032974, -0.78143054, -1.08568490, -1.49284399, -2.11661816, -0.95746249, 0.21814288, -0.25258064, -0.11796894, -0.05662557, 0.13761298, -0.59435099, -0.00951859, 0.33922726, 0.15517135, 0.17481148, -0.93661648, -0.52558780, -0.56352878, -1.48874235, 0.14889175, 0.93460071, 0.83823389, -0.07903877, -0.08436815, 0.08323950, 0.05675848, 0.74398738, -0.60447305, -1.25965095, 0.56500506, 0.95388365, 1.09080362, 0.27464551, -0.28594550, -0.29494900, 0.21745136, -0.15190656, -0.02681095, 0.23237193, 0.85938710, 0.82192916, 0.22134492, -0.04081479, -0.07495536, -0.12820087, -0.53289598, -1.02749288, -2.02297544, -0.43809700, 0.89767414, -0.15277949, -0.07784215, 0.02795688, 0.11438639, 0.96977240, 0.32301083, -0.23967788, 0.92737901, 0.02380043, -0.10294330, 0.52524132, 0.14532672, 0.33604366, 0.18724769, 0.26336610, 0.63508004, 0.45923936, -0.04276455, 0.27466592, -0.00221126, 0.21724664, -0.15262145, -0.07377435, -0.52137232, -0.27651447, -1.59279037, -1.81659901, -0.67836076, -0.78026992, -0.76273745, 0.08312856, -0.01604385, 0.97721899, 1.35597932, 0.82231730, 0.85347623, 0.08606822, 0.31890926, 0.24461752, 0.03126842, 0.04125696, -0.37069726, 0.10323040, 0.16241637, 0.03911091, 0.26629034, 0.44146311, -0.00077447, 0.11004969, -0.10156828, 0.04946445, 0.00970358, 0.02906055, -0.49413550, -0.63495564, -1.09853470, -1.09148872, -0.76947111, 0.08154663, 0.31854770, -0.70441955, 1.79818225, 0.56880552, 0.26778099, -0.01861856, 0.09181699, -0.07578491, 0.07414130, 0.08161452, -0.14356753, -0.20103619, 0.16796128, 0.02575973, 0.10217567, 0.23509084, -0.16817653, -0.14395668, -0.28465274, -0.10203158, 0.09545181, -0.35103625, -0.53989041, -1.36288238, -1.83692575, -0.90966773, -0.44571427, 0.06378690, 1.31022501, -0.16298915, 1.64391673, 1.38938248, 0.61014020, 0.07171246, -0.12118789, -0.21810423, -0.23346172, -0.02220356, -0.13868879, -0.02147395, 0.00616472, 0.03980203, 0.11635175, 0.09777813, 0.05366520, -0.14253819, -0.10934078, -0.11689089, -0.07752948, 0.03532514, -0.97025543, -2.52950573, -2.13384914, -0.41049907, -0.68420148, -0.96182108, 1.30378938, -0.02701032, 0.29115653, 0.96395046, 0.23891968, -0.08357593, 0.18638259, -0.20691155, -0.26717100, 0.25825477, -0.17352688, 0.02703415, 0.42335230, 0.30712104, 0.14791751, -0.09792607, 0.06648892, 0.12880480, 0.35527831, 0.02167923, 0.24375561, 0.14644457, -1.22016990, -3.61465907, -2.63002372, -1.38834500, -0.11198442, 0.57258803, -0.35343155, 0.13893746, -0.04492609, 0.71931475, 0.45608175, 0.14235647, 0.35314712, 0.11585353, -0.09100053, -0.40313196, -0.71982092, -0.42314744, 0.24811260, 1.03876209, 0.19985090, 0.11395929, 0.12663978, -0.02925400, 0.16437756, -0.02288828, 0.20870298, 0.07569740, -0.43596318, -4.01210833, -1.18633163, 0.30499330, -0.80308062, 0.72050828, -0.41725367, 0.49869263, 0.28955889, -0.03133571, -0.14622511, 0.20236188, -0.07550440, -0.30812886, -0.89735180, -0.53329021, -0.57875538, -0.97371334, 0.23493062, 0.77500510, 0.05848860, -0.08226586, 0.26829395, 0.15666932, 0.09367976, -0.12224534, -0.07913017, -0.05507518, -0.32367736, -3.02981639, 0.19710331, 0.54184610, 0.66869491, 0.27397609, -0.62652504, -0.58935833, 0.33115050, -0.18276344, -0.55345494, -0.74468488, -1.02786815, -0.94158167, -0.41008094, -0.36387902, -0.26875743, -0.60211951, -0.11195874, 0.58642393, 0.10311104, -0.27986917, -0.04566298, 0.17649122, 0.38063535, 0.08381187, -0.32809412, -0.05036422, -0.67990267, -1.22321570, 0.31608155, -0.38107628, -0.30282548, 0.03756867, -0.79356295, -1.06520450, -0.89402574, -1.24024189, -1.60546732, -1.79668486, -0.93951958, -0.51497126, -0.07566172, 0.03427220, -0.40659776, -0.26427257, -0.02535109, 0.37374371, -0.04476470, 0.14449170, 0.03877882, -0.03866737, -0.01342026, -0.22992064, -0.62272227, -0.84050518, -1.12754488, 0.31546298, 1.60044134, 0.90538102, -0.60494614, 0.03803172, -1.05623853, -0.63432348, -0.59826821, -1.37424481, -1.39219391, -1.17411590, -0.41331771, -0.05185685, -0.09401553, 0.01271440, -0.11838003, -0.27780002, 0.12751821, 0.52666003, 0.23034590, 0.18568023, 0.07293176, 0.03547456, -0.25028899, -0.17422554, -0.28173310, -0.44459131, -0.13747413, 0.58493698, 1.40041471, 1.41239560, 0.26898989, -0.73674113, -0.12144063, 0.56083345, -0.37023029, 0.08387748, -0.14348832, -0.12060644, -0.45339707, 0.25200903, -0.09896263, -0.29356316, -0.45855498, -0.05439622, 0.10552163, 0.26468146, 0.16011196, -0.05268339, -0.16177994, -0.02889551, 0.01954320, -0.10301569, -0.09216353, 0.07764353, 0.31633747, -0.22066647, 0.36120901, 1.25743771, 0.89924860, -0.67214727, 0.15903103, 1.11146474, -0.34319377, -0.05605632, 0.58473951, 0.59654754, 0.18586202, 0.19108918, -0.17799254, -0.35293311, -0.16316606, -0.17644693, 0.34441483, 0.39398059, 0.31347799, 0.27342743, -0.24519010, -0.33078593, -0.02101798, 0.04099789, 0.02148271, -0.30264804, 0.03023517, 0.12837687, 0.40976399, 2.06241345, 1.20755219, -0.04993711, 0.74111104, 1.39144301, 0.05976982, 0.33895582, 0.52260906, 0.64121687, 0.40054312, -0.37369648, 0.13698208, -0.21678260, -0.16724984, 0.15584737, 0.36080980, 0.47303388, -0.00480280, -0.09259943, -0.08287466, 0.06659533, 0.19085713, -0.17958418, 0.24868973, 0.06446368, 0.32447141, 0.74602246, 0.70210886, 2.24124742, 0.82417828, 0.02815698, 0.84675974, 0.52170914, 0.20983878, 0.66873324, -0.29321554, -0.15874766, -0.24572119, -0.45784208, -0.27632064, -0.34337708, -0.08106899, 0.28743485, 0.10676108, 0.20142893, -0.07565071, 0.04301303, -0.21359488, 0.14979999, 0.28865024, 0.00808682, 0.17459427, 0.25605872, 0.39330783, 0.17212091, 0.61922991, 1.20033109, 0.02021663, 0.35506353, 0.73648256, -0.47710758, 1.25025952, 0.30917537, 0.04443552, -0.07761163, -0.29604918, -0.06841031, -0.17727491, -0.07139453, 0.13665180, -0.08996100, -0.13837045, -0.17232312, 0.05732489, 0.02225701, -0.04457853, 0.28991419, 0.09815430, 0.17193469, 0.33246228, 0.22105937, 0.26884601, 0.54955566, 0.80209118, 0.73267341, 0.91843772, -0.01855667, -0.67867565, -0.48580104, 0.37231281, 0.16230896, -0.03089945, 0.08343149, -0.10873539, -0.18225242, 0.15673132, 0.07920946, -0.26237687, -0.48999265, -0.03446679, -0.10480007, 0.42952919, 0.11566094, 0.26853022, 0.18111508, 0.12122341, 0.04200077, 0.13274390, 0.24005291, 0.25596473, -0.34899834, 1.50887549, 1.33677149, 0.66294050, -0.02936896, -0.89142954, 0.06197994, -0.04589510, 0.17175059, -0.30397663, 0.56294084, 0.59016222, 0.20121603, 0.36948770, -0.02244334, 0.08582348, -0.22299820, -0.33789140, 0.02478575, -0.04354390, 0.23167546, 0.04568619, 0.41163445, 0.05462902, 0.24101438, 0.00774343, 0.21652973, 0.22926208, 0.00149245, 0.66142344, 1.42364156, 0.20757759, 0.04899746, 0.58598965, 1.30109823, 0.41767052, -0.15526164, -0.54057151, 0.45974028, 0.04305348, 0.01183198, -0.07057460, -0.18268314, -0.01874562, -0.06874632, -0.26987457, -0.21478252, -0.06962420, 0.15215169, 0.09174344, 0.18919933, 0.45016018, 0.09045482, -0.21898201, -0.16284747, 0.26676545, 0.33157766, 0.85558039, -0.07074397, 0.03916840, 0.15611793, 0.03766156, 1.84275007, -0.07928057, 0.29587811, 0.43231928, 0.24083254, -0.08648142, 0.06430904, 0.03323593, -0.07808372, -0.00030001, -0.31806958, -0.17836210, -0.21264862, -0.07268212, -0.17965862, -0.02807497, 0.23036125, 0.56246531, 0.31347209, 0.14431107, 0.13439427, 0.03049564, 0.25005439, -0.00403989, -0.68048674, -0.07332555, -0.05019967, -0.06320143, 0.83140123, 0.34890440, 0.53876096, 0.22383715, 0.42588264, 0.53210592, -0.04772865, 0.15094556, 0.15878136, 0.04446027, -0.21076079, -0.04190677, -0.16963492, 0.06542670, -0.19206367, -0.15265574, 0.11912748, 0.10284262, 0.35339388, 0.02840251, -0.16473868, -0.73001605, 0.13894628, -0.75679427, 0.09650979, 0.05947393, 0.05796887, 0.04558378, -0.29738933, 0.47123647, 0.05672960, -0.71887320, 0.11409362, 0.55214560, -0.06742932, 0.01300929, -0.09235226, 0.10327293, -0.07891700, -0.03195688, 0.10206597, -0.11236143, -0.27524370, -0.07374421, -0.25997177, -0.18581142, 0.02864568, 0.07644779, 0.06826442, -0.28066131, 1.21092904, 1.16144431, 0.88220501, -0.04029326, -0.01030167, 0.03768048, 0.05112443, -0.87334549, -0.12572493, -0.11529270, 0.91275001, 0.64283884, 0.54411077, 0.25365984, 0.09849728, -0.17901781, 0.35101497, 0.26790267, 0.08626712, 0.20323566, -0.17951497, -0.20071989, 0.03349093, -0.44363022, -0.10369994, -1.05217290, -0.65913987, 0.33985838, -0.01621824, -0.17837527, 0.72130156, 0.02117367, -0.02646796, 0.03628307, -0.04353302, -0.80963010, -0.60003012, -0.41170186, -0.25583556, -0.50935286, 0.10487606, -0.60447097, 0.29077375, 0.66452557, -0.98074210, -0.47672620, -0.37268686, 0.09895013, 0.15023714, 0.10707235, -0.04760495, 0.08430511, 0.30052853, -1.28452420, -1.51967251, -0.20067912, -0.10422294, 0.27301496, -0.01793429, -0.04876162, 0.02590915, 0.04290058, 0.02913673, -0.02658592, 0.55926186, 0.82075894, -0.28092402, -0.80591929, -0.65603185, -0.44142058, -0.35553154, -0.32935163, -0.74282604, -0.57124072, -1.37972438, -0.16716227, -0.14378646, -0.54547232, -1.01459908, -1.22653317, -0.89800704, -0.91608936, -0.85060173, 0.01364478, 0.06222004, 0.02226769, 0.05516890, -0.01262757, 
-0.05953912, 0.05031526, 0.03492039, -0.00104828, -0.07720092, 0.07119338, -0.06149524, -0.04006925, 0.06192477, -0.00522219, 0.06845808, 0.00693061, -0.00593683, 0.00947373, 0.09031774, -0.02406447, -0.00670533, -0.00194801, -0.00276583, -0.02313282, -0.08636666, -0.03527988, -0.07387807, 0.03313214, -0.03081043, -0.07834697, -0.00418925, -0.05982889, -0.02436192, -0.04882082, 0.07139780, -0.04709511, 0.07655627, 0.03417554, -0.05617648, -0.04826487, 0.10199600, 0.32795805, 0.69526452, -0.55556065, -0.42781729, 0.43405044, 0.11650841, -0.64149135, -0.30854651, 0.13271582, 1.26130784, 0.03738887, -0.58079386, -0.04742244, -0.11025714, -0.44575617, -0.01531348, -0.07004145, -0.06269509, 0.03571955, -0.01106624, 0.08618680, 0.01051223, -0.84767336, -0.80695373, -0.00793765, 0.27494949, -0.50733817, -0.33511239, 0.71780348, -0.10109392, -0.27211583, -0.18568498, -0.24279749, -1.11474252, -1.18054092, -0.39662120, 1.14263058, -0.11614501, 2.18016911, 1.67500305, 0.40390098, 0.36261684, 0.37239560, 0.71566617, 0.55865192, -0.08442547, -0.03447913, 0.07482155, 0.00258769, -0.94138777, -1.03856182, -0.52999753, 1.31620979, 0.35821381, 0.82393926, 1.57169032, 1.89981294, 1.65100324, 2.46925545, 0.86532634, 0.59403348, 1.13396275, 1.38873112, 1.04318464, 0.64520437, 0.24612112, 0.60855073, 0.39800805, 0.23934214, -0.07350298, -0.84120029, -0.08822110, 0.31063735, 0.36486140, 0.07863969, -0.01794872, -0.07037722, -0.96790278, -0.92436779, -0.30724263, 0.53766990, -0.28375506, 1.21827304, 1.04635239, 0.79286873, 1.00199163, 0.85303211, 0.40109277, 0.44222599, 0.24110498, 0.14375450, 0.31493691, 0.48150706, 0.10466080, -0.05450428, -0.30871975, -0.10468056, 0.11161847, 0.21688372, 0.41233018, -0.17637043, -0.19479150, 0.48158604, -0.03593210, -0.08491021, -1.05895829, -0.80534065, 0.03604105, -1.06268942, 0.03608511, 0.01102792, 0.09011409, 0.26921162, 0.63300520, -0.20937528, -0.05292452, -0.39704603, 0.02217337, -0.08828168, 0.07725838, 0.12781726, 0.34230763, 0.07990962, 0.43164012, -0.14703500, -0.15198787, 0.41970772, -0.18211281, -0.08513588, -0.05411333, 0.80394006, 0.02261841, 0.25736922, 0.98228538, -0.06358538, 0.01155433, 0.31581923, 0.14260258, 0.02894370, -0.15455341, -0.03358480, 0.01356480, 0.02831880, -0.17629381, -0.33320963, -0.34513462, -0.41349909, -0.20714118, -0.33325186, -0.07552883, 0.17514832, 0.12949118, -0.48577547, 0.35053536, 0.30691096, 0.90711433, -0.06047784, 0.46471021, -0.28822657, 0.04023746, -0.10932545, 0.77768975, 0.03784408, -0.20122620, 0.15278882, 0.13015939, 0.36511075, 0.21855761, 0.30689287, -0.09364036, 0.08865535, -0.14448650, -0.39158028, -0.00195662, -0.18115731, -0.08405669, 0.18068326, -0.07846918, 0.21245950, -0.05226122, -0.33567795, -0.14090878, -0.18349794, 0.38641143, 0.80296189, 0.94077069, -0.58677208, 0.78691393, -0.82410514, 0.78960800, -0.02325919, -0.45527574, -0.24311067, -0.31568235, 0.27167979, -0.00874070, -0.05262002, -0.08104303, 0.14367414, -0.08054680, -0.55416065, -0.52114606, -0.15246455, 0.02317965, -0.11936043, -0.13288711, 0.02765098, 0.08636642, 0.07571465, -0.17084542, -0.18837918, 0.71354300, 1.01641405, -0.02052339, -0.37616441, -0.21663484, -0.78324640, 0.84036255, -1.07343078, -0.00042664, -0.18529980, -0.08093418, -0.28014460, 0.09689066, 0.00506160, -0.26678023, -0.05077785, -0.39652807, -0.34570661, -0.87873363, -0.28348893, 0.25882497, -0.39963728, -0.09574808, -0.12315547, -0.09506001, -0.01356195, -0.12070254, -0.05873897, 0.30077186, 0.64927948, -0.38413051, -0.15323034, -0.21304545, -0.41645575, -0.67349637, -0.15513575, 0.09151974, -0.11391647, -0.36931238, -0.31901157, -0.08984026, -0.14290057, -0.24764490, -0.39168781, -0.27004984, -0.68840700, -0.70227277, -0.04669831, -0.10509275, 0.22012800, -0.15979317, -0.23175061, -0.21216059, -0.12874924, 0.21083561, -0.18445443, 0.86169994, 1.44028509, 0.87990171, -0.64017016, -0.19204222, -0.36732343, -0.97751623, 0.58213961, -0.22315061, -0.23925719, -0.08940350, -0.18594258, -0.28707281, -0.45359898, -0.50164992, -0.47667295, 0.01469332, -0.04439237, -0.17792338, 0.15989129, 0.18914619, -0.20104696, -0.31605205, -0.05938172, -0.32156163, -0.08091124, -0.34299538, 0.30809587, 0.52069938, 1.14804363, -0.01200794, -0.08785017, -0.05573520, 0.18159547, -1.18763208, -0.11683932, -0.65045053, -0.27617285, -0.21066919, -0.21507873, -0.45217091, -0.57350665, 0.19500914, 0.29988840, 0.60379654, 0.62919569, -0.13019580, -0.29072374, -0.18057692, -0.30244836, -0.29846245, -0.15534310, -0.45886835, -0.52729511, -0.69650626, -0.56419510, -0.65628761, -0.45503238, -0.62516403, -0.94508940, -0.01708046, 0.57686853, -1.33557320, -0.39504230, -0.78074574, 0.16319528, 0.02468815, -0.19221944, 0.04334198, 0.13610178, 0.19789866, 0.25009710, 0.62080157, -0.13532178, -0.19939674, -0.39303777, -0.33852482, 0.01139069, 0.06107334, -0.37616202, -0.71025121, -0.46997538, -0.34494299, -0.29934397, -0.82813048, -0.54857051, -1.87685442, -0.67336571, 0.74147129, 0.18063135, -1.51618147, -0.02239370, -0.34034160, 0.54844832, 0.21546935, 0.21482351, 0.05998837, 0.57803845, 0.57050520, 0.42539024, 0.47764862, -0.05527912, -0.05310710, -0.03036535, -0.04462523, -0.04002739, -0.12157028, 0.26556429, -0.03412184, -0.15358822, -0.11835253, -0.27057970, -0.49334055, -0.25176537, -1.59481072, -0.67446184, 0.64170951, 0.11659212, 1.11554527, 0.51060396, 0.13544853, -0.06130898, 0.09949058, 0.23487648, 0.37630051, 0.68760586, 0.65608430, 0.30036941, 0.00102216, -0.24197836, -0.01464098, 0.06248718, 0.01653585, -0.23954868, -0.20846865, 0.22008722, 0.10386571, 0.50298190, -0.05451348, 0.13901815, 0.22017272, 0.41210717, 0.57223803, 0.02990337, -0.02934320, 0.35282561, 0.49584728, 0.61328542, -0.15084098, -0.23240511, 0.22579135, 0.16932152, 0.80281043, 0.67386478, -0.03369097, -0.19721928, -0.05062382, -0.05194065, -0.12624495, 0.10633554, -0.11154339, 0.01576568, 0.18519449, 0.14183925, 0.35293585, 0.52104509, 0.03472852, 0.49989775, 1.06402421, 1.13264883, 1.01933599, 0.59974480, -0.06982731, 0.17260800, 0.80032694, -0.10358852, 0.30810568, 0.46574253, 0.78169399, 0.66205603, 0.55589330, 0.03552228, -0.33596596, -0.23922348, -0.40761518, -0.13645120, -0.04520041, 0.05906983, 0.00933255, 0.25478667, 0.14742522, 0.35421199, 0.06429002, 0.46367270, -0.01762218, 0.55205768, 0.17984624, 0.77680075, 0.11799264, -0.31947327, -1.06517661, 0.06216594, -0.08382169, 1.09679222, 1.56709516, 1.22153890, 0.94514859, 0.74572968, 0.47252017, -0.56828201, -0.47200865, -0.05934326, -0.01590094, -0.03336697, 0.19077705, 0.21143377, 0.25680771, -0.14833006, -0.17452258, 0.06372349, 0.22821285, 0.24891637, 0.27392220, 1.56645620, 1.43099475, -0.30925131, -0.73126978, 0.40941766, -0.05910631, -0.90721768, -0.76625854, 1.43442464, 1.89509046, 1.27755952, 0.47522309, 0.06481916, -0.52492267, -0.73271966, -0.37253857, -0.25424734, -0.48074621, 0.04295972, 0.15813710, 0.47280887, 0.27368513, 0.04706475, 0.19131050, -0.13485067, 0.18307504, 0.47924721, 0.65072721, 1.21052814, 0.58579457, -0.77335936, -0.27115402, -0.30011705, -0.06123485, 0.78874874, 0.99848086, 2.01985025, 2.25163531, 1.34120893, 0.50354499, 0.08080234, 0.08650222, 0.01629055, 0.04415875, 0.08591560, -0.06143963, 0.15498032, 0.29263547, 0.43041384, 0.41553098, 0.39323655, 0.27400777, 0.34871516, 0.39912006, 0.59739888, 0.23311619, 0.22633974, 0.75682157, -0.40653723, -0.20182043, -0.34089682, -0.11747307, 0.20178227, 1.65910578, 1.09920299, 1.35262132, 0.42809659, -0.66882080, -0.05979167, 0.42148292, 0.38438207, 0.01443456, 0.21089865, 0.07002560, 0.25907883, 0.21931306, 0.39089611, 0.45586589, 0.51062477, 0.42072567, 0.26980162, 0.23946197, -0.22642262, 0.65377414, 0.85506570, 0.45438960, -0.68376786, 1.38056719, -0.04233012, -0.23600534, -0.02971187, 1.22426152, 0.83594823, 0.08170289, -0.34769231, 0.15921919, 0.10894026, 0.11637095, 0.40104342, 0.31964886, -0.05696225, -0.13297080, 0.12995374, -0.21713124, -0.09441571, 0.19413491, 0.28909644, 0.51512945, 0.59529287, 0.19286199, 0.11484482, -0.00574937, -0.52023280, -0.04557775, 0.22897004, 1.13433504, 0.04053231, -0.01478562, 0.06929895, 1.06305075, 1.53474140, 0.36070755, 0.15702924, 0.31611252, 0.48421529, 0.47136584, 0.28045347, 0.07271569, 0.07247386, -0.21845627, -0.26162755, 0.00277927, -0.34402981, -0.13431062, -0.39811841, -0.03482988, -0.05485170, 0.11883562, 0.07768863, -0.89711320, -1.03830445, 0.07315163, 0.88196808, 1.17106771, 0.05278935, -0.04089792, -0.07649134, -0.29469052, 2.09867287, 0.28398865, -0.37954524, -0.24149837, -0.17891078, -0.10257670, 0.25229785, 0.02909236, 0.09750844, -0.02649159, 0.09722361, 0.19760744, -0.35519969, 0.23583156, -0.16665390, -0.13763680, -0.22648314, -0.23751043, -0.42405522, -0.13336620, -0.26249421, 0.66029221, 0.58657235, 0.49048293, -0.07537220, -0.02595381, -0.00257542, -0.00269302, 0.91251481, 0.43788174, -0.94041151, -0.72633070, -0.62252259, -0.88882846, -0.49150920, 0.01263981, 0.21706922, -0.01844571, 0.40466189, -0.14146183, -0.24223734, -0.33583081, -0.17298433, 0.22982545, 0.03314878, -0.63639194, -1.19632363, -0.72297215, 0.13231958, 0.52548927, -0.61368477, 0.61944467, 0.02876545, -0.04136656, -0.05339525, -0.03000346, -0.16093686, -0.65219814, -1.07506132, -1.57233846, -2.25863767, -1.11521637, -1.42795825, -0.97833109, -1.26845777, -0.63903147, -0.83111477, -1.35814917, -0.84036148, -0.60792291, -1.27009535, -0.83226794, -0.79012209, -1.06396055, -0.58163047, -0.98541129, -0.55706757, 0.54776323, 0.06882931, -0.07924130, -0.03481680, 0.06286350, 0.06062314, 0.07600769, -0.03736901, -0.00555059, -0.09583936, -0.58686942, -0.72204292, -0.84390521, -0.78637278, -0.86749971, -0.20209609, 0.19367737, -0.68528706, -1.88052070, -1.23889256, -1.28145325, -1.55856383, -1.53747475, -1.46677101, -1.09511375, -1.21527112, -1.24247003, -0.75813949, 0.02425071, 0.08012497, 0.03858024, 0.06644416, 
