const float weights[12704] = { -0.00035322, -0.03238190, 0.04087190, -0.02795525, -0.03658779, 0.05565767, -0.07718634, 0.02888057, -0.02849492, 0.05607444, 0.00484347, -0.00491189, 0.13599716, 0.52795506, 0.48571351, 0.14780796, 0.02852198, 0.04096815, 0.07339858, -0.04639868, -0.08334994, 0.07736726, -0.05081829, -0.01054488, 0.08515221, -0.08010004, 0.07619819, 0.01467256, 0.08158311, -0.03086905, 0.08233392, 0.05190694, 0.01334290, -0.04270753, -0.30681923, -0.42855367, -0.54700142, -0.63503408, -0.82013178, -0.82377672, -0.65528727, -0.03887353, -0.98913848, -0.75044525, 0.39718267, 0.72565514, -0.20851448, -0.71287787, -0.73547071, -0.53335309, -0.11071462, 0.04247234, 0.07648273, 0.02026914, 0.08054397, -0.00636780, 0.07549745, 0.00121126, 0.01456293, 0.78001255, 0.66424239, -0.67372888, -0.74025184, 0.66865182, 0.17929804, 0.02487222, -0.00769720, 0.12434535, 0.03049809, -1.48679364, -2.20398831, -2.18310356, -1.68561602, -0.34962386, 0.54079139, 0.44330251, 0.58464295, 0.60076666, 0.09721283, 0.22988474, 0.68434095, 0.77057326, -0.02623293, -0.01941852, -0.04162596, -0.05179231, -0.35764936, 0.86232084, 1.02946806, -0.30976275, -0.56514758, 0.10987908, -0.25379828, -0.35627741, -0.09620159, 0.23576139, 0.33439198, -0.53065693, -0.02032610, 0.18530336, 0.26654819, 0.49945471, -0.09840342, 0.14407463, 0.89231408, 0.36803654, -0.25077435, -0.10917595, 0.30935517, 0.26978531, 0.53454924, 0.07178207, 0.01089358, -0.07468328, 0.18211508, 1.52248633, -0.14834230, -0.16498908, 0.12047546, -0.17299001, -0.09355225, 0.38303772, 0.28220344, 0.85265446, 0.58547711, -0.01759781, 0.25223163, 0.45369101, 0.39050421, 0.11913063, 0.22186950, -0.03985177, -0.35120973, -0.03677546, -0.52231747, -0.64395779, 0.24166982, 0.44076338, 0.58461148, -0.57465267, -0.08347807, -0.02436574, -0.82249588, 0.97814083, 0.22776526, 0.40525839, 0.68453532, 0.38788554, 0.03184497, 0.58586180, 0.25869104, 0.73082817, 0.37254101, 0.52073580, 0.41017032, 0.02346614, 0.45302874, 0.58309436, 0.05651372, 0.29813299, 0.05240403, -0.39867017, -0.14607871, -0.48653099, -0.96267271, 1.37170219, 0.19352245, -0.72260237, -0.01689102, 0.60514820, 1.10869348, 0.60349745, -0.53552246, 0.51730973, 0.95133156, 0.46477750, 1.09262729, 0.95260429, 0.50146908, 0.81520516, 0.56798959, 0.56255764, 0.27486917, 0.31180710, 0.12133715, 0.28607404, 0.01950576, 0.09187277, 0.03929636, 0.17062867, 0.30732936, -0.14016494, -0.73271412, 0.53053427, 1.01721394, -0.62786138, 0.04335700, 1.25154936, 0.59714705, 1.52310371, 0.30692649, 0.18536402, 0.80598700, 0.82213438, 0.98172796, 0.60596895, 0.41433185, 0.24002105, 0.21475755, 0.26229247, -0.06178648, 0.19426736, 0.15724759, 0.32301024, 0.14883111, 0.08166265, 0.01590695, 0.15630388, 0.21624972, -0.03121677, -0.14608426, 1.07345080, 0.66881377, -0.41981763, 0.98101044, 1.36516511, 0.56045997, 1.56867981, 0.66904312, 0.88194400, 1.20690620, 1.05073369, 0.55501574, 0.27384886, 0.41734529, 0.37722567, 0.54731160, 0.31727776, 0.48318630, 0.21078062, 0.39533979, 0.16463944, 0.23258398, 0.21881501, 0.43944326, 0.03650964, 0.27330711, 0.42025897, 0.02241266, -0.02066712, 0.77724010, 1.01770127, 0.32603440, 1.02860475, 0.17544352, 1.47044194, 1.51013613, 1.70182002, 0.91260368, 0.13628398, -0.03400541, 0.03894865, -0.02018878, -0.05982298, 0.13729297, 0.20945042, 0.34206840, 0.10570657, 0.37316898, 0.73941022, 0.37201062, 0.52906799, 0.37767985, 0.29936415, 0.52374822, 1.19001937, 0.51640314, 1.09278214, 1.25254130, 1.20080173, 0.34426850, 0.27597013, 1.75332403, 1.45539749, 1.81933737, 1.57400203, 0.19691527, -0.27525890, -0.39752916, 0.09733229, -0.08731162, -0.21835101, -0.17354201, 0.30123529, 0.24011259, -0.00257106, 0.64069372, 0.72231901, 0.57169229, 0.36515751, 0.77692038, 0.48091608, 0.98895514, 1.49032629, 1.98932660, 0.58590007, 0.86534882, -0.09323740, 0.19014329, 1.09008753, 1.42018747, 2.03120685, 1.74222708, 0.27818045, -0.21675409, -0.36812675, -0.08149167, -0.16370535, -0.22035567, 0.02280108, -0.00067920, 0.22419976, 0.01415778, -0.38704547, 0.13439223, 0.19299564, -0.00736738, 0.24646407, 0.10019430, -0.09381088, 0.31942949, 0.74372321, 1.42259240, 0.55769616, 0.24431551, -1.43946791, 0.10709786, 1.30601060, 0.69071025, 1.41755295, 0.29003775, -0.22288801, -0.80437618, -0.46379822, -0.23009264, -0.60715401, -0.53038305, -0.29737276, -0.40925178, -0.25958997, -0.35922170, -0.71611732, -0.28209552, 0.06965940, -0.20080104, -0.09204893, -0.08885498, -0.81569636, -0.38025513, -0.27081594, -0.13779412, -0.22090904, -0.05425552, -1.24395406, -0.19072750, 1.03359699, 1.11824954, 0.68105608, -0.04400221, -0.33179671, -0.57595813, -0.43182641, -0.33940858, -0.54819226, -0.64230394, -0.27376771, -0.26864976, -0.51442462, -0.49720708, -0.50778085, -0.39792228, -0.14078334, -0.31547105, -0.57834435, -0.07671778, -0.36411980, 0.05244277, -0.42371783, -0.53627485, -0.32559365, 0.59051925, 0.13489062, 0.64032221, 0.65873843, 1.06056726, 0.26638415, -0.26692501, -0.54789358, -0.62679332, -0.47862655, -0.32149076, -0.52808601, -0.10345740, -0.00826844, -0.23480749, -0.21741870, -0.24884649, -0.36665583, -0.45763138, -0.01707289, -0.26604632, 0.07198168, 0.30812955, -0.16488741, -0.12373681, -0.77922654, -0.28974196, 0.62608016, 0.43973064, 0.40259582, 0.68298048, -0.14867637, -0.11434224, 0.16802651, 0.42473623, -0.13239966, -0.28449699, -0.87179035, -0.73457301, -0.15581207, -0.13140969, -0.34556147, -0.28921941, -0.55804187, -0.45360199, -0.22334979, -0.52232534, -0.08590463, 0.27159297, 0.43384141, 0.24827862, 0.70570713, -0.26075035, 0.10528078, 0.70624876, 0.65565246, -0.12668604, 1.05703115, 0.31155893, -0.11521651, -0.38954264, 0.67933643, 0.78737944, 0.22201946, -0.30454648, -0.68280619, -0.51514107, -0.17480053, -0.13856119, -0.44482347, 0.05505276, -0.41764852, -0.43209141, -0.23299386, -0.24657404, 0.11453154, 0.22778964, 0.34341940, 0.15413223, 0.06502827, 0.01732210, 0.39539677, 0.50957203, -0.02731625, -0.49655035, 1.12367308, 0.07367358, -0.20151585, -0.84024495, 0.36555535, 0.38555732, 0.57816780, 0.19984728, -0.40938166, -0.23214059, -0.17136844, -0.45217571, -0.36418110, -0.34360170, -0.71857619, -0.44985920, -0.46369427, 0.03536099, 0.15739384, -0.01696399, 0.04310405, -0.05863195, 0.04062733, 0.42925930, 0.63895804, 0.49523404, 0.05599041, 0.39973801, 1.85799205, 0.81943572, -0.29069898, -0.85300851, -1.01272774, 0.34682500, 1.12234867, 1.02940631, 0.34094092, -0.04658908, -0.20338815, -0.04704250, -0.14714582, -0.34822163, -0.22893246, -0.24869782, -0.32138649, 0.19250917, 0.26091263, 0.22573636, 0.31654820, 0.19604564, 0.29054698, 0.26277617, 0.47503564, 0.31599018, -0.26811469, 0.08736485, -0.79469359, -0.35147455, 1.33021164, 0.07959907, -1.04480982, 0.59207475, 0.86326647, 0.57951027, 0.43958366, 0.36836693, -0.35799631, 0.10728108, -0.10742918, -0.14278491, -0.35956138, -0.24977319, -0.14284731, -0.46753290, 0.02158868, 0.04313581, -0.14913452, -0.20458692, -0.20695949, -0.37207004, -0.08618830, -0.43007582, -0.78791529, 0.19789383, -0.91141421, -0.01763880, 1.08075976, 0.35305271, 0.31874183, 0.86448967, 0.95798868, 0.44806269, 0.60354942, 0.24913898, 0.00584008, 0.10489739, -0.13922182, 0.02785016, 0.03922291, -0.20152262, 0.09487300, -0.66942710, -0.36942363, -0.45363939, -0.40499732, -0.53571761, -0.28916880, -0.07560984, -0.17390566, -1.18274128, -1.13314176, -0.51018649, -0.59364140, -0.56350625, -0.11016302, 1.02578700, -0.04716071, 0.87327373, -0.26501140, 0.27131650, 0.22362810, 0.13422512, 0.04087291, -0.04990119, 0.07523222, 0.00569393, 0.14380489, 0.03459549, 0.22669776, 0.02637621, 0.11134202, -0.01622338, -0.24956039, -0.57265437, -0.29955181, 0.06631785, -0.40267876, -0.87165499, -0.66543603, 0.42125314, 0.05252741, -0.48188233, -0.30429232, -0.07098843, -0.51459551, 0.39545980, -0.48584235, 0.26129803, 0.44762263, 0.45483232, 0.36602047, 0.46104276, 0.48981881, 0.32201701, 0.10652445, 0.10767401, 0.28029841, -0.06122418, 0.18494470, -0.11838685, -0.16104811, 0.03569294, -0.21372704, 0.42644033, -0.48042488, -0.32296696, -0.19606280, 0.13829808, 0.05445820, -0.01972891, 0.02289594, 0.66055042, 0.77756262, 0.37536845, -0.67296010, -0.07256529, 0.38213006, 0.11735784, 0.17490189, 0.40540484, 0.61145312, 0.17196466, 0.62002188, 0.49820912, 0.00799408, 0.33545145, -0.17252980, -0.13212109, 0.11160315, -0.57701910, -0.54595441, 0.07027982, 0.20705993, 0.08089719, 0.01367171, -0.85763234, -0.05088125, -0.07527617, -0.04769842, 0.64149415, 1.62084281, 0.36133057, 0.03723646, -0.12833972, -0.06073337, 0.00176695, -0.19325677, 0.08621167, 0.33601555, 0.40652862, 0.89607757, 0.63132751, 0.55471760, 0.74573743, 0.15483296, -0.26002896, -0.27777588, -0.25968036, -0.39946422, 0.08367315, -0.39472359, -0.19138530, -1.19308460, -0.84588599, 0.01336335, 0.03561355, 0.06966789, -0.72488803, 1.13592184, 0.58253741, 0.11577073, -0.11782186, -0.13786758, 0.08029898, 0.06764816, 0.60117501, 0.52163672, 0.36857349, -0.03278989, -0.10370478, 0.41439581, 0.70408916, 0.59176332, 0.65546477, 0.69306010, -0.23318650, 0.08784890, 0.67629689, 0.30132249, 0.64383101, -0.86223114, 0.13730538, -0.06655827, 0.05780540, 0.03330890, -0.02746582, -0.45172006, -0.45562947, -0.35841897, -0.73049539, -0.19478948, 0.26068076, 0.31705791, 0.40633518, 0.13838635, -0.06552283, 0.72503489, 0.22025178, -0.20686869, -0.22545023, -0.31119308, 0.08062680, 0.67072028, 0.09655131, -0.55358320, -0.05800955, -0.60089284, -0.60397434, -0.00322683, 0.06977233, -0.00228371, -0.06669568, -0.07457332, 0.03655709, -0.05920643, 0.10424476, 0.79829097, 0.51951689, 0.29561269, 0.63211483, 0.80596972, 1.38778234, 0.32170656, -0.31020287, 1.29091239, 0.54009259, -0.00677466, -0.14060964, 1.45596635, 0.32218617, 0.85875422, 0.62994504, 0.30099937, 0.40124723, 0.85264426, -0.06503683, 0.07148935, -0.06489659, -0.01673509, 
0.00215594, -0.02556541, -0.01046529, 0.01718865, 0.07684654, -0.02852354, -0.04044413, -0.04153344, -0.03651249, -0.03485551, -0.02731947, 0.05389285, 0.06252465, 0.18707024, -0.06521491, -0.04724299, 0.02927867, -0.08617976, -0.07736649, -0.08094645, -0.08330044, 0.05277024, -0.03632145, 0.04261851, -0.00662482, -0.02158842, -0.03958785, 0.04673038, 0.07373066, 0.08518091, 0.00638347, -0.06866673, 0.03436695, 0.10086120, 0.43610537, 0.46497992, 0.39450556, 0.49595049, 0.47673771, 0.57357609, 0.59406179, 0.94100010, -0.41693839, 0.99880099, 1.11455536, 1.06041574, 1.35144234, 1.20375717, 1.29476321, 0.83180445, 0.98636281, 1.01186335, -0.05770371, -0.08630705, 0.04708138, 0.06250367, -0.01474123, 0.02949736, 0.10413862, 0.80221492, 0.85859752, 0.05511752, 0.63875204, 1.06084180, 1.12783563, 1.59024000, 1.91951823, 1.94082129, 2.17502975, 2.42623401, 2.34820795, 2.65181422, 1.50129318, -0.18052264, -0.32315207, 0.02548805, 0.14113864, 0.96316135, 0.46501341, 1.36796165, 1.07503963, 0.71239364, -0.01403264, -0.04512652, 0.06272225, -0.07005258, 0.28447855, 1.01370549, 0.82197630, 0.89179432, 1.33738148, 1.51617050, 1.71778595, 2.20345736, 2.61483312, 2.42301941, 2.12142849, 2.07178903, 1.59478033, 0.81349742, 0.23065363, 0.54812020, -0.28955954, 0.26000887, 0.70695972, -0.36452967, -0.03708314, 0.24173726, 0.50770730, 0.52864587, 0.93127769, 0.01508951, -0.00504447, 0.04260915, 0.03157449, 0.66026312, 1.48400772, 1.30269206, 0.39851621, -0.14500725, 0.69610745, 0.53142267, 0.40137225, -0.19100995, 0.02923438, 0.61711609, -0.03563465, -0.15773199, 0.05553792, -0.28965065, -0.18695481, 0.06466813, -0.09469907, -0.43818733, -0.04662598, -0.35306472, -0.58370149, 0.04676896, -0.82963550, 0.32654929, -0.05826477, 0.03378423, 0.82255596, 1.50186622, 1.43035936, -0.03781510, -0.29856628, -0.32961217, -0.28828710, -0.14890572, -0.08086187, -0.33424157, -0.50530910, 0.01704362, 0.21227427, 0.40783036, 0.21187703, 0.14894614, 0.23688103, 0.36378545, -0.13878985, -0.28309023, -0.37175888, 0.10839476, 0.27541631, -0.31875643, 0.09012494, 0.55655849, 0.03232399, 0.70754421, 0.11242890, 0.74342847, 0.60057521, -0.46642035, 0.14770310, 0.07618260, -0.37325135, -0.17406127, -0.14862575, -0.02623860, 0.01444418, 0.04547964, -0.02284013, -0.06567439, 0.16210562, -0.14607918, 0.01568119, -0.40923145, -0.03509009, 0.04509120, -0.35013121, -0.10290505, -0.31462353, -0.87383282, -0.32370082, 0.55818087, -0.10570051, 1.04231548, -0.20079677, 0.35548460, 1.03127301, 0.17323460, 0.59281933, 0.42364207, -0.36328444, -0.36663657, -0.35189262, -0.01996122, 0.25204983, -0.06782418, -0.10057759, -0.38040307, -0.22795783, -0.04678211, -0.15655756, -0.47479767, -0.10280968, 0.11306383, 0.20276128, 0.19535604, -0.29769498, -0.82023579, 0.48680520, 0.68681252, 0.97606164, 0.73899996, -0.03408643, 0.29294431, 0.45074371, -0.43642211, 0.00226874, 0.04000155, -0.55297405, -0.56973344, -0.36998412, -0.42031580, 0.28403792, 0.26825866, 0.04434582, -0.23440835, -0.20451359, -0.06162078, -0.26115441, 0.06510296, -0.14168590, 0.17200214, 0.08222440, -0.15687434, -1.04096794, -2.85127997, 0.29602900, -1.26220286, -0.07021841, -0.21086228, 0.73346108, 0.69885695, 0.33499739, -0.01212753, -0.35456482, 0.31531546, -0.11059695, -0.27652830, -0.05580459, -0.46067500, -0.04070870, 1.03937519, 0.74748725, -0.21008353, -0.17434040, -0.25034365, -0.09960719, 0.13920020, 0.04020563, -0.28314176, -0.11759123, 0.06878577, -0.30555066, -1.97062087, -0.24835655, 0.42997691, -0.10874589, 0.41285539, 0.56204718, 0.85484415, 0.00447948, 0.07476167, -0.56612343, -0.34204882, -0.37452036, -0.70362049, -0.75091457, -0.54678953, -0.35006616, 0.86203688, 0.89391178, 0.22851597, 0.63493431, 0.56010354, 0.09182849, 0.09073143, -0.01527707, -0.12454002, -0.32206139, -0.17717694, -0.87304854, -0.99543202, -0.60217702, 0.34185186, -0.05019421, 0.97561193, 0.15536432, 1.02845204, -0.03759754, -0.40059710, -0.41170511, -0.72604412, -0.65830582, -0.72985351, -0.84409827, -0.93224555, -0.82587630, 0.15049407, 0.46047017, -0.06620993, -0.00315177, -0.08321159, 0.01601161, 0.01523658, 0.10012109, 0.26258716, -0.26196092, -0.07705719, -0.63935077, -0.53321636, -1.15985405, 0.41266292, -0.02683887, -0.90365362, -0.22447892, -0.01203636, -0.22178437, -0.93428278, -0.29554388, -0.38241550, -0.20516917, -0.03811611, -0.25158989, -0.52988160, -0.49301744, -0.31308013, 0.31131709, -0.04004696, -0.33043632, -0.04518303, 0.06201784, -0.31375828, -0.06694360, -0.02686207, 0.25921977, 0.25985706, 0.65363711, 0.11418083, -1.56610894, -0.02582218, 0.62835503, -0.70540917, -0.40306967, 0.56228566, -0.17148070, -0.38888782, 0.16873488, -0.31948951, -0.16195719, -0.20353453, -0.21031435, -0.51667005, -0.60582936, -0.44323161, 0.16930097, -0.12693289, 0.08632182, 0.09045781, -0.22651388, -0.04087895, -0.27559775, -0.38746446, -0.11695005, 0.30590111, 0.29965121, -0.11912608, -1.39016163, -0.16093324, -0.62085319, -0.12373111, -0.06172652, 0.80891383, -0.04722535, 0.01563108, 0.05843280, -0.19925489, -0.24205375, -0.22582646, -0.46516794, -0.18957832, -0.20726119, -0.20252763, -0.16241328, 0.24873625, 0.37879813, -0.35770229, -0.14498100, -0.21440950, -0.17235518, -0.04898242, -0.11072472, 0.01282281, -0.05780809, 0.14178419, -0.83365405, 0.31520173, -0.44499072, 0.42193887, 0.79336041, -0.61251867, 0.04624468, 0.43417132, -0.01633297, 0.36078626, -0.03503983, 0.01859524, -0.35801089, -0.13513809, -0.06241569, -0.14319177, -0.18284814, -0.21237081, 0.37940985, -0.30979902, -0.34070349, 0.07115904, 0.42909783, 0.26296711, 0.09744946, 0.08365061, -0.02142656, 0.03630329, -0.58604223, 0.68689442, 0.52519882, 0.45588967, 1.27625167, -0.53710133, 0.47510171, 0.44192892, 0.16744344, 0.52353507, 0.30051953, 0.15257753, -0.15660866, 0.22544336, -0.45234838, -0.51064813, -0.16966754, -0.55921072, -0.35821199, -0.30646673, 0.28326491, 0.30036125, 0.52577549, -0.27152720, -0.45564511, -0.28259572, 0.02660771, -0.10588767, -0.21757288, 0.18568157, 0.08225591, 0.67106986, 0.49293363, -0.53553867, 0.39949828, 0.30234265, 0.04816838, 0.65656197, 0.49522272, 0.01659407, 0.10754000, 0.03899639, 0.08696638, -0.38359764, -0.07241134, -0.29444543, -0.26291913, 0.00235938, 0.13352759, 0.28662899, 0.17063838, -0.20700271, 0.03902142, -0.05380011, -0.58108836, -0.21833992, -1.20311570, 0.68177354, -0.66577882, 0.56915915, 0.53315705, -0.21101026, 0.76959997, 0.21003604, 0.04441332, 0.51935911, 0.60693878, 0.60282463, 0.40264693, 0.16820239, 0.36562991, -0.17208391, 0.02070330, 0.52041328, 0.35574177, 0.41086549, 0.65055126, 0.26827300, 0.17823823, 0.54270196, 0.48629329, 0.22369689, 0.12307279, -0.00049001, -1.08416927, 0.08875299, 0.34221894, 0.15297501, 0.86646974, 1.01945019, 0.56351560, -0.07113494, 0.08798808, 0.40950748, 0.26468289, 0.53867185, 0.60828346, 0.42056608, 0.39598423, 0.52656239, 0.29289973, 0.63484782, 0.22411038, 0.46138749, 0.40700647, 0.16258168, 0.23169756, 0.52246648, 0.33376995, 0.50627184, 0.26489604, 0.14934787, 0.36315367, 0.80921733, -0.01084879, 0.65500546, 0.41151568, 1.35158980, 1.12318552, -0.12958127, 0.27589038, 0.23720503, -0.18782403, -0.00428229, 0.12891002, 0.01886112, -0.02349035, -0.10000031, 0.49626204, 0.27075624, 0.28510359, 0.27930912, 0.74112648, 0.20091321, 0.14772300, 0.13260788, 0.25729471, 0.35253552, 0.18526068, -0.30107838, 0.97240371, 0.34834862, 0.63013327, 0.46836737, 0.55183071, 0.87222117, -0.06319124, 0.07265689, 0.10943187, 0.15083520, 0.04009144, -0.06421384, 0.04186959, 0.10059538, 0.07096454, -0.14377721, 0.04667509, 0.24741367, -0.07171034, 0.25853807, 0.66750008, 0.30479690, 0.02650605, 0.02414060, 0.32748461, 0.11751516, 0.01784252, 0.35419089, 1.20592308, 0.10827857, 0.54214847, 0.29752919, 1.72769582, 0.36646187, -0.30900636, 0.42742574, 0.29729125, -0.04023729, 0.07170376, 0.29795721, 0.22479178, 0.19036892, 0.09914930, 0.09475245, 0.01444574, 0.45856664, 0.18340212, 0.23047608, 0.21635927, 0.27947414, 0.08670992, 0.26724824, 0.56430781, 0.39608905, -0.30749327, -0.17983177, -0.27412292, 0.04248025, 0.01449197, 0.07636161, 1.33634496, 0.00565817, -0.52106744, 0.14099182, 0.24244756, 0.38542479, 0.14197455, 0.44044375, 0.27236122, 0.19794695, 0.12993474, -0.07803413, -0.15285967, 0.10006371, -0.14627795, 0.31402645, 0.39964926, 0.15384251, 0.28004265, 0.67830598, 0.45156750, 0.00891417, -0.23795623, -0.71875906, -0.10929142, -0.03192115, -0.07045884, 0.01436703, 0.22410785, 0.53920406, -0.41924253, -0.36778346, -0.01519940, -0.07713598, 0.30021676, 0.15552446, 0.10755105, -0.06715755, 0.15199879, 0.05975398, 0.22316171, 0.13194250, 0.37654418, 0.79085553, 0.13131361, -0.82484651, -0.65326482, -0.30126223, -0.71181548, -0.85527736, 0.34121117, 1.22697663, 1.07902479, -0.01953704, 0.04036747, -0.01635162, 0.57763535, -1.09037745, -0.52124023, -0.50486255, -0.32294658, -0.96674562, -0.53323781, -0.30937940, -0.73811674, -1.02428901, -0.17401025, -0.06565532, -0.48533425, -0.52464575, -0.54275435, -1.21372366, -0.71098328, -0.24823119, -1.27665401, -1.35764396, -0.66185284, -1.22131920, -0.88361269, 0.71579361, 0.75859016, -0.01674531, -0.06598776, 0.05162120, 0.03830999, -0.21747641, -0.36851889, -1.13093615, -1.20472193, -0.65920377, -0.80504745, -1.29107285, 0.03503233, -0.06923634, -0.65985405, -0.47571012, -0.81404102, -0.44434813, 0.22727716, -0.03310942, 0.17342563, 0.11862916, -0.14660886, -0.60551679, -0.65090257, -0.65446645, -0.23220070, 0.03313799, -0.04971528, 0.03876993, -0.04623499, -0.00988781, 0.04558899, -0.05204729, 0.00582894, -0.01186852, -0.05412774, -0.05165417, -0.28624827, -0.00076746, -0.63050073, -0.95028836, -1.24721587, -1.23916459, -1.81484962, -1.17506921, -1.01070654, -1.15501881, -1.22762692, -0.83649814, -0.73482209, -0.71692896, -0.97487521, -0.43529788, 0.03704964, 0.04727241, -0.02850753, -0.07899968, 
0.02100841, 0.01278350, 0.00518512, 0.06560995, -0.03354046, 0.06983824, -0.04496374, 0.05119683, 0.07121131, -0.07174192, -0.07048467, -0.04624263, 0.01878904, -0.01750698, 0.05756838, 0.06769868, -0.01794227, -0.00088696, -0.03642420, -0.02106369, -0.02407380, -0.01194753, 0.06801331, 0.06723671, -0.00503024, 0.04383919, -0.00978310, 0.01039580, -0.05689011, -0.02097180, 0.03235047, -0.05377882, 0.06363985, 0.08439108, -0.05042282, -0.00479146, -0.58456975, -0.62971896, -0.59199375, -0.61354226, -0.00793493, 0.28705794, 1.19319725, 0.38121754, 0.14615032, 0.03526499, -0.08106984, -0.60722774, -0.54523551, -0.35928822, -0.62624395, -0.39162534, -0.08340851, -0.04191294, 0.07900460, -0.04043065, 0.08507276, 0.06329706, -0.07611699, -0.22228760, -0.05807199, 0.03598847, 0.07166491, 0.16859360, -0.53189588, -1.17305982, -1.03529918, -0.82506633, -0.10830110, 0.61169893, 1.27350891, 1.11930621, 1.17846620, 1.18339026, 0.37196854, 0.60172057, 0.61627245, 0.52213585, 0.15220276, -0.05425362, -0.06127077, -0.07454132, 0.01799600, 0.08218002, 0.07281591, 0.02877579, 0.01080484, -0.48770818, 0.15520406, -0.57269889, -1.13187325, 0.49898192, 1.02252185, 0.86527246, 1.13546872, 1.09587324, 0.30996081, -0.06985283, 1.00349426, 0.18056838, -0.50274891, 0.68563056, -0.10295533, -0.18904801, 1.29484284, 1.53522694, 1.13164389, 0.18731204, 0.04711954, 0.10586176, 0.03607369, 0.02584479, -0.06021734, -0.05870770, -0.07418595, 0.17151514, 0.59403044, -0.07573257, 0.19590589, 0.82621896, 0.71679646, 0.96421158, 1.12655413, 0.21320979, 0.15144295, 0.42868617, 0.41744700, 0.86233830, 1.24166107, 1.71669686, 2.19711113, 3.52470613, 2.46527600, 2.11084938, 2.59141946, 1.58021462, 0.97686738, -0.21588686, -0.41329506, -0.05276129, 0.04429752, -0.07122904, 0.24447981, 0.79301560, 0.03386837, -0.47139102, 0.37652683, 0.52247965, -0.41806090, 0.59588736, 0.15898722, -0.41202661, -0.32286698, -0.40311658, 0.13519996, 0.20747827, 0.40607449, 0.40163675, 0.25450435, 0.34580874, 0.28381485, 0.88856643, 1.24402642, 1.73972464, 1.87462175, 0.94367242, 0.68628913, -0.00666204, 0.08098114, 0.68789023, 0.67888623, -0.35563484, 0.19040036, 0.99758524, -0.27650958, -0.14515416, -0.04418187, -0.01279544, -0.27049312, -0.40353248, -0.38176832, -0.48271757, -0.54222536, -0.16584823, -0.45674914, -0.49926743, -0.43814796, 0.01724357, -0.06136516, -0.06212834, 0.97668850, 1.55047750, 1.57056856, 0.93578285, 1.48680151, 0.19987877, -0.02945550, 0.28278711, 0.21252784, -0.57006258, 0.24347636, 0.59876692, -0.17473194, 0.26337996, 0.22763821, -0.05605184, -0.21309432, -0.11322310, -0.22910605, -0.58404088, -0.45578831, -0.47047567, -0.35943329, 0.03396234, -0.41401491, 0.03476016, -0.18526711, -0.38786083, 0.04431308, 0.58288491, 1.11036670, 0.36138338, 1.53473568, 0.93602878, 0.99660254, -1.11675358, 0.64091331, 0.42930138, -0.21984085, -0.17994715, -0.26902649, 0.17721669, -0.25262210, 0.15499000, -0.00447770, -0.09193133, -0.13329042, -0.32428840, -0.65561914, -0.23409483, 0.04211524, 0.18996854, 0.10696524, 0.03378325, 0.38422805, -0.15702830, -0.37370670, -0.05319808, 0.55685222, 0.77778184, 0.50411367, 0.66598958, -0.02987923, -1.01665080, 0.37702942, -0.48136359, 0.39683166, -0.02019689, 0.00007557, 0.25863686, 0.11113818, 0.05105899, -0.41994599, -0.12556528, -0.18041638, -0.33809501, -0.75630885, -0.30656606, 0.29994732, 0.00314952, 0.18764317, 0.16734661, 0.41530696, 0.64500421, 0.12604788, 0.26666260, -0.19008687, 0.61252123, 0.08121756, -0.85462993, -0.08339587, 0.10038371, -0.18619715, -0.00914158, 0.34128460, -0.05536424, -0.37927961, -0.13330726, -0.05110892, -0.21279915, -0.40180907, -0.24149068, -0.14395417, -0.41494301, -0.55359209, 0.17466003, -0.14566591, 0.34353444, -0.14427686, 0.04584539, 0.26813549, 0.57550937, 0.30733675, -0.52733773, 0.04957995, 0.34285122, -0.06107556, -0.81701201, -0.07440757, 0.35181645, -0.10261488, 0.39996722, -0.17079575, -0.49130371, -0.55883306, -0.76956624, -0.86016023, -0.25605839, -0.01387854, -0.35714349, 0.12450335, -0.16806966, -0.21749069, -0.15323883, -0.25223389, -0.33828729, -0.36481878, -0.04305150, -0.40780368, -0.32598749, -0.22062720, -0.22450744, 0.15596396, 1.01867890, 0.58415306, -0.86464828, 0.01060259, -0.40079099, -0.35108480, 0.42397436, -0.73378921, -1.09438908, -0.57547110, -0.54632169, -0.47073594, -0.06475201, 0.42060873, 0.12259430, 0.95699149, 0.96147984, -0.00514042, -0.34867725, -0.16762605, -0.55396640, -0.39750257, 0.10014354, -0.07995830, -0.05445256, -0.42393747, -0.20173024, 0.44699702, 0.74695486, 0.03506796, -1.08593512, 0.31364918, 0.16073710, -0.76162106, -0.22442803, -0.99954420, -0.51354355, -0.23462616, 0.24026828, 0.47920308, 0.42973712, 0.18766582, 0.21331464, 0.78423119, 0.67664361, -0.13683526, -0.00867183, -0.19366421, -0.29602012, -0.07815412, 0.10020655, 0.04832407, -0.29868305, 0.16503853, 0.29582852, 0.08761823, -0.31276616, 0.33481508, -0.41084915, 0.79892594, 0.13674706, -1.17863357, -0.36693627, -0.15689905, 0.22778729, 0.16386600, 0.51664686, 0.23583245, 0.43457600, 0.13676900, 0.16036332, 0.81038427, 0.34764552, 0.17622900, 0.15783297, -0.12835200, -0.11560622, -0.20870969, 0.06560480, -0.13977440, 0.02963391, 0.19988830, 0.21448362, 0.32105649, -0.46159071, -0.26811653, -0.20277835, 0.65206516, -0.04469696, 1.12653792, 0.54216218, 0.16698115, 0.54899633, 0.03105033, 0.33806241, -0.07879053, 0.29576340, 0.11466318, 0.25244060, 0.61944830, 0.29474649, 0.36102006, 0.06764217, 0.20040442, -0.31354183, -0.05518353, -0.02278898, -0.16668566, 0.32529956, 0.52316982, 0.61418843, -0.41235620, 0.29081771, 0.90787166, -0.93566316, -0.55295402, 0.68395752, 1.38349831, 1.06100011, -0.15984090, 0.08392320, 0.20124614, 0.16689624, -0.06580557, 0.44269484, 0.27867150, 0.37842557, 0.20229685, 0.17907111, 0.25136572, 0.05506453, -0.29930601, -0.09595616, -0.05961137, -0.08062106, 0.06254055, 0.29474017, -0.17103265, 0.25615788, 0.61742467, 0.49299085, 0.49019471, -1.10449028, 0.03364032, 0.87533867, 1.03830612, 0.33773068, 0.22456726, -0.21803051, 0.04482691, 0.08679854, 0.24230881, 0.44596830, 0.25704578, 0.14414006, -0.22903955, 0.07707512, 0.04238847, -0.27383941, -0.01949813, -0.06699021, 0.09710848, 0.02379091, -0.15959163, 0.45284531, 0.27833617, 0.61669189, 0.16168159, -2.10219955, -1.28143823, -1.15512502, -1.03521359, 0.41504791, 0.66669005, 0.52224070, 0.46167535, 0.20734704, -0.49315113, -0.26140404, 0.55432433, 0.47885382, 0.11251301, -0.02904533, 0.23565826, -0.14243008, -0.14025675, -0.04515546, 0.38804641, -0.14847766, 0.06043629, 0.15697689, 0.05091542, -0.03596186, 0.13167383, 0.95769125, 0.84206635, -0.08268787, -0.77525693, -0.87928373, 0.08669103, -0.70117623, -0.61435121, 0.59037274, 0.62908816, 0.30767202, 0.87456554, 0.40664980, 0.47661430, 0.29569551, 0.04973092, -0.00719824, -0.47174999, -0.03239979, 0.14626785, 0.38950691, 0.31657773, 0.24351804, 0.25318104, -0.02939135, 0.21539727, 0.51250166, 0.38205877, -0.08308611, 0.21073173, 0.75217867, -0.80285704, 0.01333296, 0.03167658, 0.78005916, 0.50120342, 0.86301088, 0.28345075, 0.28943467, 1.52863765, 1.18284929, 0.30203831, 0.30203894, -0.03422761, 0.11480734, -0.37510553, -0.30167711, -0.00193036, 0.10830303, 0.45103571, 0.14566277, 0.27300528, 0.10103605, 0.20898974, 0.48590478, 0.33823597, 0.05747886, -0.87232471, -0.56744003, -0.31428522, 0.01585750, 0.04803064, 0.58127046, 1.09212041, 1.40764773, 0.61199290, 0.35096973, 0.65176016, 0.78408176, -0.17727807, -0.42450902, -0.45891953, 0.02745821, -0.06607302, -0.05275882, -0.25727838, 0.01851931, -0.06676226, 0.14544064, 0.11997393, 0.00259169, -0.04381171, 0.10707936, 0.77437967, 0.31267413, -0.67926180, -0.09989566, 0.85616660, 0.04669289, 0.03775576, 0.04963471, 1.59138715, 1.73740864, 0.19182728, 0.29524583, 0.55901623, 0.43733522, -0.57341343, -0.41316187, -0.26681128, -0.14113289, -0.33396426, 0.37028718, -0.15237793, 0.01280821, -0.01234253, 0.22400032, 0.06493721, 0.61505800, 0.10153261, 0.46191669, 0.01760347, -0.61540294, -0.55977756, 0.61205935, 1.56373906, -0.03789153, -0.06150224, 0.06739974, 1.32365394, 1.82577920, 0.37475529, -0.03164551, 0.24769193, 0.29179665, 0.06859404, 0.15503269, 0.27614868, 0.08227056, 0.02332784, 0.34884962, -0.02739128, -0.21165562, 0.11055315, 0.09796079, 0.28917927, 0.22365132, 0.14578170, 0.05029241, -0.88704991, -0.40412867, -0.69089544, 0.85474420, 1.22363865, 0.05145121, 0.02137195, 0.03071848, 0.72082156, 1.79455459, 0.14820202, -0.50129110, -0.25000805, -0.03638602, 0.47905365, 0.90859628, 0.38929495, 0.56762242, 0.48676407, 0.29657155, 0.42103076, -0.09397682, 0.17495820, 0.10933488, -0.01150670, -0.09729332, -0.21721846, -0.28552103, 0.12318545, 0.23209320, -0.24214883, -0.11411967, -0.75931925, 0.06313248, 0.07456818, -0.03594315, -0.01531603, 0.61034328, -0.27980569, -1.20612645, -0.45355123, -0.08882812, 0.60796040, 0.65995377, 0.53616607, 0.07145726, 0.04700842, 0.01087785, -0.21921386, 0.17790805, -0.18960121, -0.28596237, -0.18142100, 0.14935775, 0.38921437, 0.22633895, 0.09853109, 0.18313096, 0.20679730, -0.46415168, 0.15726136, -0.04579026, -0.03288488, 0.02763612, 0.00135703, -0.30549106, -0.90165854, -1.64446354, -2.47724271, -2.48403740, -1.15950978, -1.11867154, -1.56995082, -1.07531369, -0.89420235, -1.35584307, -1.34142888, -0.35692817, -0.38044608, -0.26342350, -0.67169636, -0.90425402, -0.18882819, -0.86391717, -0.88175279, 0.22820324, -0.76026648, 0.04047777, 0.08111121, -0.07977459, -0.00884531, 0.00636055, -0.02754079, -0.01718339, -0.02383147, -0.04656135, -0.81976742, -0.78803277, -0.92443985, -1.32520306, -1.14012206, -0.53547347, -0.98490924, -1.36635125, -2.12682414, -1.82007504, -1.62033784, -2.11745262, -1.75959742, -1.19268215, -1.40042448, -1.22531176, -1.45056915, -0.80415428, -0.08071587, -0.02565436, -0.08312849, 0.02045745, 
-0.08558308, -0.05703809, -0.02016458, -0.08091231, -0.05501664, -0.07673145, -0.07934018, -0.08586188, 0.08180438, 0.07605280, 0.07387209, 0.03492580, -0.09292020, -0.05741074, 0.09991424, -0.02231264, -0.01832671, 0.06239666, -0.00797586, -0.03946339, -0.07245058, -0.01661310, 0.05717388, -0.06930558, -0.06352265, -0.01032329, -0.01967218, 0.02829748, 0.01023967, -0.01265336, 0.02696557, -0.07320698, -0.01732044, -0.11693309, -0.21627837, -0.43012103, -0.25735891, -0.73910880, -1.27993524, -1.67002404, -1.39669061, -0.89467424, 0.80040050, 0.17516173, -1.10727179, -1.64374673, -1.42464006, -1.24743319, -1.19817686, -1.08973134, -0.84772760, -0.75605780, -0.05028800, -0.06265184, -0.05575170, 0.07864092, -0.02863386, 0.02164873, -0.13321622, -0.27224150, -0.19836403, -0.10191271, -0.64297944, -1.01588547, -1.63186884, -2.33940172, -1.50437856, -1.36470044, -2.68876576, -0.47507823, -0.62830585, -0.71669286, -1.38348949, -1.83110285, -1.89607477, -2.68851948, -2.23133039, -0.07861645, 0.09648610, -1.54820383, -1.09519696, -0.51659846, -0.00599281, 0.06125827, 0.05166467, 0.03560839, 0.76343942, 0.40902179, -0.79897898, -1.46440411, -1.83560991, -2.48946214, -2.55860972, -0.78611630, -1.45031083, -2.45798802, -3.05939555, -2.19172740, -1.19904292, -0.21338183, -0.43068528, -0.02464191, -0.10792105, -0.07562275, -0.81964457, -0.21741591, 0.62616026, 0.52049822, -0.29861438, -0.45857531, -0.94132471, -0.08587116, -0.06254903, -0.08925861, 0.69334370, 0.42291677, -0.24387875, -0.07808594, -0.55206573, -0.57333148, -0.63181454, 0.31287658, -0.04496583, -0.35306504, -0.02572696, -0.53019452, 0.03857912, -0.04247976, 0.19610488, 0.30155948, -0.21350865, 0.01797497, 0.02922152, -0.01768273, 0.32439294, -0.11618335, 0.04285194, -0.84974283, -1.32682180, -0.96476769, -0.07276630, 0.01473553, 0.74977064, -0.60369360, -0.72352719, -0.11100703, -0.22901356, -0.28702295, -0.31857577, 0.14862488, -0.46458903, 0.21203530, 0.12755638, -0.07313523, -0.09184471, 0.10558625, 0.00854565, 0.06117746, -0.24120852, 0.05811266, -0.03744171, -0.09808800, 0.18440343, -0.29041773, -0.32845029, -0.37149173, -0.29735604, -0.89424330, 0.03774139, -0.18402138, -0.60302001, -0.63669336, -0.70923966, -0.56796128, -0.14672716, -0.13492438, -0.00342933, -0.04258953, -0.18232661, 0.29641691, 0.18423325, -0.12575333, -0.07611079, 0.21052897, 0.18462269, 0.05156168, -0.01476715, -0.09565936, 0.12121283, 0.01684242, 0.03460624, 0.33386543, -0.60800475, -0.62007022, -1.07515824, -0.25662351, 0.12776014, -0.96699101, -0.57777697, -0.16719449, -0.37548760, 0.10083631, -0.06668749, -0.19154058, -0.06560010, -0.01626421, 0.27516210, -0.07984551, -0.00644142, -0.10123621, -0.53398645, 0.12106915, 0.13282330, -0.02627598, -0.05858784, -0.24535267, -0.00025601, 0.16819459, 0.00567500, 0.18225910, -0.09482993, -0.51025712, -1.00225747, -0.65067470, -0.67489648, -0.85141337, -0.25339881, 0.01935485, -0.54073000, 0.13897637, 0.49259925, 0.24497257, 0.09298363, 0.24839906, 0.14437558, 0.23272417, 0.07648932, 0.16792989, -0.27148178, -0.32263497, -0.24146497, -0.12741432, 0.02981991, 0.03096621, -0.08637267, 0.12336015, -0.02639806, 0.31581244, 0.33966279, -0.19281800, 0.16549341, 0.41005737, -0.02467759, -0.29838994, -0.30952072, -0.30612868, -0.65039688, 0.45012465, 0.18824336, 0.19434972, 0.39431596, 0.15948613, 0.34785506, 0.48185235, 0.50667489, 0.50350893, 0.10566119, -0.05195135, 0.07359361, 0.20362027, -0.08311868, -0.00256082, -0.12597263, -0.00649532, 0.06176721, 0.56435758, -0.42187983, -0.68575579, 0.11137617, 0.03171484, -0.09412286, 0.72240478, -0.81027442, -0.90935969, 0.25821972, 0.49915999, 0.26136759, 0.78412807, 0.47828752, 0.64665031, 0.45777056, 0.52883017, 0.68910366, 0.32842717, 0.23937599, 0.42081767, 0.36070374, 0.08913121, 0.21047439, 0.35677397, -0.19232476, -0.20615938, 0.04293609, 0.03073580, -1.10142612, -1.66740930, -0.90005893, 0.39256158, 0.07736885, 0.48367786, 0.17927928, 0.13113680, 0.52953786, 1.08968008, 0.61159825, 0.97512400, 0.54919833, 0.85703951, 0.55448794, 0.20367584, 0.16656457, -0.01172352, 0.38521680, 0.50571340, 0.44046494, 0.15001757, 0.03518640, -0.06102029, 0.65866745, 0.16034615, 0.59946030, -0.10788362, -0.19366434, -1.19549894, -0.31376579, -0.31588817, 0.08190400, 0.61667031, 0.79203004, 0.90009558, 0.72997802, 0.44413352, 0.25256968, 0.39515418, -0.14739518, 0.10969046, -0.30193427, -0.44778484, -0.38688132, -0.14388931, 0.15482396, 0.34135744, 0.12824382, 0.10586160, -0.18383984, 0.19057225, 0.25177214, 1.07763517, 1.59152150, 0.91670132, 0.85085928, -0.06204296, -0.65310484, 0.00155842, 0.24806632, 0.53556383, 0.78198010, 0.41502374, 0.10313290, -0.32343227, -0.16967982, -0.26470163, -0.10343963, -0.17314763, -0.68410307, -0.13101003, 0.01472538, 0.18232696, 0.11252444, 0.69244730, 0.49754950, 0.26477659, 0.22578530, 0.24404860, 0.38648239, 0.03932316, 0.47451034, 0.47374365, 0.23453130, 0.12096776, 0.38181639, -0.30833870, -0.51738638, 0.67321402, 0.18727687, -0.24457856, -0.36425069, -0.25301334, -0.26222360, -0.57782751, -0.04269676, 0.10996149, -0.14471750, 0.13693814, 0.15394671, 0.59906793, 0.35961080, 0.30099556, 0.58386534, 0.35766050, -0.03387357, 0.37628174, 0.01540542, -0.02417512, -0.29912603, -0.00883241, -0.56946200, 0.22682209, 0.04960588, -0.05849903, -0.38084126, 0.16644706, 0.94708484, 0.37160355, -0.42954996, -0.79114920, -0.36518258, -0.46869972, 0.03256427, -0.01057318, 0.08302426, 0.10847958, 0.11089071, 0.54841113, 0.48665729, 0.20221095, 0.15167555, 0.09554266, 0.08472388, 0.25810826, -0.01610233, -0.49547794, 0.04222193, -0.39184153, -1.25403929, -0.31350362, -0.09938126, -0.42532599, -0.08248265, -0.47797480, 0.12301216, -0.82025677, -0.36763558, -0.81499016, 0.14066176, -0.11392035, 0.20926324, -0.27940324, -0.11235596, 0.01051353, 0.20265001, 0.17732324, 0.32564586, -0.18129365, 0.30463198, -0.09681362, -0.09336067, -0.27750754, -0.37525743, -0.57620412, -0.47403884, -0.24129723, -0.45557779, -0.61906898, -0.55242908, -0.73448026, -0.02150086, -0.05470682, 0.36769444, -1.06586695, -0.21276224, -0.74923921, 0.06987801, 0.06481559, 0.46564102, 0.13365699, -0.07132114, -0.08988186, 0.20351812, 0.35640004, 0.71378112, 0.22477849, 0.36339995, -0.04754627, -0.06172147, -0.34006184, -0.08248304, -0.09116417, 0.01646204, 0.28830552, 0.22095852, 0.01757049, 1.10179186, -0.86081576, -0.83679074, 0.01131662, 0.00782558, -0.81074131, -1.17791140, -0.96381080, -0.02375546, 0.10128409, 0.81102604, 0.97247458, 0.58867860, 0.71143919, 0.52164829, 0.60589325, 0.54848909, 0.29191074, -0.14527100, -0.32837364, -0.43277672, -0.13493650, -0.00252068, -0.55000198, -0.01723731, -0.10329378, 0.07543302, -0.53566396, 1.31683922, 0.39050683, 0.10588653, -1.06589770, -1.24296474, -0.30689362, -1.38594615, -0.44421911, 0.03714707, 0.05495297, 0.38601127, 0.18776165, 0.21809660, -0.10576586, -0.21139970, -0.37971473, -0.45921120, -0.63497865, -0.39487416, -0.65799820, -0.63781917, -0.61186421, -0.57927030, -0.63779235, -0.13506611, -0.45340180, -0.28607902, -0.27222934, 0.37587315, 0.31732261, -0.06668038, -0.94379854, -1.32870412, -0.71045238, -1.14097083, -0.02228247, -0.28759569, -0.27706584, -0.49931672, -0.64739507, -0.69764590, -0.77814090, -0.81744015, -0.85262620, -0.79605073, -0.48608518, -0.52573806, -0.39331841, -0.38865858, -0.30508476, -0.59913361, -0.49097052, -0.44683793, -0.56027639, -0.03800885, -0.54931515, -0.57542032, -0.00515645, 0.06901126, -0.27269948, -1.36285436, -1.95108080, -0.60643452, 0.26208279, 0.05601846, -0.09646217, -0.57068413, -0.18130346, -0.30761799, -0.51425511, -0.55657369, -0.22635314, -0.25679439, -0.14627936, -0.24238957, -0.11309355, -0.07935810, -0.45811069, -0.34456921, -0.23953849, -0.43142202, -0.39564151, -0.06783258, -0.94021666, -1.61612260, -0.04141521, 0.21356544, 0.05524715, -1.26165795, -1.31081963, -0.39338619, -0.43972212, -0.31826866, -0.09132727, -0.07263418, -0.39014244, -0.19397433, -0.19925311, -0.13348953, -0.13820170, 0.05271399, -0.17749795, -0.17418493, 0.16882133, 0.15038672, -0.10899753, 0.19523594, 0.08858963, -0.08728867, -0.27092993, 0.26279628, -0.58928961, -0.87399387, 0.04590207, 0.05830583, -0.02097977, -1.06531942, -0.81185395, -1.19713902, -0.71085715, -0.45809147, -0.55076706, 0.04821462, -0.28067464, -0.32055220, -0.35963753, 0.06712197, 0.25623274, -0.15771855, -0.12729327, -0.06141257, 0.00849593, 0.12844603, 0.15384988, 0.10250416, 0.14373788, -0.06881067, 0.29658478, -0.09509820, -0.68369371, -1.25161505, 0.00247216, -0.04278867, 0.04967448, -0.75454581, -1.61925817, -1.62705791, -0.45379639, 0.07379752, -0.40372205, -0.17643712, -0.37666526, -0.14953882, -0.04817964, -0.14547116, -0.40396363, -0.56945050, -0.22355987, -0.32925636, -0.57787454, -0.65521365, 0.49732274, 0.20334034, -0.39629340, -0.97176379, 1.19171560, -0.37315607, 0.64906693, 0.84154731, 0.05528592, 0.01451076, -0.02356531, -0.03938056, 1.09944117, -0.83547747, -0.42664397, -0.12262464, -0.27305895, -0.19671355, -0.67400467, -0.29001394, -0.20964795, -0.37981826, -0.61374736, 0.27564976, 0.24791998, -0.28961989, -0.45154962, -0.37683925, -0.62186468, -0.06903850, -0.75466007, -1.46369135, -0.59006739, -0.72095394, 0.50618804, -0.21881706, -0.01165667, 0.04233223, 0.07414304, -0.07091966, 0.30159014, -0.79130954, 0.31547296, 0.27797255, 0.70682770, 0.88809526, 0.49571407, -0.17105144, -0.58800393, -0.71426797, -0.50088710, -0.35641208, -0.98893094, -0.96050757, 0.21524385, -0.33890477, -1.29216528, -0.49518541, -0.21362022, -0.46805722, 0.44105944, 0.16954647, -0.05562022, -0.04700916, 0.07396157, 0.05675617, 0.07965173, 0.08599949, 0.06946684, 0.01265302, 0.00737257, 0.02071496, -0.13694158, -0.02409077, 0.39100739, 0.17483312, -0.47318178, -1.30756164, -0.79025906, 0.94161642, 0.71052504, 0.35869277, -0.56240278, 0.18756771, 0.41376573, -0.04083658, -0.55739641, 0.20106290, 0.00794213, 0.08510102, 0.07469612, -0.06984573, -0.07151397, 
-0.01472645, 0.00652860, -0.02328397, -0.06514762, -0.03195427, -0.00157649, -0.00659697, -0.00335939, 0.00274857, 0.02529202, -0.07498150, 0.00092198, 0.11137575, 0.05505790, -0.15425086, -0.11673085, 0.01437613, -0.03701837, 0.02452045, -0.03798712, 0.08063158, 0.05971386, 0.04912430, 0.01536136, -0.01035517, -0.02200203, 0.06781226, -0.02641609, -0.07536047, -0.03633801, -0.02397903, 0.06328514, 0.03732337, 0.03334790, 0.07431948, 0.62154675, 0.19653496, 0.37399659, -0.09805066, 0.10712918, 0.70194858, 1.18079603, -0.38306451, -0.84807158, -1.03846836, -0.58967733, 1.51200390, 1.15009236, 0.82826096, 0.63658851, 0.30614629, 0.17053981, -0.01700615, 0.03482840, 0.01304577, 0.02601530, 0.05327095, 0.07806289, 0.01754687, -0.79863477, -0.35531974, 0.74000025, 1.41082823, 1.37019444, 0.04488626, -0.04785771, 0.32618222, 0.26993558, -0.22802024, -0.05256356, -0.39810288, -0.50139016, -0.61871803, -0.23512399, -0.39001581, 0.56419235, 0.12937756, 0.66425842, 0.81021810, -0.24222995, -0.66959715, 0.04101799, -0.00928919, 0.02732529, -0.03930529, -0.02030841, -0.28651869, -0.34499606, 1.12619889, 0.86229163, -0.01985133, -0.56504202, -0.96090066, -0.91483217, -0.39027727, -0.50714976, -0.61920553, -0.73132050, -0.78512836, -0.52026606, -0.44794554, -0.34498423, -0.25841084, 0.44214004, 0.27774742, 0.65032011, 0.38992277, -0.12863854, -0.54106826, -0.87684494, 0.71868736, -0.07274196, 0.06364776, -0.22951804, -0.73408651, 0.80296361, -0.28360450, -0.46895218, -0.82984114, -0.45814347, -1.09478366, -0.83948904, -0.26600581, -0.50033849, -0.58900177, -0.50468701, -0.50740021, -0.68045557, -0.54637915, -0.15364118, -0.37644342, 0.07034726, -0.13425370, 0.22768101, 0.47216332, 1.36610568, 0.85180426, 0.52258062, 0.52813810, 0.85325420, -0.01301339, -0.07100192, -0.25566077, 0.44685489, -0.27090582, 0.01837834, -0.64052314, -0.41491547, -0.00409984, -0.03340422, 0.00277203, 0.06623504, -0.21270855, -0.61807710, -0.46483490, -0.62066102, -0.20107345, -0.01065708, 0.06286657, -0.22568670, -0.14777043, -0.12198690, -0.22593428, 0.40841785, 0.34377503, -0.84995818, -0.11913046, 0.83791840, 0.08108303, -0.25146973, 0.25705320, -1.75620174, -0.05754878, -0.01852212, -0.55146283, 0.60543114, 0.00267873, 0.08907664, -0.30696589, -0.26875615, 0.01161218, -0.32807985, -0.50494015, -0.68080693, -0.55581141, -0.41330987, -0.55946386, -0.03083584, 0.02662518, -0.06073891, 0.45821697, 0.49957851, 0.58397967, -0.59620827, -0.00985568, 0.19456460, 0.23851971, -0.13041307, 0.23131168, -0.30496290, -0.13238458, 0.43037564, 0.19046105, 0.73272872, 0.21538275, 0.21710961, 0.05646691, 0.18931246, -0.19238399, -0.18995179, -0.58321428, -0.91922826, -0.52600741, -0.00312475, -0.15866305, -0.01575996, -0.05861792, 0.12127984, 0.00292169, 0.50425279, 0.85926932, 0.46120426, -0.48999366, -0.05701462, 0.59990603, -0.23547040, 0.44990796, 0.22189538, 0.32894909, 1.15117049, 0.41603184, -0.06685591, 0.09318919, 0.24786101, 0.19704498, 0.14073715, -0.02130321, 0.05756626, -0.10354508, -0.56969458, -0.78180569, -0.64574736, -0.55995446, -0.68168545, -0.44178081, -0.49521324, -0.42958596, 0.70066470, 1.01009309, 0.33967692, -0.60316956, -0.75193775, 0.25434580, 0.59704733, 0.17982449, 0.13229789, 0.51016814, 0.49026382, -0.11871999, -0.08967924, -0.20358025, -0.09822915, -0.07543063, 0.30274639, 0.28526545, 0.16791436, 0.24757105, -0.55086553, -0.77385324, -1.05703735, -0.59741873, -0.75208300, -0.68463683, -0.68159866, -0.36688954, -0.07124674, 1.03570235, -0.26365310, -1.17852151, -0.29298362, 0.14786321, 1.58331454, 0.94605178, 0.20966513, 0.05501707, 0.03042212, -0.35079202, 0.01507366, 0.15339206, 0.33162972, 0.14932868, 0.15351789, 0.37477487, 0.56814593, 0.17124054, 0.24533638, -0.07979891, -0.16172685, -0.52490979, -0.30646008, -0.39639923, -0.28095818, -0.58949894, -0.21046560, 2.00781703, 0.26361781, -0.06937450, -0.06746449, 0.39605221, 1.55607307, 0.03304571, 0.46274319, -0.36038679, 0.14244583, 0.10758975, 0.18531871, 0.01182623, 0.68914551, 0.28973538, 0.09647347, 0.24716723, 0.32617837, -0.01183975, 0.01457612, 0.40807244, 0.11848310, -0.04001843, -0.12626058, -0.51707125, -0.31369781, -0.77575737, -0.24197279, 0.95746130, 0.33106324, 0.26710653, 0.61162502, 0.29944021, 1.21733761, -0.07992155, 0.60860234, -0.31171742, 0.45303378, 0.99732816, 0.56229091, 0.34438899, 0.25391781, -0.03263884, 0.23620503, 0.54684824, 0.60208422, -0.13852419, 0.01760433, 0.09116884, -0.09672455, -0.04872760, -0.30481765, -0.33379266, -0.28430247, -0.13428061, 0.08035293, 0.40736070, 0.33211979, 0.49280277, -0.80831164, 0.40720552, 0.62867904, 0.72742879, -0.01096745, 0.73595834, 0.49361297, 0.53016090, 0.18921024, -0.08952391, 0.08294610, -0.02078817, -0.08513106, 0.22660689, -0.01044948, 0.15961412, 0.18716842, -0.23878400, -0.15307420, -0.25115067, -0.32957172, -0.06273124, 0.23240592, 0.51204783, 0.67758155, 0.60188699, -0.16714419, 0.11302862, -0.99163747, 0.71189344, 0.82185030, 0.42567879, 0.30723056, 0.31699023, 0.29796371, -0.38216132, -0.36709645, -0.11287601, 0.22836363, 0.22196063, 0.17913620, 0.11618919, -0.14049628, -0.01104783, 0.01204107, -0.09080242, 0.00465546, -0.13021314, -0.05964262, 0.09270784, 0.32119170, 0.52922368, 0.67522860, 0.19896807, -0.15929393, 0.18188803, -0.67938393, 0.53831679, 0.05378764, 1.00214553, 0.20969036, -0.13272220, -0.24308182, -0.35134068, -0.00652129, -0.02425227, 0.15867420, 0.25857618, -0.06046187, 0.09756257, -0.00020599, 0.16904370, -0.14693859, -0.01520326, 0.33929634, -0.05633595, 0.04992314, -0.02465407, 0.28980166, 0.22848924, 0.17448033, 0.30519444, 0.52981913, 0.52035862, -1.08804631, 0.03562867, -0.39559343, -0.72643596, -0.48369542, -0.58231938, -0.27602944, -0.05262601, 0.39436752, 0.22044504, 0.14405392, -0.12300110, -0.09030604, 0.07417443, 0.15410335, 0.42783168, 0.04033649, -0.15218997, 0.06900258, 0.07311509, 0.55510968, 0.39978242, 0.11471000, 0.12165231, 0.15083894, 0.24579851, 0.59750354, 0.32947424, -1.28398407, 0.06581037, 0.10471693, -0.28207248, -0.03429765, -0.29442334, 0.19946781, 0.13604961, 0.32284161, 0.00068639, -0.00344471, 0.03827725, 0.04572752, -0.24756534, -0.09846383, 0.43526894, 0.17790285, 0.04611491, 0.12243401, 0.30545291, 0.36382222, 0.58374482, 0.19097906, 0.11521029, 0.27621084, -0.35158411, -0.33861652, -0.05373535, -1.78836608, -1.14797223, -0.22642611, 0.01020476, -0.12443656, 0.11324265, 0.30222538, -0.03779135, 0.28694937, -0.07346516, 0.05119897, -0.25163159, -0.08934456, 0.28798324, 0.44870386, 0.35226467, 0.02153321, 0.06148257, 0.06466704, -0.14228734, -0.13399281, -0.04710554, -0.01225225, -0.58057159, -0.36950144, -0.69519734, -0.49707001, 0.93652302, -0.09948543, 0.22207598, 0.42090484, 0.98065782, 0.24003951, 0.26993561, -0.08464250, 0.29988089, 0.14400072, -0.08430693, -0.33624014, -0.18446946, 0.42320001, 0.07598349, 0.00007460, 0.10231192, 0.05967659, -0.05968597, -0.09011230, -0.11779053, -0.07790422, -0.14295582, -0.01176576, -0.37710083, -0.49182463, 0.16978499, -0.20110752, -1.32411945, 0.59253913, -0.02498133, 0.33279964, 0.78452140, 0.21869838, -0.06495538, -0.17398354, -0.04300669, -0.67421275, -0.27754727, -0.04473953, 0.01031087, 0.33636352, 0.09009147, -0.07592554, 0.13239281, 0.18139161, 0.09182017, 0.33085558, 0.18053980, 0.03010427, -0.02404936, -0.07199904, 0.02859273, 0.07796884, 0.08013956, -0.18466981, -0.56966001, 0.62141907, 0.29995224, -0.66917318, -1.46030736, 0.86592734, 0.52921879, 0.17757113, -0.32278872, 0.06706573, 0.10118400, 0.14194638, 0.20318367, 0.44708374, 0.21712078, 0.13738871, 0.42575058, 0.33688080, 0.16824563, 0.19472773, -0.11496381, -0.12000052, 0.24642463, 0.19070752, -0.00743700, 0.01809641, -0.05050493, 0.12713745, -0.02239585, 0.06112369, 0.27844104, 0.19797648, -2.08495402, 0.32257417, 0.40218815, 0.03803026, -0.49123576, -0.20464918, -0.03097148, 0.03941952, -0.04879222, 0.12121063, 0.04825720, 0.13975687, 0.01078931, 0.21901549, 0.07625176, 0.28771928, 0.32677296, 0.40810391, 0.24085602, 0.13849223, -0.21440433, 0.25972947, -0.00366159, 0.43390459, 1.03184605, -0.02615329, -0.00326580, -0.06280570, -0.31725356, 0.04112589, -0.42154568, 0.01670277, 0.31642258, 0.04347082, -0.06465683, -0.17663687, 0.10315419, 0.07169172, 0.11955256, -0.31691423, 0.15373114, -0.06583782, 0.05464123, 0.05643531, -0.12105359, -0.06627112, 0.05088298, -0.04887849, -0.34599990, -0.17385928, -0.36048964, 0.29280651, 0.98226988, 0.08125438, 0.00162580, -0.05526285, -0.81850392, 0.56616551, -0.49751410, -0.01644153, 0.25155297, -0.23149027, -0.04603554, 0.13529237, -0.20157520, 0.02119729, -0.28800759, -0.05903723, 0.31356433, -0.11423383, -0.28468722, -0.00721469, 0.09992377, 0.06924534, 0.31999463, 0.08016666, -0.08098780, -0.42218733, -0.81817651, -1.32330477, -0.44814691, -0.02968707, -0.07840720, -0.00688496, -0.50378883, 0.88785881, 0.59069467, -0.60118437, -0.01961633, -0.13836060, -1.04286015, -0.50339884, -0.45309865, -0.43050793, -0.61972016, -0.50841635, -0.48635909, -0.20397422, -0.25337464, 0.13010426, -0.30699292, -0.28300956, -0.76296246, -0.49440694, 0.16465917, 0.44646487, 0.28725663, -0.45853531, -0.16723485, 0.06647940, 0.04466036, 0.07436880, -0.07256538, -0.32178083, -0.46552992, -0.34680986, -0.21208617, -0.70210451, -0.43801203, -0.55674654, -0.38317811, 0.21537428, 0.49835435, 0.65707743, -0.02025406, 0.37469521, 0.06528487, -0.12122770, -0.63911927, -0.17732736, -0.54358131, -1.14094555, -1.08874655, -0.31023622, -0.26867959, 0.17247462, -0.05605599, 0.05832990, -0.08324182, 0.01989111, 0.01737192, -0.03722483, 0.07199247, 0.97464192, 0.33742738, 0.07675450, 0.06893543, 0.32771888, 0.61556906, 0.27108139, -0.38871077, 0.19819598, -0.56660980, 0.30040699, 0.15445784, 0.11235970, -0.73865777, -0.31626201, -0.29336298, -0.57192403, -0.85911828, -0.59511650, -0.01245349, 0.06682020, -0.02863968, -0.07633731, 
-0.02552965, -0.07798894, -0.04669457, 0.02269688, 0.03334829, -0.08361144, -0.04031120, 0.02514872, 0.03515843, 0.02460188, -0.07303339, -0.05001380, 0.09880774, -0.00399467, 0.05482154, 0.00396711, 0.08642460, 0.07448071, 0.03554099, 0.04929864, 0.08123976, 0.00111960, 0.01864923, 0.07813741, 0.00069116, -0.07545522, -0.01435675, -0.08519299, -0.00106734, 0.04305500, -0.05631695, -0.00595338, -0.07100942, -0.04487147, -0.06061769, 0.10910503, 0.01171793, 0.07300022, 0.03330583, 0.09775376, 0.32499883, 0.19583258, -0.75628853, -0.82266521, -0.62483895, 0.20376866, 0.08941916, 0.44476795, 0.47536027, 0.30551857, 0.04011808, 0.00874469, -0.07389309, -0.02748531, -0.03225033, -0.03700095, -0.00669760, 0.08629265, 0.08919808, 0.14412117, 0.01955830, -0.00311926, 0.12732865, 0.23243181, 0.74570191, 1.40439570, 1.10420501, 1.48735166, 1.66656530, 1.39162982, 0.21952809, -0.61724758, -0.80181074, -0.47765273, -0.43296561, -0.30479822, -0.08398249, 0.06347737, -0.16348052, -0.63072294, 0.15536357, -0.03377511, 0.03412867, 0.05768473, 0.04823503, -0.04339455, -0.33011684, 0.17937320, 0.14429381, -0.77389205, -0.36583179, -0.33708543, 0.16088237, 0.38284472, 0.97710216, 0.20622854, -0.93878472, -0.68047577, -0.32304198, -0.06627070, -0.22764756, -0.24590299, -0.12840517, -0.28532928, -0.52481782, -0.10146772, -0.00686327, 0.45994270, -0.36751521, 1.25752413, 0.17341796, -0.06370745, 0.04487386, -0.01862666, -0.49154672, -0.64755642, -0.95614076, -1.31050158, -1.12916064, -0.37795055, -0.28939363, 0.28381360, 0.34514564, -0.17523277, -0.30216485, -0.28250161, -0.09775666, -0.55785531, -0.06151841, 0.43680736, -0.03337963, 0.33693621, 0.28739673, -0.62107176, -0.57029468, 0.25170165, 0.39224225, 0.28846386, -0.30017328, 0.60420191, 0.00209933, -0.04387697, -0.24995911, -0.87590748, -0.25601271, -1.00821447, -0.47866219, -0.21617401, 0.01799218, 0.19120747, 0.06105299, -0.34919670, 0.05768197, 0.03502915, -0.09924766, -0.03288681, -0.24585529, 0.34142229, 0.14909175, -0.02293994, -0.02011546, 0.10779196, -0.33885935, -0.18171826, 0.40572327, 0.41866475, 0.41287416, 0.49877685, 0.03414296, -0.32137457, -0.58304220, -0.29348627, -0.10627945, 0.01587601, -0.07677679, 0.11250990, 0.11348221, 0.10309032, 0.04921445, -0.42267999, 0.17652577, -0.19288246, -0.18233550, 0.19838990, -0.14469510, -0.04829298, -0.13524117, 0.22754543, 0.18264948, 0.19980323, 0.13633566, -0.18853863, 0.13979386, 0.14229432, 0.14423655, -0.83866429, -0.03115278, -0.97645396, 0.27686313, 0.21939196, 0.41538122, 0.00994883, 0.11735361, -0.03995558, 0.06746252, 0.04341839, 0.05726395, -0.09069468, -0.21883540, -0.19011308, -0.62584281, 0.07554577, 0.03637477, 0.17168009, 0.05361490, 0.10561922, -0.01393573, -0.19697015, 0.22761658, -0.04720136, -0.00437963, -0.02155041, 0.39418811, -1.09279096, 0.04368557, 0.95830947, 0.27178565, 0.31853905, 0.34396154, 0.02735579, -0.15377641, 0.36156014, 0.21659575, -0.03965181, -0.05403304, -0.23872828, 0.04190502, -0.11189541, 0.05948774, -0.07132932, -0.00661647, 0.05477714, 0.09859507, -0.02385632, 0.15377186, -0.04895014, 0.14382796, 0.30983183, 0.28438544, 0.15401042, 0.44179219, 0.00986761, 0.51911402, 0.66022581, 1.53595841, 0.44896945, 0.04437834, 0.23551521, -0.42790705, 0.10960394, -0.15360083, 0.00252452, -0.03212055, -0.26398405, -0.02819057, -0.05524343, 0.05337243, -0.05263827, 0.03924302, -0.01642472, -0.01945706, 0.22127044, 0.31293392, 0.02217554, -0.42700002, 0.20636214, -0.02541173, -0.01425831, 0.52506495, 0.16076010, 0.42732567, 0.72983027, 1.45683646, -0.66598088, 0.10264587, -0.36693150, -0.02624882, -0.04321351, -0.37441489, 0.19598490, 0.00972899, -0.19089302, -0.26479235, -0.26707530, -0.24764907, 0.22957151, 0.09572329, 0.11448111, 0.09774695, 0.24730617, -0.06146946, -0.15676561, -0.38777375, -0.29355204, -0.87845677, -0.60180461, -0.50924122, -0.21347378, 0.34092173, 1.17109013, 1.53660727, -0.83123863, -0.37437907, -0.14480333, 0.01989945, -0.26308250, -0.09956487, 0.34542060, 0.14980789, 0.12382960, -0.22044253, -0.44234279, -0.35792923, 0.02985194, -0.12059028, -0.40389869, -0.43605503, 0.01827911, -0.07121231, -0.02413331, 0.21848133, -0.25113356, -0.78098381, -0.72846109, -0.57812274, -1.08399916, 0.19889960, 1.26537228, 1.35637212, 0.10783609, -0.01441626, 0.33075008, 0.31823677, -0.39741507, 0.06070365, 0.04768201, -0.03390804, -0.51083940, -0.42631093, -0.15222488, -0.13734651, 0.06661741, 0.02684417, 0.04370553, -0.03382089, 0.29600734, -0.10839262, 0.36701918, 1.08805764, 0.89344317, 0.84301406, 0.30943146, -1.36107075, -0.76437867, -0.49346164, 0.74338412, 1.83558285, 0.90548652, 0.08186324, -0.14837758, 0.24667586, 0.03466818, 0.01345160, -0.02944091, -0.15319115, -0.31929708, -0.51831549, -0.41723332, -0.18307871, 0.13133179, -0.17987186, 0.00331109, 0.27516094, 0.28461063, 0.27391541, 0.27969784, 0.52298474, 1.10719085, 2.15932775, 0.74575597, -0.45133412, 0.39891320, -0.12683932, -0.41666585, 0.89336663, 1.16141737, 0.79950732, 0.41061974, -0.12858705, -0.19811240, -0.15429027, -0.10016122, 0.04667355, 0.01421615, -0.37400010, -0.01401779, -0.04476159, -0.06039494, 0.18739071, 0.32540345, 0.25531051, 0.45922446, 0.30863264, -0.11964169, 0.12023630, 0.13630497, 0.47471455, 1.75019300, 0.65136719, 0.27059343, 0.34504780, -0.57856530, -0.23766014, 0.51435900, 1.39601147, 0.85717958, 0.40916878, 0.86706251, 0.41925466, -0.22702049, -0.53877074, -0.38450435, -0.37699583, 0.02635619, 0.15667050, 0.13099550, -0.05255960, 0.34962285, 0.14779520, 0.09423072, 0.15703687, -0.17276512, 0.05509572, -0.26193807, -0.19673915, 1.60766065, -0.76804060, -0.07471733, 0.88646543, -1.00823867, 0.12015151, 0.37969583, 1.39580917, 1.47942412, 2.06028867, 2.34669876, 1.66165864, 0.47154126, -0.48297930, -0.73166651, -0.63607764, -0.04434156, 0.03058102, 0.30440715, 0.16845374, 0.33148459, -0.09350597, -0.05497989, -0.13653760, 0.13416465, -0.14072652, -0.02361442, -0.74664468, 2.02106428, 1.47462475, -0.05456898, 0.03927463, -1.02698731, 0.55702984, -0.31716269, 0.74902248, 0.76177901, 1.42279708, 2.21733785, 3.49645400, 4.65558863, 3.55218768, 1.80360413, 0.51706052, 0.52873808, 0.32066697, 0.24038042, 0.46025407, 0.19830813, 0.00758879, 0.07952039, -0.03546462, 0.09193628, 0.15533578, -0.21033719, 0.06494271, 1.15632188, 1.22052252, 0.28500608, 0.57602811, -0.27465665, 0.51190716, -0.65539098, 0.17547664, 0.18042496, -0.25086755, 0.17260140, 0.75248533, 1.98384547, 2.50285935, 2.82582021, 2.08850622, 0.74959791, 0.23456715, 0.21766435, 0.01314763, 0.07662714, 0.03747476, 0.07367442, -0.02577287, -0.39825782, -0.26004246, 0.01350981, 0.63936311, -0.27508911, 1.07512760, -0.42258692, -0.08059073, 0.91411227, -0.41313887, -0.26614469, -0.41143632, -0.31241637, -0.65180230, -0.83575177, -1.29089284, -1.18614459, -0.68066770, 0.41687834, 0.66989881, 0.48354551, 0.32606456, 0.09802804, -0.03845954, 0.34044224, 0.16657937, 0.22042878, 0.07928152, -0.30751094, 0.08518991, -0.09117658, 0.35891306, -0.80154401, 0.99126762, -0.27518523, 0.01327762, 0.07283964, -0.35584730, -0.12189082, -0.73946238, -0.58391720, -0.65623939, -0.30762804, -0.68340856, -0.59675533, -0.60020739, -0.32115489, 0.08825847, 0.08477604, 0.14939429, 0.15124346, -0.08440764, -0.11157632, -0.16552056, -0.11983718, -0.00042664, 0.11272712, -0.06514838, -0.18637919, 0.05768717, 0.17082240, 0.17835914, -0.29152906, -0.17230138, -0.23321725, -0.91608280, -0.38277802, -0.60781837, -0.78966290, -0.43913880, -0.27969709, -0.37736827, 0.01114607, -0.20627375, -0.23861313, -0.26017159, 0.00315466, 0.15773982, 0.01601155, 0.11108857, 0.24363633, -0.14200769, -0.19619299, -0.04469378, 0.25117272, -0.02735930, -0.37245929, 0.65695822, 0.84556967, 0.48487940, 0.03332553, -0.16890846, -0.08616511, -0.38054970, -0.63551825, -0.18166438, -0.37816650, -0.34307930, -0.14928408, -0.14627846, -0.28720587, -0.31306383, -0.28120905, -0.27947551, -0.02691246, -0.01144732, 0.07633230, 0.45420498, 0.16077755, 0.08038602, -0.10755518, -0.48000190, -0.04493804, -0.10108595, -0.30237970, 1.58370912, 1.14516306, -0.58107412, 0.05992891, 0.00742584, -0.00996687, -0.99668187, -1.43036723, -0.61631244, -0.55319500, 0.19140726, 0.25552377, -0.09749681, -0.12649277, -0.24143840, 0.02617058, 0.05610968, -0.03677262, -0.22005020, -0.20340116, -0.10710452, -0.01914270, 0.04598482, 0.14621446, -0.23844424, 0.07874308, 0.77755457, 1.10548556, 0.70826346, 0.92952710, -1.31632626, 0.02205601, 0.03540193, 0.06803066, 0.65588278, -0.99174875, -0.74085349, -0.54431003, -0.01443615, -0.10997920, -0.16818808, -0.02406714, -0.49666727, 0.00104011, 0.00925321, -0.08448431, -0.00051862, 0.09118561, 0.27696130, -0.06557833, 0.43291530, 0.75323188, -0.03776419, -0.77758908, 0.20296466, 0.35969338, 1.26645625, 0.73333228, -0.16886015, -0.07760827, 0.04601577, 0.04074097, -0.06811580, 1.08757043, -0.20220214, -1.00420392, -0.56134087, -0.53195614, -0.40698782, 0.01933557, -0.17985937, -0.32272729, -0.54254216, -0.19649287, 0.06716485, -0.06042088, -0.23964466, 0.07894900, 0.50611508, 0.30924001, 0.22435273, -0.26031122, -0.80631512, -1.03192961, 0.11571059, -0.77450764, 0.00060030, -0.06305430, -0.02194563, 0.08556962, -0.01188397, -0.76206374, -0.52419728, -0.71168131, -0.13533209, 0.41972736, 0.71836793, 0.12260643, 0.05177103, 0.00566279, 0.33146974, 0.15706190, -0.17588872, -0.48099983, -0.37890461, -0.53081459, -0.36299092, 0.23321863, -0.49884078, -0.84419531, -0.62767190, -0.96243638, 0.07292842, -0.02087658, -0.05810465, -0.06647564, 0.04142092, 0.07285401, 0.03246272, -0.05021210, 0.03719275, 0.76076472, 1.28972387, 1.43337977, 1.51991510, 0.61222911, 0.24113016, 0.07335688, 0.91630673, 1.50305140, 0.43213573, 0.25786850, 0.46897390, 2.33647561, 0.91359442, 1.17975080, 1.25078440, 0.95233613, 0.95993388, 0.09120855, -0.04377646, -0.01142100, -0.07086197, -0.08611979, 
-0.04838673, -0.04952658, 0.02755037, -0.07780616, -0.05789813, -0.04022330, 0.04412071, 0.00723638, -0.06652310, 0.08273868, 0.01782392, 0.05094069, 0.10157304, 0.11472284, -0.02703034, -0.01964460, -0.02032287, -0.08444802, -0.04802996, 0.06099546, 0.03065929, -0.08154479, -0.00966025, 0.03559511, -0.00420188, 0.06712537, -0.07430445, 0.07770516, -0.00152475, -0.06527717, 0.00410151, -0.06080119, -0.00017345, 0.05927826, 0.26340425, 0.45579559, 0.42366043, 0.44942188, 0.58273631, 0.92568344, 1.06309688, 0.71665609, -0.49053654, 1.19447470, 1.24738443, 1.11373246, 0.42593607, 0.91065681, 0.93244022, 0.93446410, 0.72035867, 0.69381016, 0.05062377, 0.07104670, -0.04791660, 0.08614141, 0.04418626, -0.02060873, -0.05096913, 0.55737466, 0.53232193, 0.18813922, 0.89853007, 0.99067408, 1.31594944, 1.60704052, 1.33984411, 1.32878041, 2.01585531, 2.08022165, 2.30939126, 1.11863256, 1.52309906, 1.28196669, 2.06415796, 1.65191197, 1.29588068, 1.60817552, 1.20638311, 0.87037712, 0.54097140, 0.30121905, -0.04765175, 0.06990491, -0.05415611, 0.07372513, -0.76257282, 0.74830931, 1.40023363, 0.03790288, 1.10024631, 1.84418344, 1.56239712, 1.19715333, 0.97137707, 0.82585645, 0.24932358, 0.94222003, 0.47877637, 0.33229136, -0.06578095, -0.24700034, 0.13442639, 0.07428704, 0.24954990, 0.89072877, 0.43054801, 0.82074302, 1.17253268, 0.68869513, 0.85182226, -0.03169221, -0.01572385, -0.10222834, -1.09654140, -0.91938239, -0.68047559, -0.84005642, -0.32204345, 0.32306859, 0.03070012, 0.27332717, -0.08846860, -0.23232634, -0.29014295, -0.25643998, 0.22105366, 0.25830403, -0.11994650, 0.34078264, -0.15462162, -0.31202874, 0.16571368, 0.19659774, 0.41005608, 0.62529099, 0.45086014, 1.05123162, 1.01477504, 0.71613276, 0.02730799, -0.07724062, -1.05746984, -0.67609286, -0.83788204, -1.00283444, -0.33866236, 0.05361618, -0.10183135, 0.05459541, 0.05381866, -0.06939300, -0.13740686, 0.19904192, 0.11282091, -0.13428397, 0.02469917, 0.26483840, 0.10872408, 0.15309931, 0.43380973, 0.10512598, 0.02553644, -0.01383099, 0.03120606, 0.42112705, 1.71016157, 0.72298533, -0.08467675, -0.75197053, 0.82255054, -1.75512910, -0.09030593, -0.30430108, -0.43981990, -0.08681957, -0.34462768, -0.09483901, -0.13558392, -0.25052351, 0.02400740, -0.20912160, 0.20254828, 0.48901087, 0.09920465, 0.00719087, -0.13334210, 0.17740704, -0.11482703, -0.22102849, -0.06843471, 0.29907677, 0.57930613, 1.32605970, 1.59579754, 0.42656681, 0.00576730, -1.27677250, 1.17117262, -1.27075565, -0.86669773, -0.60955334, -0.21413210, 0.01828280, 0.18767847, -0.19527768, -0.00598060, -0.08931592, -0.18778150, -0.23765936, 0.11785663, 0.24541351, -0.06271605, -0.06194178, 0.08546507, -0.07780931, -0.39686254, -0.06032618, 0.58773428, 0.54924613, 0.73583871, 2.27975726, 1.23390591, 0.68707502, 1.05934811, 0.77094263, 0.79543692, -1.18921471, -0.79293984, -0.23582074, -0.10192426, -0.39905751, -0.26744550, -0.01660263, -0.18709022, 0.20270568, 0.19868328, 0.00325001, 0.08184075, -0.37048957, -0.12786296, -0.13902548, -0.23625225, -0.13165663, -0.08970574, 0.12569293, 0.28099468, 1.14418554, 1.38820875, 1.04616153, 0.61098981, 0.45199910, -0.10770379, -0.91926354, -0.40030867, -0.68969148, -0.19148354, 0.02255257, -0.27172369, -0.15622081, 0.07089417, 0.08901020, 0.34611112, 0.46494108, 0.31572151, 0.25029165, -0.26302084, -0.96568483, -0.59170395, -0.33914334, -0.33824098, 0.07438344, -0.09096023, 0.08926144, 0.12189278, 0.91401607, 2.11435580, 0.84563541, 0.14867155, 0.75701344, -0.02365601, -0.97384119, -0.00971478, -1.21737552, 0.06570362, -0.03651140, 0.02983396, 0.23764788, 0.44656852, 0.55777866, 0.50510561, 0.31094038, 0.35315633, 0.07267978, 0.11387062, -0.37183163, -0.41391161, -0.25328735, -0.02394394, -0.14671746, -0.14266388, 0.11879977, -0.29082081, 0.69627732, 2.58066678, -0.26621988, 0.32077548, -0.88458264, -0.12316362, 0.89734048, 0.08212911, -1.64190841, -0.23415472, -0.11006261, 0.58435047, 0.46495080, 0.26521268, 0.22337212, -0.12710088, -0.19578691, -0.13480183, 0.11451171, 0.03466349, -0.46467510, -0.19677649, -0.42664081, -0.19038017, -0.08518365, -0.61525816, 0.31648803, -0.01596013, 1.34048474, 2.32323313, 0.63585204, -0.10174960, -1.44177353, -0.25700212, -1.00161636, -0.15742728, -0.49745661, 0.13586403, 0.34576821, 0.05351226, -0.04805972, -0.03668672, -0.04084228, -0.33583510, -0.24359211, -0.27801290, -0.03274849, -0.25850257, -0.27353173, -0.18642330, 0.09010111, -0.12787530, 0.36938083, 0.38539356, 0.34829435, 0.49183285, 0.75000674, -0.01864262, -0.34452355, -0.47937739, -1.11042535, -0.11657232, -0.26710421, -1.59974444, -0.22043067, -0.35572448, -0.25983056, -0.44169125, -0.14263481, 0.06888683, -0.01939571, -0.05526360, 0.27211034, 0.10550265, -0.13042460, -0.25391215, 0.00417018, -0.16478083, -0.16757475, -0.27978736, 0.21391225, 0.08323739, 0.02784197, 0.14061876, 0.51189220, -0.58461291, -0.47101671, 0.10079028, 0.74405879, 0.84865576, -1.02972627, -0.95052713, -1.10240197, -0.66495031, -0.10060243, 0.40721956, -0.00678981, -0.31316361, 0.02759950, 0.40976065, 0.49444401, -0.12792030, 0.07032347, -0.20610087, -0.21574785, -0.09511066, -0.41220310, -0.32114434, -0.30305541, -0.13194308, -0.10363025, -0.05915989, -0.27804440, 0.33407044, 0.34875003, 1.37366164, 0.63718623, 0.39296421, -0.60449308, -1.05463088, -1.44819152, -0.47170565, 0.67174125, 0.27132982, 0.03941516, 0.05909597, 0.11204603, 0.09827280, 0.09710301, 0.17046408, 0.02746053, -0.28231159, -0.29342487, -0.23253931, -0.27786201, 0.02475242, -0.08510953, -0.45197010, -0.11312432, -0.64012504, -0.52960742, 1.21007025, 1.61408317, -0.66858715, 0.40337005, -0.94989800, -0.91719007, -0.43411204, -0.89980227, -0.18156782, 0.11503956, 0.34372485, -0.14771175, 0.16657008, -0.30646622, 0.31818488, 0.18075861, 0.06739738, -0.47331357, -0.49652785, -0.22700062, -0.27557337, -0.12218913, -0.17373677, -0.26176825, -0.20071176, -0.25539324, 0.06343960, -0.12899499, -0.28875658, 2.17147589, 0.73061919, 0.95248175, 0.02584776, -1.19952881, -0.38834548, -0.43669868, -0.04319715, 0.35474747, 0.17225790, 0.20846745, 0.21386336, 0.37068585, 0.39816359, 0.26661497, 0.08008452, -0.62468594, -0.40225452, 0.22453050, -0.10220204, -0.17933503, -0.17373334, -0.28205982, 0.30827481, 0.03901094, -0.15402678, -0.20529163, 0.19290699, 0.52400964, -0.42700505, 1.07479882, -0.42491287, -0.87449294, -0.87613499, -0.37669766, 0.73374921, 0.35563478, 0.02015087, 0.14479327, -0.13819444, 0.30305621, 0.56617171, 0.38307244, 0.42816049, -0.00384455, 0.11254554, 0.50949544, 0.16572171, 0.20453529, 0.21316515, 0.21770996, 0.30935958, 0.09197611, 0.10019657, 0.63503587, 1.32154179, 1.02717781, -1.07976377, -0.53694570, -0.30420369, 0.06543927, 0.39156020, -0.70587802, 0.37905666, -0.16202487, 0.13290019, 0.15746187, 0.30368099, 0.41692445, 0.65719908, 0.72350568, 0.47538748, 0.09347817, 0.08971235, 0.29985720, 0.02031006, 0.23019113, 0.27963966, 0.15724216, 0.07775832, 0.05981298, 0.43776938, 0.76259828, 0.75093257, 0.39545718, -0.29964519, -0.79051518, 0.06402881, 0.92350161, 0.69436830, -0.69209325, 0.22362225, 0.62192804, 0.04209650, 0.20603363, 0.14159177, 0.10729105, 0.07507761, 0.15241551, 0.26180315, 0.06100000, -0.22545722, 0.07668024, -0.00153131, 0.08651073, -0.02154255, 0.14387888, -0.11054043, 0.11193733, 0.20768780, -0.02289497, 0.66098177, 0.14877345, -0.57407379, -0.47435471, -0.10147694, -0.44418317, 0.71318918, -0.38388672, -0.14288366, 0.07501215, 0.01243984, 0.29685333, 0.08742931, 0.32937104, 0.01421012, 0.15687853, 0.09136366, 0.25412837, 0.12874362, -0.19199829, -0.25548404, -0.02219355, -0.06747392, -0.18092595, 0.21772109, 0.35581547, 0.25352973, 0.45037323, 0.55794340, -0.03605197, 1.11806655, -0.06217378, -0.12367124, -0.18864140, 0.44140741, -0.15639772, -0.28297207, 0.00832738, -0.37586072, -0.25275385, 0.24860333, 0.20192786, 0.08174644, 0.06611939, 0.27567220, 0.23980370, 0.09015638, 0.01146474, -0.08452147, -0.00235715, -0.21653998, -0.22938579, 0.13107337, 0.10519732, 0.25122917, 0.52775443, 1.91251719, 0.88786638, -0.47231892, -0.02160705, 0.05919373, -0.03536822, -0.66012007, 0.17706592, 0.52697730, 0.37536147, -0.01145634, -0.31154555, 0.14282995, 0.00791513, 0.20486589, 0.09100949, 0.14007570, 0.03928414, 0.10075979, -0.06418998, 0.33383092, -0.02674493, -0.20001586, -0.15262449, -0.04395267, -0.31751794, 0.52001983, 0.60809505, 0.41221219, 0.91389048, -1.41593611, 0.06948869, 0.06951703, -0.02526191, -0.72530526, -1.05500913, -0.61216009, -0.88229263, -0.52274686, -0.27704883, 0.27871242, 0.30244404, 0.03821304, 0.03453841, 0.21687210, 0.34432051, 0.28297710, 0.29797357, 0.40567982, 0.25085965, 0.12638856, -0.40597367, -0.11687125, -0.19154455, 0.30922768, 0.31554884, 1.60458195, -0.18595275, -0.68549436, 0.04237095, -0.07688280, -0.03527464, -0.08271002, 0.44752622, -0.69578892, -2.11172152, -0.15794355, -0.01173278, -1.26104581, -0.38056603, 0.16813077, 0.12622246, -0.26018891, 0.28112748, -0.21136247, 0.55136108, 0.56599665, 0.94972783, 0.82302153, 0.74000126, 0.16169196, -0.03854043, 0.33888966, -0.00356146, 0.28882158, -0.14353819, 0.02503571, -0.04549770, -0.03414756, 0.03351707, -0.00249593, 0.06295528, -0.38458350, -1.03739619, -1.29419124, -1.90119290, -1.91012251, -1.61717629, -1.49900973, -0.30492350, 0.13472320, -0.31632829, -0.36754602, -0.35762498, -0.72491974, -0.33366770, 0.16345578, 0.10093208, 0.20973940, -0.78496909, -0.88120049, -0.69309193, -0.08654794, -0.02883375, -0.00922081, -0.08528321, 0.07805042, -0.00932842, 0.03314126, 0.03873795, -0.17206392, -0.60932213, -0.61016548, -1.25619721, -1.68872082, -1.69100797, -0.93728590, -0.06528070, -0.54262608, -1.73590219, -1.24951923, -0.74420524, -0.49035177, -1.24173927, -0.43285823, -0.48952854, -0.30903339, -0.91947109, -1.33681333, -0.92106789, 0.06003653, 0.04928882, 0.03674454, -0.06233378, 
0.05148077, 0.01628220, -0.04608447, -0.01354496, 0.01455303, -0.05018099, -0.01309222, -0.06556859, -0.00012616, 0.02845047, 0.07137603, -0.06768361, -0.40828562, -0.44905832, 0.11088949, 0.11075265, -0.02753410, -0.07018340, -0.08498897, 0.00960890, 0.01662799, -0.03553583, 0.07011463, -0.07867225, -0.06423890, 0.03367077, -0.03756878, 0.01877756, -0.08473805, -0.05656468, -0.00591791, -0.06893742, -0.02503202, -0.11561105, -0.53578079, -0.73902416, -0.85318321, -1.36253536, -1.66340113, 0.06615923, -0.08958097, -0.60243428, -0.60588771, -1.56042063, -1.32160664, -1.48332214, -1.67711127, -1.32328832, -1.38270569, -0.92722285, -0.65384829, -0.50255513, -0.08613786, -0.03174040, -0.00847211, 0.02635130, -0.04244534, 0.02272359, -0.44098067, 0.00505680, -0.17350283, -0.56593019, -1.47088289, 0.10289774, -0.67180490, -0.64059973, -0.81977385, 0.14289472, 0.15201351, 0.12574284, -0.01673194, -0.15941301, -0.56400925, 0.03037440, 0.13955389, -0.49076396, -0.64070505, -0.46731886, -0.33614460, -1.44500113, -0.59956771, -0.29779387, -0.03869569, 0.02923506, -0.05401383, 0.06490770, -0.12020896, 0.06791234, 0.65362394, 0.19248880, -0.47435972, 0.26916590, -0.76007760, -0.80338418, -0.95139402, -0.57108837, -0.73297137, -0.81070423, -0.53293854, -0.63159907, -1.12096560, -0.82103652, -0.12632576, -0.47134319, -0.25632685, 0.08497899, -0.20239682, -0.99517554, 0.54291636, -0.29211959, 0.32962531, -0.03474199, 0.02352067, 0.00523994, 0.17775059, -0.07272301, 0.35752198, 0.55089897, 0.01319163, 0.37243196, -0.22231200, -0.12326329, -0.35327932, -0.26939771, -0.46208104, -0.34502652, -0.08144400, -0.00560047, -0.54615021, -0.75074679, -0.81698442, -1.06973684, -0.48641109, 0.37905884, 0.89948678, 0.79411763, 1.13950849, 0.44584820, -0.47695634, -0.06418735, -0.06858435, -0.08074556, -0.04549612, 1.03022945, -0.39482322, -1.04501617, -0.51173460, -0.20419233, -0.29584017, 0.14550364, 0.20320524, 0.68279731, 0.13959771, 0.31587496, 0.05785289, 0.05231002, 0.14438613, 0.77020264, 0.88069785, 0.25593656, 0.28079686, 0.06428547, 0.76261556, 1.57252097, 0.87055242, -0.32208025, 0.75993365, 0.67538285, -0.07288191, -0.04366101, -0.94208968, -1.17787194, -0.89750236, -1.46287167, -0.90993845, -0.14421542, 0.10236438, -0.00833902, 0.10384595, -0.15063092, 0.16325523, 0.44791991, 0.19893730, 0.63961887, 0.70245177, 0.08158541, 0.35175851, 0.63980663, 0.38389742, -0.43987802, -0.10866439, 0.44339275, 0.37617022, 0.92159200, 1.62063301, 0.89840895, -0.08519080, -1.01139355, -0.78833282, -0.43447310, -0.38539636, -0.78491217, -0.63475847, -0.39939731, 0.18080232, -0.16127668, 0.03821759, 0.20719464, -0.23136924, 0.00250161, 0.47839710, 0.66926485, 0.74948794, 0.20636062, -0.27445871, 0.03298274, -0.05990525, 0.08672133, 0.19876204, 0.49056149, 0.51702797, 0.82328165, 1.06975019, 0.85878384, -1.06884289, -1.35537839, 0.01378612, -0.18842010, 0.24034634, -0.41326898, -0.56575334, -0.76146543, -0.41444016, -0.44102454, -0.38625348, -0.33620396, -0.45020798, -0.26324499, 0.20464653, 0.46484351, 0.62045276, 0.00622058, -0.23779523, 0.21198335, -0.06833680, 0.29644802, -0.21763876, -0.29624134, 0.54809004, -0.09218685, 0.66602588, 1.35598207, -0.03288814, -1.25978661, 0.22619161, 0.06939049, -0.37062550, -0.23861906, 0.03042053, 0.12020284, -0.23009254, -0.47861055, -0.17851339, -0.38977957, -0.60658509, -0.09053393, 0.21786909, 0.80766273, 0.27528360, -0.10736077, -0.07416460, 0.13365561, -0.00445788, -0.47320774, -0.25297680, -0.12538253, -0.13573132, -0.41717610, 1.99961877, 0.74944532, -0.11019395, -1.13331008, -0.43794006, 0.14715372, 0.18029776, 0.01922807, 0.19020939, 0.06893236, -0.13685749, -0.17464064, -0.21483132, -0.25373015, -0.56843102, -0.99545628, -0.06419561, 0.52572501, 0.12993385, -0.10178039, 0.10892813, 0.04581385, -0.09453751, -0.15101184, -0.18330166, 0.41353202, -0.62124467, 0.01735210, 1.78683972, 0.07254259, -0.06923340, -1.27791584, -0.35483226, -0.01685635, -0.09739307, -0.20330818, 0.01168168, -0.17212713, -0.00197707, -0.28543067, -0.42111418, -0.54043591, -0.72685254, -0.25413617, 1.05307639, 0.46119446, 0.22193585, 0.02051223, -0.19970299, -0.01252673, -0.01153346, 0.02553364, 0.29107037, 0.46093395, -0.57481819, -0.07998304, 1.83937681, -0.50193745, -0.10446214, -0.91148168, -0.30662686, -0.40656433, 0.16987725, -0.35804260, -0.12649329, -0.65161103, -0.51536340, -0.23038290, -0.68414849, -0.85518229, -0.52250540, 0.62181962, 1.25811434, 0.04480163, -0.23219223, -0.42747673, -0.33594295, 0.18482226, -0.05857473, -0.26174188, -0.06609077, 0.70613432, -0.14739591, -0.82239437, 0.76519841, -0.08268695, 0.02792140, -0.39141086, -0.89717889, -0.61728132, -0.01083587, -0.39672422, -0.44578245, -0.12449254, -0.52264613, -0.40348744, -0.23083633, -0.57476538, 0.07811494, 1.43714750, 1.21759963, 0.01376007, -0.17337713, -0.24674940, -0.42622164, 0.30080166, -0.07418157, 0.26471633, 0.06232082, -0.16524288, -0.71038806, -0.97486478, 0.12956190, 0.89869195, -0.29581958, -0.22670723, -1.22339106, -0.57854372, -0.17794047, -0.69025075, 0.04349079, -0.23008423, -0.32322568, 0.00393849, -0.06956851, -0.10152642, 0.70526993, 1.55193532, 0.57326120, 0.42433730, 0.15630068, -0.03051002, -0.13567807, -0.09827440, 0.21747617, 0.59105873, -0.18315959, -1.26922190, -1.34589815, 0.02066686, 0.77614337, 0.68109858, -0.25182223, 0.08313551, -0.72057837, -0.42185467, 0.41403943, -0.13340673, -0.32741061, -0.39866066, 0.06096615, -0.08451040, 0.01333304, 0.24157938, 0.65275872, 0.87680620, 0.01120991, 0.27074346, 0.37711614, -0.05199278, 0.02070757, 0.04276157, -0.07921483, 0.21777657, -0.66400057, -1.56414056, -0.65225935, -0.33583063, 0.66934121, 0.98828536, -0.42444247, -0.02807836, 0.28587973, 0.01234936, 0.91640902, 0.31319636, -0.03509282, -0.10107325, 0.10573099, 0.14122851, 0.48020500, 0.73398966, 0.49268943, 0.42066383, 0.13903368, -0.09721110, 0.20115058, 0.29910567, 0.19194129, -0.32438454, 0.07415114, -0.46971810, -0.36908031, -0.52073610, -1.35769868, -0.04888818, 1.75261235, 0.67530811, -0.01944596, -0.05275528, 0.31880668, 0.09446527, 0.29385498, -0.03420777, 0.36643997, 0.29780737, 0.22607073, 0.60727024, 0.88319236, 0.29511660, 0.28256771, 0.40690729, -0.10944951, 0.13546611, 0.10456395, 0.17849717, 0.19000381, 0.19324948, -0.32131684, -0.56918198, -0.56305593, -0.49578214, -1.14204192, -0.07154819, 2.07210040, -0.48003384, -0.76832217, -0.07064056, 0.15738833, 0.16021851, 0.12141491, 0.46705455, 0.47518381, 0.35473916, 0.10343381, 0.45079005, 0.51728719, 0.13384034, -0.21347313, -0.10150238, 0.05060112, 0.20400207, 0.23809028, 0.06777202, -0.00470216, 0.19516429, 0.08470157, -0.44100815, -0.03776802, -0.11848525, -0.20647778, 0.28522941, 0.42258164, 0.82157385, -0.04634930, -0.96457320, 0.17616548, -0.29101244, -0.92187768, 0.53592998, 0.11874097, 0.39404312, 0.21439536, 0.07062818, 0.20800279, 0.13401707, -0.01440145, 0.21343651, -0.02873634, -0.10700070, 0.11070570, -0.05091202, 0.30874628, 0.13272803, -0.12257014, -0.13453715, -0.12683083, 0.70321035, 1.03555214, 1.17762244, 1.24445224, 0.09906390, 0.05966881, -0.55666327, 0.70558631, 1.72654700, -0.16257426, 0.52115452, 0.31143615, 0.19914474, 0.36516824, 0.10476303, -0.17787652, 0.16215564, -0.49097565, -0.15874738, -0.43443394, -0.33163574, 0.47079968, 0.14389265, 0.10795941, 0.29717889, 0.51645124, 0.46764520, 0.63862228, 1.31763887, 1.26672292, 1.41933405, 1.03023648, 0.07933452, 0.06419887, 0.03544230, -0.29288486, 1.62394047, 0.09537632, 0.81075424, 0.67357039, 0.36594146, 0.12295658, 0.03270924, 0.00854185, -0.37919179, -0.27707383, -0.14397706, -0.42540067, -0.43015438, -0.01409605, -0.19541997, -0.25596032, 0.03246507, 0.29550213, 0.61875206, 0.52488899, 1.95021975, 0.51374906, 0.33872196, -0.80621243, 0.01429554, 0.00806670, 0.05497126, 0.76351941, 1.35065913, 0.10997919, 0.31920329, 0.38065472, 0.30585545, 0.42189887, 0.37623438, 0.18706046, 0.05932697, 0.15827423, -0.09130698, 0.08635731, -0.32653835, -0.17917576, -0.12615906, 0.10814089, -0.40947065, 0.38585469, 0.44870755, 0.95165050, 2.35190010, 1.34922540, -0.23482406, -1.06888700, 0.12348975, 0.04538952, 0.05684663, 0.26974770, 0.26046303, -0.21637093, -0.35864720, -0.70734870, 0.10127483, 0.49260858, 0.37957612, 0.30200195, 0.59738803, 0.56365836, 0.40574965, 0.25682190, 0.09427377, 0.06934270, 0.08734980, 0.12970173, 0.42426637, 0.45326626, 0.42344800, 0.66762692, 1.78635645, 1.32512403, 0.19475508, -0.44685113, 0.01010764, -0.00922915, 0.00274884, -0.76413274, -0.31697994, -0.65228611, -1.05991733, -0.29816568, -0.31662485, -0.18433709, -0.26700944, 0.01708660, 0.06157597, 0.11676246, 0.28841695, 0.24222633, 0.22791031, 0.18027791, -0.00411470, 0.11461008, 0.55328321, 0.32678217, -0.16639528, 0.31531155, 0.69875890, 1.09609532, 0.95055699, -0.04767460, -0.03791504, -0.01517823, -0.06331958, 0.78856236, -0.43820289, 0.01633898, 0.59469479, 0.20158309, -0.04348112, -0.37805948, 0.10135243, 0.19359356, -0.09010088, -0.25719944, 0.17671768, 0.28573394, 0.07236465, -0.22401756, 0.20919773, 0.29006734, 0.11554277, 0.19232868, -0.06736543, -0.28248179, 0.18304232, -0.45720816, 0.29304674, 0.04175003, 0.06280154, -0.04247832, -0.04218780, -0.00606874, 0.57940131, 0.82446700, 0.73108363, 0.68546832, 0.44529918, 0.67594337, 0.85220146, 0.64805430, 0.50761563, 0.72696149, 0.41098413, 0.69382340, -0.06980478, 0.86333001, 1.01773465, 0.35088468, -0.06631857, 0.17243482, 0.57918698, 0.35535309, 0.76574451, 0.49599704, -0.08141936, 0.03670996, -0.02874139, -0.02779296, -0.03203880, 0.06629951, -0.04944967, -0.42333534, -0.90044969, -0.47402486, -0.08837844, -0.30894026, 0.29878527, -0.27298534, 0.86443079, 0.79064029, -0.50637549, 0.54357421, -0.03164436, 0.30499068, 0.14349812, 0.33574417, -0.06503748, -0.07533349, -0.45788252, -0.51077580, -0.97720021, -0.03569804, -0.07279810, -0.08370898, -0.02642204, 
0.05954453, 0.01804989, -0.06767683, 0.04841349, 0.00274003, 0.05568622, -0.00977761, 0.04079223, 0.02012733, 0.04502818, 0.02713073, 0.02276538, 0.07158919, -0.06108536, -0.19439462, 0.05059132, -0.04579734, -0.03018571, 0.02444950, 0.02933621, -0.00382052, 0.07618567, -0.03397629, 0.06454994, -0.02805417, 0.04980886, 0.03044313, -0.03998094, -0.05145065, 0.01447985, 0.04388857, 0.06997052, -0.02016405, 0.15693742, 0.82675093, 1.11634910, 1.08414400, 1.45616806, 1.12688529, 0.31777689, 0.26619956, 0.19294648, -0.45643362, 1.58500791, 0.85758537, 1.21094215, 1.40839219, 1.02287865, 1.06701648, 0.92102486, 1.00452018, 0.82680440, 0.01854948, 0.06127386, 0.04880713, -0.05009852, -0.02203627, -0.00712154, 0.11352103, 0.59571576, 0.29771039, 0.79852957, 1.14995944, 1.35228515, 2.39902854, 2.78307343, 2.77137899, 2.99332404, 2.04602337, 0.39870983, -0.04317357, 0.68164891, 0.94657600, 0.89755368, 2.46492219, 1.13777614, 1.62412643, 0.87690443, 0.36430889, 1.62829137, 1.09836996, 0.65774071, 0.01603247, 0.06912355, 0.02473230, -0.07156304, 0.08856930, 0.99214989, 0.60897875, 0.51060122, 1.24076545, 0.34532744, 0.39247668, 0.57780010, 0.76685017, 0.29092339, 1.13146996, 0.82685995, 0.16992542, 0.32312599, -0.05119969, -0.17218556, 0.72576469, 0.33345851, -0.24074666, -0.18079580, -0.27884805, 0.44277447, 0.88186365, 0.85497761, 0.32864901, -0.06845119, -0.08022805, 0.00323223, 0.39254057, 0.74222159, 0.45454958, 0.45057568, 0.33992162, 0.21807495, 0.01294166, -0.39872074, 0.43659407, -0.25618449, -0.02172942, 0.10050258, 0.39761403, 0.24044053, 0.45200539, -0.02920171, 0.20007914, -0.19877946, -0.46539006, -0.37976226, -0.17692028, 0.13218208, -0.42712301, 0.44020912, 0.90036398, 0.98646361, 0.02658716, 0.00988180, 1.05328548, -0.10942578, -0.14139456, -0.26115131, -0.32026330, 0.27411160, 0.12302490, -0.06133540, 0.06364588, -0.25070515, 0.01958677, -0.15891740, -0.15649304, -0.30854020, 0.20970491, -0.08099243, 0.00109442, 0.06721639, 0.69052523, 0.38241655, 0.02222891, -0.07557912, 0.45457870, -0.10589881, 0.89684069, 1.24642873, 0.06316559, 0.65663266, -0.58459485, 0.08187032, -0.04759539, -0.65967464, 0.06225812, 0.12943798, -0.17567486, 0.16303967, 0.05965334, 0.01586089, 0.33082458, 0.02346045, -0.22610693, 0.01845799, 0.07129835, 0.20487863, 0.02031768, -0.05733699, 0.26929122, 0.10330326, -0.37876740, 0.08056574, 0.49325117, 0.27561638, -0.66689044, 0.95365196, 0.08222564, 1.44926190, -0.44421321, -0.42602363, 0.30692005, -0.01933078, -0.00240436, -0.17054607, 0.25744373, -0.17146185, 0.09271969, -0.04478879, 0.09834707, -0.06681445, 0.16475539, 0.10012680, 0.09839577, -0.12677605, 0.01613496, -0.32521275, -0.21285599, -0.21204269, -0.10285750, -0.76586568, 0.26180089, 0.16671878, 0.05378582, -0.42848650, -0.78893125, 0.62643486, -0.65970439, 0.05734398, -0.30347854, -0.16036494, -0.27085629, -0.19661728, -0.12418924, -0.41609120, 0.10487459, -0.15776886, 0.32960263, 0.38193205, 0.07374378, -0.18590496, -0.14036721, -0.09406952, -0.40279689, -0.02408223, -0.26905671, -0.60109389, -0.12418064, -0.55965370, -0.10781989, -0.62655836, 0.25659975, 0.15136027, 0.10075440, -0.40492421, -0.38515103, 0.46460956, 0.05877299, -0.07606857, -0.09760861, 0.01331845, -0.00641219, -0.09627022, -0.05326264, -0.24091722, -0.13259672, 0.03507855, 0.29053715, -0.12274418, -0.40549365, -0.34502882, -0.79191375, -0.45615855, -0.35754600, -0.49689916, 0.12187286, -0.03019341, -0.22596063, 0.02324538, 0.65070987, -0.20227043, -0.00066378, -0.54121333, -0.88149875, 0.23379330, -0.54181772, 0.09486881, -0.00901990, 0.17804435, -0.33281544, -0.07500910, -0.15541588, -0.28473583, -0.25027081, 0.10570803, 0.46650639, -0.42008591, -0.61601859, -0.54728127, -0.51095039, -0.49160618, -0.13666376, -0.14894119, -0.34083107, 0.15054196, 0.08980321, -0.80005538, -0.36303803, 0.26581699, -0.00392401, 0.02399479, -0.56381196, 0.04965120, 0.02761977, 0.19625862, -0.11780486, 0.01872237, -0.13154007, -0.17126393, -0.46888098, -0.16578808, -0.40487891, 0.22636446, 1.27172124, -0.03903898, -0.23209527, -0.32140169, -0.07372758, 0.08951322, 0.09825834, -0.29670006, -0.50933397, -0.00161700, 0.74659097, 0.11708799, 0.01306931, 0.80946046, -0.02206163, -0.53199673, -0.63357961, 0.38914284, 0.34520096, 0.55157256, 0.12192863, -0.00905119, -0.21477878, 0.01358845, -0.23174448, -0.37803304, -0.60888147, 0.06176925, 1.43064177, 0.16428646, -0.09544040, 0.09787506, -0.07850143, -0.20228553, 0.05477807, -0.09669656, -0.25643438, 0.23028019, 0.46356276, 1.25411320, 0.47135216, 0.97494566, -0.04273916, -0.69549489, 0.02837195, 0.80336469, 0.18984297, 0.04192895, -0.06010064, -0.44315928, 0.03182025, -0.11479904, -0.34250525, -0.44161007, -0.48804417, 0.67167866, 1.16897786, 0.08250421, -0.16643824, 0.13895033, 0.12368901, -0.07102450, -0.08677954, 0.00424984, -0.22674015, 0.35435656, 0.40977839, 0.15708679, 1.47241640, 0.87500542, -0.78094912, -0.09741209, 0.52819383, 0.45621890, -0.30632770, -0.75283849, -0.08460822, -0.22480305, 0.01539556, -0.03419457, 0.17664069, -0.09552623, -0.42759463, 0.36968246, 0.97735143, 0.13786630, -0.19458534, -0.27136898, 0.00192441, -0.22969393, -0.19743735, -0.07605906, -0.30474907, -0.01183106, -0.21400939, 0.00754383, 1.49264884, 0.87488139, -0.71402341, -0.05249633, 1.07751977, 0.60044038, -1.11713755, -0.29605660, 0.10197914, -0.38743582, -0.16015930, -0.20306733, -0.19448894, -0.20367029, -0.16554809, 0.64628047, 0.75900573, 0.17606376, 0.01796756, -0.14769393, -0.14651957, -0.17317688, -0.06154694, -0.07737251, -0.21408381, -0.26823682, 0.29621452, 0.31387505, 1.23481905, 0.75560141, -0.26046416, 0.74401546, 1.47725129, 1.37158310, -0.26754621, 0.00283295, -0.10479091, -0.11084557, -0.40203005, 0.12347677, 0.22188318, 0.07982364, 0.15737213, 0.81751370, 0.74278587, -0.04810590, -0.05970370, -0.13006797, 0.05398370, 0.06419251, -0.11787847, 0.07169969, -0.01678731, 0.57515961, 0.97410816, 0.59175944, 0.70133871, -0.01957745, -0.02186868, 0.74910170, 0.22465162, 0.89034164, 0.01624221, -0.21505502, -0.21054156, 0.10653596, -0.18793011, -0.15228850, 0.11551563, 0.19380146, 0.28590965, 0.38932994, 0.17962483, -0.32534343, -0.05470779, -0.25535649, -0.28368270, 0.31824580, 0.23397531, -0.04782976, -0.01751606, 0.60532027, 0.69419420, -0.16481382, -0.00757616, 0.78785920, 0.53956360, 0.64021027, -0.60098755, 0.76402009, 0.57910228, -0.02562049, 0.05981870, 0.20420268, -0.05263677, -0.13960315, 0.27721262, -0.15756114, -0.04504994, 0.39283714, 0.00845446, 0.04283340, -0.06245077, -0.03964903, 0.08719511, -0.04762187, -0.07856792, -0.27667311, 0.35926828, 0.38134822, 0.51388210, 0.98635149, -0.32529053, 0.67676038, -0.03140529, -0.71762860, -0.72147614, -0.30151859, 0.02275133, 0.29671249, -0.07973360, -0.19169401, -0.02176259, 0.20012039, 0.35697329, 0.23009315, 0.25034222, 0.22877759, -0.04951239, 0.12446303, 0.10558394, 0.37536302, -0.06790115, -0.09908552, -0.01383722, -0.08670809, 0.61447662, 0.23988050, 0.30844080, 0.71522963, -0.45637804, 0.08574269, 0.01277535, -0.82161105, -0.18093060, 0.29648072, 0.08954112, 0.12777710, 0.27553794, 0.50461560, 0.30117509, 0.42555645, 0.24600720, 0.04064457, -0.06235408, 0.16829851, 0.24222012, 0.16742443, 0.01474372, 0.04819237, 0.01713047, -0.10102751, 0.21680111, 0.37851608, 0.55659485, 0.74858922, -0.18059489, -0.89014828, -0.39677671, -0.11905856, 0.04658515, 0.42562079, 1.39430964, 0.53780669, 0.57273448, -0.18948303, 0.33212093, 0.56667078, 0.36687848, 0.17910109, 0.13675018, 0.06927486, 0.04195139, 0.37525353, 0.45079309, 0.31052709, 0.31213605, 0.46524164, 0.30455789, 0.29733995, 0.07808281, -0.04178524, -0.03339029, 0.45425946, -0.23038214, -0.52940691, -0.67700946, -0.07315610, -0.00024222, 0.11998374, 1.13418818, 0.43114558, 0.72685796, 0.66048825, 0.49027053, 0.15863965, -0.26971763, 0.16854829, 0.13434514, -0.06646064, 0.11504301, -0.09376992, 0.22269700, 0.30772528, 0.19050269, 0.37128881, 0.14358076, 0.51897252, 0.46094647, -0.40764171, -0.38282701, -0.16099025, -0.38781732, 0.42722833, -0.49384555, -0.01409302, -0.07796622, 0.06528190, 1.20253694, 2.19228840, 0.60909396, 0.88501322, -0.13433456, -0.15187988, 0.03181582, -0.02496435, -0.06349878, -0.08454151, 0.01042615, 0.07977591, -0.05856443, 0.00964366, 0.16593629, -0.12424142, 0.27769721, 0.49214539, 0.36972475, 0.28692585, 0.74304986, 1.14763427, 0.66232586, 0.64469659, 0.85651535, -0.06572869, 0.05099428, -0.01426792, 0.27287558, 0.71564454, 0.30133784, 0.16771021, 0.03531254, 0.34868720, 0.16147189, -0.05223348, -0.12102935, 0.34009773, 0.05396939, 0.04384024, 0.02759036, 0.03715754, 0.27678224, 0.17107774, 0.32252142, 0.71080202, 0.75563872, 0.04769421, -0.15737067, 0.37961319, 1.13093948, 0.03076358, 0.47441456, 0.00684994, -0.07868484, -0.04604813, 0.20143074, -0.91062158, 0.56475925, 0.32295176, 0.57477975, 1.09950459, 0.72006667, 0.24670731, 0.37080917, 0.23956874, 0.20298459, -0.02662452, 0.22671179, 0.06815621, 0.30999491, 0.18624593, -0.09744006, 0.64227325, 0.64496917, -0.51885325, -0.60626805, -0.81707585, 0.33910528, -0.62342215, 0.51511621, -0.08143379, -0.01938459, 0.07129526, -0.01924326, -0.61997116, -0.38366935, -0.12639208, 0.33332795, 1.12729335, 0.44466749, 0.67668092, 1.00169468, 0.90777344, 1.27584624, 1.35433090, 0.80079067, 0.33834624, 0.16581532, 0.70777887, 0.88690674, 0.58681864, 0.45534521, -0.37401834, -0.25898013, 1.48432517, 0.72041911, -0.05831479, -0.07682338, -0.08060068, -0.07006701, 0.01903825, 0.05711496, -0.05633552, -0.06058086, -0.04151171, 0.16431884, 0.54300356, 0.92111337, 0.34990159, 0.40551499, 0.25383243, 0.46639729, 0.29475588, 1.51336432, 0.75592631, -0.21367373, 0.47649929, 0.31036732, 0.58389944, -1.13566756, -1.11708951, -0.83050787, -0.06587158, 0.05017793, -0.03055624, 0.05714804, -0.02573670, 
0.02165427, -0.08354706, 0.01974149, -0.05148387, -0.06573480, -0.02101279, 0.04075350, 0.07545350, -0.01720449, -0.07559833, 0.06904934, -0.04111117, -0.10288022, -0.02929859, 0.14007014, 0.10927498, -0.01874697, 0.01681244, 0.04414317, -0.02394785, 0.02155712, -0.03674694, -0.04253753, -0.07987906, 0.01948837, 0.06980716, -0.05279508, 0.08402143, -0.01874830, -0.02224002, 0.06719705, 0.03391162, -0.18993248, -0.26065990, -0.29964295, -0.47826710, -0.31832385, -0.43924314, -0.64598018, -0.39437684, -1.32438004, 0.02246857, 0.31576878, 0.10378729, -0.20087634, -0.55734456, -1.05785394, -0.72305077, -0.75932860, -0.47287840, -0.58801258, -0.53150946, 0.01833702, -0.04628502, -0.06059814, -0.07961471, 0.03272114, -0.01045250, 0.00997502, -0.36774457, -0.80355048, 0.11885611, 0.31943929, -1.13498271, 0.44812027, 0.51519912, -0.47771198, -0.21183543, 0.08714995, -0.11936289, -0.38517058, 0.10848863, 0.50347972, 0.24116248, -0.43632966, -1.45018518, -0.27367386, -0.32592362, -0.81941730, 0.10460885, 0.65544277, 0.84145987, 0.06919512, 0.00994645, -0.05183304, -0.01541965, 0.92153442, 0.62863028, -0.06522956, -0.38673678, 0.49637142, -0.08779661, 0.82738191, 0.88043630, 0.02406910, -0.03178056, 0.32595757, 0.01689573, -0.33150309, 0.14042611, 0.55199045, 0.15248562, 0.07713163, 0.69516623, 0.10342747, -0.29859865, -0.06562600, -0.71940261, -0.43702197, 0.30397218, -0.92873234, 0.00025799, 0.05506246, -0.08284082, 0.85407943, 0.04020057, -1.22934425, 0.01958462, 0.49927801, -0.34371203, -0.13556848, 0.01869386, 0.50871360, -0.01292791, 0.04215079, 0.02434955, 0.04518190, 0.02597995, 0.15011965, -0.17211245, -0.03453445, 0.45175588, 0.03868313, -0.24526988, -0.42540312, -0.27265671, -0.35474926, -0.36989719, -1.14813626, -1.06635511, 0.01006701, 0.03498127, 1.00683272, 1.07090795, 0.35253248, 0.73174274, 0.18409632, -0.05425430, -0.19337644, -0.09573958, 0.26281372, 0.16192955, -0.21167111, 0.21637323, -0.20096447, -0.08239422, 0.20447062, -0.36115488, 0.03568682, -0.24168055, -0.36662290, 0.31565771, 0.39860213, 0.23707840, -0.07757931, -1.22127950, -0.79404455, -0.70847070, 0.05797546, 0.31263661, 1.35065258, 0.39824933, 0.32510370, 0.04227800, 0.59683663, -0.27547362, 0.13271587, 0.28186220, 0.30288884, 0.16320732, 0.03454810, 0.00015876, 0.03858665, -0.11638010, 0.11314204, -0.05087775, 0.13570648, -0.01425785, -0.10137463, -0.26364946, -0.21473455, -0.16560389, 0.02593438, -0.86741549, -0.14864588, -0.09884758, 0.02702559, 0.25119293, 1.71827316, 0.26355329, -0.13090436, -0.28816569, 0.12033848, 0.00482686, 0.10297406, 0.27945063, 0.05102010, 0.09942145, -0.22181167, 0.07846817, 0.20786193, -0.23431481, -0.12306958, 0.03397437, -0.03322377, 0.15644142, 0.11839232, 0.11391568, 0.42780226, -0.02873145, -0.41685021, -0.50756955, -0.28919098, 0.16851278, -0.82226300, 1.38228953, 0.89207745, -0.48712710, 0.13346510, 0.03511762, -0.08520418, -0.01955629, 0.05506315, 0.00200074, 0.30268079, 0.38081613, 0.04789801, 0.05095132, 0.09814131, -0.08734544, -0.38195205, 0.14939152, 0.00772155, 0.11876288, 0.40989745, -0.13691024, 0.26012480, 0.49918163, -0.27790496, -0.47116101, 0.22286665, 0.21951550, 0.55408144, 1.24112964, -0.08203416, 0.59332711, 0.68913639, 0.76660627, -0.10385756, 0.23868392, 0.18708093, 0.11885393, 0.16371205, 0.36187097, 0.13620667, 0.02195092, 0.33505991, 0.53090692, 0.36833346, 0.30943194, 0.24012221, -0.10799447, -0.01661759, -0.29295245, 0.00427684, -0.01377512, -0.22347145, -0.23198085, 0.21179526, 1.01716995, 0.52529281, 1.41376638, 0.27629966, 0.26809675, 0.34193471, 0.86935627, 0.55573356, 0.64516318, 0.43623191, 0.38639218, 0.33794343, 0.32119048, 0.07772255, 0.17262459, 0.16262189, 0.57155561, 0.47716436, 0.35926136, 0.05356352, -0.02961132, 0.05052323, 0.02219026, 0.15611266, -0.36191317, 0.26896846, 0.94015777, 1.47349513, 1.42273474, 0.25598630, -0.49972996, -0.02077274, 0.06738078, 0.36528072, 0.40385920, 0.54024285, 0.40732479, 0.19144480, 0.05597857, -0.15058433, -0.04615024, -0.73389637, -0.95470893, -0.65670329, -0.09138954, -0.25368512, -0.31990227, -0.01929169, -0.28831887, -0.20095977, -0.03766671, -0.09039956, -0.51052815, -0.58584136, 0.09154078, 0.91150355, -0.00914080, 0.18130422, 0.97166610, 0.02124950, -0.02099161, -0.21841788, -0.18616301, -0.42159358, -0.35121155, -0.46329793, -0.84717345, -1.24465680, -1.34671080, -1.02582383, -1.11712193, -0.62575299, -0.39797625, -0.38813862, -0.47747263, -0.20595405, -0.39437494, -0.37191609, -0.47369829, -0.83987892, -1.08841360, -0.99296671, 0.22446099, 1.45201313, 0.30068654, 0.33375713, 0.56048489, 0.27281737, -0.65187103, -1.52670491, -1.62464583, -2.07035875, -2.79601026, -2.02703595, -1.31939876, -0.96553814, -0.73086381, 0.00511829, 0.07411134, 0.06436431, -0.29484585, -0.15864122, 0.04901335, -0.09426233, -0.17223759, -0.09341872, -0.17184900, -0.38510770, -0.01302893, 0.43326145, 0.58742708, 1.78538609, 0.75397176, 0.12712945, -0.51250672, 0.57595956, -1.21998227, -1.75742102, -2.85062933, -2.40376139, -1.29336441, -0.63126278, -0.16210887, -0.09795216, -0.22683886, -0.01630088, 0.06740122, 0.24315937, -0.19761157, -0.03747487, -0.23845987, 0.09039079, 0.10384973, -0.28706905, -0.10565535, 0.07846926, 0.17013730, 0.08801464, -0.24408014, 1.66617179, 0.83655918, 0.82384992, -0.68865615, 0.06422368, -0.80413961, -1.77330112, -0.81825620, 0.24800961, 0.17111160, -0.00180934, 0.07866531, 0.13536754, -0.00875321, -0.07703248, 0.39993760, 0.02280660, -0.10654883, 0.06791431, -0.33173847, -0.08880310, -0.02548436, -0.38143736, 0.13502890, -0.13795970, 0.24045391, 0.62636554, 0.37974742, 1.55705917, 1.27774858, 0.82879007, -0.70449096, -0.28366193, -0.75606173, -1.00761974, 0.36881384, 1.00467920, 0.36034206, 0.00848628, 0.08697156, -0.02417683, -0.28264922, -0.03871368, 0.41252321, 0.09930477, -0.05477121, 0.08257291, -0.06002287, 0.02787996, 0.14506510, 0.01395594, 0.46661311, 0.60439605, 0.17699699, 0.14521815, 0.75230771, 1.62189639, 1.23558486, -0.06029068, 0.10224535, -0.20280346, 0.19653602, -0.25056696, 0.09820785, 0.32205147, 0.17333280, 0.09232914, 0.08791471, 0.02747299, -0.07023048, 0.18789130, 0.23957369, 0.22824730, 0.27077615, -0.21476196, -0.00505553, -0.06182187, 0.06385434, -0.13995604, -0.02300406, -0.07373837, -0.20918649, -0.31209734, 0.72210395, 1.46134758, 1.74595070, 0.82287621, 0.03909634, -1.05598772, 0.68275231, -0.04024457, 0.17644209, -0.13260920, 0.34460464, 0.10862336, 0.01514333, 0.01058343, -0.10579392, 0.26610997, 0.00287976, 0.24807210, 0.01400248, -0.20429145, 0.14482896, -0.20140563, -0.06435999, 0.01733841, 0.10382868, -0.01784942, -0.24104804, 0.24357519, 0.79329389, 1.25921094, 1.30218804, 0.07854486, -0.80032730, -0.10682271, 0.10377173, -0.47518840, -0.17035356, -0.03672083, 0.31320077, 0.06527578, 0.17622079, -0.03421248, -0.10312033, -0.14479190, 0.33887577, 0.03433627, 0.16220264, -0.03484803, 0.03580023, -0.26252821, -0.00439002, 0.11805473, 0.04082436, -0.32389504, -0.08271328, 0.50662678, 1.63847280, 0.99955618, 1.03919387, -0.05063001, -0.89591020, 0.41368881, 0.42996743, -0.25549868, 0.22900434, 0.18738386, -0.09954869, 0.44105780, 0.08184139, -0.04839734, 0.18830784, 0.11512339, -0.10130934, -0.24287081, -0.09075497, 0.11042544, -0.11947244, -0.15043567, -0.07186218, -0.20561630, -0.19272505, -0.00070407, -0.14545329, 0.19183370, 1.17537975, -0.18239254, 0.09429780, 0.41728160, 0.56380874, 0.33251920, 0.39793724, -0.09975925, 0.20298176, 0.15470816, -0.25252306, -0.05362380, -0.00970051, 0.04186357, -0.09648129, 0.01431760, -0.08218240, -0.06023916, -0.05502171, 0.12313771, 0.11084065, 0.46425831, 0.21900891, 0.01377550, -0.06594225, -0.04530880, 0.34733844, 1.02334464, 1.74311352, -0.78388077, -0.03291964, 0.26380870, 0.02927987, 0.61396205, 0.10013797, -0.34609225, 0.61341578, 0.12510005, 0.00344896, 0.27556986, 0.04297108, -0.20821628, -0.15827180, -0.11921667, -0.11279529, -0.01112026, 0.05175702, -0.20026883, 0.06466889, 0.18921773, -0.02600864, 0.23753431, 0.06381416, -0.10567825, 0.32200393, 0.78517300, 1.57531250, -0.60468668, -0.00806177, -0.07866108, -0.00351553, -1.20275974, -0.51657504, 0.47633466, 0.33325911, 0.42237449, -0.11660945, -0.30132338, 0.14918344, 0.01557175, 0.17434034, -0.00083726, -0.19566308, -0.30804139, -0.03010838, 0.03227274, -0.09288971, -0.17376712, 0.03973746, -0.10390507, -0.04796327, -0.28456336, 0.10690977, 0.51712573, 0.61437595, 1.22840428, 0.05251476, -0.06210808, 0.04644558, 0.50648570, -0.74666858, -0.02292726, 0.09186682, -0.45130628, -0.43814871, -0.01514393, 0.12282581, -0.17271817, 0.02329124, 0.02804283, -0.03233094, 0.31939596, 0.01073708, -0.53841251, 0.34904853, 0.06815295, 0.10150181, -0.14555830, 0.43640998, -0.45711949, -0.19907987, 1.53907919, 0.74687260, 0.82425243, 0.04101859, -0.05236669, -0.03083060, -0.67912918, 1.46322894, 0.56419569, -0.18895514, -0.25519195, -0.14000037, 0.14592123, 0.22365300, -0.32244855, 0.00133165, 0.14183654, 0.17377119, -0.04328181, 0.08500334, 0.07818747, 0.13523094, -0.41680142, -0.57921696, -0.59888655, 0.37968022, -0.05784586, 0.29590255, 0.75242537, -0.47562292, 0.41668805, -0.00417634, -0.01281833, 0.02383447, -0.05235851, -0.33116528, -0.73855138, -0.85243022, -0.78425187, -0.08023722, 0.12213863, 0.31249437, -0.21127421, -0.20676629, -0.27161449, 0.02846241, 0.00957241, 0.12244122, -0.31304702, -0.42996711, -0.66403836, -0.26223305, -0.36114714, 0.26193774, 0.17629778, -0.53246641, -0.34805334, -0.04782386, 0.07170229, 0.04330640, 0.02955274, -0.04771557, -0.02179094, 0.07930960, 0.39581111, 0.73297340, 0.86840880, 0.62251800, 1.05898154, 0.58282489, 1.19104707, 0.85658342, 0.46729416, 2.25975323, 0.14075628, 0.93782991, 2.75200438, 1.73321986, -0.05416107, 0.60289210, -0.08548500, 0.25845936, 0.38347507, 1.02294886, 0.00820154, 0.07432663, -0.04409139, 0.03878959, 
