float biases[500] = { -0.15345269, 0.03854756, -0.31844375, 0.13527095, -0.33972999, 0.33940661, 0.27190879, -0.02762557, -0.00403868, -0.08463988, 0.48945844, -0.54398537, -0.05540580, 0.08662643, 0.39967728, 0.00860420, -0.04297318, 0.01827645, -0.56742913, 0.25053033, -0.37505239, 0.21450822, -0.09822421, -0.07591328, 0.25435862, -0.03513679, 0.20954111, 0.25278381, -0.05044507, -0.12887555, -0.16255453, -0.45094734, -0.18378495, 0.00917344, 0.30820248, -0.03203531, -0.08882143, -0.59123164, 0.39053208, -0.26087084, 0.04034334, -0.39797685, 0.19129939, -0.51148826, -0.26815343, -0.24110249, 0.33426198, -0.40612003, 0.15749493, 0.13129404, 0.14649533, -0.11349946, -0.39028460, -0.54119498, -0.11165202, 0.13827808, -0.33712009, 0.60071921, 0.49761978, -0.26122159, -0.15762985, -0.09985487, 0.71170729, -0.41297302, 
0.00304910, 0.17701091, 0.16325338, 0.02677227, 0.00422014, -0.04282706, 0.12386460, 0.05555006, -0.01738151, 0.12373442, 0.10524222, -0.03736065, -0.01760351, -0.05671833, -0.00078148, 0.07297356, 
-0.93605286, -1.25527692, -1.13286686, -0.99276245, -1.21578300, -1.26654720, -1.26594722, -1.43055093, -0.93061900, -1.08312523, 
 };