const float weights[64000] = { 0.06899235, 0.07093351, -0.03848401, 0.03528839, 0.00164729, -0.04895111, -0.06361631, 0.05521612, 0.04574744, 0.07659359, -0.05363833, -0.07389843, 0.03293054, 0.12956150, -0.02097543, 0.01423242, -0.00513373, 0.00865525, 0.06828322, -0.00019167, -0.03999031, 0.03032048, 0.04790099, 0.04937012, -0.02039179, 0.03287449, 0.04519860, 0.02760026, -0.04451876, 0.07832401, 0.08518904, 0.05134515, 0.02710350, 0.08375934, -0.00774716, 0.00966169, 0.15788975, 0.18901616, 0.11029961, 0.04324769, 0.12193204, 0.27184093, 0.13535100, 0.14427401, 0.07480311, 0.19302937, 0.12441795, 0.08433004, 0.14560802, 0.18585502, 0.04156500, -0.01282701, 0.02962201, 0.02560016, -0.04900454, 0.05047636, -0.06377123, 0.05516621, 0.03369522, 0.00899623, 0.02875680, 0.14575148, 0.13753527, 0.09366861, 0.15423787, 0.22467868, 0.26895025, 0.44750595, 0.47504628, 0.40530515, 0.40459523, 0.46245313, 0.52728850, 0.48351803, 0.37286210, 0.31130174, 0.30439222, 0.31484196, 0.25250584, 0.13229501, 0.18732427, 0.13674106, 0.08326466, 0.05946046, -0.05613191, 0.01831970, 0.03185960, 0.08350186, 0.08098567, -0.01804742, 0.04242215, 0.23571956, 0.27992061, 0.42170745, 0.27786091, 0.28220046, 0.45876703, 0.43601176, 0.61177605, 0.64249676, 0.66101903, 0.64835221, 0.50636280, 0.47389948, 0.51226717, 0.45452040, 0.39061895, 0.33212867, 0.21457201, 0.21509367, 0.06387565, 0.02966956, 0.01831057, 0.03650905, -0.00790565, -0.00948355, 0.03228908, -0.07572193, -0.05083640, 0.01621137, 0.06752682, 0.12738663, 0.13004400, 0.18237403, 0.25773636, 0.32308972, 0.19934423, 0.31893286, 0.28610250, 0.24178229, 0.31960490, 0.40045431, 0.39982218, 0.41861829, 0.19660655, 0.12635475, -0.01299056, -0.00063737, -0.03505183, 0.05562170, -0.02834200, 0.05998670, 0.04900236, -0.03402704, -0.09371234, -0.08060333, 0.00815137, -0.05833406, -0.02171328, 0.00282729, 0.06253373, 0.08602658, 0.05873809, 0.10448642, 0.05042147, 0.09785262, 0.06048090, 0.04959708, 0.05333985, 0.02832101, 0.07622535, 0.15287444, -0.01579779, -0.18188897, -0.26056048, -0.24575247, -0.17004772, 0.04349517, -0.03639979, -0.09014065, 0.13587673, 0.01486376, -0.07593631, -0.00993921, 0.01712720, 0.07602450, -0.01670642, 0.00121261, -0.07877044, -0.02813353, -0.01051479, -0.07437812, -0.13196938, -0.19150969, -0.25824985, -0.25689399, -0.19518732, -0.07609431, -0.08056423, -0.07528439, -0.21710275, -0.43314534, -0.56051379, -0.43164551, -0.15532547, -0.04551981, 0.04332021, 0.03923344, 0.19269601, 0.03505945, -0.04135777, 0.13225298, 0.05854489, 0.12517118, -0.01684216, -0.04314499, -0.09889600, 0.00901460, 0.01706024, 0.03044699, 0.00069451, -0.18671387, -0.17907591, -0.19060847, -0.05059498, -0.07404751, -0.15151565, -0.08371060, -0.26579377, -0.45878723, -0.71658450, -0.59281826, -0.21827543, -0.12329004, 0.05588917, 0.15489346, 0.32888350, 0.26545659, 0.17424880, 0.00723367, -0.03627624, 0.12934306, 0.04707566, 0.00373840, 0.05417106, 0.05170511, 0.14467254, 0.09239408, 0.32071671, 0.12994201, 0.03885492, 0.15895493, 0.01205634, -0.04640563, -0.07262733, -0.11584140, -0.21337837, -0.51189619, -0.73893291, -0.56904536, -0.33947086, -0.10357077, 0.05018668, 0.26874834, 0.32400569, 0.36830968, 0.21994446, 0.12578778, 0.12334491, 0.06723686, 0.02989007, -0.01885934, 0.02798675, -0.01748348, 0.08884168, 0.34745798, 0.52975148, 0.42411336, 0.41815165, 0.11999933, 0.10186188, -0.04048623, -0.07458159, -0.22574478, -0.29389238, -0.47131690, -0.78740853, -0.65461761, -0.36592942, -0.03417414, 0.12879847, 0.10659392, 0.38488549, 0.43620422, 0.30407304, 0.18578695, 0.16237265, -0.04841378, -0.09419660, -0.09323341, -0.08817218, -0.19123292, -0.07601932, 0.23490983, 0.50018364, 0.40836540, 0.23872189, 0.10760538, 0.10706931, 0.04866832, -0.00680886, -0.17847130, -0.21035585, -0.38447997, -0.70005280, -0.60252064, -0.26419330, -0.11886494, 0.01219641, 0.17108908, 0.36862004, 0.36063194, 0.21347310, 0.08049817, 0.00370472, -0.08270923, -0.02882575, -0.16979395, -0.15117796, -0.43949550, -0.40830329, -0.36960214, 0.14178587, 0.25808537, -0.07550757, -0.09908787, -0.03021153, 0.04153617, 0.02548382, 0.03424496, -0.11119089, -0.27717873, -0.33730072, -0.39932826, -0.17581047, 0.05770749, 0.04322008, 0.25995216, 0.27527386, 0.38902479, 0.16397406, -0.05175041, -0.18237621, -0.17189710, -0.06191646, -0.26370260, -0.31776398, -0.53907621, -0.66935217, -0.62674040, -0.23282695, -0.05451404, -0.24922071, -0.21073873, 0.00786003, 0.06060751, 0.06345059, 0.08756725, 0.09041514, -0.01498560, -0.12994756, -0.09598061, 0.06589793, 0.04564432, -0.00019131, 0.16635004, 0.27487829, 0.25439647, -0.02463468, -0.22143225, -0.29265708, -0.23338471, -0.17699848, -0.26985919, -0.42280534, -0.57878792, -0.65983725, -0.48673642, -0.06538723, -0.20697832, -0.20408794, -0.19915253, -0.03669302, 0.16433780, 0.16081691, 0.06295441, 0.10536788, 0.14136931, 0.22738172, 0.22397153, 0.09100097, 0.14186266, 0.06847470, 0.02610250, 0.23831768, 0.15995193, -0.11918481, -0.22403339, -0.15111952, -0.22957888, -0.17851250, -0.24493441, -0.32779598, -0.43510118, -0.50053203, -0.27113524, 0.06735303, -0.11699353, -0.24180834, -0.08823080, 0.09166872, 0.10139988, 0.14148226, 0.07717513, 0.21807154, 0.16573377, 0.24075228, 0.30693147, 0.13667327, 0.04485478, -0.04273021, -0.12549540, -0.00734233, 0.16257438, 0.08046363, -0.01652906, -0.00475752, 0.00869119, -0.10444570, -0.16669942, -0.12992020, -0.28301591, -0.30138958, 0.04300931, 0.09448964, -0.06696186, -0.18710110, -0.10277861, 0.02921757, 0.05859324, 0.11517161, 0.19100331, 0.10346685, 0.03138926, 0.29463932, 0.26475602, 0.13435577, 0.08380398, 0.13725094, -0.05769903, -0.02242796, 0.15051420, 0.22923836, 0.17836361, 0.08988055, 0.09366458, -0.07354870, -0.10025585, -0.12310465, -0.23276867, -0.19214211, 0.04058843, 0.19842045, -0.00363368, -0.21986385, -0.17376463, -0.10887358, -0.00760096, 0.05570446, 0.17616832, 0.05114643, 0.16585505, 0.27143431, 0.32878295, 0.25667942, 0.16759357, 0.06198430, 0.01859423, -0.07634962, 0.17519513, 0.29400790, 0.18918484, 0.13507281, 0.02629414, -0.05004297, -0.07814620, 0.04640948, -0.02992968, -0.01952867, 0.17771138, 0.14250128, 0.11474036, -0.16684575, -0.15228724, -0.03243002, -0.01181170, 0.15277287, 0.19721994, 0.16978066, 0.18895690, 0.22738604, 0.38384676, 0.13759308, 0.12011328, 0.05128896, -0.06494329, -0.18457595, 0.09443190, 0.16911773, 0.24727008, 0.11453193, 0.09861344, 0.02926978, 0.07374816, 0.20165996, 0.18386757, 0.26948187, 0.29069570, 0.32646990, 0.07598455, 0.06421633, -0.02137875, 0.11074068, 0.06529216, 0.09997534, 0.00173441, 0.16392313, 0.26781929, 0.37517512, 0.43193260, 0.16913632, 0.03246043, 0.09302120, -0.04381705, -0.12287170, 0.06079232, 0.20180452, 0.14901295, 0.07944687, 0.09434563, 0.15365583, 0.28813604, 0.37415481, 0.33143726, 0.45569098, 0.41969123, 0.37079886, 0.19372979, 0.06789695, 0.07330989, -0.00230508, -0.06131444, 0.01041696, -0.03980564, 0.09250068, 0.22487983, 0.28652295, 0.33338428, 0.15913738, 0.12039958, 0.02938709, -0.00614879, -0.29702091, -0.02377325, 0.03770942, 0.00881318, 0.05122199, -0.02677013, 0.10563088, 0.19541745, 0.30314159, 0.35596082, 0.35423705, 0.42811996, 0.32841036, 0.28475919, 0.12313249, 0.13070518, 0.04386695, -0.05025756, -0.01221607, 0.00386412, 0.12266701, 0.22449112, 0.35009757, 0.24365883, 0.13247190, 0.10650459, -0.01276279, -0.01854071, -0.27659526, -0.08385698, 0.01014525, 0.01135995, -0.07762752, 0.03557874, 0.03892031, 0.20444426, 0.18556497, 0.24733773, 0.22708997, 0.29296038, 0.29596752, 0.15875997, 0.08364632, 0.03194878, -0.11465269, 0.00828363, -0.07296546, 0.08304016, 0.05343591, 0.20067836, 0.27708918, 0.21501337, 0.13428028, -0.01283337, 0.01227289, 0.04707450, -0.13903919, -0.16425940, -0.04634840, 0.01644526, 0.05625983, -0.02856604, 0.01903155, -0.09469204, -0.05389304, -0.14995942, -0.18618464, -0.22299530, -0.06056210, -0.09295328, -0.01572415, -0.06239498, -0.05974356, -0.15268287, -0.06881094, 0.06512152, 0.17152499, 0.11493499, 0.15779579, 0.10225520, 0.01417024, -0.01636584, -0.02032654, -0.04909614, -0.26451790, -0.22791976, -0.01202497, 0.20194110, 0.14627168, 0.09597433, -0.05891366, -0.13841735, -0.21966706, -0.41264990, -0.45296451, -0.49741641, -0.34344968, -0.20726131, -0.19177225, -0.09303860, -0.24641033, -0.17150876, -0.14609383, -0.04259797, -0.05557480, -0.05201547, 0.09906755, 0.18353790, 0.11254511, -0.05889479, 0.03136389, 0.01425724, -0.15205294, -0.29094160, -0.02553551, 0.24962321, 0.18408450, -0.00558996, -0.11788420, -0.01716899, -0.03593968, -0.18327421, -0.03553980, -0.05421133, -0.07721634, -0.07029378, -0.10951089, -0.03870681, -0.20046209, -0.35987046, -0.31604263, -0.21388595, -0.15154240, -0.13877553, 0.03879120, 0.14450893, -0.02421552, -0.04752111, 0.08454645, 0.02233279, -0.17533077, 0.05529961, 0.14493345, 0.06195209, 0.17686428, 0.22541478, 0.33488736, 0.28617245, 0.27910411, 0.48967990, 0.46206340, 0.36581403, 0.44073588, 0.30870080, 0.26064473, 0.23734687, -0.03694572, -0.23063849, -0.23701228, -0.30465373, -0.22198498, -0.37270135, -0.21304369, 0.01085623, 0.01049357, 0.02228361, 0.06575410, -0.00439033, -0.08447009, -0.07639121, -0.15343229, 0.08893646, 0.18889868, 0.31051347, 0.39228904, 0.47729045, 0.56344581, 0.53048152, 0.55464220, 0.54642487, 0.48387557, 0.58373404, 0.57564968, 0.48598886, 0.33483478, 0.13719530, -0.07682994, -0.07666827, 0.00333323, -0.08582760, -0.00557495, -0.00160076, -0.03451619, -0.03649219, -0.02129900, -0.06075671, 0.00292108, 0.03149226, 0.03668595, 0.01983232, 0.02642652, 0.11074369, 0.24075493, 0.28788728, 0.23734289, 0.21158518, 0.38970223, 0.48326442, 0.44510669, 0.47784126, 0.42119578, 0.45491245, 0.30113709, 0.26820123, 0.04903399, 0.11027957, 0.13858978, 0.00768915, -0.07720897, -0.07444898, -0.00470263, 0.04815401, 
-0.04271052, -0.02877663, 0.00261552, 0.07916839, 0.03399833, 0.01400074, -0.06256281, -0.04688803, -0.02317579, -0.05350034, 0.02292385, -0.03269827, 0.00478641, -0.00659717, -0.02611108, 0.04754684, 0.08418730, 0.03684097, 0.07002258, -0.05084526, -0.08458355, 0.08006778, 0.06972940, -0.03622817, 0.04195517, 0.02328314, -0.05480782, -0.01488863, -0.07579134, 0.08593372, 0.01017717, -0.06375219, -0.03612919, 0.06724044, -0.13398503, -0.03318615, -0.07130092, -0.15627727, -0.13745619, -0.20614003, -0.18775313, -0.11114726, -0.05285932, -0.02215759, 0.15223680, -0.03188261, -0.06360137, -0.22463892, -0.17489953, -0.07254317, -0.15285672, -0.01514247, 0.01043770, -0.02063196, 0.04863569, -0.06916364, -0.06238978, -0.04293473, 0.05402298, 0.01187965, -0.09198160, -0.14954922, -0.10004738, -0.11218321, -0.11505280, -0.08772745, -0.30958575, -0.20654050, -0.28083661, -0.21020137, -0.30854085, -0.18870054, -0.17024165, -0.28371099, -0.31034419, -0.40432853, -0.29511294, -0.43948662, -0.35877320, -0.11461315, -0.17034191, -0.08282349, -0.07739214, 0.06572755, 0.07346369, -0.01361477, 0.01847940, -0.09524710, -0.04031685, 0.05568198, -0.02873107, -0.04253514, 0.05010150, -0.01347694, 0.04859257, 0.05692479, 0.13446985, 0.14764999, -0.03311281, -0.05542454, -0.01227923, -0.25732738, -0.25355446, -0.40960410, -0.34133705, -0.31776702, -0.27762097, -0.28658605, -0.29582965, -0.08162482, 0.11497914, -0.07523832, 0.03113311, 0.02733324, 0.06257087, 0.06919299, -0.04889388, 0.19742556, 0.11776996, 0.14251475, 0.25046790, 0.32013738, 0.18882971, 0.29599091, 0.22648267, 0.25477836, 0.12294538, 0.10815556, 0.03255848, -0.07404868, -0.17880543, -0.15300907, -0.29074019, -0.17989005, -0.22639576, -0.20217381, -0.10021036, 0.13888755, 0.13098626, 0.09515306, -0.00013039, -0.05789767, 0.04225520, 0.13507424, 0.26618508, 0.27832863, 0.22025929, 0.18714644, 0.14736284, 0.18075085, 0.09530083, 0.09499570, 0.09842250, 0.16699205, 0.16238458, 0.23005763, 0.26059490, 0.14104311, 0.18585171, 0.05773884, 0.10479494, 0.11083380, 0.12452050, 0.13294479, 0.14725621, 0.27292711, 0.17035891, 0.00837168, -0.04161010, 0.00708864, -0.06393821, 0.13355365, 0.19404277, 0.22257102, 0.17196122, 0.21608731, 0.18504938, 0.04234185, 0.15377851, 0.15225533, 0.13524847, -0.01674302, -0.01768214, 0.07573910, 0.04287224, -0.01698194, 0.10534342, 0.09105170, 0.25334984, 0.19811338, 0.22093847, 0.31938106, 0.40908480, 0.51202071, 0.33797753, 0.20311525, 0.03616075, 0.09097894, -0.07603166, 0.13607909, 0.25768754, 0.13341495, 0.14854723, 0.19497226, 0.04449230, 0.00782883, 0.05506112, -0.09729088, -0.00407114, -0.04217635, -0.10043766, -0.16341333, -0.20934287, -0.08691041, -0.08995444, 0.15458757, 0.21320184, 0.14461939, 0.18387949, 0.36499700, 0.50053924, 0.61697447, 0.27179879, 0.13632558, 0.02273441, 0.01441305, -0.17086306, 0.02854899, 0.30651212, 0.21213098, 0.22127713, 0.14852703, 0.05844689, -0.00738430, -0.05915221, -0.14741574, -0.01841627, -0.16282009, -0.08549659, -0.17937896, -0.19286513, -0.12983698, -0.01272275, 0.09283182, 0.08508008, 0.15197004, 0.25933436, 0.29750428, 0.61685783, 0.61526531, 0.36578754, 0.17176063, 0.00449559, -0.12789236, -0.23096085, 0.14928611, 0.34312031, 0.28822973, 0.16510476, 0.00056302, 0.01901117, -0.07107419, -0.08509187, -0.16505305, -0.14517398, -0.12665564, -0.17457952, -0.00368041, -0.03115185, -0.08366743, 0.06080314, 0.03190936, 0.02924429, 0.06438594, 0.10432078, 0.22582817, 0.55352587, 0.60226178, 0.52689874, 0.07081404, 0.01122453, -0.14020264, -0.06631529, 0.15559177, 0.33087108, 0.21168242, 0.08595865, -0.00536242, -0.08112853, -0.15648267, -0.08920460, -0.19300283, -0.30726445, -0.20555140, 0.19689675, 0.11957686, -0.11720246, -0.18751007, -0.03191756, 0.02129717, -0.15770684, -0.10002287, -0.11791935, 0.06747152, 0.29308605, 0.61185223, 0.35717735, 0.07858866, -0.01797278, -0.20215219, -0.03362618, 0.10260700, 0.03572151, -0.04734419, -0.19441457, -0.24455670, -0.16641115, -0.15388352, -0.23042122, -0.29263601, -0.24631803, 0.01799597, 0.38560626, 0.17023394, -0.01158451, -0.11130956, -0.05381493, -0.05279887, -0.23140495, -0.25287381, -0.27809978, -0.37023246, 0.04903058, 0.57654071, 0.30838874, 0.12847884, -0.01285848, -0.14528507, -0.11454503, 0.05464672, -0.01784836, -0.25854751, -0.34871340, -0.34051588, -0.26705313, -0.13703883, -0.21350260, -0.24841569, 0.01185931, 0.29861873, 0.39096379, 0.09365834, -0.08637772, -0.14588924, -0.04674812, 0.00091978, -0.09981018, -0.33709118, -0.54194099, -0.60873467, -0.34467804, 0.14580402, 0.22378136, 0.16944824, 0.09154750, -0.04950457, -0.06862653, 0.02817672, -0.22824053, -0.35724097, -0.43494940, -0.28320491, -0.13924962, -0.17916717, -0.23890246, -0.17388454, 0.20585808, 0.42691997, 0.40254229, 0.09985755, -0.09142333, -0.13683939, 0.08557161, 0.00737824, -0.17218050, -0.38264629, -0.61525333, -0.52597368, -0.42599368, 0.12886888, 0.33629036, 0.14272021, 0.10901650, -0.03919353, 0.03228473, 0.00103913, -0.20037098, -0.45030814, -0.50130266, -0.35938260, -0.24080214, -0.19062544, -0.17255089, -0.08595492, 0.28453925, 0.49085665, 0.41891700, 0.13884674, -0.08560574, -0.02393784, 0.05602624, -0.04007144, -0.19982962, -0.42885542, -0.52427244, -0.47256419, -0.43002450, 0.10410485, 0.26675302, 0.00638433, 0.09544614, -0.04165161, 0.08697542, 0.18048267, -0.09240901, -0.38624239, -0.38378334, -0.24889350, -0.12813109, -0.21406664, -0.19092807, 0.02319301, 0.38140526, 0.51736701, 0.45307168, 0.08765558, -0.16326028, -0.19967087, -0.06437793, -0.05641570, -0.28012940, -0.17770624, -0.29512545, -0.32294631, -0.21817134, 0.11858291, 0.34277976, 0.19021164, 0.05471937, 0.05252673, 0.17498668, 0.28694379, 0.06185149, -0.14399797, -0.28688514, -0.27939454, -0.23952432, -0.24605109, -0.23219118, -0.07143870, 0.49220517, 0.51532531, 0.31089282, 0.04400202, -0.05328959, -0.11533006, -0.04481551, -0.08607855, -0.18100759, -0.15500638, -0.13015677, -0.10921536, 0.12862670, 0.39464605, 0.35149673, 0.19661883, -0.00050591, 0.11050299, 0.15577573, 0.43035674, 0.34217224, -0.06209805, -0.11844169, -0.23513715, -0.16124299, -0.23471639, -0.26966244, 0.02805095, 0.27027631, 0.40343434, 0.10514469, -0.02765123, 0.09258359, 0.00031070, 0.03496983, 0.03667698, 0.08134044, 0.05082621, 0.03594789, 0.07381277, 0.37223083, 0.34499827, 0.33116308, 0.06855103, -0.04250977, -0.01799338, 0.14236630, 0.44988593, 0.39981654, 0.15071726, 0.08220516, -0.04388511, -0.08744880, -0.14152502, -0.13978833, 0.01866465, 0.21689145, 0.16520558, 0.01727665, -0.00241585, 0.03941322, 0.08999507, 0.09411087, 0.09010220, 0.13354144, 0.06785673, 0.20257258, 0.26923573, 0.34142449, 0.36147213, 0.13121213, 0.12325726, -0.01585277, 0.01835471, 0.14127101, 0.42714423, 0.27835834, 0.30823901, 0.22785895, 0.22283737, 0.21728013, 0.23809218, 0.10369072, -0.01382752, -0.01254494, -0.00922839, -0.05736516, 0.02183959, 0.10477696, 0.10799302, 0.10410646, 0.12109647, 0.12055588, 0.21869859, 0.23806688, 0.33361068, 0.37664926, 0.32171142, 0.18862322, 0.13202558, 0.01553596, 0.04442423, 0.14357208, 0.27784863, 0.25414425, 0.28792375, 0.32635638, 0.44230801, 0.37272847, 0.28409430, 0.22331549, -0.03699680, -0.21588168, -0.22646740, -0.05687331, -0.04333954, 0.06485670, 0.03665565, 0.17070140, 0.18935809, 0.23497137, 0.27517027, 0.23441300, 0.45512649, 0.32217833, 0.18309842, 0.04774894, 0.04185478, 0.02143706, -0.01965292, 0.25230575, 0.37300074, 0.28472325, 0.24413216, 0.37943429, 0.32756391, 0.31024531, 0.22321182, 0.13032678, -0.06775563, -0.22963774, -0.08048546, -0.18157613, -0.04267708, 0.03199369, 0.11835538, 0.07945400, 0.20954421, 0.16760033, 0.15977597, 0.34990573, 0.39811629, 0.17315106, 0.28283137, 0.12401149, -0.05556224, 0.03885821, 0.02986733, 0.21039964, 0.23829217, 0.29065806, 0.11151473, 0.16093765, 0.23749684, 0.10033629, 0.11387176, 0.06386551, 0.02597173, 0.08030345, 0.04806943, -0.03880704, 0.04935291, 0.01133323, 0.09413499, 0.16165058, 0.21254730, 0.22209525, 0.22733004, 0.18461840, 0.18977751, 0.09815780, 0.10363083, -0.01079153, 0.04867596, 0.02973177, -0.07691322, 0.08161107, 0.16881528, 0.25308719, 0.22864434, 0.09165228, 0.08320764, 0.04007626, -0.01566161, 0.01741879, 0.07858087, 0.11853660, 0.09436999, 0.14874133, 0.21293379, 0.20540513, 0.07023418, 0.20564552, 0.10152488, 0.09626291, 0.05314308, 0.04200693, 0.04891234, -0.02717817, 0.05917729, 0.12283851, 0.07604405, 0.00466584, -0.08638088, 0.03267482, 0.19998509, 0.09391292, 0.05631285, -0.05654443, -0.03550842, -0.07654180, -0.04052902, -0.05323770, 0.05431919, 0.12215696, 0.11464626, 0.14591572, 0.06909005, 0.06267720, -0.12206771, -0.08449353, -0.17007431, -0.26020807, -0.17156971, -0.24541546, -0.15874706, 0.14444928, 0.00431261, 0.07273284, -0.02482112, 0.05811396, -0.05188448, 0.10494015, 0.04777709, -0.00335378, -0.15655312, -0.30378097, -0.39825499, -0.35540158, -0.34832206, -0.28650662, -0.30981448, -0.20487177, -0.23852442, -0.27173498, -0.42611527, -0.46419314, -0.38885355, -0.35085845, -0.38260251, -0.32662517, -0.33817971, -0.29938212, -0.08810358, 0.04024313, 0.01072846, 0.10729668, 0.00790192, -0.06471154, -0.04239901, 0.02643470, -0.01242122, -0.18274125, -0.26672763, -0.31877238, -0.29563728, -0.28287166, -0.41196525, -0.30682507, -0.46213472, -0.47122017, -0.40037611, -0.48326480, -0.48716471, -0.35677862, -0.22862267, -0.19331229, -0.24268804, -0.24619661, -0.27805477, -0.10396637, -0.08804665, -0.03125359, 0.06039425, -0.05649047, -0.07910647, 0.02869830, 0.03990872, 0.08040439, -0.01574045, -0.09725881, -0.12636130, -0.03054297, -0.02015839, -0.00854459, -0.15536942, -0.16763203, -0.21137212, -0.14132419, -0.28459498, -0.29887024, -0.14728718, -0.14307669, -0.18211970, -0.20387869, -0.19506045, -0.09548596, -0.00126809, -0.09697542, -0.08673410, -0.08523583, -0.01509023, -0.04039309, 0.01854837, 
-0.01916296, -0.07962295, 0.03243396, -0.00054783, -0.02525396, 0.06970981, 0.01162304, -0.07691450, -0.04408270, 0.08420609, 0.05429821, -0.02612042, 0.00539668, 0.04648751, -0.08350101, -0.02746199, -0.08285672, 0.04399732, -0.02159823, 0.02122416, -0.00249896, 0.06758028, -0.00315420, -0.05757322, -0.06937215, 0.06806341, 0.07266340, -0.01954815, 0.04179940, -0.01057526, -0.06938021, -0.00289553, 0.06737693, 0.04408325, -0.01596213, -0.01721730, -0.08439540, -0.00021835, 0.07607634, 0.04927531, -0.01351729, 0.11392728, 0.02145778, 0.07601461, 0.05570452, 0.12762515, 0.14723580, 0.06777663, 0.07054422, -0.02397766, 0.13766024, -0.01782149, 0.05896345, -0.04358625, 0.01104720, 0.07410420, -0.06214426, -0.06053558, -0.03280142, 0.02423190, 0.03520577, 0.00323201, -0.05981038, 0.01592611, 0.00833359, -0.05422746, -0.10192897, -0.07685656, -0.01094076, -0.00526969, 0.08942280, 0.17854577, 0.21506198, 0.12726629, 0.09447944, -0.04782079, 0.02305742, -0.13102306, -0.11711763, -0.06557714, -0.08241443, -0.13602768, 0.02874029, -0.01815069, -0.05660301, 0.07529254, 0.04600173, -0.02991968, 0.01956456, -0.06177026, -0.22022097, -0.12340526, -0.25774676, -0.30185258, -0.33149675, -0.34109893, -0.33837426, -0.37588209, -0.27004606, -0.25488979, -0.15867089, -0.17786066, -0.14949358, -0.14231363, -0.17476998, -0.10402758, -0.06017238, -0.08817971, -0.19331676, -0.10576276, -0.10130785, 0.08186586, 0.04557449, -0.00592756, -0.00935540, 0.01485960, -0.19846964, -0.28430840, -0.30786914, -0.46797538, -0.48568967, -0.48848006, -0.36061975, -0.44569638, -0.26634991, -0.16561724, -0.06076848, 0.00077302, 0.02791212, -0.00712403, 0.03412570, 0.01659894, 0.10187479, 0.18491149, 0.16393408, -0.00972606, -0.01511583, -0.02565374, 0.11012269, 0.00514873, -0.00226889, -0.04104182, 0.03202775, -0.08414848, -0.29049453, -0.43146089, -0.47451013, -0.38661936, -0.43451789, -0.35481620, -0.32215220, -0.25689372, -0.09928840, 0.06791493, 0.14294253, 0.15127322, 0.17468666, 0.15720671, 0.24852879, 0.31423020, 0.31830135, 0.27583539, 0.23777869, 0.06980692, -0.01187358, -0.04134878, 0.15971525, 0.00104083, -0.02238169, -0.05914721, -0.11961625, -0.26865450, -0.34463662, -0.47793436, -0.47079042, -0.40926960, -0.30781963, -0.20978630, -0.20708817, -0.09641022, -0.04139428, 0.05675024, 0.14832291, 0.00292392, 0.13158445, 0.17829789, 0.10921397, 0.19346957, 0.12353485, 0.25758907, 0.14308204, 0.24929565, 0.20694311, 0.16585281, 0.11367283, 0.08069719, -0.00967451, -0.15897031, -0.18733616, -0.32781735, -0.45899567, -0.33446017, -0.26837733, -0.19338173, -0.14956608, -0.12921230, -0.07069416, -0.04874317, -0.04186371, 0.01395327, 0.00450821, -0.02780437, 0.03686827, 0.12323392, 0.10440234, 0.07803367, 0.06241180, 0.06209249, 0.23982087, 0.32304880, 0.36857164, 0.31885469, 0.19846106, 0.12393126, -0.01529578, -0.04212359, -0.25689983, -0.22251792, -0.34146029, -0.26594836, -0.21061262, -0.14871949, 0.07882133, 0.06140606, 0.04951032, -0.00291316, -0.06401679, -0.03226298, -0.04094994, 0.03899601, 0.00931595, -0.00667376, 0.03136561, 0.07713264, 0.07785796, 0.05333827, 0.19771872, 0.36830181, 0.46378601, 0.47367778, 0.30563414, 0.00598605, -0.00800907, -0.05950709, -0.09987679, -0.22438179, -0.20407283, -0.16127086, -0.05264622, 0.02470915, 0.19294648, 0.13173467, 0.14934777, 0.03202718, 0.13975342, 0.12531196, 0.17019393, -0.09086683, -0.25689653, -0.11164753, -0.10627742, -0.03158720, 0.01333370, 0.09580810, 0.09317301, 0.36497098, 0.58429563, 0.42162302, 0.29826167, 0.01091252, 0.02764601, 0.00032904, -0.12017412, -0.37700239, -0.25082225, -0.06990412, 0.10195552, 0.26358712, 0.33582392, 0.28659174, 0.31844923, 0.30806646, 0.32231000, 0.16744478, 0.13075426, -0.18498552, -0.37511745, -0.36310735, -0.15571214, -0.06377406, -0.05221472, -0.02704375, 0.12243909, 0.36090145, 0.47597113, 0.37322423, 0.26467133, 0.12169542, -0.04948639, -0.01974983, -0.18047284, -0.35822007, -0.19885793, -0.05629315, 0.24821493, 0.36126202, 0.26149344, 0.34924439, 0.33239424, 0.27485031, 0.30278155, 0.32288018, 0.15922824, -0.14681329, -0.46922278, -0.30301106, -0.18164672, -0.21011159, 0.01137759, 0.05226308, 0.06711464, 0.33971322, 0.40723431, 0.30218533, 0.18575162, -0.02152063, -0.04890421, -0.11715386, -0.25495172, -0.32027727, -0.33725828, -0.02389148, 0.28882143, 0.21061072, 0.21646570, 0.25620824, 0.21512315, 0.23746321, 0.22718230, 0.19212919, 0.16888878, -0.00971239, -0.46552515, -0.38194799, -0.27105558, -0.23664097, 0.05296228, 0.18173911, 0.24603233, 0.28952482, 0.19292636, -0.10577866, -0.10629638, -0.03735758, 0.06872775, 0.06381023, -0.10881886, -0.20643160, -0.18251966, 0.02957440, 0.06861214, 0.02572922, 0.01334412, 0.09311423, 0.07948091, 0.14491042, 0.09370480, 0.21683969, 0.20909379, -0.01890963, -0.39616212, -0.37023550, -0.28669056, -0.28451329, -0.08470245, 0.13138059, 0.31249067, 0.34814817, 0.08626627, -0.30567035, -0.22683024, -0.04300240, 0.13866644, -0.02112073, -0.07542418, -0.32124624, -0.27572039, -0.20713009, -0.12871297, -0.13533753, -0.06243921, 0.08205201, 0.03765343, -0.01543493, -0.06623104, 0.31719375, 0.25669414, -0.06265278, -0.37565506, -0.45504257, -0.31389397, -0.30210191, -0.13369936, -0.04692227, 0.06560484, 0.16957319, 0.11867560, -0.27736554, -0.20028594, -0.10424360, 0.02932086, 0.00200841, -0.13815556, -0.31224018, -0.28354335, -0.14132434, -0.19503227, -0.12209430, -0.06609352, 0.06494844, -0.02491963, -0.11132900, 0.07149398, 0.27283040, 0.08670477, -0.29494473, -0.49512607, -0.48873448, -0.37357089, -0.25689653, -0.19445933, -0.02679617, -0.04049530, 0.14351159, 0.01544019, -0.31540349, -0.38393891, -0.19318019, -0.11550856, -0.10688039, -0.21976942, -0.34752572, -0.15438917, -0.07559836, -0.17881605, -0.17607263, -0.03527143, 0.04122273, 0.03942920, -0.14688730, 0.00949060, 0.20010071, -0.05352905, -0.34374788, -0.46926790, -0.39885867, -0.33464596, -0.20020668, -0.18809424, -0.14634509, 0.04378202, 0.08258797, -0.09986958, -0.52177805, -0.31149253, -0.03582398, -0.03854048, 0.02434547, -0.23856933, -0.40222177, -0.21651576, -0.11210795, -0.03450419, -0.01638941, 0.13782324, 0.20788985, 0.17260914, 0.02330481, 0.05798208, 0.02856847, -0.24987262, -0.33127141, -0.29689622, -0.18724823, -0.14931172, -0.14356300, -0.05587583, -0.16378909, -0.06992719, -0.01431080, -0.12737156, -0.52224404, -0.34112963, 0.02034053, 0.06387760, -0.05480281, -0.30149832, -0.47118756, -0.27320492, -0.05062942, 0.07547947, 0.07295092, 0.19973250, 0.28243762, 0.38456398, 0.18807893, 0.19995908, -0.02759684, -0.23796284, -0.21346767, -0.28010002, -0.22015175, -0.17633915, -0.15407425, -0.05448187, -0.09692732, -0.12297362, -0.13783023, -0.28697288, -0.46980843, -0.38296956, -0.01619590, 0.01933692, -0.07417406, -0.13193685, -0.56684208, -0.28745139, -0.21398735, -0.02077969, 0.06312232, 0.21244694, 0.39498240, 0.45713946, 0.30675280, 0.25327757, 0.01973796, -0.02011089, -0.17473692, -0.12592489, -0.07449687, -0.10262424, -0.15232837, -0.11687007, -0.12033655, -0.04160198, -0.07727414, -0.30140528, -0.49857390, -0.19160517, 0.00339186, -0.07897381, -0.05794283, -0.09972756, -0.45066607, -0.23396733, -0.12480552, -0.05693185, 0.07770091, 0.16326192, 0.29658228, 0.33308977, 0.34020361, 0.24390848, 0.11709450, -0.05492406, -0.00105568, -0.06308956, -0.19650736, -0.10855700, -0.16928774, -0.12012602, -0.01654416, 0.06422673, -0.08377051, -0.27927470, -0.35937440, -0.17128794, -0.03674369, 0.05774254, -0.14837301, -0.24412648, -0.32021716, -0.29473126, -0.09478953, -0.07493405, 0.07006468, -0.04281176, 0.02249456, 0.22490565, 0.30228338, 0.17436981, 0.27576539, 0.13924991, 0.04561910, -0.05869545, -0.07236551, -0.01182877, -0.01068863, 0.00809837, 0.12563717, -0.02111081, -0.11478192, -0.44870719, -0.25566119, 0.01756685, 0.07059857, 0.09881499, 0.04777887, -0.24692294, -0.35072789, -0.29796332, -0.02878705, -0.01481327, 0.03858809, -0.00770970, 0.00908886, -0.03183252, 0.13152878, 0.29253775, 0.32635701, 0.43169710, 0.25543866, 0.21507701, 0.13172549, 0.09930294, 0.09564001, 0.06235423, -0.02571018, -0.07691542, -0.17761646, -0.20641710, -0.15693305, 0.11300766, -0.02762919, -0.06741397, -0.05201935, -0.05781936, -0.36530903, -0.30439499, -0.12367240, -0.15559010, -0.09560686, -0.10280306, 0.03660544, 0.05870527, 0.08670586, 0.18985295, 0.28059885, 0.35045993, 0.38026175, 0.42929390, 0.33106706, 0.17050056, 0.12338907, 0.17710799, 0.05994966, -0.11324406, -0.10743509, -0.04472225, -0.10875589, -0.03150455, -0.05529671, 0.05210528, 0.02605519, -0.06797807, -0.21001369, -0.37274978, -0.42651281, -0.40711173, -0.33370519, -0.32140553, -0.16541399, -0.12885343, -0.20090383, -0.05671381, 0.02351635, 0.08580912, 0.17750531, 0.17164947, 0.16229357, 0.22815755, 0.13357265, 0.10109252, -0.05207283, 0.03215183, 0.03617004, -0.09628562, -0.10265446, -0.04561598, 0.03062939, 0.04558000, 0.08094430, -0.07143822, -0.13642731, -0.31469965, -0.49194372, -0.44182402, -0.46196905, -0.45274270, -0.49034822, -0.43236229, -0.44154862, -0.36138007, -0.38401893, -0.40321699, -0.35192448, -0.18698347, -0.23230521, -0.12132758, -0.14063272, -0.16695479, -0.18255390, -0.09593809, 0.02083315, 0.12410997, -0.13232137, -0.06284775, -0.00138690, -0.05909363, -0.04290698, -0.05723914, 0.00688439, -0.21698064, -0.28528169, -0.25306025, -0.29849142, -0.41863671, -0.29726565, -0.31125739, -0.30198985, -0.42099434, -0.45213956, -0.38254935, -0.35969716, -0.46413946, -0.35876620, -0.39223620, -0.18443257, -0.01292173, -0.18044372, -0.03948450, -0.12232544, 0.08076406, -0.07067551, -0.02910884, -0.06430563, 0.00562153, -0.03877530, 0.07811996, -0.07217741, -0.10942041, 0.00298034, -0.00221402, -0.18907270, -0.21186590, -0.16762747, -0.10601541, -0.11516506, -0.15934151, -0.18733147, -0.32900563, -0.36382410, -0.21312039, -0.28664243, -0.20929886, -0.10712439, -0.10337861, -0.09467746, -0.14235599, -0.04813983, 0.00104362, 0.00135579, -0.00551243, -0.07058018, 
-0.05140911, 0.05557349, -0.06166721, -0.02417318, -0.07601988, 0.01213824, -0.04501973, -0.05044916, -0.07621095, 0.00364082, 0.03394265, 0.07196528, 0.06812134, -0.05474767, -0.00359922, 0.03880420, 0.08114794, 0.07669678, -0.06498449, 0.05250591, -0.07448269, 0.08184972, -0.03013517, 0.01814260, -0.03454125, 0.00811777, -0.05371911, -0.07144636, -0.08234219, -0.07710478, 0.04581368, -0.07269742, 0.02246941, 0.03630657, -0.00004725, 0.05976639, 0.03289171, 0.13693646, 0.07659291, 0.03730426, 0.09152219, 0.05916846, 0.08439113, 0.16609168, 0.11664173, 0.15391642, 0.10295176, 0.09659679, 0.15039982, 0.03781667, 0.07566334, 0.01259345, -0.02492511, -0.02623986, 0.01429082, -0.08068587, -0.07391986, -0.01692311, 0.00456873, -0.06376215, 0.12480494, 0.11945526, 0.05875142, 0.09976150, 0.16420060, 0.12266278, 0.30281919, 0.19446109, 0.23305963, 0.35768372, 0.40768597, 0.36218619, 0.36427629, 0.30934277, 0.31360877, 0.41883320, 0.37393579, 0.36975268, 0.35306698, 0.13886543, 0.11048187, -0.00299331, -0.08386670, -0.05595426, -0.01032422, -0.03309096, -0.04929679, 0.09335581, 0.04488480, 0.05707437, 0.10593946, 0.11061005, 0.06020628, -0.05785459, -0.11409509, 0.00825553, -0.09398371, -0.03240188, -0.01012196, 0.05123542, 0.11453307, 0.21011318, 0.32007539, 0.33155197, 0.27835369, 0.26541767, 0.30302680, 0.15226515, 0.13336636, -0.00298600, 0.05837161, -0.03212085, -0.05504024, 0.07089524, 0.08266565, -0.05307979, -0.05678178, -0.07930566, -0.07901452, -0.18099403, -0.14686421, -0.14509612, -0.11367506, -0.25272930, -0.16802038, -0.03251286, -0.11013088, -0.00430022, -0.07889887, -0.04322062, -0.05207895, 0.05326848, 0.17397909, 0.17932843, 0.05607792, 0.04209704, -0.11743628, -0.11992589, -0.01681179, 0.11258585, 0.03528515, 0.03817421, 0.00559733, -0.04562648, -0.17543669, -0.24193838, -0.22702137, -0.16404790, -0.12450777, -0.16751879, -0.17867291, -0.20959577, -0.13240883, -0.07835669, -0.15778093, -0.07379534, -0.10295905, -0.01585340, -0.08676368, -0.09134338, -0.04429423, -0.05417837, -0.11258894, -0.04807495, -0.19722579, -0.13194056, -0.18190935, -0.06205541, -0.06258975, -0.02202803, -0.06247797, -0.17595960, -0.29635796, -0.23336440, -0.16277967, -0.23387283, -0.12360597, -0.19880815, -0.14239486, -0.19816688, -0.25758779, -0.20203215, -0.21215203, -0.23791607, -0.25542066, -0.19205654, -0.24518399, -0.17352486, -0.11062682, -0.14109944, -0.05647261, -0.07159474, -0.33514369, -0.25420094, -0.27648601, -0.17154530, 0.07589653, -0.08293586, 0.14054883, 0.02293776, -0.16505310, -0.13037479, -0.20121843, -0.08101252, -0.09181158, 0.03846797, -0.03775643, -0.16711035, -0.15704346, -0.18189174, -0.26264158, -0.19666333, -0.25180167, -0.28255329, -0.16304591, -0.18573412, -0.16690132, -0.07226960, -0.06160090, -0.10517801, -0.22686660, -0.41251260, -0.28873572, -0.06374496, -0.00121308, 0.17132612, 0.07409084, -0.01138528, 0.00013977, -0.06055529, -0.02267167, 0.18215677, 0.11797681, 0.15140046, -0.01780028, 0.04329847, -0.02441440, -0.08804397, -0.14584103, -0.27219197, -0.18002528, -0.26715741, -0.12464894, -0.07708626, -0.12624311, -0.08358491, -0.01045445, -0.12690942, -0.27502507, -0.38850844, -0.24827804, -0.15546069, -0.02765781, 0.18669139, 0.14112067, 0.10344023, -0.01485870, 0.04676332, 0.18106455, 0.24749871, 0.19265342, 0.21366325, 0.11692912, 0.22566621, 0.13917114, 0.13942762, 0.04240949, -0.11289400, -0.13679349, -0.01914855, -0.09082738, 0.06024075, 0.05351135, -0.03051362, 0.05494617, -0.05892191, -0.21197373, -0.42075002, -0.22503640, -0.20551340, 0.10040855, 0.09400751, 0.12505391, 0.10990921, 0.16848113, 0.11247031, 0.30003011, 0.27033794, 0.25223312, 0.30035257, 0.28861976, 0.17769614, 0.24449949, 0.15156575, 0.12477333, -0.01207409, -0.05618295, 0.05411799, 0.13067624, 0.18314189, 0.15330875, 0.22246206, 0.17377771, 0.13160031, -0.01426586, -0.15653597, -0.24903588, -0.00701156, 0.04552152, 0.15692885, 0.24382739, 0.09484024, 0.05801667, 0.18739256, 0.28206569, 0.36235696, 0.34539863, 0.32951456, 0.28481627, 0.12552176, 0.28533533, 0.27521250, 0.28244179, 0.23407339, 0.14878151, 0.21963732, 0.20966332, 0.19355468, 0.27434883, 0.35797644, 0.30075243, 0.18708210, 0.13242225, 0.00147715, -0.12651484, 0.09097736, 0.00014045, 0.10372144, 0.14327611, 0.09239405, 0.16051206, 0.23447168, 0.24485435, 0.25585359, 0.22950301, 0.10656926, 0.02167011, 0.11106087, 0.08231696, 0.20251799, 0.29995060, 0.28563222, 0.24222580, 0.19567949, 0.21641906, 0.25068903, 0.28954908, 0.31444362, 0.21891996, 0.21216688, 0.19990642, 0.08738472, -0.03696544, 0.07351350, -0.05393446, 0.01335338, 0.22931699, 0.05713191, 0.02444297, 0.01022342, -0.00527272, 0.05399049, 0.06047781, -0.03438476, -0.06073288, -0.03682075, -0.00516415, 0.21794657, 0.39440668, 0.30706248, 0.19274327, 0.23339549, 0.18914670, 0.16305466, 0.14259563, 0.19124752, 0.19095385, 0.16489851, 0.10599981, 0.02251860, -0.12299149, 0.03038805, -0.11890240, 0.02376433, 0.09683499, 0.19235049, -0.04977990, -0.11239003, -0.00766370, -0.00418818, -0.13734649, -0.06069141, -0.16628341, 0.05040406, 0.09668039, 0.23938075, 0.31982780, 0.34621978, 0.30849910, 0.27795136, 0.13577977, 0.01400977, 0.08828375, 0.08351222, 0.11643175, 0.03580553, -0.08126477, -0.00595798, -0.19600110, -0.11198262, 0.00145802, -0.07439107, 0.01867411, 0.03928312, -0.24703071, -0.21472567, -0.07907453, -0.16101588, -0.04474461, -0.07027869, 0.05827968, 0.05587751, 0.09797880, 0.16274688, 0.27925393, 0.37931210, 0.29160222, 0.17229377, 0.12245964, -0.13774209, -0.14449629, -0.04738543, -0.00995612, 0.00998203, -0.13285874, -0.05856224, -0.20592007, -0.10060908, 0.01069643, -0.12887856, -0.15229936, -0.25531715, -0.35841706, -0.32656732, -0.11407812, 0.02812723, 0.13005355, 0.22603615, 0.31997317, 0.39331874, 0.18989496, 0.29598171, 0.34900072, 0.35532460, 0.21117856, -0.02726603, -0.08172362, -0.21785031, -0.08707210, -0.15063129, -0.15098494, -0.09972576, -0.07113727, -0.21047516, -0.24248217, -0.08894833, 0.00597097, 0.00569495, -0.23192522, -0.25727740, -0.34275815, -0.47818276, -0.33929589, 0.08858031, 0.28326860, 0.56196237, 0.44630173, 0.41454703, 0.24778651, 0.30455223, 0.27742016, 0.11271111, 0.00979593, -0.13482361, -0.14486353, -0.19720636, -0.04686679, -0.14199530, -0.09036969, -0.04947964, -0.24763736, -0.26565927, -0.19222648, -0.13367572, 0.11555130, -0.00189914, -0.18512963, -0.33990720, -0.45195994, -0.39519349, -0.29727733, -0.04951388, 0.30082220, 0.35832807, 0.36265698, 0.39540970, 0.32166600, 0.17495179, 0.19888012, -0.05567547, -0.16597438, -0.13227229, -0.16688013, -0.06664567, -0.03714504, -0.09305026, -0.15180701, -0.17983925, -0.25541189, -0.33343250, -0.22256608, -0.04274933, -0.01270271, -0.01333495, -0.09842308, -0.43628183, -0.49725211, -0.36653277, -0.28969306, -0.15741980, -0.02737503, 0.12214952, 0.08945964, 0.03092995, 0.04669610, 0.12735429, 0.06690559, -0.12314614, -0.20323819, -0.24971098, -0.24042353, -0.15071826, -0.16444857, -0.19838110, -0.15473193, -0.15553005, -0.31794599, -0.19731456, -0.21747032, 0.01339573, 0.03253907, -0.01079789, -0.21497750, -0.41648763, -0.42080233, -0.40979895, -0.32445437, -0.24314064, -0.23218690, -0.17630251, -0.19337955, -0.04776235, 0.05201482, -0.05707688, -0.05816055, -0.21024653, -0.27162558, -0.24986416, -0.17335689, -0.20934087, -0.26429641, -0.22395039, -0.11463133, -0.25733250, -0.32590449, -0.26443386, -0.11990199, -0.06475054, 0.01402655, -0.00001133, -0.18756692, -0.36988279, -0.47046423, -0.24014880, -0.24034433, -0.24967884, -0.33406970, -0.22380000, -0.20697969, -0.14927737, -0.11655975, 0.01654822, 0.00212539, -0.17644188, -0.20755322, -0.24083886, -0.20581745, -0.20811710, -0.25376585, -0.19369265, -0.18408193, -0.23944572, -0.31880859, -0.27209172, -0.07602312, -0.01420355, 0.01497939, 0.05212526, -0.12619865, -0.33571714, -0.44051117, -0.30454275, -0.18271668, -0.15465699, -0.17868349, -0.19476978, -0.19400996, -0.21617627, -0.10284080, -0.04605231, 0.00762715, -0.10620770, -0.04807445, -0.16480140, -0.20186783, -0.27116895, -0.23799056, -0.20883282, -0.20081468, -0.30830199, -0.23341557, -0.17512329, -0.09038492, -0.00870349, -0.06347401, -0.05506100, -0.16881205, -0.27763164, -0.32686943, -0.33961311, -0.12722018, -0.17222284, -0.17126442, -0.06329442, -0.10774890, -0.05627134, 0.03856755, 0.07663471, 0.11582489, 0.06905631, 0.12887923, -0.03755562, -0.01672775, -0.05064491, -0.09653170, -0.13786745, -0.20960677, -0.28209600, -0.22836606, -0.18545318, -0.11685828, 0.08437623, 0.03077874, 0.06719235, -0.04601126, -0.15088746, -0.06648531, -0.15902717, -0.14307655, -0.05421794, 0.04575670, -0.08866592, -0.01493254, 0.00974161, -0.02144614, -0.11690120, 0.02718334, 0.01513257, 0.07484936, 0.05200664, 0.08724429, 0.07098988, 0.03290332, -0.20040664, -0.18461330, -0.12834333, -0.16580784, -0.15120038, -0.09650397, -0.03521809, -0.06284896, -0.00255153, -0.14776653, -0.06189867, 0.05436083, 0.06405783, 0.15573147, 0.23646004, 0.10028392, 0.12657914, 0.04821079, 0.07646803, -0.03153689, 0.11566793, 0.19150758, 0.19645831, 0.19925709, 0.13094294, 0.04866650, -0.01337103, 0.05481274, -0.04032603, -0.03749686, -0.14347315, -0.19433187, -0.05238723, 0.04516157, -0.05456417, 0.06878442, -0.06949662, -0.03198493, 0.03820658, 0.07234710, 0.05623598, 0.16176017, 0.27124751, 0.33547622, 0.42229420, 0.35283890, 0.31111202, 0.50565541, 0.49251410, 0.47208211, 0.54485643, 0.47847766, 0.48164180, 0.31924713, 0.20319799, 0.07142731, 0.01598862, 0.06877065, 0.02164065, -0.02610116, -0.03880453, -0.03855999, 0.05725598, 0.08351427, 0.02088570, 0.05798292, -0.03275790, 0.02137792, 0.02308074, -0.00997788, 0.01144972, 0.02211450, 0.02113110, 0.05393586, 0.10558155, 0.11689483, 0.20426390, 0.12506294, 0.24691345, 0.21241699, 0.27751002, 0.22555813, 0.11294970, 0.03969510, 0.01072922, 0.14527363, 0.13431799, -0.01801078, 0.02267209, 0.00788333, -0.04856865, 
-0.01392901, 0.06547058, 0.03497513, -0.05196825, -0.03801483, -0.02914602, -0.02057514, 0.01622187, -0.05931026, -0.05400964, 0.05640790, 0.02719881, -0.09137375, -0.15138680, -0.08148870, -0.11205600, -0.01336252, 0.00210802, 0.00651786, -0.00120126, -0.01344323, 0.00278942, -0.04249940, -0.04056742, -0.02772703, -0.05849233, 0.07925197, -0.06827924, 0.00614113, -0.07985297, 0.08605090, -0.07715268, -0.08784858, -0.10761323, -0.22595158, -0.09647903, -0.15950386, -0.30674103, -0.18161929, -0.24415466, -0.21228699, -0.22568224, -0.14847945, -0.09960821, -0.17749433, -0.19789028, -0.19476514, -0.24187043, -0.09974702, -0.15379657, -0.14750242, -0.11092172, -0.04100969, 0.03792734, -0.00176601, 0.00973227, -0.01377227, 0.07068023, -0.02144436, -0.00864448, -0.04625623, -0.22189620, -0.27474070, -0.28130504, -0.36292732, -0.45325577, -0.53518957, -0.48549294, -0.52472055, -0.62398422, -0.44265446, -0.54471219, -0.58896267, -0.54867220, -0.59975576, -0.53482395, -0.54602671, -0.36286038, -0.29827797, -0.22802840, -0.11592527, -0.10126229, 0.07868512, 0.04108724, -0.03561993, -0.06053713, -0.08261801, -0.16318400, -0.10633384, 0.06757654, -0.24329214, -0.29541627, -0.23164894, -0.37378934, -0.30013815, -0.23353072, -0.24521028, -0.27087685, -0.25497717, -0.28796068, -0.25719276, -0.30977809, -0.27724156, -0.28478879, -0.37604308, -0.33961454, -0.34549132, -0.20495294, -0.31477499, -0.18770139, 0.03193758, 0.02081566, -0.02368189, 0.07446654, 0.06721937, 0.07953817, 0.14267950, 0.15479068, 0.05221951, -0.10386849, -0.13662848, -0.04640450, -0.15739553, 0.04279197, -0.07203210, 0.07460473, -0.07505672, -0.01157567, -0.15934102, -0.08004522, -0.05348256, -0.10340913, -0.05857842, -0.09597281, 0.02977796, 0.04065732, 0.03149945, -0.03592156, -0.08760453, -0.02093936, 0.01715548, 0.02783735, -0.12210135, 0.14556184, 0.06589103, 0.16929969, 0.01249467, 0.03645153, -0.10723045, -0.03629291, -0.04588062, -0.05099492, -0.05231225, -0.13889153, -0.07325453, -0.12439232, -0.19430543, -0.17713241, -0.11722084, -0.08408639, -0.15252727, -0.06017307, -0.05006720, 0.06781379, 0.14022945, -0.03410067, -0.05965039, -0.05706132, 0.07295275, 0.09502766, 0.03144747, 0.16030045, 0.15025158, 0.09653564, 0.08304813, -0.10053977, -0.07720579, -0.00336727, -0.05291664, 0.01724744, 0.06346215, -0.04390053, -0.00379012, -0.03145526, 0.01901310, 0.08912330, 0.17926796, 0.02476189, 0.07423433, 0.04694218, 0.00375994, -0.00186366, -0.00728083, -0.00048091, 0.06647500, -0.07902519, -0.03728583, -0.04005470, -0.13214165, -0.00599828, 0.11896433, 0.00071091, -0.07256231, -0.08385398, -0.16264480, -0.08639041, -0.08739063, -0.15135789, 0.01429971, 0.08223940, 0.11163879, 0.25636527, 0.19756952, 0.16334955, 0.10889940, 0.08500095, 0.08751496, -0.11594529, -0.06863883, -0.12580350, -0.21245854, -0.14569046, -0.00396592, -0.07666332, -0.05808114, -0.21276779, -0.33242685, -0.01135095, 0.09782826, -0.05306460, -0.06351545, -0.21863922, -0.27592054, -0.29440176, -0.22044520, -0.22636202, -0.08845254, -0.09331124, 0.05206329, 0.03530121, 0.03138830, 0.05703365, 0.19752721, 0.05176610, 0.09589797, -0.06071106, -0.12616177, -0.16701990, -0.33836073, -0.04506840, -0.16423136, -0.08610380, -0.16504787, -0.31157199, -0.27803940, -0.21019103, -0.13184999, -0.18190834, -0.21980859, -0.29559803, -0.40722388, -0.29730082, -0.36086443, -0.30963522, -0.26173365, -0.17342688, -0.15863566, 0.03420291, 0.07141294, 0.00667335, 0.14445479, 0.11993145, 0.12119500, 0.10269107, -0.14598742, -0.23207034, -0.34571111, -0.20677172, -0.23446767, 0.00977345, -0.00722275, -0.24802749, -0.41535392, -0.13994099, -0.10411616, -0.24373861, -0.29200950, -0.31801322, -0.32142711, -0.30247471, -0.28586069, -0.12804951, -0.22575718, -0.19858845, 0.08877055, 0.18679792, 0.19599684, 0.11975859, 0.02096429, 0.01666476, 0.01967063, 0.07889850, -0.10907386, -0.14258973, -0.24562779, -0.30260861, -0.24393556, -0.04870330, -0.03771640, -0.20362908, -0.27899566, 0.01642431, -0.09392435, -0.02468863, -0.11171441, -0.10830373, -0.18051840, -0.00174472, 0.07135807, 0.09184365, 0.02612426, 0.05206877, 0.28915036, 0.29809880, 0.17397608, 0.25100869, 0.14987725, 0.12311701, 0.08003329, -0.00147445, -0.09591295, -0.15982692, -0.35346448, -0.28794643, -0.14679126, -0.01401099, -0.08374906, -0.17775352, -0.25999054, -0.00017415, 0.06973324, 0.11966236, 0.21734725, 0.09236713, 0.19550005, 0.28049424, 0.31022549, 0.28495395, 0.14180341, 0.28881377, 0.35648346, 0.36980617, 0.21557814, 0.16446610, 0.17137025, 0.04523259, 0.02433313, -0.06638011, -0.02284239, -0.07252326, -0.12040908, -0.32602161, -0.20838541, -0.05020382, 0.00000585, -0.04224161, -0.26681334, 0.05640781, 0.33117139, 0.57142365, 0.46082661, 0.49756032, 0.38476986, 0.49278018, 0.50240296, 0.29807970, 0.00521611, 0.22810914, 0.20154291, 0.22869955, 0.14216413, 0.22772141, 0.17459571, 0.12980114, 0.04087367, 0.01428824, -0.03364611, 0.05062212, -0.23842265, -0.37710053, -0.12147280, -0.10115665, -0.02522520, 0.01403813, -0.09262504, 0.25835431, 0.47666499, 0.68926203, 0.60765821, 0.63907713, 0.63175488, 0.57597119, 0.30636343, 0.14070171, -0.04275982, 0.07472171, 0.03626320, -0.02440610, 0.05970412, 0.27409574, 0.13840307, 0.20554292, 0.16180451, 0.06813443, 0.07586997, -0.01566605, -0.13528825, -0.28779495, -0.29717332, -0.02428961, 0.01023957, 0.08970772, 0.18176530, 0.14915907, 0.37938809, 0.56511086, 0.57698447, 0.60725671, 0.55599654, 0.46575922, 0.15734057, -0.06433882, -0.11278213, -0.06321983, -0.07471689, -0.12303315, 0.12300930, 0.16522002, 0.18288414, 0.30259103, 0.24759296, 0.12026589, 0.08523287, 0.03791834, -0.16440347, -0.41570708, -0.19915009, -0.04095815, -0.11758170, 0.15451501, 0.19379866, 0.23691903, 0.28595218, 0.53990799, 0.46447957, 0.37353864, 0.31620154, 0.13535742, -0.11704081, -0.29271698, -0.29093248, -0.20021851, -0.05463434, -0.06194137, 0.01875852, 0.14506012, 0.17220476, 0.26369232, 0.12959997, 0.14172950, 0.16250756, -0.07104981, -0.23983078, -0.40640619, -0.32486683, -0.17327455, -0.01360082, 0.14788358, 0.08103088, 0.20598841, 0.15561174, 0.30212975, 0.23503043, 0.15076014, 0.06045840, -0.21591717, -0.40966934, -0.39854437, -0.31825155, -0.21637663, -0.10837806, -0.09511335, 0.11761241, 0.07286425, 0.06147872, 0.05271284, 0.09760209, 0.04392610, -0.00359900, -0.13623016, -0.34848478, -0.40351906, -0.18440318, -0.01848472, 0.02820308, -0.04014611, 0.16402064, 0.25229996, 0.17780836, 0.21062177, 0.10193460, 0.05210219, -0.22159940, -0.35517234, -0.44508645, -0.35249445, -0.38116670, -0.25639912, -0.19552775, -0.09035610, -0.06425962, 0.00666117, -0.03568038, 0.08654156, 0.04263020, 0.13030308, 0.13076280, -0.14315577, -0.27001989, -0.37218511, -0.16113098, -0.14022353, -0.03764109, -0.00314088, 0.23466693, 0.16438058, 0.30000481, 0.28487721, 0.07904556, -0.03695662, -0.30578375, -0.32874364, -0.47410643, -0.39372420, -0.39203411, -0.32598183, -0.22506303, -0.12106469, -0.03344152, -0.08105621, 0.04297103, 0.08985817, 0.02380718, 0.05825286, -0.02766460, -0.18051927, -0.38853186, -0.16812883, -0.08234855, 0.03765912, 0.04514843, 0.06330305, 0.21152821, 0.13783988, 0.28256652, 0.14392763, 0.07773037, -0.04643349, -0.14208138, -0.19305414, -0.30217597, -0.37758636, -0.32148284, -0.17995766, -0.01581794, -0.11066699, 0.03653086, 0.09849212, 0.01981401, 0.00924538, 0.11608354, -0.02063474, -0.02858122, -0.28158161, -0.27108377, -0.05057831, -0.07163015, 0.04942249, 0.09934873, 0.01249395, 0.06363790, 0.18923651, 0.29319817, 0.22664393, 0.03971600, 0.00854358, 0.01049379, -0.16311751, -0.07861427, -0.25950885, -0.16426679, -0.15737952, -0.05842819, -0.04192010, 0.00998832, 0.05000771, 0.03204947, -0.03425789, 0.03082198, -0.10924078, -0.25051647, -0.30483952, -0.08953911, -0.16705176, -0.07166722, 0.02662691, -0.04386064, 0.01402705, 0.10518070, 0.19213231, 0.17040625, 0.00075859, 0.09289020, 0.05072001, 0.07677648, 0.06648595, 0.09902626, -0.02238067, 0.03791451, 0.00425310, -0.06042495, 0.02789718, -0.03078701, -0.03164311, -0.08727413, 0.02609625, -0.17589529, -0.11075732, -0.10856239, -0.15734696, 0.03380943, -0.05725884, -0.06887134, 0.11193909, -0.03161519, 0.06947809, 0.10867259, 0.26390764, 0.29872239, 0.17634006, 0.09159745, 0.04098107, 0.16705285, 0.03649067, 0.02619465, 0.04419915, -0.12663788, -0.13842137, -0.04562539, -0.02275911, -0.02175188, -0.00156643, 0.08541910, -0.06634798, -0.13439962, -0.11839598, 0.08775000, 0.06819247, 0.10881617, -0.11854829, 0.08870104, 0.02739760, -0.02564913, -0.02424615, -0.02621945, 0.14089559, 0.15616040, 0.28705189, 0.18366508, 0.22454509, 0.07283636, 0.09393360, 0.00138262, -0.03552036, -0.19582348, -0.13379829, -0.18752527, -0.18553807, -0.01225486, 0.02758863, -0.00866400, 0.06299891, 0.07210035, 0.15483530, 0.20384714, 0.17934966, -0.01735399, -0.06038681, -0.01695327, -0.06331952, -0.04722660, 0.01039483, 0.13790731, -0.13126537, 0.05335410, 0.11375584, 0.13086009, 0.08622035, 0.02461781, 0.09496067, 0.06200316, 0.06722657, 0.02447632, 0.17135255, 0.00592132, 0.04890582, 0.11389119, 0.04921691, 0.15205237, 0.25904319, 0.42479804, 0.22410528, 0.23841032, 0.26218355, 0.05592891, 0.04207616, -0.06148244, -0.05097311, -0.06833911, 0.04622439, -0.02774012, -0.03452060, 0.10661805, 0.04250768, -0.08573480, -0.15216909, -0.28084761, -0.29649886, -0.30030185, -0.35542214, -0.36738122, -0.32645079, -0.26968029, -0.32906750, -0.22462143, -0.08693539, 0.02589112, 0.21821727, 0.19048323, 0.25579038, 0.08188642, 0.04477703, 0.06141360, 0.01923922, -0.00633807, -0.04071573, 0.06534748, -0.07131419, 0.04289249, -0.07773262, -0.11397859, -0.06903362, -0.14420541, -0.22238246, -0.31810325, -0.22796662, -0.27895930, -0.32439455, -0.29982847, -0.40822390, -0.46753094, -0.49476969, -0.47720677, -0.48038742, -0.27654150, -0.21735924, 0.06167497, 0.09795868, 0.02590246, -0.03639252, 0.02285241, 0.02279466, 0.02301224, 0.07293881, 
-0.08393738, 0.06178935, -0.03726334, -0.00233799, 0.00955190, 0.01443192, -0.08326272, 0.08448644, -0.07164848, -0.06896932, -0.05594411, 0.04150224, -0.07365165, 0.04570555, 0.08305790, 0.00189115, -0.06995386, 0.06582461, 0.02473424, 0.07369070, 0.00173955, -0.01198062, 0.00674821, -0.05377161, 0.08376524, 0.04161549, -0.02698015, 0.04164803, -0.08562209, -0.03829785, 0.04300712, 0.06562875, 0.02739058, -0.08967009, -0.04471200, -0.04106923, 0.01661641, -0.08690102, 0.02485916, 0.09560341, -0.05508412, 0.04198508, -0.07263922, 0.02687579, -0.04473057, -0.11073525, -0.08111151, -0.02721778, -0.01100754, 0.04798309, -0.01606864, -0.05753644, -0.01712605, -0.07573117, -0.01827309, 0.01430661, -0.05780614, 0.05596156, -0.07978397, -0.04405816, -0.00396928, -0.01295903, 0.03853707, -0.03783158, 0.02561641, -0.14044580, -0.03924879, -0.14618321, -0.14893611, -0.02256154, -0.11135723, -0.13049857, -0.05834907, -0.20397058, -0.22945175, -0.21902522, -0.08671284, -0.19810028, -0.08348995, -0.03514036, -0.04927069, -0.10128865, -0.01056314, 0.00433359, 0.03492641, -0.00385665, 0.09923409, -0.04366108, -0.02019612, -0.16180684, -0.07628484, -0.04824238, -0.17331961, -0.13963042, -0.15196972, -0.17110351, -0.22313163, -0.14189330, -0.12792730, -0.22681336, -0.15292017, -0.24227861, -0.31448776, -0.19602644, -0.25809771, -0.21209073, -0.10096073, -0.18835022, -0.07392561, 0.01121951, -0.03142349, -0.08193716, -0.05387078, 0.00205518, 0.04640239, 0.01961870, -0.03776940, -0.20224315, -0.19354370, -0.15887298, -0.32198614, -0.26395053, -0.24995877, -0.10520811, -0.08791139, -0.01725536, -0.03385884, -0.00490859, -0.09189488, -0.17413308, -0.18900274, -0.05004042, -0.18291394, 0.01502869, -0.08146212, -0.07844050, 0.00263617, 0.00245941, 0.09272657, -0.03034962, -0.04021220, 0.05685474, -0.03686055, -0.09842213, -0.11509110, -0.29262003, -0.29834887, -0.36605918, -0.40087846, -0.29358843, -0.16448191, -0.07354277, 0.01455591, 0.01203004, -0.05344941, -0.02416005, -0.10650012, -0.08921823, -0.14611584, -0.03221773, -0.06923085, 0.04235077, -0.08735838, -0.13608423, -0.07788315, 0.09635418, 0.17511512, -0.10548896, -0.01750074, -0.06352786, 0.04205859, -0.03799633, -0.19278070, -0.27193266, -0.21294250, -0.27513698, -0.15611924, -0.13130987, 0.02947688, 0.13896973, 0.18366984, 0.31439465, 0.43484944, 0.38742584, 0.25293645, 0.18591981, 0.22383180, 0.14149487, -0.00927012, -0.04424279, -0.04968848, -0.06696025, -0.05781590, 0.13429095, -0.05136546, -0.00076985, 0.02340859, -0.03011063, -0.02304437, -0.05037259, -0.26289886, -0.14497413, -0.18389988, -0.05543698, 0.01567610, 0.07126748, 0.16322672, 0.22700861, 0.41184101, 0.40199229, 0.49229610, 0.55528426, 0.44709787, 0.31210831, 0.23637426, 0.11120133, 0.14167599, -0.01825689, -0.11922286, -0.01218844, 0.21875599, 0.20960866, 0.12675904, 0.09802987, 0.00002717, 0.06250190, 0.06792159, 0.00515232, -0.06879052, -0.13847651, 0.05629772, 0.15446065, 0.20579761, 0.27664119, 0.25596446, 0.31016976, 0.36949772, 0.42669949, 0.50553387, 0.49851829, 0.46450326, 0.38953534, 0.30183303, 0.12578936, 0.11411139, 0.10121489, 0.04767230, 0.13234465, 0.37278822, 0.41522273, 0.28790310, 0.06770591, 0.01389270, 0.05409071, 0.11828690, 0.06337153, 0.00799928, 0.11080590, 0.24635336, 0.21671954, 0.22711281, 0.30700436, 0.19602093, 0.33300507, 0.24330777, 0.33699387, 0.36300841, 0.36334056, 0.26238421, 0.24034835, 0.18801869, 0.19907878, 0.07358494, 0.16675323, 0.20876160, 0.33501232, 0.48923177, 0.57917076, 0.41445845, 0.08272175, 0.06855925, 0.11429870, 0.08218151, 0.05449301, 0.21570867, 0.21722274, 0.21712187, 0.23611628, 0.26070920, 0.24110550, 0.28559184, 0.23045586, 0.25287804, 0.26170349, 0.42161581, 0.29255939, 0.04787816, 0.01040619, 0.11756085, 0.15696470, 0.21651676, 0.21208799, 0.20034227, 0.27219298, 0.44650590, 0.49521071, 0.28620520, 0.10823137, 0.02692807, 0.16934270, 0.21753404, 0.12965344, 0.24210203, 0.18827665, 0.35885125, 0.30230805, 0.18966199, 0.16780673, 0.22206758, 0.18795781, 0.15110153, 0.27440667, 0.33017865, 0.21661681, -0.18113145, -0.12064760, 0.00998561, 0.12431863, 0.15366623, 0.08959317, 0.16262573, 0.23996964, 0.28398472, 0.28531179, 0.26491606, 0.03381110, 0.01879073, 0.12044699, 0.08353224, 0.12473091, 0.26424775, 0.26051587, 0.25391868, 0.08018424, 0.00860682, 0.12604000, -0.04179053, 0.01391822, 0.04128387, 0.13581510, 0.21330875, -0.07289263, -0.15460986, 0.00150679, 0.00350691, 0.09625699, 0.03737193, 0.03193314, 0.06659458, 0.15218459, -0.01696197, -0.02395540, 0.12257202, -0.02914645, 0.07450953, 0.00674878, 0.07119724, 0.10692186, 0.08622624, 0.13313380, -0.14279772, -0.11490813, -0.15329047, -0.21157230, -0.32243752, -0.32506427, -0.26662216, -0.04133810, 0.01192411, -0.11944266, -0.23215845, -0.15381834, -0.06672901, -0.06521875, -0.06914566, -0.05345694, 0.01636728, -0.07565638, -0.20794179, -0.19330356, -0.13667081, -0.03483372, 0.05816408, -0.03850156, 0.10471504, -0.05382871, -0.07475685, -0.09260493, -0.30457491, -0.26614374, -0.18010353, -0.31141391, -0.32080141, -0.49398309, -0.40697882, -0.18262388, -0.02250222, -0.12520343, -0.18514450, -0.13855766, -0.10064761, -0.08520982, -0.08644363, -0.00013326, -0.12145230, -0.14438112, -0.10595986, -0.16272262, -0.10214575, -0.09852634, -0.00147511, -0.08691281, 0.02029885, -0.13483766, -0.19324867, -0.16851969, -0.37757516, -0.27010804, -0.29345790, -0.14732474, -0.23198013, -0.40611070, -0.27279535, -0.25368783, -0.14124444, -0.27394101, -0.20081115, -0.22522378, -0.18835542, -0.15856361, -0.02117088, -0.13825400, -0.13537970, -0.09523991, -0.07400721, -0.19457132, -0.22056694, -0.07986660, 0.08691271, -0.01404590, -0.03943997, -0.22881100, -0.06401560, -0.18459769, -0.22871193, -0.18438403, -0.10743448, -0.19969663, -0.21884713, -0.28707007, -0.21885255, -0.21120617, -0.24908106, -0.38481924, -0.22467889, -0.14358152, -0.07332795, -0.17985517, -0.05426583, -0.07883514, -0.01875556, -0.07565835, -0.11033183, -0.34995547, -0.19834813, -0.08019292, 0.07802454, -0.01351103, -0.07926753, -0.08423258, -0.11664162, -0.07323415, -0.08570747, -0.15173425, -0.21468633, -0.15701678, -0.08431032, -0.11908936, -0.09194822, -0.23621997, -0.34150341, -0.22842698, -0.25036895, -0.11011328, -0.07721936, -0.02281765, -0.03650619, -0.13240255, -0.04758700, -0.18987176, -0.18846458, -0.33455342, -0.23776355, -0.02437457, 0.08297060, -0.02857999, 0.01590192, -0.17121746, -0.05245940, 0.01771202, 0.06881042, -0.04781016, -0.10099805, -0.05871918, -0.10791846, -0.20020925, -0.20382459, -0.20319013, -0.27814046, -0.23082367, -0.23362206, -0.06103098, -0.12898147, -0.10276408, -0.05688738, -0.03379893, -0.02651785, -0.26618493, -0.32296503, -0.33964935, -0.25402874, -0.03936977, -0.07265383, 0.08989639, 0.10128041, -0.27478445, -0.08023193, 0.06991934, 0.21269371, 0.06418198, 0.08398118, 0.01496774, -0.03826465, -0.11323561, -0.14134771, -0.15465336, -0.18439235, -0.17489235, -0.15706289, -0.18109359, -0.13107614, 0.02254769, -0.05368911, -0.10308296, 0.05291324, -0.21449479, -0.35840470, -0.31469089, -0.23715618, 0.05470067, 0.03473584, 0.00566551, -0.07658111, -0.26318479, -0.19156072, 0.01260441, 0.19010526, 0.17158166, 0.19511631, 0.11298241, 0.05567668, 0.00891314, -0.06445775, -0.02769558, -0.14730558, -0.25839269, -0.20698404, -0.15867133, -0.11723340, -0.08309668, 0.03460095, -0.09841307, -0.10347179, -0.13975975, -0.23617937, -0.25932413, -0.23424552, 0.07553075, 0.00869583, -0.08323292, -0.18891756, -0.17262000, -0.16925812, 0.00580611, 0.16692813, 0.13901132, 0.18828604, 0.16104347, 0.11137465, 0.08810376, -0.01854148, -0.16003747, -0.04507291, -0.11688210, -0.07946698, -0.19408441, -0.03515666, 0.02580493, -0.00039466, -0.00641287, 0.02547869, -0.24166104, -0.22261843, -0.17028148, -0.05252331, 0.00020874, 0.08022773, 0.00831868, -0.24301627, -0.22710694, -0.22062004, -0.13567825, -0.01550502, 0.17297097, 0.13529180, 0.18219353, 0.20150325, 0.30644429, 0.14779289, 0.25987500, 0.23506005, 0.03188977, 0.14249085, 0.09226378, 0.05995127, 0.08254415, 0.05008494, -0.06452363, 0.02542034, 0.00689276, -0.07779459, -0.07980502, 0.00625501, -0.05253493, 0.05126958, -0.02545850, -0.09660799, -0.22877009, -0.26732436, -0.15473726, 0.05291843, 0.12855658, 0.11167339, 0.22307427, 0.22947738, 0.37124616, 0.27003363, 0.38375759, 0.30628878, 0.33779547, 0.29759249, 0.26099783, 0.12357433, 0.02898438, 0.12501806, 0.07493609, 0.11167984, 0.18793382, 0.05223099, -0.10926788, -0.02687096, -0.04080780, 0.07875592, 0.05253938, 0.06372354, -0.02585442, -0.02580652, 0.01528014, 0.09216236, 0.15194772, 0.13702679, 0.13962319, 0.29073131, 0.14161383, 0.25053212, 0.18023156, 0.27578154, 0.14091988, 0.17003971, 0.08260059, 0.22635488, 0.17549932, 0.33666718, 0.27864504, 0.21837555, 0.19063519, 0.14556326, -0.06552418, 0.02038304, 0.07733393, 0.04623865, -0.08032231, 0.04874785, 0.03650352, 0.17767899, 0.25487986, 0.36147827, 0.33452055, 0.37787905, 0.38160405, 0.46540511, 0.51497364, 0.47339213, 0.48672509, 0.39425156, 0.33927789, 0.49064010, 0.48790079, 0.42466480, 0.45430851, 0.45574898, 0.42575276, 0.33113527, 0.23094684, 0.19541073, -0.09182165, -0.07558317, -0.08465532, -0.03457334, 0.04913047, -0.05413311, 0.12117378, 0.08256555, 0.22229953, 0.21288878, 0.37425402, 0.34167075, 0.35684222, 0.46448904, 0.47981232, 0.53292906, 0.53390223, 0.59300458, 0.54876792, 0.71685344, 0.59680563, 0.53833276, 0.57948279, 0.38287383, 0.34194571, 0.26185331, 0.14374727, -0.02418002, 0.05494832, 0.06728862, 0.04120454, -0.04588918, -0.00884362, -0.07764114, 0.00143906, 0.03883760, 0.01457517, 0.08466242, 0.17767008, 0.14147541, 0.21901989, 0.16491406, 0.20142820, 0.12512133, 0.14278923, 0.30245450, 0.24711080, 0.10999792, 0.16364354, 0.23820376, 0.15168551, 0.14052625, 0.14866969, 0.16080238, 0.01181747, 0.06236973, -0.05516529, -0.02446380, -0.01873029, 
0.03129034, -0.05689108, -0.06823013, -0.06912771, 0.03522482, 0.07667321, 0.00296715, 0.00226870, -0.05410206, 0.04023747, 0.02120479, 0.02053467, 0.00863583, 0.08975171, -0.02661288, -0.03796475, 0.00483771, -0.08003967, -0.05699006, 0.04859258, -0.06496368, 0.06345461, -0.02580409, -0.05734834, -0.07352888, 0.02171625, 0.02308137, 0.07664055, -0.04399080, -0.06561073, -0.00823377, -0.03405223, -0.02527695, 0.02781134, -0.00646734, -0.00758348, -0.00180744, 0.08699162, 0.11784286, -0.03010139, 0.15103579, 0.01758680, 0.07471301, 0.09073668, 0.03731671, -0.01052838, 0.10836567, 0.04293266, 0.06732558, -0.06543687, -0.05690827, -0.00889004, 0.03538405, 0.06355065, 0.06836659, -0.08053715, 0.07713136, 0.08429438, -0.06940236, 0.07945508, -0.04749104, -0.06109761, -0.03539037, 0.05958638, 0.14158607, 0.18933712, 0.11361417, 0.04756212, 0.05856935, 0.19004120, 0.10480984, 0.16912274, 0.17918475, 0.08452593, 0.13780166, 0.03826583, 0.03086186, 0.04469641, -0.04132609, -0.07006688, -0.00779196, 0.05104597, 0.02171700, -0.05222942, 0.03114114, 0.03434581, 0.07386004, 0.09595196, -0.03030884, 0.05222338, 0.12574506, 0.14880525, 0.03382000, 0.10768192, -0.03654796, -0.03295398, -0.13987839, -0.09820197, -0.20528507, -0.18577836, -0.23820238, -0.24159099, -0.29371178, -0.16350837, -0.21299173, -0.28995511, -0.10696363, -0.17900224, -0.11922847, 0.00567225, 0.07243695, 0.03810417, -0.07976532, -0.05722506, -0.01686775, -0.14374685, -0.00590366, -0.05542198, -0.04904761, -0.07400808, -0.10980578, -0.10250124, -0.12462325, -0.06427881, 0.01315209, 0.02025937, 0.04598734, -0.06377949, -0.07628760, -0.00034445, -0.09943378, 0.00446184, 0.03935723, -0.01620781, -0.05424649, -0.02095545, -0.14552411, -0.09084181, -0.15161042, 0.04353746, -0.05321243, -0.07420100, 0.03157546, -0.07671394, -0.11738992, -0.09496640, -0.11736761, -0.16998784, -0.07420038, -0.11369170, -0.16146223, -0.01388337, -0.08893161, 0.04482131, 0.09013247, 0.05444958, 0.01119727, 0.12471302, 0.01917548, 0.08274183, 0.12192760, 0.04248873, -0.02290779, 0.05642355, -0.12478372, -0.27839527, -0.19331895, 0.06271218, -0.06170603, -0.02914232, -0.07813898, -0.25802857, -0.24743089, -0.25693142, -0.32188186, -0.20537260, -0.23469479, -0.24592456, -0.14080667, -0.14009389, -0.05346286, -0.06618863, 0.03562542, 0.13300475, 0.06850607, 0.12115349, 0.10417353, 0.09836061, -0.06758734, -0.03327936, -0.00260237, 0.03000208, -0.13963228, -0.30380675, -0.23976293, -0.09042534, -0.07156708, -0.07010423, -0.05666331, -0.28154817, -0.35779384, -0.39401212, -0.26608005, -0.29590744, -0.21225762, -0.29779324, -0.27491802, -0.22429475, -0.15837808, 0.04203233, 0.09454740, 0.04078464, 0.11663422, 0.11880913, -0.04139494, -0.11257814, -0.14476651, -0.19628386, -0.21407527, -0.24112119, -0.44017851, -0.41830364, -0.27820772, -0.17127939, 0.05649088, -0.05299747, -0.18356451, -0.37996960, -0.29033709, -0.32008991, -0.23961890, -0.30985764, -0.25502548, -0.17243907, -0.14973819, -0.24669480, -0.11945857, -0.01588818, -0.06965149, -0.03017964, -0.18297540, -0.15324670, -0.13008201, -0.09993488, -0.22525539, -0.19885534, -0.19559209, -0.33997217, -0.44144332, -0.62795037, -0.47975489, -0.14802241, -0.01530283, -0.07024349, -0.28118789, -0.35495901, -0.30793047, -0.26270905, -0.19047298, -0.21772572, -0.09929632, 0.04371778, -0.09221577, -0.08335644, -0.10961669, -0.17304899, -0.21782269, -0.33788589, -0.30398062, -0.25543612, -0.23199588, -0.17608333, -0.19700903, -0.32958448, -0.25356796, -0.29030919, -0.61075711, -0.62420624, -0.53756416, -0.16344555, 0.02715734, -0.06856753, -0.25248006, -0.37364304, -0.30740976, -0.28671977, -0.06839656, 0.00628851, 0.10266914, 0.04650777, 0.02165804, 0.10265850, -0.04122926, -0.36563453, -0.31286412, -0.33374327, -0.30010650, -0.29646382, -0.12154762, -0.01967031, -0.17191376, -0.02144598, -0.03961517, -0.06419510, -0.27718773, -0.56837380, -0.45434895, -0.20156755, 0.00308215, -0.19389388, -0.26212972, -0.41675031, -0.28791800, -0.17699279, -0.04025480, 0.17084655, 0.13850045, 0.15218204, 0.22332691, 0.08032542, -0.26735452, -0.29034132, -0.07185845, -0.03172252, -0.21396305, -0.14999291, 0.01811741, 0.06588819, 0.29172310, 0.28516623, 0.47486475, 0.61629462, 0.35262337, -0.29660150, -0.28947848, 0.03039157, 0.05321468, -0.16129418, -0.25512293, -0.22559570, -0.28120136, -0.05776286, 0.05637693, 0.14596857, 0.08583663, 0.21412560, 0.16542390, 0.10874863, -0.08775721, -0.06784880, 0.19542900, 0.20864822, 0.02350753, 0.06219438, 0.20164503, 0.24734709, 0.44034460, 0.51980227, 0.74819720, 0.80036843, 0.66580838, 0.15448692, -0.06090244, 0.09497140, -0.00098332, 0.00390541, -0.18778607, -0.10270047, -0.08102223, 0.17869924, 0.14008529, 0.13477588, 0.13199291, 0.23869903, 0.33565772, 0.28920743, 0.00253317, 0.28464046, 0.42384157, 0.27516457, 0.00568317, 0.05472140, 0.08745967, 0.15254389, 0.25060293, 0.48152322, 0.71466410, 0.78455317, 0.58080351, 0.11706042, -0.00164660, 0.05075103, -0.02667220, 0.02687283, -0.20053346, -0.01921118, -0.04271318, 0.10921460, 0.28860238, 0.27295646, 0.23691638, 0.24638432, 0.31404209, 0.36530173, 0.30166519, 0.50462353, 0.38407314, 0.21850309, 0.09175517, 0.08061737, -0.04374054, 0.00959673, 0.11658458, 0.27010000, 0.46617064, 0.54005301, 0.49384072, 0.05627998, 0.14198843, 0.02681415, -0.03734902, -0.03533043, -0.20941320, -0.01851268, -0.06049388, 0.22140013, 0.21242072, 0.20983312, 0.20620658, 0.30782825, 0.34431693, 0.29099971, 0.30111623, 0.41559556, 0.28637040, 0.18544996, 0.00823629, -0.00372641, -0.15939192, -0.31519035, -0.18520887, -0.03745864, 0.10083583, 0.22172169, 0.29973942, 0.12681192, 0.11686588, -0.02123370, -0.05707614, -0.10309996, -0.24972801, -0.29387584, -0.05397770, 0.25446847, 0.21486497, 0.34239393, 0.30086207, 0.27008811, 0.27976802, 0.23805970, 0.24834241, 0.33800349, 0.34418258, 0.21988058, -0.01843721, -0.16622300, -0.19335079, -0.35704651, -0.22714587, -0.12578773, -0.04078956, 0.01570706, 0.11611889, 0.36186847, 0.12207527, -0.09754302, -0.07414314, -0.10561641, -0.13591315, -0.37018836, -0.14495358, 0.27389106, 0.37130219, 0.50839323, 0.41356099, 0.51725310, 0.43884715, 0.30585927, 0.40913901, 0.23229687, 0.27014840, 0.15897748, 0.05427276, -0.23085301, -0.18833879, -0.28794253, -0.09604123, -0.13412456, -0.13080317, -0.01091871, 0.14104266, 0.32230282, 0.18557587, 0.06021686, 0.00938344, 0.00186369, -0.16878043, -0.36247697, -0.25388017, -0.02815589, 0.27887863, 0.30989319, 0.50325471, 0.46480748, 0.57649916, 0.45211360, 0.26047406, 0.26960748, 0.26677632, 0.14224654, -0.02495041, -0.09552153, -0.09649651, -0.04695776, -0.13544065, -0.07928264, -0.17710362, -0.03041323, 0.36212546, 0.34116480, 0.06517626, -0.00771789, 0.04290478, -0.08162497, -0.34908813, -0.46910197, -0.34243786, -0.20816030, -0.03353005, 0.00151162, 0.19102229, 0.27013081, 0.31929541, 0.33615750, 0.07496709, 0.16816525, 0.14381683, 0.12033661, 0.05509314, -0.12656288, -0.05172926, -0.01603951, 0.06019226, -0.06535400, -0.11017086, 0.10665113, 0.40680447, 0.41841778, 0.25633356, -0.00236873, -0.07511272, -0.14142577, -0.31552190, -0.43445569, -0.30785704, -0.12243688, -0.03879502, -0.01889456, -0.11957640, -0.08252076, -0.08720128, -0.06360284, -0.08186283, -0.04650394, 0.04583956, 0.03814495, 0.03570633, -0.01198682, -0.03919738, 0.02056953, -0.02217864, 0.02323218, 0.08807179, 0.19376518, 0.54780954, 0.25087410, 0.07318696, 0.07301674, 0.00991790, 0.00343253, -0.17148875, -0.26738200, -0.17851065, -0.17777862, -0.09054073, -0.01425424, -0.07066554, -0.08638187, -0.08364061, -0.15751326, -0.18957749, -0.03080019, 0.04637226, -0.00119102, 0.00868646, -0.06125449, -0.00337206, 0.01669980, 0.03140882, 0.14935638, 0.13777456, 0.35835639, 0.52723718, 0.20771413, 0.10504729, 0.07677771, 0.00526742, 0.00285431, -0.14609641, -0.27639967, -0.21348460, -0.03897235, -0.09731235, -0.01803203, -0.01788699, -0.02006678, -0.16597207, -0.19715579, -0.10581818, -0.26131970, -0.12039245, -0.14938648, -0.07562093, 0.04770268, 0.06821626, -0.00203496, -0.01882113, 0.10599300, 0.28070796, 0.35083929, 0.39312249, 0.09380467, 0.12542783, 0.03498032, 0.01639213, 0.07290092, -0.20100437, -0.16472688, -0.32077205, -0.39739436, -0.32336119, -0.20254293, -0.18431860, -0.20081708, -0.10245729, -0.16260722, -0.21126434, -0.12854548, -0.19353445, -0.10266379, -0.01495348, 0.06341232, 0.08736072, 0.17949902, 0.30768052, 0.30173197, 0.27111536, 0.25096649, 0.12745722, 0.10935213, -0.05899503, 0.02604149, -0.02341797, 0.04092540, 0.02281333, -0.25823528, -0.30085269, -0.35233551, -0.48073912, -0.39171943, -0.33004916, -0.28048015, -0.27789685, -0.33839956, -0.27784806, -0.28004259, -0.29139623, -0.20610033, -0.06447656, 0.04644687, 0.04534013, 0.16945638, 0.25197491, 0.35300952, 0.27292973, 0.27881765, 0.08457594, -0.00522454, 0.11924291, -0.00584275, 0.00212512, 0.03337503, -0.07199235, -0.22258939, -0.26416609, -0.27929115, -0.21972597, -0.38175184, -0.45339173, -0.37806129, -0.29370907, -0.36001924, -0.34742817, -0.29129604, -0.31256977, -0.22644725, -0.13443050, -0.00621169, 0.09916563, 0.15182513, 0.24361071, 0.23814626, 0.10271854, 0.17656848, -0.02837915, -0.04468739, 0.07324060, 0.00045861, -0.04972911, -0.02037754, 0.04592773, -0.03890105, 0.06226625, 0.02457313, -0.01624542, -0.13690698, -0.24591479, -0.20723532, -0.17794892, -0.06202415, -0.13472523, -0.23582357, -0.12760936, -0.25901195, -0.27085581, -0.23116933, -0.13958663, -0.10730886, 0.13310640, 0.02875855, -0.04562622, 0.05475597, -0.06089357, 0.05296864, -0.06985448, 0.01440977, 0.01696108, -0.02875778, -0.03096056, 0.05700471, -0.05312010, -0.05081725, -0.04732526, -0.11326281, -0.21989638, -0.15997715, -0.15784793, -0.20686185, -0.15210500, -0.21687178, -0.22880223, -0.24397917, -0.28211397, -0.27970251, -0.23486109, -0.09868146, 0.04622259, -0.01163771, -0.05873717, -0.10365933, 0.02230851, -0.03573213, -0.04896843, 0.07838018, 
0.02060900, -0.01707701, -0.06805341, -0.03059592, 0.05090480, 0.07453381, 0.01965906, -0.06099003, 0.02400752, 0.00042584, -0.03973792, 0.08597076, 0.09591696, 0.02612600, -0.05730287, 0.03187785, 0.05832252, 0.04661942, -0.01199652, 0.04164319, -0.07204646, 0.03444101, 0.05651169, -0.01033404, -0.05345064, 0.02013887, 0.00018110, -0.03915004, -0.03424263, -0.03115894, 0.06711262, 0.06924999, 0.06992820, 0.01821036, 0.15669361, 0.06965441, 0.16815531, 0.29164687, 0.25129393, 0.34122863, 0.29134813, 0.24988575, 0.18314917, 0.10908296, 0.13761726, 0.19219291, 0.13685346, 0.27971384, 0.18376704, 0.13151497, 0.12452727, 0.13838021, -0.00250008, 0.06996059, 0.02294991, 0.05070965, -0.00043106, -0.05422784, 0.06978247, -0.04621766, 0.00578344, 0.03796369, 0.17181544, 0.20200351, 0.28096557, 0.38026208, 0.56875551, 0.51691729, 0.52524281, 0.60925388, 0.56316721, 0.47844785, 0.49891999, 0.49231079, 0.53439641, 0.55013865, 0.39223337, 0.31632712, 0.34621277, 0.24467835, 0.13956085, 0.12041301, -0.01359496, -0.04215153, 0.01428425, -0.01471680, 0.02079270, 0.03398855, 0.16642176, 0.12923047, 0.15222590, 0.24678306, 0.34115684, 0.33522558, 0.37186688, 0.33232352, 0.41935611, 0.35188669, 0.36357415, 0.49178442, 0.48329112, 0.41465393, 0.48328969, 0.38205191, 0.44167420, 0.32883745, 0.35994929, 0.28518930, 0.18027455, 0.01673697, -0.01314809, -0.06794450, 0.03627934, 0.00944208, 0.07110270, 0.01655349, 0.04537341, 0.11775889, 0.02507512, 0.03168882, 0.14502291, 0.12954056, 0.09977478, 0.05918457, 0.06888310, 0.00687768, 0.04431304, -0.03508499, 0.07128718, 0.14041021, 0.20200570, 0.33864659, 0.23091799, 0.22153302, 0.34044808, 0.28061193, 0.24562475, 0.15495098, -0.04791870, 0.05258773, -0.07900734, 0.03947306, 0.10051778, 0.00927362, -0.03878203, -0.03121989, 0.03574836, 0.08295763, 0.11014102, 0.13115570, -0.01631663, 0.01793096, -0.14052342, -0.06105088, -0.24540567, -0.22696346, -0.07118202, -0.16709699, -0.06325974, 0.07843564, 0.13573821, 0.16911235, 0.11556894, 0.28057137, 0.25460863, 0.22695796, 0.14122376, 0.08601200, -0.01157220, 0.07653933, -0.03740832, 0.01062061, 0.03450171, -0.00435059, -0.02178452, 0.03840346, -0.03734396, 0.07091184, -0.00902318, 0.02221961, -0.01669132, -0.02937656, -0.10133792, -0.07441689, -0.15337166, -0.27774894, -0.04100885, -0.01966951, 0.11443255, -0.01672570, 0.10525903, 0.14102662, 0.31122401, 0.37617582, 0.21787193, 0.11560291, -0.02835850, 0.06850395, -0.04147173, -0.10108706, -0.07082796, -0.09810927, -0.09572235, 0.02140566, 0.02770865, -0.05660840, -0.04182476, -0.15492027, -0.00455752, -0.02940920, -0.06874851, -0.08633988, -0.13712214, -0.07399646, -0.08284952, -0.05701976, 0.02837083, -0.08789482, -0.10392552, 0.16397427, 0.47405091, 0.49344110, 0.26094431, 0.03630256, -0.00001823, -0.11035386, -0.19206236, -0.19014366, -0.17194089, -0.06824436, -0.13007994, -0.14008564, -0.15434362, -0.08177587, -0.23926756, -0.11649523, -0.17135766, -0.05829467, -0.13611643, -0.09383580, -0.15461580, -0.12422682, -0.13115163, -0.15992981, -0.06366074, -0.09389356, -0.14712574, 0.19964774, 0.53727043, 0.51227230, 0.39346257, 0.09500917, -0.08407911, -0.11590376, -0.29440981, -0.24724512, -0.10880383, -0.11818509, -0.15611999, 0.00860735, -0.06353246, -0.23749530, -0.18777780, -0.13683742, -0.21803708, -0.11754537, -0.05004506, 0.03737120, -0.22716714, -0.30872232, -0.25068572, -0.37264678, -0.23714218, -0.34926388, -0.33231136, 0.09662153, 0.47830456, 0.63849235, 0.34988967, -0.00253479, -0.03672274, -0.00623263, -0.24014547, -0.26881143, -0.22542734, -0.15312836, -0.05910053, -0.05650079, -0.13606420, -0.10901818, -0.14099932, -0.12678289, -0.05079854, 0.07512006, 0.24904051, 0.28817040, -0.11658880, -0.37768763, -0.33399388, -0.44294176, -0.43873489, -0.42914671, -0.58583695, -0.20728506, 0.42369041, 0.58104080, 0.28885791, -0.03656668, -0.03643408, -0.18201518, -0.21368046, -0.35583213, -0.15200824, -0.20126665, 0.05219490, -0.05670247, -0.10290030, 0.00152126, -0.02533452, 0.05053359, 0.08644465, 0.32408950, 0.42833921, 0.46096799, -0.05336018, -0.28126806, -0.27776930, -0.32427648, -0.43317840, -0.52945596, -0.54714644, -0.46734044, -0.00647339, 0.37459239, 0.21071355, -0.03722849, 0.04493273, -0.19549347, -0.22931744, -0.24772169, -0.26554546, 0.00076124, 0.11778174, 0.11935379, 0.17796279, 0.14763549, 0.10023668, 0.09859027, 0.18968599, 0.26180837, 0.62590468, 0.34707886, -0.09100883, -0.33436325, -0.25495449, -0.31571034, -0.30412784, -0.45146805, -0.34945479, -0.41402882, -0.25539514, -0.00063112, -0.11381303, -0.04388760, 0.07831053, -0.10899449, -0.28519431, -0.19720460, -0.23092292, -0.03447105, 0.11702871, 0.22766207, 0.18459556, 0.23242530, 0.21752609, 0.17449829, 0.15950716, 0.41311979, 0.54028845, 0.18886134, -0.15493079, -0.16240685, -0.00232691, -0.01376649, -0.11714915, -0.14918096, -0.06513291, 0.00245381, 0.07104699, -0.07004759, -0.21228297, -0.09336340, 0.04869198, 0.05121188, -0.10822883, -0.15259612, -0.25636858, -0.16956934, 0.06127147, 0.05831965, 0.21192463, 0.26350912, 0.28465307, 0.06895486, 0.23315829, 0.28971353, 0.38329220, 0.12985170, -0.05732740, -0.11229405, -0.02143322, -0.08598536, -0.08626865, 0.05592185, 0.05096774, 0.16401203, 0.11877890, 0.01803201, -0.27670625, -0.03387121, 0.09828929, 0.08327767, 0.16983524, -0.18537951, -0.34994939, -0.29256061, -0.31067654, -0.11881975, -0.09814809, 0.08268727, 0.09730912, 0.05445402, 0.08089760, 0.36921641, 0.22444044, 0.01441380, -0.18651995, -0.19127338, 0.01575431, 0.00997415, 0.06444417, 0.10813385, 0.26273322, 0.16798313, 0.22214139, 0.00629049, -0.35868710, -0.10209592, -0.07820199, 0.09832261, 0.33701795, 0.06260185, -0.18059999, -0.41711363, -0.41681710, -0.29943812, -0.28423026, -0.29064998, -0.29088911, -0.26233423, -0.01244562, 0.08952171, 0.09806062, -0.17864922, -0.29980794, -0.23197295, 0.00847855, 0.05021051, 0.00162427, 0.04966581, 0.18710099, 0.21829244, 0.14016359, -0.23744966, -0.43372676, -0.23446299, -0.04089450, 0.09590836, 0.22166881, 0.14519356, -0.17897514, -0.30450600, -0.25612143, -0.35609490, -0.30716896, -0.36092886, -0.41035849, -0.38915890, -0.31742403, -0.04714108, -0.02477110, -0.20838843, -0.17023693, -0.10415734, 0.06485753, 0.11973254, 0.10139216, 0.17450663, 0.20061119, 0.15258920, -0.04931901, -0.38681242, -0.41271693, -0.21041094, -0.11719579, 0.14918858, 0.28852960, 0.33070543, 0.07442029, -0.16325867, -0.03769413, -0.14415216, -0.24099202, -0.26617533, -0.30520326, -0.24532950, 0.03989062, -0.10927619, -0.06639655, -0.05603447, 0.01806562, 0.19785734, 0.21394733, 0.20351854, 0.30774695, 0.27604690, 0.08568496, 0.03053844, -0.31470603, -0.40713584, -0.33062926, -0.13878767, 0.09529013, -0.11448354, 0.33007199, 0.51538748, 0.14084260, -0.07054031, -0.00683699, -0.05714001, -0.02390041, -0.10818300, 0.09520634, 0.16550268, 0.14059226, 0.19761172, 0.02062751, 0.14192504, 0.17042209, 0.21214993, 0.24141583, 0.22760324, 0.19334203, 0.16169289, 0.07829382, -0.03900356, -0.33172289, -0.36344826, -0.29794958, -0.10100593, -0.04185244, -0.07433120, 0.35057920, 0.47110450, 0.17727010, -0.05462329, -0.03199092, -0.02907665, -0.01123589, 0.08616638, 0.15567695, 0.28494620, 0.22249968, 0.24194072, 0.25478211, 0.18577166, 0.22417423, 0.17235239, 0.16080196, 0.14423378, 0.04315927, -0.03422736, -0.05695055, -0.15945770, -0.38196173, -0.29913762, -0.25054950, 0.08302196, 0.03623663, 0.10558054, 0.24792433, 0.40229446, 0.19656481, 0.06650691, 0.00662785, -0.02059583, 0.11754236, 0.00799082, 0.08761193, 0.06920117, 0.03358507, 0.14438123, 0.20931207, 0.12163717, 0.12623928, 0.22141346, 0.16877310, -0.03131770, 0.05647194, -0.03338544, -0.09445476, -0.30984437, -0.48071218, -0.36652622, -0.12800802, -0.10390040, 0.00328335, 0.07592259, 0.15363690, 0.26044244, 0.16901544, 0.08048411, -0.08482290, -0.02978015, 0.04834106, 0.06098011, -0.08375411, -0.15979822, -0.18801618, -0.12556298, -0.05757787, 0.02265213, 0.16034892, 0.14241490, 0.02775965, 0.07459342, -0.02387942, -0.03045183, -0.10448053, -0.17304273, -0.35217935, -0.26070479, 0.08154478, -0.03059295, -0.03980335, 0.04233374, 0.17689486, 0.36015564, 0.42713419, 0.36780462, 0.31789094, 0.15043601, 0.13157058, 0.18508202, 0.05108353, 0.05803607, -0.13580948, -0.08013666, -0.03263554, 0.04203860, 0.04176609, 0.09423033, 0.08226839, 0.15385586, 0.08339208, -0.18895045, -0.21573047, -0.10952552, -0.13973261, -0.16726305, 0.08457992, -0.03304122, 0.05965690, 0.07733184, 0.10240053, 0.21573798, 0.23033236, 0.33199966, 0.21482398, 0.17815313, 0.22058456, 0.17058645, 0.14773341, 0.22629879, 0.07247429, 0.09264031, 0.02417460, 0.03669770, 0.05858648, 0.06896854, 0.11043852, -0.04234375, -0.04289077, -0.08360800, -0.02720522, -0.04916918, -0.06378784, -0.08956246, -0.07070871, 0.02777690, -0.04671249, 0.04136997, 0.07910311, 0.08348044, 0.03242513, -0.05037943, -0.05430089, -0.02878232, -0.06332427, 0.02102939, 0.04393058, 0.09311839, 0.16337956, -0.05496590, -0.02087319, -0.09280910, -0.14432658, -0.14143968, -0.20837711, -0.14202677, -0.08250155, -0.09595852, 0.03258067, 0.14013378, 0.02028121, 0.02366058, 0.05568048, -0.06469461, 0.05030879, 0.02158607, 0.07475533, -0.00068395, -0.15584815, -0.13343365, -0.15952201, -0.31997582, -0.28330463, -0.16515408, -0.23123173, -0.16294515, -0.24876191, -0.34399718, -0.40525094, -0.38963175, -0.34777749, -0.33574560, -0.31850877, -0.20022507, -0.09735229, 0.03061464, 0.01311464, -0.10861260, 0.02167186, 0.06120120, -0.02465369, 0.04290222, 0.05252732, 0.02895363, 0.08434947, 0.05221780, -0.07569377, -0.01227045, -0.03742330, -0.13510792, -0.03151060, -0.12771650, -0.18174398, -0.06430160, -0.19246940, -0.19628264, -0.27285519, -0.30321079, -0.33078927, -0.19816445, -0.30599761, -0.11513864, -0.19680840, -0.09498173, -0.06034192, -0.05705822, -0.01315290, 0.00255346, -0.06651202, 0.02306370, 
-0.04869714, -0.08417375, -0.04644411, 0.00720215, 0.01793881, 0.06654644, -0.06811519, 0.02884892, -0.02318527, -0.00319504, -0.06381261, 0.01833574, 0.00675328, -0.06555530, -0.12481685, 0.00256698, 0.06402297, -0.01736689, 0.03566150, -0.05022670, 0.07543229, -0.03312850, -0.08045631, -0.07041211, -0.02934662, 0.01313280, -0.06570063, -0.05961414, 0.01196385, 0.00843649, -0.00154980, 0.01116598, -0.03172462, 0.05954059, -0.05778547, 0.02182213, 0.01285980, 0.07037147, 0.16423221, 0.03733596, 0.00621399, 0.08470979, 0.04775712, -0.05623091, -0.10594560, 0.10101363, 0.04901958, 0.10613194, 0.13257490, 0.15218832, 0.09749493, 0.01228764, -0.04033079, 0.05691226, -0.07076383, -0.07545692, -0.08274578, -0.07052619, -0.00972633, -0.00919055, 0.02757792, 0.00709220, -0.00521789, 0.10484618, 0.17199571, 0.07516786, 0.04306743, 0.07222098, 0.08916464, 0.12553366, 0.26691118, 0.19800660, 0.34305549, 0.35445675, 0.29801330, 0.32398823, 0.38871428, 0.24666347, 0.29610997, 0.22515766, 0.03080824, -0.01252677, 0.02217507, 0.01878463, 0.00853725, -0.05249356, -0.00435278, 0.03906589, -0.00339327, 0.02605544, 0.05532152, 0.01938902, 0.02071090, -0.01313839, 0.02042226, -0.00863696, -0.07863229, -0.02919647, 0.17327805, 0.21593630, 0.38627329, 0.42549354, 0.48141167, 0.50346637, 0.43211409, 0.39119568, 0.32254681, 0.24829179, 0.12993871, 0.10504367, 0.06703807, 0.06508727, 0.03665729, 0.06078516, -0.00026264, -0.10723844, 0.01655108, -0.04726984, -0.06556228, -0.04711361, -0.16726254, -0.28144985, -0.33714050, -0.30581483, -0.34449846, -0.29578859, -0.21250403, -0.20250507, 0.14544199, 0.25102961, 0.25626257, 0.42161545, 0.40953311, 0.40522993, 0.42433572, 0.48011261, 0.32578823, 0.20078592, 0.04844479, 0.07796931, 0.06270766, -0.05311762, -0.12013555, -0.03419952, -0.09638987, -0.07750741, 0.03561491, -0.08850025, -0.06108442, -0.12620014, -0.25861809, -0.47144538, -0.37250891, -0.32127342, -0.19921100, -0.15202144, -0.00816429, 0.06690781, 0.10079366, 0.12995048, 0.14220811, 0.24566148, 0.27857059, 0.50983191, 0.40426242, 0.15761213, 0.07615633, -0.00659028, -0.07890809, -0.07682390, -0.03240045, -0.13355964, 0.04109260, 0.15043114, 0.14788814, 0.18204521, 0.19935270, 0.11148644, -0.00752898, -0.19431289, -0.24872942, -0.35288045, -0.48321122, -0.39082542, -0.43427706, -0.37684777, -0.27630648, -0.17003445, -0.05627350, 0.01238466, 0.29026201, 0.30946180, 0.50069851, 0.27268401, 0.04775916, -0.03606600, 0.08825560, 0.08427995, 0.19115828, 0.18069854, 0.16060649, 0.28740549, 0.31433731, 0.39115158, 0.36134768, 0.23432460, 0.20658721, -0.08334246, -0.21396618, -0.41603622, -0.54896337, -0.59405893, -0.51605576, -0.33122182, -0.26981357, -0.18514293, -0.01261652, -0.00776919, 0.12382337, 0.39388102, 0.39804047, 0.42415458, 0.23031487, 0.06275757, -0.00904633, 0.09263749, 0.24610756, 0.27283964, 0.23663159, 0.23927335, 0.26412952, 0.28997523, 0.27492425, 0.25958410, 0.16114762, 0.08071643, -0.16990083, -0.34384084, -0.43571374, -0.38771787, -0.24871466, -0.17969346, -0.14992192, -0.13317783, -0.07063895, -0.01294005, 0.05808375, 0.09817938, 0.21013360, 0.32295203, -0.02085092, -0.02304279, 0.02658865, 0.13508175, 0.33457819, 0.21335734, 0.32628334, 0.33271918, 0.14541709, 0.26488829, 0.19435893, 0.16530401, 0.02397041, 0.00743853, 0.06177145, -0.03572482, 0.08446670, 0.00676229, -0.02479487, -0.02615318, -0.09944136, -0.05432680, -0.09812207, -0.10483460, -0.11506840, -0.20795673, -0.06351812, -0.02835289, -0.06951479, 0.03617536, 0.13224837, 0.11830489, 0.37392405, 0.34772432, 0.25516275, 0.19625863, 0.08141743, 0.03252289, -0.04807137, -0.00602941, 0.00674977, 0.01709588, 0.18562806, 0.30509585, 0.11240415, 0.08274639, 0.04155422, -0.01216570, -0.05121530, -0.17313111, -0.26034027, -0.23328127, -0.19059362, -0.34137574, -0.32740384, -0.22884372, -0.13314724, 0.04699996, 0.01466087, 0.11325737, 0.32655454, 0.34513137, 0.23611730, 0.06488121, -0.09325519, 0.01378433, -0.04746906, 0.03876322, 0.07700358, 0.16237164, 0.20443918, 0.18025887, -0.11604283, -0.01286838, 0.14957324, 0.01254982, -0.16905399, -0.14287403, -0.20644704, -0.14222310, -0.18425612, -0.35589656, -0.36530504, -0.28134015, -0.14896524, 0.00917153, 0.06603595, 0.19963318, 0.26655328, 0.32714528, 0.11480263, 0.06276213, 0.03047619, -0.02106833, -0.00298140, 0.05032936, 0.12785229, 0.31063208, 0.26191261, -0.11722428, -0.24441771, -0.14162759, 0.18193960, 0.05025073, -0.00551199, -0.14346059, -0.18506964, -0.01852798, -0.04622757, -0.03406741, -0.07105447, -0.07084927, -0.16255206, 0.08095870, -0.03867414, -0.00116792, 0.31716886, 0.15673602, 0.14702974, 0.01369278, 0.06741269, 0.07633881, 0.12237433, 0.02956092, 0.17163213, 0.13230564, -0.01237629, -0.18536599, -0.31058532, -0.07323187, 0.16848046, 0.16254391, 0.01463972, 0.04363083, 0.07691291, 0.01485218, 0.14918840, 0.13159290, 0.24139760, 0.12018192, -0.05848764, -0.11443906, 0.01987803, -0.01634160, 0.09641155, 0.15282597, 0.11597230, 0.09151940, 0.11519730, 0.18158877, 0.08463785, 0.07027204, 0.07268237, 0.13086753, -0.12096196, -0.19136538, -0.24589087, 0.10753300, 0.26854262, 0.21090518, 0.14622399, 0.19875805, 0.24646875, 0.14071734, 0.34581968, 0.26808167, 0.21966282, 0.11616635, -0.32684499, -0.07776529, 0.10295979, -0.08151212, 0.09235515, 0.16898268, 0.01637001, 0.05814565, 0.21397848, 0.17843616, 0.00490718, 0.06024522, 0.03800380, -0.02945209, -0.08030053, -0.20867328, 0.08910494, 0.18037467, 0.24441749, 0.15928853, 0.21325435, 0.33900556, 0.22917028, 0.36731303, 0.24945433, 0.20548137, 0.05712334, 0.08227500, -0.17984104, -0.05825782, 0.06704495, -0.00935618, 0.01409625, -0.01355461, -0.10548788, -0.04557687, 0.13520147, 0.14144140, 0.12595475, -0.05975472, -0.08050893, 0.03405087, -0.13749358, -0.04449032, 0.28787404, 0.23053671, 0.21261589, 0.23045148, 0.23042491, 0.21107002, 0.22870050, 0.22526202, 0.23909974, 0.03986444, -0.09219930, -0.15126126, -0.16782194, -0.07392748, -0.01326954, 0.05918038, 0.03454565, -0.10415662, -0.20007372, -0.15942703, 0.02689798, 0.06175889, 0.10955429, 0.04465777, 0.04943931, 0.01929800, -0.09125336, 0.18765152, 0.24676122, 0.19459343, 0.07965763, 0.05871272, 0.21952580, 0.08641409, 0.12625253, 0.04956412, -0.06324229, -0.16795737, -0.15968734, -0.29563895, -0.26809493, -0.07187355, 0.00965896, -0.05966197, -0.07906557, -0.14066875, -0.37183675, -0.34375751, -0.26702547, -0.14854084, -0.07488600, 0.03405740, 0.03521603, 0.04912676, 0.12947884, 0.16019899, 0.13185349, 0.11524562, -0.04843226, -0.06738628, 0.08389497, 0.06516630, 0.02234752, -0.16128254, -0.30411178, -0.37724248, -0.44137970, -0.43170124, -0.08615188, -0.11124033, -0.02338731, 0.07156997, -0.01340340, -0.22932272, -0.44337070, -0.38838947, -0.42942294, -0.27748176, -0.19356288, -0.22642504, -0.06686889, 0.07948251, 0.18969786, 0.16154973, 0.04649201, 0.08693554, 0.05017717, 0.09649947, -0.06896558, -0.00413343, -0.08686746, -0.22572654, -0.44742984, -0.43457010, -0.57826060, -0.48837307, -0.13955598, -0.06120614, -0.03764437, 0.01282231, -0.08674933, -0.26524308, -0.42692184, -0.56933987, -0.55417413, -0.44815111, -0.40196529, -0.22302702, -0.01486550, 0.11487003, 0.16154207, 0.22365895, 0.26204079, 0.21116170, 0.12874892, 0.18671690, 0.10132746, -0.11848850, -0.21777326, -0.31836760, -0.45417938, -0.55010438, -0.37752542, -0.21106778, -0.07145001, 0.00731374, 0.03395128, -0.13571075, -0.16890937, -0.39155060, -0.39802030, -0.51088351, -0.60509491, -0.40757471, -0.38520035, -0.27477509, -0.12625055, 0.09564402, 0.22642016, 0.13291050, 0.13448612, 0.15662868, 0.11475080, 0.00018631, -0.09146819, -0.19069044, -0.35648379, -0.40125498, -0.48682263, -0.31703559, -0.20070574, -0.16072081, -0.04860977, 0.05529841, -0.00867543, 0.02767974, -0.20675723, -0.16422889, -0.41142920, -0.41669396, -0.37857607, -0.28025851, -0.22052145, -0.21803343, -0.09404564, -0.18711196, -0.12945996, -0.02376174, 0.04068219, 0.00043181, 0.00884764, -0.07183309, -0.20013502, -0.22755611, -0.20108402, -0.23006511, -0.21849637, -0.35501775, -0.15674633, -0.25564918, 0.01015483, -0.08308131, 0.06850360, -0.07597288, -0.05382708, -0.13975294, -0.11356686, -0.12453533, 0.00423057, 0.09004941, -0.04271864, -0.07506563, -0.09427246, -0.25536385, -0.30434880, -0.31648165, -0.29114139, -0.16470200, -0.15530911, -0.19723599, -0.11302120, -0.07651823, -0.14521249, -0.19316477, -0.14242668, -0.16043125, -0.21951869, -0.22282717, -0.07424973, 0.02751973, 0.05420689, -0.01123551, -0.08453721, -0.02489518, 0.22413169, 0.24371722, 0.26533321, 0.36832047, 0.33424613, 0.15268047, 0.09378435, 0.02753707, -0.07107680, -0.17807233, -0.05175556, -0.15657333, -0.13903150, -0.16717781, -0.18396738, -0.15476650, -0.13765505, -0.13513908, -0.11253493, -0.32481721, -0.15076023, -0.12635170, 0.03176301, -0.08186380, 0.06930606, 0.04620311, -0.14780754, 0.05015577, 0.12819242, 0.22435008, 0.28318983, 0.41394475, 0.37185600, 0.20794268, 0.05261197, 0.07454456, -0.14087719, -0.08088736, -0.06414398, -0.20614335, -0.28147745, -0.50723124, -0.48184353, -0.49042162, -0.50506127, -0.38944596, -0.25725666, -0.13404652, -0.16599159, -0.00353645, -0.05887991, 0.06743661, 0.00187662, -0.06518797, -0.01655255, -0.03879653, 0.02741334, 0.18449065, 0.29749253, 0.23828176, 0.20316787, 0.22512315, 0.19425623, 0.16189562, 0.02319759, 0.08754587, -0.05056903, 0.04741216, -0.18221304, -0.19865155, -0.21640278, -0.27546173, -0.34969175, -0.14589860, 0.00111079, -0.02574339, -0.02572749, 0.00024679, -0.08410021, -0.06806355, 0.06320500, 0.05622463, -0.06207432, -0.07992494, 0.01187543, 0.05207584, -0.00396824, 0.17661621, 0.03720158, 0.19610921, 0.11159136, 0.17361346, 0.27485007, 0.25684181, 0.29071319, 0.29208738, 0.33986714, 0.38578582, 0.27755776, 0.08849879, 0.00472253, 0.03629997, -0.00047151, 0.00896501, -0.00549461, 0.03936899, 0.07121155, 0.07644932, 
-0.03975906, -0.06668476, -0.00166885, -0.06721716, 0.08039300, 0.08176599, -0.00718501, -0.06526864, 0.05904175, 0.06348066, 0.05087954, -0.07943030, -0.06663711, 0.02967470, 0.03818608, 0.08018201, 0.07702680, 0.00134858, -0.02163315, -0.02123714, -0.01999911, -0.00979248, -0.02506976, -0.01893283, -0.02474522, -0.07314153, 0.03506027, -0.04605306, 0.05517520, 0.04846959, 0.01571140, 0.05806676, -0.08664185, 0.02894916, -0.07673952, -0.11240280, -0.08304337, -0.05177905, -0.06339903, -0.16697347, -0.20738904, -0.12836011, 0.07142069, 0.05327809, -0.08160015, -0.16880824, -0.05299158, -0.00058404, -0.10758705, -0.13219607, -0.04396408, -0.02970133, -0.01976296, 0.04777251, 0.02325242, -0.06821713, -0.02361685, -0.07473169, 0.01377944, -0.07868671, 0.06159929, 0.03435291, -0.02523446, -0.08264064, -0.15262091, -0.28956282, -0.27777651, -0.22190452, -0.30225661, -0.18345359, -0.17954376, -0.06995770, -0.20803817, -0.24679881, -0.29436645, -0.17271470, -0.15355785, -0.07353733, -0.11589475, -0.00534381, -0.03244136, -0.06801154, 0.07706203, -0.06740020, 0.00184774, 0.00600301, 0.02529792, -0.04582021, -0.09830638, -0.03980723, -0.17106557, -0.17315397, -0.18768777, -0.28195649, -0.21253280, -0.14864844, -0.03544969, 0.02552954, -0.11777312, -0.03777283, -0.22735561, -0.25902891, -0.28307196, -0.35402608, -0.32734412, -0.27116415, -0.25750971, -0.07831640, -0.05536090, 0.00880759, 0.01161210, 0.00108592, -0.06154176, 0.10892780, 0.11354992, 0.03932807, 0.04828973, 0.14329708, 0.02955477, 0.08236140, 0.20317633, 0.21251909, 0.20141257, 0.23508862, 0.27004090, 0.17609297, 0.16020186, -0.00912943, -0.12969214, -0.14997545, -0.15714470, -0.11104542, -0.05699220, -0.07320501, 0.00706043, -0.12043770, -0.18560290, -0.15216550, 0.10325608, -0.00886174, 0.02845511, -0.03458722, 0.05374375, 0.10017548, 0.19610308, 0.21435992, 0.14224790, 0.21151260, 0.07289474, 0.09618254, 0.16520293, 0.15847455, 0.14927095, 0.18257643, 0.16487588, 0.00927526, -0.17767711, -0.25759447, -0.35977992, -0.27641594, -0.28477266, -0.32846585, -0.31748486, -0.23092881, -0.16765572, -0.20083193, -0.01450166, -0.03743598, -0.03492024, -0.06860229, -0.00643739, 0.24739990, 0.27102450, 0.27023420, 0.22759394, 0.11210413, 0.09914692, 0.05993000, 0.04800632, 0.04756738, 0.15595251, 0.21873663, 0.19942233, 0.24060020, 0.24135499, 0.00249545, 0.00216586, -0.12750646, -0.20176010, -0.19273843, -0.34282729, -0.49468336, -0.33866918, -0.27874869, -0.20359257, 0.00857708, 0.05045683, -0.02128819, -0.00477563, 0.35869515, 0.37164775, 0.11800195, 0.17650022, -0.11150158, -0.18364187, -0.18101847, -0.14128821, -0.03066691, 0.12846699, 0.23398753, 0.34996980, 0.41461107, 0.28627104, 0.18988770, 0.06834581, 0.05254439, 0.03943915, -0.15610901, -0.40167120, -0.51907057, -0.39686894, -0.35960183, -0.25348946, -0.04610861, -0.13059948, 0.00429820, 0.15172745, 0.44082648, 0.41461974, 0.08216203, -0.03085104, -0.05896269, -0.21092641, -0.20568068, -0.15726896, -0.18057001, 0.03287961, 0.25474459, 0.36882144, 0.33980036, 0.22232395, 0.26003036, 0.13775627, 0.12656341, 0.08036365, -0.04712426, -0.21643460, -0.54100752, -0.59503341, -0.35257521, -0.13294289, -0.06610940, 0.06920870, 0.14938399, 0.13474986, 0.39617592, 0.34762764, 0.15966769, 0.02642703, -0.03787797, -0.12597589, -0.23361133, -0.14081763, -0.16555008, -0.04954858, 0.09521819, 0.23072964, 0.34637088, 0.28394389, 0.25047031, 0.20551875, 0.17172237, 0.18870936, -0.02493903, -0.15041652, -0.47803947, -0.54924458, -0.44220471, -0.24492541, -0.09965146, 0.02344430, 0.09238796, 0.12362656, 0.21184130, 0.22821486, 0.16697285, -0.00395126, -0.08790864, -0.15145810, -0.10657142, -0.12037241, -0.23006231, -0.16320705, 0.01998650, 0.35344613, 0.35272488, 0.32504159, 0.13620821, 0.21649894, 0.16112979, 0.18420160, 0.21120192, 0.11479726, -0.36126068, -0.51309586, -0.33891845, -0.21666822, 0.07023221, 0.00473017, 0.14074725, 0.10410743, 0.17907393, 0.18870676, 0.12019632, 0.05540601, 0.00302549, -0.06279375, -0.16095833, -0.19222862, -0.32992718, -0.28486618, 0.03860037, 0.36018223, 0.46639636, 0.20366940, 0.22632387, 0.34969747, 0.32064009, 0.38699651, 0.45778251, 0.28348649, -0.06903872, -0.36113688, -0.39587203, -0.21536660, -0.08680717, -0.03944032, 0.12925129, 0.10708989, 0.07947722, 0.30005041, 0.23536973, 0.02238342, 0.06214525, -0.02565765, -0.09142282, -0.29865873, -0.32169604, -0.36573100, 0.12308439, 0.49282065, 0.34096605, 0.26873273, 0.22992580, 0.25565749, 0.33213472, 0.40620092, 0.32134959, 0.27333361, -0.10296706, -0.28989816, -0.14039472, -0.08876493, -0.00125825, 0.00574897, 0.06879053, 0.15682614, 0.15336694, 0.19926468, 0.14977770, 0.04674230, -0.02429171, -0.18622456, -0.15316039, -0.36001107, -0.41997460, -0.38199100, 0.18697105, 0.38522592, 0.39689416, 0.21783805, 0.29950550, 0.30711403, 0.35758474, 0.31343138, 0.18483943, -0.07218319, -0.19006179, -0.48422071, -0.23809086, -0.09405389, -0.04098056, 0.01864379, 0.12655734, 0.05862277, 0.11019169, 0.22373936, 0.12236731, -0.02813249, -0.19475986, -0.15163623, -0.27744672, -0.41583756, -0.52520221, -0.29805332, 0.28487352, 0.26875725, 0.17854470, 0.14198232, 0.16603620, 0.15872112, 0.09512755, -0.00781351, -0.10517262, -0.22889709, -0.33209005, -0.32065821, -0.17187475, -0.10272527, -0.12642540, -0.04454925, 0.09194467, 0.06500668, 0.13283281, 0.11505539, -0.03731356, -0.22135299, -0.25950891, -0.30916077, -0.37042838, -0.40447131, -0.34044328, -0.14779423, 0.09934922, 0.18185772, 0.12452853, -0.00805459, 0.12750101, 0.08722806, -0.10454756, -0.12442567, -0.06564088, -0.21306123, -0.34053519, -0.43264592, -0.34077853, -0.25651777, 0.02443022, 0.02559409, 0.12660080, 0.20108265, 0.13394797, 0.13019173, -0.15318111, -0.26433283, -0.17016284, -0.20563650, -0.14105463, -0.14947103, -0.25191474, 0.00761062, -0.02570819, -0.01452867, -0.04466370, 0.00314695, 0.00447552, -0.12870860, -0.10725263, -0.05536379, -0.16373205, -0.15011112, -0.36292571, -0.43506074, -0.35871485, -0.19619565, -0.07507826, -0.01625538, 0.17815968, 0.11795833, 0.12418261, 0.05286556, -0.18842478, -0.35559380, -0.22850269, -0.04907444, -0.13838018, -0.08371662, -0.03420040, 0.01052817, 0.09096034, 0.01302722, -0.10508890, -0.06313344, -0.13217516, -0.10418426, -0.06411772, -0.09722830, -0.15427330, -0.20541769, -0.37450475, -0.43971074, -0.34811109, -0.17445765, -0.12711570, 0.14843924, 0.09950165, 0.17401555, 0.20186916, -0.02124741, -0.21670757, -0.37508297, -0.33753440, -0.24518479, -0.11159355, 0.02132200, -0.08019162, -0.05858086, -0.09035215, -0.03657075, -0.06596362, -0.14728943, -0.18733147, -0.06746338, -0.13557427, -0.00180609, -0.07969198, -0.19535364, -0.50433058, -0.56558323, -0.29330915, -0.10469737, -0.03709016, 0.04559075, 0.08300754, 0.26663071, 0.33654368, -0.01649807, -0.17532779, -0.24642105, -0.25191996, -0.19051921, -0.11939102, -0.23414972, -0.25773188, -0.23764729, -0.15853405, -0.17792417, -0.20188467, -0.13899045, -0.12548573, -0.06933670, -0.04373226, -0.13557482, -0.23298310, -0.33108243, -0.45378980, -0.44025871, -0.21134444, -0.14172716, -0.01049717, -0.03268299, 0.04947978, 0.08309173, 0.26943949, 0.08594569, -0.04694535, -0.18751664, -0.12906641, -0.10320303, -0.21890943, -0.15628809, -0.26022694, -0.21103816, -0.14860825, -0.10140780, -0.05668889, -0.08623608, -0.18644053, -0.18042718, -0.01679195, -0.05758296, -0.11942874, -0.38261989, -0.34427738, -0.23789094, -0.03283570, -0.06198431, -0.05324699, 0.06781438, 0.04103550, 0.27698347, 0.20195968, 0.15814388, 0.12443790, 0.01422471, 0.02870309, -0.12183610, -0.07748133, -0.11222783, -0.13181712, -0.12367543, -0.07349730, -0.06037769, -0.00302419, -0.10564207, -0.05927000, -0.04977837, -0.06972320, -0.05555174, -0.15980031, -0.30425662, -0.28288159, -0.20148642, -0.10193433, -0.03797862, -0.01292702, -0.03057152, 0.04276154, 0.23078519, 0.22808661, 0.17079107, 0.10510051, 0.16762343, 0.06597803, -0.03436287, -0.05462910, -0.09362658, -0.08361259, 0.02292601, -0.00888312, 0.02639123, 0.07640003, 0.01567880, -0.00254287, -0.09210720, -0.12982082, -0.13711129, -0.18579140, -0.23245420, -0.07235695, -0.04167100, -0.22958079, 0.03694274, -0.00756461, 0.04136689, -0.04951570, 0.15708065, 0.17647599, 0.01861366, 0.12147531, 0.19888905, 0.10827131, 0.06196225, 0.09064784, -0.00335540, 0.05962075, -0.03071373, 0.13263492, 0.08894413, 0.01425440, 0.09046508, 0.04745406, 0.15884624, 0.04631604, 0.07460038, -0.01208494, 0.12501013, 0.16441330, -0.01622931, -0.23670208, -0.03265201, 0.05826853, -0.06139074, 0.00921920, 0.05611040, 0.07194348, 0.26815706, 0.35014528, 0.32679203, 0.25565386, 0.13584553, 0.05671096, 0.06309035, 0.02823107, -0.07163891, -0.09446549, -0.01872739, -0.06992406, -0.00875085, 0.16796300, 0.31907070, 0.27500898, 0.26133886, 0.27354860, 0.26842672, 0.18616590, 0.01419638, -0.11218699, -0.12522845, -0.04682508, -0.04580170, -0.01782774, 0.01005764, -0.01141445, 0.11258133, 0.26384813, 0.29787597, 0.37566021, 0.36661294, 0.44484520, 0.46176031, 0.32331735, 0.37426350, 0.32471818, 0.31650659, 0.26936090, 0.46878189, 0.52825505, 0.43950048, 0.48288098, 0.48442626, 0.39380300, 0.38173309, 0.18162720, 0.00138557, -0.12287571, 0.02763886, -0.05819287, 0.00035149, -0.00118701, -0.05512674, 0.10117812, 0.06739857, 0.22748615, 0.26468569, 0.37362501, 0.47801295, 0.56129676, 0.51741785, 0.45969129, 0.34180829, 0.50423568, 0.53366864, 0.50760728, 0.45127225, 0.40931058, 0.35340559, 0.32803991, 0.25687668, 0.24179864, 0.12957843, 0.14719939, 0.07718643, 0.04841531, -0.01627269, 0.03226407, -0.04073625, 0.00242333, -0.00074109, -0.06607039, -0.03274925, -0.01629017, 0.11969250, 0.07204362, 0.08117027, 0.20533164, 0.10966834, 0.08291455, 0.15351541, 0.20366296, 0.23877306, 0.17286761, 0.17356697, 0.26751044, 0.13156824, 0.10619649, 0.10627055, 0.07977208, 0.11790045, -0.00660307, -0.05029711, 0.02184020, -0.06318265, 0.04792814, 
