const float weights[12704] = { 0.08139400, 0.06879146, -0.04339214, -0.03436709, -0.02526251, -0.01716346, 0.07234232, -0.07327588, -0.00365269, 0.02878281, -0.05465990, 0.03513131, -0.34656256, -0.42105550, 0.00990633, 0.09933609, -0.05273456, 0.02827362, 0.08256263, 0.07207066, 0.00894291, -0.02061043, -0.02109451, 0.04278022, -0.08140476, -0.07412715, 0.02070528, 0.03832073, 0.05700481, 0.01947419, -0.08423091, -0.03373969, -0.02362579, -0.12217119, -0.65403134, -0.81562573, -0.19957159, -0.64376307, -1.18987346, 0.46696937, 0.38322929, 0.17005533, 0.65443695, 0.39132300, 0.68124408, 0.19981599, -2.10830283, -1.39697897, -1.45866477, -1.39288008, -0.75077081, -0.26166371, 0.01918708, 0.04536538, 0.05948909, 0.00964976, 0.03182533, -0.02279328, -0.18917492, 0.69328123, 0.04329848, -0.95714748, -1.42713702, -1.55065465, -2.12008333, -2.25409484, -2.14996052, -1.82980359, -2.13939476, -0.43426651, -0.48841685, -0.22765152, 0.00197653, -0.17298153, -0.38661692, 0.02614473, 0.05419545, -0.59475851, -0.06312513, 0.51095122, -0.87265795, -0.71972096, -0.02681666, 0.02347758, -0.04116888, 0.02922500, 0.64916646, 0.42076573, 0.29101539, -1.30107677, -1.65455246, -0.41579032, -0.17243999, -0.31332934, -0.37307924, -0.85963744, -0.72874248, -0.43814859, -0.16471544, -0.30779442, -0.52370268, -0.00675013, -0.47992069, -0.67380381, -0.17755939, -0.06961387, -0.04309763, -0.42633525, -0.17951602, -0.32500419, -0.49891588, 0.00875178, -0.01684625, -0.07105198, 0.70694262, 0.29002112, 0.25206903, -0.94604522, -0.72513443, 0.08413858, -0.37989122, 0.24022891, 0.03300916, 0.63274378, 0.09431485, 0.60623664, 0.81046367, 0.62748611, 0.38713270, -0.17129871, -0.18313760, -0.04236777, 0.13451816, 0.87915242, 1.03259301, 0.71183378, -0.35940656, -0.80365521, -1.09800732, -1.13373005, -0.03509445, 0.08195031, 0.38241783, 1.40490091, 0.11338746, -0.73327333, -0.26194212, -0.33909997, -0.88651150, -0.21191500, -0.06047408, -0.24459861, -0.19792140, -0.07445298, 0.06595182, 0.17036973, 0.40551892, 0.05804343, 0.29735491, 0.06294286, 0.25012058, 0.64541644, 1.24065220, 0.62640411, 0.18321978, -0.56788212, -0.30016202, -0.85552317, 0.04664846, 0.75437927, 0.09889379, 0.13323025, 0.30088985, 0.09782780, 0.18877640, -0.03018561, -0.19072483, -0.22067741, -0.00822643, -0.26487300, -0.35177612, -0.40786317, -0.15341996, -0.34653327, -0.08484293, -0.20548786, 0.25513071, 0.18720846, 0.09449857, -0.20485422, 0.20987867, -0.24886210, 0.59311360, -0.05122333, 0.62447953, -0.34194541, 0.04576133, 0.88999653, -0.51175678, -0.35349432, -0.30756313, 0.09254947, -0.08860460, 0.48027620, -0.26928648, 0.03085317, -0.04693844, -0.13577904, -0.31734523, -0.52173257, -0.02135945, -0.28280282, 0.10279939, 0.39704454, 0.25359356, 0.16238801, -0.02751028, -0.06250154, -0.17560640, -0.27481240, 0.11822153, 0.14122625, 0.34254527, 0.03206450, 0.96863282, -0.88916242, 0.40391746, -0.29838544, -1.21967411, -0.85307181, -0.32139710, 0.08448900, -0.41339442, -0.07607400, -0.05388176, -0.23977239, -0.30372000, -0.44838250, -0.14256713, 0.08069570, 0.02712309, 0.48723763, 0.28483805, 0.02376820, 0.22158384, 0.00807655, -0.44543314, -0.19981425, 0.41088229, -0.01022817, -0.01542111, 0.67312688, -0.14631903, -0.10385020, 0.35027513, -0.77122772, -0.72209054, -0.71388274, -0.29144412, 0.14356051, -0.04320487, -0.18245535, -0.20911042, -0.30171815, -0.37685505, -0.40414265, -0.22756180, 0.27280208, 0.55989432, 0.20876196, -0.00265774, -0.05462473, -0.02140881, -0.03514690, -0.40100682, -0.38073263, 0.11720487, 0.12245365, -0.19427343, -0.49215007, -0.14515908, 0.42628181, -0.44668868, -0.52782667, -0.71737856, -0.29884675, -0.56102455, -0.31642023, -0.18846488, -0.21742021, -0.32760933, -0.06494879, -0.24179980, -0.32700798, -0.03628098, 0.61131650, 0.43926013, 0.29100853, -0.23861651, -0.06910060, -0.13067815, 0.03606766, 0.04992921, -0.24371743, 0.09725336, 1.12342072, 1.23712754, -0.25635111, -0.11014368, 0.15747151, -0.76889783, 0.64920115, -0.23583189, -0.58318639, -0.62012058, -0.72797889, -0.62513787, -0.39325756, -0.15786859, -0.22306898, -0.38534871, -0.11967838, -0.27011901, 0.30353814, 0.01620861, -0.37768975, -0.10600393, -0.13518645, -0.50266176, -0.27758566, -0.04427051, 0.52136296, 0.94634908, 1.29037762, 1.53078508, -0.07267677, -0.04253250, -0.51421469, -1.74672699, -0.09006530, -0.43820995, -1.00592721, -0.34727424, -0.49869242, -0.36521050, -0.07202408, 0.11847591, 0.15111430, 0.82234079, 0.44771361, 0.00660624, 0.01953106, -0.26064894, -0.32020372, -0.09251841, -0.24976422, -0.44290474, -0.58993334, -0.32332563, -0.94797117, -1.04299378, 0.40288252, 1.24195683, -0.22542836, 0.21878746, -0.05048041, -1.42193389, -0.09042708, -0.19981381, -0.07515801, -0.23811635, -0.02950141, 0.35549819, 0.14091776, 0.08658238, 0.43107975, 0.77654588, 0.35655358, 0.18497580, -0.59206104, -0.64623827, -0.13250592, -0.25273675, -0.33842534, -0.55933607, -0.80301023, -0.85372651, -1.00683820, -1.76556420, -0.67503405, 0.08095713, 0.23365685, 0.67656678, 0.42386380, -1.19437218, -0.14606853, -0.33671474, 0.13259299, -0.23471713, 0.01556613, 0.28625914, 0.54631644, 0.50895089, 0.16065976, 0.21778713, 0.06762163, -0.05227393, -0.17946504, -0.10617673, -0.34646532, -0.30313399, -0.06845982, -0.00850822, 0.08542860, -0.30098933, 0.21293634, -0.08875875, -0.58376193, 0.24394372, 0.07292455, 0.64764410, 0.07512147, 1.29903364, -0.63049990, -0.31335282, 0.63056809, 0.03656885, 0.16864076, 0.70347178, 0.70588249, 0.17741229, -0.09457741, -0.10013014, 0.02478271, -0.03171741, -0.08066621, 0.21190710, -0.36733705, -0.20309332, 0.04831021, 0.03021953, 0.18796939, -0.28654405, 0.52992767, 0.01896458, -0.70144153, 1.00033295, -0.64387625, -0.20610873, 0.96992582, 1.56837249, -0.36222497, -0.21323901, 0.35896611, 0.13648294, -0.00931316, 0.35230187, 0.50717396, -0.17463239, -0.41402254, -0.13123617, 0.06734623, -0.16250552, 0.07347798, -0.42475724, -0.21318826, 0.12361679, 0.47474164, 0.23293322, 0.19245885, -0.02352672, 0.20218831, -0.14164954, -0.79584992, -0.13328296, -0.74349111, -0.01572628, 1.05580401, 0.81616133, -0.27757704, 0.10717656, 0.56172407, 0.72989929, 0.60867935, 0.08638339, -0.17131656, -0.48015124, -0.06226330, -0.09268488, 0.13144504, 0.03893072, -0.09113304, -0.00485530, -0.08060391, 0.13934712, 0.22960299, 0.05080185, 0.32946414, 0.45137283, 0.30988923, -0.62218904, -2.02138638, -1.27020597, -0.16678464, -0.98163426, 0.71041113, 0.50174654, 0.05798813, 0.63152927, 1.03717482, 0.32098514, 0.32461470, 0.50048524, -0.03796922, -0.20270249, -0.07116593, 0.16971771, 0.34878764, -0.03842517, -0.46362904, 0.14596170, -0.12024324, 0.12387800, 0.34731445, 0.03206596, 0.32224220, 0.57762069, 0.59210265, 0.41435263, 0.17376122, -0.68783510, 0.80353916, 0.41213524, -0.43869159, -0.65218794, 1.61971772, 0.91341543, 1.05013359, -0.21432745, -0.02607466, 0.25680789, 0.12763596, -0.47967371, -0.46830747, -0.05053143, 0.64295238, -0.08933046, -0.02200677, 0.17385896, 0.19661866, -0.06490280, 0.16997175, 0.39932346, 0.54139775, 0.34434128, 0.57023132, 1.02812099, 1.32980740, 0.58614534, 0.89397365, 0.08355683, 0.72739697, 0.66915327, 2.18817282, 1.34968698, 0.26501587, -0.05193539, -0.35778126, 0.26687762, 0.11929596, -0.12758493, -0.43859038, -0.36002380, 0.40664399, 0.31830004, 0.22851969, 0.68271494, 0.51817214, 0.06600404, 0.46526974, 0.82045639, 0.68553525, 0.37751445, 0.71936995, -0.01599959, 0.08335713, 0.60706645, 0.67235887, 0.36780891, 0.04774558, 1.86296761, 2.12828207, 1.69698238, -0.21258630, -0.22900197, 0.06702067, -0.14286929, -0.14982843, 0.06002022, -0.19030471, -0.37288997, 0.00042515, 0.36991441, 0.55231684, 0.45199460, 0.46459875, 0.34843335, 0.45270082, 0.83013034, 0.72776467, 0.97130877, 1.32728946, 0.66701156, 0.82345295, -0.49851951, 0.01192368, 0.36271983, 0.17560512, 1.15663707, 0.70839775, 0.06463670, 0.13709088, 0.05055404, 0.25532809, -0.21684641, 0.05324151, 0.06005373, 0.00724465, -0.35989887, -0.11287941, 0.04305365, 0.21179102, 0.24120782, 0.62753314, 0.48075375, 0.86770099, 0.39592865, 0.58952111, 0.70142716, 0.56794906, 0.16442016, 1.06618142, 1.13900352, 0.12900853, 0.07392153, -0.01242103, 1.27535164, 1.78802371, 0.14055653, 0.55586416, 0.47199681, 0.18630946, 0.28829482, 0.29657131, 0.34670579, -0.10428905, -0.24905467, -0.19092000, 0.01045020, 0.10679836, 0.25467324, 0.20282598, -0.04188118, -0.01058166, -0.04369819, -0.17692558, -0.40651324, -0.26313227, -0.11848785, 1.10655940, 1.38477898, 0.08068822, -0.02443485, 0.02160461, -0.50221014, 0.97480261, -0.39536893, 0.74422091, 0.77521998, 0.46325967, 0.44109151, 0.55678254, -0.31073990, -0.28236070, 0.06212514, -0.15830407, 0.12254433, -0.42605710, -0.54519624, -0.46676889, -0.20598455, -0.32218805, -0.40242320, -0.17536211, -0.15233462, 0.13623367, -0.06444631, 0.63031369, 0.88938230, 0.04238720, 0.02076562, -0.08559171, 0.56726354, 0.48440465, -0.25757203, -0.55334055, -0.70530212, -1.03193784, -0.21804674, 0.32545531, -0.30580157, -0.19998387, -0.00003163, 0.03389561, -0.45691085, -0.52405584, -0.47509223, -0.52322251, 0.09443551, 0.28347653, -0.16239966, -0.70868832, -0.15041056, 0.30594641, 0.62877232, -0.32570675, 0.05048333, -0.07012057, -0.00309750, 0.08186425, 0.01703159, -0.20579973, -0.65205568, -1.30877590, -1.17703295, -1.71993351, -1.34089887, -0.81023538, -0.69256586, -0.43650129, -0.61492056, -0.85572004, -1.49187684, -0.96465558, -0.97178006, -0.68415350, -0.72116673, -0.45323667, -0.10283203, -1.32020915, -0.94894171, -1.21873617, 0.02141943, -0.01394098, -0.01949399, -0.04484157, 0.05471507, 0.02452563, -0.01913048, -0.07809100, -0.08246389, 0.01509317, -0.58116204, -0.72124106, -0.94713366, -0.71272689, -0.43655670, 0.17393441, 0.11752588, -0.79011101, -1.99123120, -1.59129333, -1.54365623, -1.72223353, -1.77629089, -1.32636034, -0.98112857, -1.22893119, -1.16468239, -0.60368484, -0.06205768, 0.07532178, -0.06246165, -0.01533528, 
-0.03752629, -0.02040614, 0.03164109, 0.05879255, -0.00295371, 0.02632328, -0.02416085, 0.00325517, -0.08074334, -0.06392943, 0.02147247, 0.00636714, 0.46025771, 0.55979580, -0.31018645, -0.08507054, -0.01594117, -0.07199166, -0.04442562, -0.03087058, 0.08149610, 0.07822806, -0.06515640, 0.04916087, -0.06403692, -0.07216062, -0.06420450, -0.06763057, -0.04428709, 0.05724081, -0.04065670, 0.00339196, 0.03684388, 0.08133559, 0.57693595, 0.90871185, 0.40079859, 0.57755083, 1.19489527, 1.40473235, 1.93109334, 0.98765194, -0.86724037, 0.15291713, -0.18537082, 0.54233021, 1.36472845, 1.61902332, 1.24741280, 1.31494272, 0.87582535, 0.82812518, 0.01062978, -0.07777730, -0.01259363, -0.04096046, -0.03201152, -0.08452892, 0.55517095, 0.66760188, 1.14180541, 1.07931304, 0.96761602, 0.91790295, 1.04376113, -0.10888587, 0.50617957, 0.48433879, 0.21772243, -0.02697354, 0.13878772, 0.53092742, 0.23346043, 0.45238453, 0.69209307, 0.95311683, 0.48651132, 1.32539380, 1.32519293, 0.88461232, -0.29491988, -0.17532782, 0.01216733, 0.08330028, 0.06684516, 0.03074091, 0.77260804, 1.02733076, 0.57008058, 0.54710698, 0.62602991, 0.20808168, 0.20498855, -0.25666976, -0.61420858, -0.47080228, -0.18835045, -0.07469872, 0.32259223, 0.27799115, 0.13463503, 0.15691091, -0.48090619, 0.01105077, 0.43546289, 0.22722577, -0.16306020, -0.27590254, -0.27425122, 0.62050098, 0.94851935, 0.04674007, -0.03213314, 0.21101271, 0.41857332, 0.43281165, -0.51907802, 0.14239298, -0.77748656, -0.86221015, -0.61781508, -0.78574330, -0.91096640, -0.42332762, -0.41453248, 0.06334537, -0.58432066, -0.29338858, 0.02794804, -0.00484507, 0.06908737, 0.27760860, 0.44263455, 0.33354688, 0.51895279, 0.47496921, -0.47992584, 0.05276403, 0.23747121, 0.72701913, -0.02173636, 0.02058699, -0.63003999, 0.32165954, -0.94018787, 0.54998863, -0.38734227, -1.18790448, -0.01793665, 0.35893589, 0.23682879, -0.40598157, -0.25910991, -0.09396622, 0.25397286, 0.09302598, -0.36230317, -0.38981178, 0.11792455, -0.09984098, -0.33092263, -0.10849063, 0.00532703, 0.37648636, 0.74178296, 0.02557029, -0.24086104, 0.76578528, 0.07432741, 0.37284732, 0.28938475, 1.17388165, 0.08599345, 1.08084095, 0.30852678, 0.26557094, 0.49068788, 0.30929253, 0.00612820, -0.02376438, -0.09339429, -0.12044339, 0.11035244, -0.05760721, -0.15194772, -0.15326549, -0.31897920, -0.36282420, -0.45054823, 0.26355854, -0.01221036, -0.21356268, -0.02142807, -0.25986516, -0.19903344, 0.53434443, 0.07008060, 0.11421163, 0.05311027, 1.20510221, 0.20704217, 0.38546786, 0.37430605, 0.51794529, -0.49393025, 0.35930240, -0.04642431, -0.00040939, -0.11628617, -0.03414772, 0.15645809, -0.12792151, -0.11710304, 0.18085231, 0.00170287, -0.02862337, 0.20573708, 0.08240043, -0.05499651, -0.04734400, -0.55060029, -0.20439489, 0.21510769, 0.43507904, 0.94645220, 0.73328835, 0.16182837, 0.46156523, 0.16273263, 0.71334302, 0.26645076, 0.23308949, -0.16650778, 0.12496235, 0.04660801, -0.12049608, 0.18568558, 0.16103803, 0.40002176, -0.04680311, -0.24221195, 0.16363204, -0.00007776, -0.18225802, 0.16602248, -0.36421677, -0.23645684, -0.16981955, -1.44519162, -1.38842607, -1.58823085, -1.21407950, 0.23131809, 1.22256196, 0.13242066, -0.05308901, 0.77237910, 0.43308479, 0.31271449, 0.34599805, 0.11413886, -0.01108978, -0.19583684, -0.27634132, -0.16233250, 0.00619166, 0.34382853, 0.29637235, 0.03181467, -0.08873958, 0.13755652, 0.07561653, -0.22918130, 0.00204827, -0.39642668, 0.09276275, -0.06494352, -0.61516321, -1.10221934, 0.72889996, 0.23053080, 1.12819409, 1.21160519, -0.56792372, 0.21074222, 0.59951180, 0.23028623, 0.34905967, -0.13802417, -0.02242725, -0.09645300, -0.18900231, -0.33470979, 0.26412043, 0.56586123, 1.01168025, 0.31187648, 0.22780500, -0.10148696, -0.03423844, 0.02485070, 0.04607579, 0.33501396, 0.23676559, 0.03931606, -0.13299125, -1.47564185, -0.72577178, 0.38614213, 1.53795588, 0.84449035, -0.22594249, 0.49650311, 0.23057657, 0.07824840, 0.19000672, -0.19428533, -0.01937436, -0.02036809, -0.15618107, -0.17932375, 0.33200368, 0.42434281, 0.46423405, 0.28093231, -0.13620563, -0.16096739, -0.05002120, -0.06372203, 0.00257848, -0.08687477, 0.21740407, -0.44118202, -0.85769290, -2.06805944, 0.21371035, 0.28657624, 1.28828883, 0.75104344, -0.16381295, 0.05976190, 0.01141057, 0.00016646, 0.37870917, 0.34447789, 0.08339372, 0.06356117, -0.03528487, -0.10565142, -0.34225371, -0.34507507, 0.17331034, 0.42490032, 0.16652150, -0.02974007, -0.36772367, -0.10497011, -0.02628308, 0.31078523, 0.50648183, 0.57094157, -0.15455289, -1.21861446, 0.88541746, 0.19469464, 0.63561153, 1.73393869, 0.04113312, -0.19897349, -0.12757318, 0.49180022, 0.08785333, -0.03384051, 0.03200584, -0.06070180, -0.49589238, -0.42345414, -1.01564336, -0.62233317, 0.09766632, 0.11082751, -0.01570449, -0.21600085, -0.11394164, -0.08986077, 0.19171242, 0.73607737, 0.40973637, 0.59244019, 0.07319932, -1.57608092, -0.89325112, 0.74803096, 0.75560576, 1.92275286, -0.14097440, 0.07668886, 0.14393193, 0.15447232, 0.20421071, -0.08935808, -0.02541862, -0.08521023, -0.10559040, -0.43628863, -0.79088116, -0.53004509, -0.34549153, -0.07071947, -0.09494589, 0.19299722, 0.53559524, 0.28749028, 0.42029908, 0.74936491, 0.71952176, 0.45509198, 0.31590825, -2.34115124, -0.90231800, 0.57179087, -0.13539068, 1.35180378, -0.47324207, -0.52024359, -0.80726469, -0.44872913, -0.32700861, -0.17149781, 0.19610308, 0.11576217, 0.07759820, -0.12260491, -0.27500424, -0.21656179, -0.37869078, -0.29882738, 0.23804377, 0.14659332, 0.17786404, 0.34206298, 0.47798675, 0.50388038, 0.49162918, -0.09544573, -0.17792855, -2.17349243, -1.00779057, 0.14949116, 0.31511393, 0.22251964, -0.85756141, -0.48515847, -0.66897112, -0.57423663, -0.33527333, -0.07646804, 0.16282988, -0.14823927, 0.13765387, -0.20293914, -0.05879083, -0.22417097, -0.17656088, -0.27003345, -0.04301829, -0.15643288, 0.44474033, 0.02244290, 0.07032320, -0.15757252, -0.00524749, 0.12685375, -1.03911531, -2.35294628, -0.89691359, 0.02893261, 0.62046742, -0.70358002, -0.73673189, -0.50577968, -0.07421194, -0.19249405, -0.05830305, -0.01606980, -0.27020296, -0.15554184, -0.20593233, -0.33205923, -0.09901517, 0.10187810, -0.38180253, -0.05333925, 0.12902065, 0.08602994, 0.14026017, -0.02879500, 0.08618000, 0.64921784, 0.32500175, 0.42360443, 0.16592160, 0.00747002, -0.02684884, 0.51941711, 0.50563282, 0.01072346, -0.88178170, -0.18637493, -0.23762538, -0.56355631, 0.06498966, -0.09312370, 0.09174176, -0.09427944, 0.01184347, 0.32428294, 0.04440399, -0.16966952, -0.27734491, -0.15621738, -0.14115711, 0.03426983, -0.14261940, -0.14666054, -0.16017745, -0.35477513, 0.04301701, 0.06236459, 0.16044232, 0.54935998, -0.74530768, 0.21795119, 1.32737648, 0.97070289, -0.42260104, 0.22420560, -0.06714398, -0.31741762, -0.15428834, 0.11150697, 0.17813455, 0.19035986, 0.53897899, 0.67722768, 0.17211463, 0.26770204, 0.00951497, -0.42877930, -0.22616923, -0.12397867, -0.15583970, -0.08361544, -0.17069438, -0.37829438, -0.35732037, 0.05804837, -0.27380878, -1.35099494, -0.15922958, -0.07621036, 0.93395460, -0.26799381, -0.83249986, -0.33268818, -0.35789105, -0.27940518, -0.04573818, 0.02726247, 0.06242474, 0.52357453, 0.42863148, 0.59451878, 0.48718199, 0.47799307, 0.39532471, -0.20046718, -0.23810762, -0.07945322, -0.36286068, -0.26172331, -0.10392644, -0.46471655, -0.19918512, 0.09125874, -0.75384951, 0.13706939, 0.63369077, 0.17357571, -0.31363639, -1.57437992, -0.06661302, -0.26798433, -0.25883353, -0.09129021, 0.28491470, 0.41296089, 0.23297699, 0.15983246, 0.15985094, 0.13024218, 0.10010555, 0.52300352, 0.66710401, 0.49495041, 0.14929619, -0.06094960, -0.34449270, -0.44905591, -0.21514481, -0.41588581, -0.61326218, 0.32593653, 0.56035465, 0.70263016, 0.02153989, 0.10329591, 0.27095118, -1.66154754, -0.50726688, -0.83029842, 0.33754325, 0.26328859, 0.34934294, 0.34988990, 0.01211720, 0.18135996, 0.03478672, 0.33613956, 0.19945216, 0.30000633, 0.57300907, 0.39538455, 0.04721113, -0.55427814, -0.72598845, -0.83286470, -0.26637396, -0.97852099, -1.36497808, -0.89548862, 0.73097718, 1.12089860, -0.01887582, -0.08136683, 0.06795157, -1.13730454, -1.58360469, -0.63038957, -0.11067692, 0.35581473, 0.46786246, 0.06886420, 0.03771428, -0.03321208, 0.28430799, 0.09800326, 0.01806410, -0.19223206, -0.04136209, -0.00177257, -0.00854785, -0.63230759, -0.74742156, -1.04298842, -0.85576004, -1.38110137, -1.76639140, -1.18406546, -0.26010367, 1.12189353, 0.06613939, 0.02903471, 0.05611093, -0.92459935, -0.51333845, 0.48463207, 0.51073003, 0.19174695, -0.21424477, -0.33649957, 0.08368857, -0.15128002, -0.27563423, -0.13742827, -0.09523774, -0.08200037, -0.21454296, -0.33325323, -0.35101032, -0.58953553, -0.74784040, -0.88194305, -0.53035361, -1.27236497, -1.50837302, -1.07888699, 0.13832636, 0.85339987, 0.03077555, -0.03941061, 0.04649986, -1.08309960, 1.32995367, 0.71919537, 0.10804577, -0.43385732, -0.33920053, -0.31133050, -0.01281123, -0.40182707, -0.05423025, -0.23193161, -0.29088193, -0.37605104, -0.33942789, -0.47325096, -0.52584481, -0.04692044, -0.10394358, -0.65104526, -0.41877234, -0.67257917, -0.47202626, 0.42381039, -0.81059963, -0.05844896, 0.07954368, -0.01480418, 0.01425570, 0.05626856, -0.66672087, -1.21000135, -0.58440465, -0.58557260, -0.22228278, -0.24885188, -0.08903374, 0.02957391, 0.28902194, -0.22773002, -0.27809647, -0.25869203, 0.30940855, -0.07838495, -0.12182062, 0.15476446, 0.93095481, 0.08378255, 0.56285208, 0.89192021, 0.21451256, -0.38506272, 0.17877324, 0.06094325, 0.08552241, 0.07123953, -0.01980754, -0.05482035, -0.04489052, 0.72961146, 0.94086313, -0.34316421, -0.34081796, -0.05176492, -0.20884283, 0.52168202, -0.21297909, -0.54604787, 1.03689694, -0.09009829, -0.63925380, -0.00861394, 1.29245627, 0.52785534, 0.56332701, 0.90851420, 1.26164317, 0.91710603, 1.09125686, 0.05601339, -0.00633010, 0.06746435, 0.07864906, 
0.00065542, -0.01508458, 0.08019027, -0.07737946, 0.02224339, -0.03958186, -0.00906423, 0.02752679, -0.03602347, 0.05250485, 0.00109106, -0.05711511, -0.38945398, -0.23208059, 0.57085174, 0.04630168, 0.04395877, -0.06591064, 0.05931583, -0.06368325, -0.06084476, 0.02690931, -0.03873750, 0.07381472, -0.00030455, -0.01123823, -0.01469200, -0.02617654, -0.00568482, 0.04405664, -0.03565156, -0.04219522, -0.11151934, -0.08878057, -0.31541738, -0.50612867, 0.33175781, 0.09425561, -1.04378271, -1.14634693, -1.30648839, -2.38123560, -1.09537816, -0.98127353, 0.21409993, -0.55099624, -1.11882865, -1.26306665, -1.27465200, -1.16383386, -1.03639591, -0.59176195, 0.01067284, 0.00637292, 0.06478353, -0.03464003, 0.06018421, -0.03915863, -0.02244244, -0.63927525, -0.73695827, -0.29703078, -0.80434257, -1.50774074, -0.20808607, 1.07576847, 0.82969403, -0.08814929, -0.00945711, 0.00143536, -0.32689407, -0.41715246, -0.63999093, -0.73640275, -0.83548802, -1.08063531, -0.66916889, -0.36175069, -0.49590322, 0.14802471, 0.57036757, 0.25419483, -0.02600314, 0.05185543, -0.01547364, 0.08199051, 0.08978543, -1.20045602, -1.25792122, 0.25531706, 0.67813706, 0.57419586, 0.93844885, 0.95830166, 0.54585367, 0.65300041, 0.59495753, 0.25117502, 0.46140924, 0.07041416, 0.03275214, 0.30382141, 0.02824225, -0.23957030, 0.08426894, -0.31072456, -0.25470728, -0.83745497, -1.09053743, 0.02449421, -0.56491339, -0.07270504, -0.07996161, -0.02598517, 0.78862524, 0.45260409, 0.71544409, 0.64931661, 0.88298106, 0.54432690, 0.79077715, 0.36549887, 0.05869344, 0.34730089, 0.37064126, 0.60534197, 0.12180011, 0.07132371, -0.06497089, -0.04433824, -0.20363086, -0.13915482, -0.04412083, -0.14706828, 0.39920387, -0.77623862, -0.50129688, -0.60477149, -0.28045422, -0.76492530, -0.01057133, -0.01803042, -0.62960058, 0.45139366, 1.19749367, 0.24510729, 0.73190969, 0.50522429, 0.39147171, 0.06759530, -0.00382666, -0.04637428, 0.14723422, 0.18711999, 0.11500416, 0.10740141, -0.09995520, -0.21350476, -0.05772411, 0.10444602, -0.26154259, -0.29387617, 0.18437868, 0.16355266, 0.08095729, 0.24572310, -1.59748244, -0.53497815, -0.08442122, 0.07489306, -0.22073925, 1.85793591, 0.84871155, 0.38350835, 0.61902183, 0.10188868, 0.10322828, 0.05774358, 0.14137913, -0.00407938, -0.06123525, 0.18912466, -0.04131368, -0.24947494, -0.07201912, -0.14538230, 0.00671551, -0.15854143, -0.35183668, 0.20152038, -0.01444643, -0.04586488, 0.04835108, -0.31874508, -0.04310761, -0.33924586, 0.01574112, 0.89816868, 0.45632711, 2.54992270, 1.81715429, 0.59437513, 0.61049664, 0.13328087, -0.01780398, -0.07535184, -0.38363633, 0.16333033, 0.05401104, 0.20421253, 0.15550908, -0.12935971, -0.05785608, -0.10508719, -0.19866523, -0.12955917, -0.48355845, -0.36879227, -0.29465592, -0.20448376, -0.23775876, -0.25781018, 0.97044677, -0.23769668, -0.18439250, 0.32657152, 1.11257184, 0.80119205, 1.89126945, 0.45917648, -0.25126830, 0.24646938, 0.17877768, -0.17258357, 0.00219136, -0.14025497, -0.13011597, -0.25355148, 0.25894296, 0.54683417, 0.25905943, -0.25844324, -0.16439019, -0.52045912, -0.55673909, -0.67009187, -0.47266290, -0.51283944, -0.75143850, -0.27071396, -0.28998420, 0.05931249, -0.00322626, -0.43325418, 1.62920642, 1.07863224, 1.08425438, 0.33505842, 0.11819826, 0.39117026, 0.04181927, -0.21863316, -0.12256526, -0.23137742, -0.02888200, -0.06227703, 0.21605204, 0.64856231, 0.50578570, 0.36811662, 0.45821145, 0.06932235, -0.21228547, -0.65975529, -0.51897466, -1.02403224, -1.58013976, -1.64161694, -1.53731525, -0.18168701, 0.02708423, -0.46827704, 1.37705231, 1.26433408, -0.08239269, 0.18048084, 0.30273873, 0.15297028, -0.16681886, -0.40179923, 0.03419641, 0.08226500, -0.21914054, -0.15026806, -0.22820155, 0.21092750, 0.28163326, 0.75950050, 1.20303416, 1.12482595, 0.56078047, 0.34590602, -0.34150064, -1.45996475, -2.41288686, -2.05946612, -2.37207484, 0.26526558, 0.12717989, 0.48884228, 0.86432242, 1.63804948, -0.19030333, -0.35547432, -0.23778616, -0.32261822, -0.03385079, -0.00311409, 0.06268182, 0.16918468, 0.13206758, -0.42051357, -0.31353649, 0.26604027, 0.26166183, 0.45182872, 0.75120819, 1.45058501, 2.90560317, 2.48248410, 1.83960843, 0.29841667, -0.90410340, -0.97731584, -2.04648852, 0.04792639, -0.04405554, 0.61616564, 1.20737314, 0.42885861, -0.07736915, 0.04879971, -0.14165264, -0.39031604, 0.22664241, -0.06219394, 0.07713605, 0.06158568, 0.13600929, -0.16382311, -0.30845568, 0.07310025, 0.26730353, 0.03001411, 0.05693097, 0.35635462, 1.37921894, 2.30629325, 3.00782156, 2.99868870, 2.66851401, 0.83191782, -0.96330410, 0.80383116, -0.20674768, 0.41483077, 0.99454564, -0.01275863, 0.04390963, -0.19901085, 0.18378253, -0.16165450, 0.04194630, 0.08970735, 0.18741086, -0.08075463, -0.05477791, -0.18757020, -0.09611357, 0.08001802, 0.15448652, 0.14644952, -0.31417280, -0.40522486, -0.22003011, 0.51804978, 1.73808610, 4.39535141, 3.24584126, 1.81080246, 0.34765023, 0.28791517, -0.75747859, 0.82277709, -0.29247460, 0.81284207, -0.03975979, 0.03806074, -0.20731750, -0.07294613, 0.03674951, 0.04451742, -0.14631301, -0.12370624, 0.09141250, -0.28691119, -0.24714586, 0.11714278, -0.03173878, 0.23139603, -0.00256896, 0.04161361, -0.12760319, -0.02804311, 0.32874098, 3.14373803, 3.30553055, 1.89972913, 0.64824736, 0.38686627, -0.69777566, 0.32417291, -0.23270911, 1.34083462, 0.73256737, 0.62676471, 0.31198597, -0.12331862, -0.12992369, -0.18716040, -0.05940649, 0.07641266, -0.02850062, -0.20112427, -0.22998188, 0.59952813, 0.07586852, 0.00689126, -0.19977739, 0.18286884, -0.08978590, -0.08588643, 0.04571440, 1.14371133, 2.43038654, 1.75259054, 1.44045758, 0.71853858, 0.17160800, 0.30263978, 0.47713125, 0.08042210, 0.24149887, 0.45088103, -0.10072999, 0.25376204, 0.12384148, -0.24118420, 0.09951166, -0.12960865, -0.16855860, -0.19323753, -0.27582914, 0.36887074, 0.01873155, 0.04496106, 0.21450986, 0.13447760, -0.11813860, -0.17809211, -0.17559360, 0.32457143, 1.72223055, 2.32741165, 0.33764124, 0.74615425, -0.04250741, 0.57226658, 1.93188667, -0.70446736, -0.31660157, -0.30256948, -0.34802663, -0.03303519, 0.05885569, -0.06528372, 0.04787190, -0.26835629, -0.15725501, 0.23399347, 0.04145675, 0.09934253, 0.15755357, -0.08959486, -0.10357600, -0.22859763, -0.20044486, -0.27690917, -0.33760747, 0.09796860, 0.62884521, 2.97569370, 0.33271360, 1.08208799, -0.01498722, 0.75487661, 0.82628107, 0.30353707, -0.48798096, 0.11542866, -0.02498521, -0.00022082, 0.02574368, -0.22608870, 0.01776549, -0.06107524, -0.23806433, 0.16215944, 0.10063815, -0.14743207, 0.09171552, 0.13342935, 0.07777607, 0.00981331, -0.14463669, 0.00912970, 0.15896724, 0.37558433, 0.82187897, 1.53134108, 0.53891546, -0.08168747, -0.22052577, 0.08867712, -0.86035043, 0.61353987, 0.11516671, 0.49501747, 0.02866830, -0.02324096, -0.24227656, -0.33801544, -0.05921667, -0.03835220, -0.03906193, 0.00824085, 0.10963725, -0.21364816, 0.13486397, 0.31746262, 0.02782933, -0.00361706, -0.06808068, 0.26323125, -0.16494191, 0.16703530, 0.46861386, 0.48580202, 0.94869304, -0.01442850, -0.05138328, 0.35822773, -0.79622960, 0.32872310, 0.15185462, 0.27770039, 0.09251118, 0.10307578, 0.12764332, -0.12667061, -0.06447100, -0.08286232, 0.06863162, -0.03623831, -0.03923929, -0.07734459, 0.02400460, -0.08865115, 0.07083816, -0.08910123, -0.24391599, -0.21284528, -0.65559918, 0.09879704, 1.17557943, 1.90664315, 0.08932763, -0.43884066, -0.51368314, 0.87775129, 1.22770143, -0.17806867, -0.49573693, 0.31261232, -0.09884688, -0.23426041, -0.02820284, -0.17587055, 0.03604103, -0.09665029, -0.26224428, -0.19387856, -0.20088300, -0.13079487, -0.06612404, -0.39515549, -0.04583454, 0.09117458, -0.40280685, -0.51126862, -0.37015602, 0.23013675, 1.02372622, 1.27556551, 0.91034573, -0.00500525, -0.46682867, -0.16788808, 2.04337096, -0.16392381, -0.40737793, 0.11672703, 0.29173496, -0.00665684, 0.12317358, 0.00269462, 0.19757119, 0.00984306, 0.00765022, 0.14959702, -0.20020297, -0.38218611, -0.13658446, -0.16376062, -0.10148133, 0.01583373, -0.12788907, 0.10694474, -0.20541061, 0.14645436, 0.85763133, 0.53938192, -0.42159426, 0.04861937, -0.05910977, -0.06162375, -0.04491973, 0.25173655, -0.16280697, -0.28455254, -0.13308108, 0.20734575, 0.00958573, -0.17640874, -0.09866899, 0.09783167, 0.07086602, 0.32526958, 0.14923498, 0.18226644, -0.01771379, 0.24101636, 0.10773250, -0.03395042, -0.11700588, -0.08436897, -0.47428566, 0.33676419, 0.63059413, 1.07875872, 0.37243780, 0.02403086, 0.02914445, 0.04820691, 0.80603045, -0.22365649, 0.31394690, 0.44842038, 0.07144447, 0.14047484, 0.09146173, -0.14781964, 0.38811243, -0.04051789, -0.17111272, 0.02746621, 0.14539823, 0.06168880, 0.18423589, 0.14021175, -0.66268170, -0.34122741, -0.17794980, -0.01649532, 0.25805715, 0.03882928, -0.00512926, 1.31296706, 0.85628527, -0.00826999, 0.06894857, -0.01690997, -0.02209585, -0.69602060, 0.65175629, 1.49447501, 0.03182118, 0.09002075, 0.10758863, -0.41246045, -0.01321330, -0.22787398, -0.30055964, 0.05016075, 0.00958642, -0.28324860, 0.19915949, -0.01097499, 0.12844215, -0.10998270, 0.30519468, -0.19003972, -1.03969371, -0.92766368, -0.85160810, 0.60064375, 0.70383334, 0.05933338, 0.05629715, -0.08048022, 0.05084282, 0.09442686, 0.23870292, 0.81394833, 1.20258260, 1.36455083, 0.07642850, -0.45433119, -0.06666506, 0.03191069, 0.03741558, -0.17133614, 0.31282198, 0.32554540, -0.04667061, 0.16174483, 0.66600293, 0.33315742, 0.09539112, 0.00655555, -0.64568377, 0.08208926, 0.54290289, 0.02585850, 0.00393670, -0.06457558, 0.01120280, 0.07310636, 0.06910872, 0.05809134, 0.03267280, 0.09345201, 0.24742331, 0.40080619, 0.40891483, 0.37893245, -0.36181647, -0.61497802, -0.51947248, -0.31294045, 0.73183119, 1.00647748, 1.03995407, 1.31622195, 1.27531087, 0.94878775, 1.27236164, 1.27226508, 1.08520138, 0.31965783, 0.06004867, -0.05877367, -0.03533223, 0.02374840, 
-0.04589800, 0.03571245, 0.05532822, -0.01977696, 0.07731415, 0.00658289, -0.00726438, 0.08141840, 0.02524054, 0.01043716, -0.00340521, -0.02739318, 0.09532993, 0.03555932, -0.07157246, 0.06143827, 0.06655122, -0.07261313, -0.01694062, 0.08374749, 0.01781661, 0.03940980, 0.08517931, -0.06504112, 0.00734963, -0.03376827, 0.08493169, -0.07585021, -0.02544947, 0.05055512, 0.06940277, -0.04871812, -0.00271788, -0.05051402, 0.08844056, 0.08698971, -0.29018065, -0.09296421, -0.01839514, -0.69819802, -0.26828694, -0.83033127, -0.04969685, 0.40739620, -0.68764281, -0.04262454, 0.64879525, 0.94788826, 0.87217194, 0.61869371, 0.03225593, -0.04419532, 0.01098437, 0.02176139, 0.02620245, 0.00804617, -0.01464676, 0.01320194, 0.07105563, -0.88202709, -0.71235389, 0.39723155, 0.97290051, 0.57108462, 0.69423425, 0.17517225, 0.56385344, 0.47271299, 0.10809670, 0.12133890, -0.47217613, -0.18570781, 0.06013827, -0.09532028, -0.08474698, 0.41996577, 0.57593119, 0.29917759, 0.94145155, -0.39693376, -0.61558253, -0.17672102, -0.08040320, 0.03656183, 0.06962618, 0.05233677, 0.20377591, -0.81036508, 0.54388088, 0.19561324, 0.46876186, 0.15279008, 0.39659834, -0.10970336, -0.06287084, -0.03273685, -0.16754632, -0.30547583, -0.36054704, -0.30848914, -0.19754671, -0.25220001, 0.12226837, 0.07060986, -0.19827984, 0.79301351, 1.45586228, 2.00581694, 1.36277902, -0.65945500, 0.28246659, 0.03121985, 0.03514320, -0.00350183, 0.06843353, -0.78822857, 0.66093433, -0.21985574, -0.86817622, 0.21573505, -0.17816770, -0.64989120, -0.72910625, -0.39217547, -0.30441463, -0.43219167, -0.10165761, -0.51629698, -0.22776991, -0.17073070, -0.06289797, 0.17248715, 0.04572091, -0.11661592, 0.01237896, 1.00901103, 0.82089698, 0.92062086, 0.19533677, -0.04765569, 0.06459418, 0.04859675, 0.71585727, 0.51841420, -0.10278943, -0.76377606, -0.06790993, 0.73545080, -0.16587037, -0.19298327, -0.37595320, -0.06515306, -0.08380574, -0.21002989, -0.14188544, -0.31708741, -0.22849858, -0.24896482, -0.28232941, 0.06327204, 0.20625597, 0.01203739, 0.06403641, 0.60878664, -0.02199200, 1.08504140, 0.95087260, 0.40449455, 0.08425331, -0.20903581, -1.11111164, -0.65344471, -0.34869879, -0.48554704, 0.22390342, 0.38777170, 0.07279329, 0.07477973, -0.40981412, -0.20464750, -0.20411931, -0.43218717, -0.37092412, -0.28310964, -0.39465964, -0.08249043, -0.10032604, -0.04487779, 0.03170023, -0.16748066, -0.14690128, 0.58538020, 0.45460141, 2.45181179, 1.21485972, 0.26449609, -0.08616833, -0.97197616, -1.20444369, -1.21040845, -0.42327780, -0.18023586, -0.38960174, 0.13715099, 0.10643410, 0.09758113, -0.14544597, -0.18807173, -0.25313711, -0.27390021, -0.34039184, -0.46313009, -0.31497112, -0.14527710, -0.13313523, -0.40457499, -0.38967639, -0.17197289, 0.10436313, -0.07297415, 0.52645159, 0.38044423, 1.78953612, 0.01060249, -0.90306169, -1.45122397, -1.52198184, -1.01615739, -0.33421266, -0.02302557, -0.17608690, -0.18581522, -0.23317046, -0.21481694, -0.18166916, -0.08618829, -0.33356354, -0.09158456, -0.52615947, -0.81935751, -0.49079657, -0.27112365, -0.52019966, -0.20318419, -0.31672013, 0.18856014, -0.39744827, 0.25849473, 1.34745812, 2.57716227, 1.59252059, 0.66534072, -0.20378698, -0.64943993, -1.68778694, -1.47452140, 0.12828973, -0.41779587, -0.11273445, -0.19043462, -0.27916721, -0.10581276, 0.03945995, 0.23861431, 0.25427505, 0.37903777, -0.19511540, -1.05895412, -0.84490651, -0.60838419, -0.69439530, -0.29882082, -0.25925079, -0.00752631, -0.21636435, -0.05797107, 0.69660503, 1.27043986, 1.89816451, 0.52235222, -0.19658637, 0.42915785, -1.47535157, -0.90556383, 0.65898007, -0.42413375, -0.14647508, 0.73211491, 0.46249390, 0.58224481, 0.72894061, 0.87103629, 1.30962873, 1.00784457, 0.80626887, 0.02698300, -0.53579307, -0.39018708, -0.15943666, -0.34179053, -0.46012232, -0.37997046, -0.56527472, 0.01720819, 0.96739882, 0.52303171, 0.62700611, 0.20159557, -0.10295566, -1.18328834, 0.80661654, 0.43729040, 1.15224814, 0.89274222, 1.00087881, 1.39709640, 1.21606028, 1.07240582, 1.24579680, 0.52949482, 0.41081250, 0.78234279, 0.89198709, 0.36154866, -0.08182027, 0.01460758, 0.10138823, -0.24969569, -0.52047074, -0.23246892, -0.49510202, 0.04373455, 0.64101076, 0.37568453, 1.95202351, 0.94964033, -0.04202345, -0.34660149, 0.98947144, 1.19662046, 1.81972528, 1.95981371, 1.68758833, 1.33329475, 0.89867383, 0.90201294, 0.30096427, 0.27702409, -0.25215062, 0.35913697, 0.79317367, 0.46658581, -0.12761132, -0.01951521, -0.17345144, 0.07921214, 0.03993993, 0.34691328, -0.21438108, 0.54442257, 0.09859105, -0.14765483, 1.21665990, 0.80262071, 0.19265109, -0.52856171, 0.30894214, 1.17014217, 1.76095903, 0.95644259, 0.56356162, 0.30460751, 0.02408604, 0.17029785, -0.07633156, -0.08816323, 0.05134818, 0.28859159, 0.35166353, 0.59851545, 0.44691083, 0.22978121, 0.08102652, 0.34864828, 0.43481636, 0.08109174, -0.10407533, 0.26479104, -0.01503556, -0.34685358, -0.15117298, -0.14900135, 0.56168407, -0.21339417, -1.07574821, 0.46194258, 0.26245332, -0.26327375, -0.69243306, -0.95915550, -0.27939528, -0.05378921, -0.03969345, 0.00537900, 0.09761604, 0.37381300, 0.18206702, 0.44514164, 0.44440365, 0.18835314, -0.06096197, 0.03905122, -0.11875024, -0.02553873, 0.08341086, 0.07435767, 0.31512728, 0.12125759, -0.28893411, -0.27788511, 0.39974013, -0.17918044, -0.75413829, 0.19607237, -0.77902937, -0.93314898, -0.81590229, -0.40029779, -0.24917774, 0.06759089, 0.09337987, 0.38037577, 0.47820833, 0.43852633, 0.41822007, 0.08762975, 0.38140208, -0.02098521, 0.18166755, 0.32888541, -0.27499533, -0.05837858, 0.33936375, 0.20289958, 0.05413730, -0.24977057, -0.10446610, -0.93822926, 0.00148367, -0.05107235, 0.64586121, -0.08678165, -0.85602450, -0.54110938, -0.35245961, -0.23618807, 0.22855096, 0.29751071, 0.21503411, -0.03420858, -0.09774710, 0.12751785, 0.23667978, 0.01294904, 0.07293453, -0.25490174, -0.22101314, -0.17798615, -0.28288299, -0.38159001, 0.13514149, 0.16295603, -0.22725512, -0.32975495, -0.12440170, -1.05930710, 0.05339244, 0.26159665, 0.34481922, 0.34962857, -1.22538447, -0.26030344, 0.08778255, -0.09130474, 0.01930627, 0.43642056, 0.18262583, 0.34772858, 0.22850145, 0.41545632, 0.42735699, 0.27930617, -0.12806033, -0.22417660, -0.00383013, -0.07795116, 0.25084409, -0.30221280, 0.01570136, 0.36794174, 0.28471720, -0.31499219, -0.19070949, -1.71242988, -1.00285256, -0.52816343, -0.01247876, 0.16102476, -0.74184781, -0.38720050, 0.42092940, 0.01336117, -0.07674144, -0.03123616, -0.11485770, 0.12106495, 0.37477973, 0.52057934, 0.46058086, -0.19174334, -0.23042075, -0.18183328, -0.19016723, -0.13677129, 0.12485129, -0.32068858, -0.37465370, -0.09850765, 0.03555423, -0.40639052, 0.15526897, -0.37014186, 0.36821902, -0.90370417, -0.04989111, -0.13628227, 0.16407360, -0.22724885, 0.26407430, 0.13317567, 0.18240656, 0.02919073, 0.02547361, -0.06068977, -0.15379579, -0.35152942, -0.36020285, -0.34779143, 0.05412701, -0.16144550, -0.04707414, -0.14033081, -0.10847339, 0.00031914, -0.36520004, 0.21470067, 0.59223902, -0.71544546, -0.65546685, 0.38083982, 0.06998545, -0.94630587, -0.57012296, -0.18454616, -0.04821207, 0.09295733, -0.11380164, -0.02301115, 0.04998152, -0.44367304, -0.27822185, -0.40336779, -0.29692951, -0.20534268, -0.11405759, -0.12722118, 0.24225223, 0.15608336, -0.21115856, -0.29312307, -0.05130328, -0.10485238, -0.00751510, 0.42191005, 0.29819873, -0.62660021, -0.36399212, 0.49930555, 0.64726222, -0.01829217, -0.97383189, 0.00826532, -0.14209388, -0.06294284, -0.07915840, -0.04633158, 0.15245558, 0.39984736, -0.07325556, 0.01542930, -0.05883334, -0.10360272, 0.12029949, 0.10716516, 0.04990761, 0.17045754, 0.02573359, -0.46739438, 0.00682550, 0.07510465, -0.15607710, 0.10914044, 0.26995659, -0.63001853, -1.48878467, -0.04363350, 0.50552607, 0.35767704, -0.88768065, 0.05433880, -0.04510768, -0.40082359, 0.00777414, -0.25322843, -0.33198354, -0.12755293, 0.10538152, -0.05729237, 0.04383988, 0.12386148, 0.12600896, -0.15560776, -0.04851220, 0.24873970, 0.17652874, 0.01230395, -0.20158812, 0.05928577, -0.14764518, 0.54636163, 0.29922268, -0.04426332, 0.69638294, -0.05360713, 0.06130755, -0.08164655, 0.35623342, 0.71252286, -0.07770883, 0.09691128, -0.24357940, -0.35783553, 0.46395096, -0.10290552, -0.05534224, -0.30539143, 0.14786427, 0.04847708, 0.21374816, 0.07639910, 0.33410019, 0.17719549, 0.05610275, 0.16121972, -0.05900165, -0.03970550, -0.10746959, 0.42597628, 0.31865546, 0.23190601, 0.92362148, 0.00819361, -0.00431718, -0.07351097, -0.20265704, 0.09193174, -0.52588397, -0.38142210, -0.41146943, -0.15461031, 0.28203306, 0.38878316, 0.25560218, 0.27569160, 0.03889121, -0.00261619, 0.02670480, 0.03507707, 0.02086550, -0.21639436, 0.06062280, 0.53413004, 0.26422504, -0.25885776, 0.24797866, 0.71830750, -0.86143541, -0.38568363, -0.59707558, 0.00960320, -0.06088440, 0.01698779, 0.76870966, 0.76139510, -0.37920988, -0.25911075, 0.35448742, 0.05744933, -0.09089290, -0.47948730, -0.43746623, -0.21296945, -0.25632980, -0.61520308, -0.46807602, -0.44936869, -0.11355335, -0.13916880, -0.81621808, -0.64627391, -0.11551464, 0.19536196, 0.02784290, 1.52391744, 1.08351398, 0.45247898, -0.59929287, 0.01449089, 0.01693789, -0.07800562, 0.05860998, 0.53028977, 0.28021893, 0.35794368, -0.11359809, -0.86290306, -1.05265296, -0.77566850, -0.52140933, 0.30826798, 0.27330491, 0.01004622, -0.19066665, -0.36024809, -0.68463063, -0.52957082, -1.09677684, -0.99045295, -0.47335795, -0.20187034, -0.63622582, 0.26410866, 0.20032571, -0.02392970, 0.07463628, -0.05402956, 0.00301555, -0.00586624, -0.07041913, -0.01446420, -0.42426896, -0.67022491, -0.02177019, 0.21207556, 0.15242846, -0.40050012, -0.64688903, -0.17438123, -0.47265789, -1.57611120, -1.33621800, -1.80455160, -1.80542624, -1.70674753, 0.01559755, 0.33240166, 0.63803965, 0.04056523, -0.32885364, -0.80613548, -0.04884508, 0.07210219, 0.07313049, 0.05807140, 
-0.03815926, -0.07681607, 0.03792274, 0.07010065, 0.06097828, -0.08628696, 0.02243118, 0.03562775, 0.06988306, -0.00736151, -0.02690226, 0.02163540, 0.12918480, 0.14055467, -0.04200033, 0.07459936, -0.05567326, -0.00941727, -0.06144694, -0.04456041, -0.08221538, 0.00493818, -0.05020520, 0.06126627, -0.05436889, 0.06448360, -0.02906944, 0.02589420, 0.07649677, -0.07895023, 0.03479764, 0.04675858, -0.02285291, 0.00059161, 0.69445938, 0.67566627, 0.33764505, 0.51061338, 0.78784460, 0.87296373, 0.78711802, 0.56912285, 0.19957340, 1.19626021, 1.21135366, 1.11887968, 0.56829476, 0.65714651, 0.92285639, 0.75455630, 0.62739682, 0.58616060, -0.06365065, -0.07743432, -0.01484668, -0.00077160, -0.00752000, 0.06327057, -0.06979557, 0.67667055, 0.51858169, 0.16827276, 1.03783548, 1.39929783, 1.47784555, 1.89057624, 1.08902311, 0.73097825, 1.43524277, 2.21441245, 1.99602234, 2.42797947, 1.67833281, 0.25440651, 1.30333507, 0.84075123, -0.11576554, 1.01974988, 0.74058568, 0.86304730, 0.61522925, 0.32241276, 0.06939444, 0.00580600, 0.02169957, 0.08648318, -0.61160165, 0.81836283, 0.88185447, 0.73072308, 1.31131971, 1.58532858, 1.48611557, 1.64158237, 1.69064116, 1.78179955, 2.00292683, 2.28291202, 2.12590194, 0.77899200, 0.61857975, 0.14695114, -0.14327334, 0.56886888, 1.07036257, 0.71787977, 0.66809565, 0.20052585, 1.15830863, 1.02112603, 0.90021002, -0.06119725, -0.05945007, -0.06963660, -0.95408219, -0.90501595, -0.75781673, -0.06684513, 0.92099726, 0.65858555, 0.49414468, 0.99091810, 0.38418108, 0.19582435, 0.06121150, 0.23605275, 0.42221221, 0.29719800, 0.02650489, 0.17014506, -0.04490848, -0.31956428, 0.18198374, 0.03684156, -0.06215778, -0.28480816, 0.17066449, 1.12448156, 0.82762200, 0.85975492, -0.05011766, -0.05849012, -0.63517886, -0.65748709, -0.40646675, -0.94643599, -0.15920499, -0.49303973, -0.17778240, 0.16866232, 0.33391109, -0.07706817, -0.23346838, -0.03753162, 0.03750554, -0.28867728, -0.15320882, 0.03371529, -0.03684202, 0.15958934, 0.42313010, 0.17577675, -0.37954527, -0.40261152, -0.64803565, 0.77311701, 1.21761787, 0.80027741, 0.07377562, 0.21142900, 0.12162347, 0.03553052, 0.18055835, -0.21338773, 0.02015813, -0.08618147, -0.05994984, -0.07727858, -0.21933772, -0.42657280, -0.20523481, -0.05034633, 0.15330152, 0.06634370, -0.12267208, -0.09786200, 0.14339143, 0.20101374, -0.24804513, 0.05186071, -0.24187551, -0.13426621, -0.16748147, 0.68153083, -0.75238252, 1.23959422, -0.04801851, -0.77898490, -0.05675906, -0.12988070, 0.15636198, 0.63875496, 0.25019518, 0.21922314, 0.21906500, 0.03058719, 0.01907197, 0.13760732, 0.05368656, -0.31937727, 0.10218807, 0.26704231, -0.17832226, -0.21034770, -0.09407412, -0.38673279, -0.76308042, -0.11660135, -0.00597104, -0.25025982, 0.50265813, 0.99538523, -0.36664036, 1.25994098, 0.92189133, 0.29985908, -0.63196576, -0.04196226, -0.03778551, 0.32574818, 0.10933337, -0.12195548, -0.44731224, -0.29966149, 0.06640607, 0.29337588, 0.18555427, 0.05813298, 0.10050009, -0.27587819, -0.08550664, -0.27798927, -0.27512836, -0.20459116, -0.19835435, -0.06186263, -0.41343075, 0.12644140, 0.38813698, 0.27216193, 1.46809375, 0.71289593, -0.10370803, -1.05949605, 0.16400553, 0.06599106, -0.14413710, 0.55109519, -0.51212806, -0.39825282, -0.19112290, 0.02757612, 0.31422287, 0.00266107, 0.07540901, 0.08121220, 0.15468360, -0.28163528, -0.38139322, -0.60564721, -0.30610010, 0.04590701, -0.02849308, -0.09914427, -0.54571044, 0.10093289, 0.25449809, 0.65089887, 1.94245005, 0.62311608, -0.11065166, -1.04553688, 0.30649140, -0.51284480, 0.07115912, 0.35929552, -0.09065364, -0.16203614, 0.17735730, 0.51439798, 0.35560772, 0.33166975, 0.11261155, 0.24439716, 0.36960208, -0.29805782, -0.48891810, -0.14794013, -0.13258828, -0.14612693, -0.21667756, -0.11483353, -0.34440660, 0.53181785, 0.73788232, -0.70873958, 1.27774835, -0.84346855, -0.01025740, 0.95435303, -0.80470169, -0.92927080, -0.53166741, 0.12851775, 0.08575702, 0.19273093, -0.01855679, 0.02459138, -0.49532762, -0.49315736, -0.12943217, 0.16125357, 0.19101545, -0.36682278, -0.19230300, -0.20945537, -0.24836150, 0.11781406, -0.15466879, 0.53748441, -0.27663505, 0.45134655, 1.38190293, 0.36837906, 0.74701929, -1.13069129, -0.02383712, -0.10368723, -0.52328718, -0.48296162, -0.33120871, -0.07523010, 0.08239955, 0.03332400, -0.14692576, -0.29318908, -0.35116097, -0.20191133, 0.06705185, -0.02988567, -0.29390329, -0.40571240, -0.12523857, -0.05631987, -0.19043584, 0.39007837, 0.26467571, 0.59170336, -0.34733605, -0.21798579, 0.54533017, -0.42517245, 0.44947240, -1.10612929, 0.10432086, 0.03290936, -1.00490534, -0.74711627, -0.99214870, -0.32686770, -0.68391180, -0.61246842, -0.54546911, -0.41350654, -0.22252989, -0.01170697, 0.20735277, -0.06731190, -0.30061832, -0.31337240, -0.05650211, -0.01036066, 0.09633105, 0.25610456, -0.08440375, -0.17314973, -0.17869820, 0.51001197, 0.57685560, -0.21288037, 1.23634338, 0.83688319, 0.70103747, -1.08573127, -1.12281704, -1.12835062, -1.01163137, -0.65831852, -0.51898521, -0.22277850, -0.25864893, -0.24060252, 0.29934490, 0.67841941, -0.09429976, -0.14966257, -0.35877460, -0.13104664, -0.14181152, -0.34053364, -0.14597966, -0.36305192, -0.15756278, 0.08269724, 0.20354195, 0.62497902, 1.36469841, 0.79023957, 1.74269390, 0.58184296, 0.62993520, -0.77740186, -0.87676144, -1.12551844, -0.02863880, -0.00248780, -0.27094311, 0.18025704, -0.00894110, -0.06228777, -0.13131654, 0.21901324, 0.05540319, -0.40074289, -0.40777203, -0.27079082, -0.38954973, -0.37740624, -0.07937641, -0.03822845, -0.14702980, -0.06346224, -0.35071027, 0.41418147, 1.96217048, 1.56502151, -0.34596762, 0.58075869, -0.44766805, -0.84981900, -0.00382150, -0.27255383, 0.14103672, -0.00624019, 0.22788310, 0.04456608, -0.03506889, -0.19728468, -0.13169207, 0.10268478, -0.06220541, -0.37291646, -0.23190260, -0.01784897, -0.30021176, -0.16639781, -0.30942017, -0.07869880, -0.37093940, -0.29688218, 0.13870265, 0.97065675, 1.43221116, 1.51136184, 1.15425527, 1.38512683, -0.03602729, -1.22693920, 0.59823227, -0.27067435, 0.28409994, 0.40897489, 0.54590315, 0.29501507, 0.06205219, -0.09593876, 0.24656679, 0.35415024, -0.00497934, -0.43080804, -0.27943233, 0.02634313, -0.27779743, -0.21350969, -0.08200471, -0.04947653, -0.14685723, -0.37619305, -0.15958813, 0.59987873, 0.83728379, 0.54314357, -0.15546104, 1.17540967, -0.89619821, -0.67730802, -0.13555343, -0.48904461, 0.48212230, 0.89034742, 0.84678662, 0.67139673, 0.70684171, 0.52373791, 0.47993308, 0.25698414, 0.27594459, -0.27473882, -0.25026977, 0.15022820, -0.08647203, 0.00057759, 0.14452021, 0.10199963, -0.07333748, -0.09879570, 0.22668728, 1.11378276, 2.29908347, 0.66978204, -1.20370317, 0.24566907, -0.23319347, -0.36760551, -0.15053886, -0.34236184, 0.34501570, 0.91376632, 0.78468370, 0.60167044, 0.97198385, 0.90651631, 1.08238328, 1.10264754, 0.76091856, 0.31073731, 0.13892476, 0.21256183, 0.03025317, 0.14475335, 0.17523988, -0.08191366, -0.01026185, 0.24042779, 0.52730483, 0.93299174, 1.92967153, -0.54018950, 1.09798467, -0.73134333, -0.07500485, 0.72933322, 0.44564399, -0.06228675, 0.17675379, 0.73941642, 0.64252591, 0.60772556, 0.30152234, 0.60303670, 0.42648461, 0.70701069, 0.76181126, 0.44887677, 0.22901982, 0.39564246, 0.16649131, 0.18467873, 0.07335283, 0.08549996, 0.03902062, -0.15255055, -0.29611108, 0.24950385, 0.46565825, -0.71643227, 0.99968177, -0.19355237, -0.15839171, -0.27511594, -0.01970913, 0.04619451, -0.08990372, -0.50795823, -0.10830469, 0.05764492, -0.14449167, 0.26097617, 0.09596600, 0.38096452, 0.16667861, 0.13662344, -0.00224989, -0.11648969, -0.14900696, 0.23293133, 0.23873051, 0.33320951, -0.15394758, -0.23282209, 0.67855895, 1.59454620, 0.66587561, -0.26563004, 1.34936821, -0.01999857, -0.03438119, -0.09390847, -0.13368721, 0.16108012, -0.51169109, -1.05721593, -0.45554388, -0.18521273, -0.20814341, 0.00193075, 0.05222870, 0.22535087, 0.35916597, 0.19674537, 0.10822512, -0.02275640, -0.08107813, -0.05855406, -0.18755448, -0.18365824, -0.11696430, -0.11228056, 0.50403595, 1.20077515, 0.52285087, -0.07922739, 0.02995201, 0.01847110, 0.06930579, -0.05278226, 0.98153710, 0.99626088, -0.17665352, -0.28532895, -0.09848388, -0.01702609, 0.35597137, 0.39713249, 0.39431715, 0.58025903, 0.70484906, 0.30300295, -0.01560347, -0.26951185, 0.25776789, -0.07227287, -0.04042298, 0.30214980, 0.64044511, -0.14547780, 0.43149629, 0.54071194, 0.25142977, 0.07465827, -1.51665998, -0.07331918, -0.01677942, -0.08463897, -0.97479421, -0.72337580, -0.27068862, -0.67089194, -0.13014068, -0.01866223, 0.16036274, 0.23883480, -0.20915976, -0.13076454, 0.36232942, 0.62966585, 0.61163038, 0.41421545, 0.73386735, -0.08293614, 0.28761336, 0.37302321, 0.12941848, -0.36957946, -0.41538200, -0.17268422, 1.49628139, 0.47855130, 0.09243621, 0.00574166, -0.07552406, -0.00475751, -0.56007326, -0.83900249, -1.69277799, -2.36241245, -0.40230784, -0.67880517, -1.41843152, -1.12760460, -0.05057465, -0.16455702, -0.60341281, 0.05899027, -0.02561727, 0.79284537, 0.03154311, 0.40431175, 0.70811540, 0.68776846, 0.22803508, -0.18258059, 0.14298570, -0.07968306, 0.51140112, 0.61268604, 0.80341178, -0.05719729, -0.00613025, 0.07470080, 0.02320243, 0.11371719, -0.59798503, -1.52967107, -1.87193787, -2.16294789, -1.48858166, -1.05512750, -0.76860559, 0.29707661, 0.28901753, -0.14950657, -0.67018694, -0.57872474, -1.26480472, -0.23373233, -0.74384189, -0.46609852, -0.69481319, -0.80983227, -0.66867262, -0.74111521, -0.57782429, -0.04508016, 0.03062607, 0.00807674, -0.07955942, -0.06970231, 0.04780945, 0.05538063, -0.02797445, -0.01307931, -0.44491774, -0.65827483, -0.67611992, -1.21750104, -0.93094778, -0.73369747, -0.72348869, -1.08000457, -1.27131200, -1.06532514, -0.46272171, -1.24855697, -0.28390640, -0.80519241, -0.93198556, -1.27237844, -1.14108133, -0.74729896, -0.06016916, 0.05531365, 0.04258139, -0.01355863, 
-0.00845678, -0.06062922, -0.01938468, 0.00654560, -0.02766691, 0.03853799, 0.05803519, 0.05378982, -0.05407241, 0.04452120, 0.00930146, 0.04788573, -0.16309184, -0.25065845, 0.02122773, -0.03058348, 0.07043613, 0.02071781, 0.08559132, 0.00798693, 0.02944256, 0.07072401, 0.00491545, -0.04996390, 0.03812934, -0.02588408, 0.06272838, 0.08642372, -0.00306087, 0.01177319, -0.02801734, -0.02211298, -0.09601784, -0.09400891, -0.59069794, -0.57697332, -0.17492725, -0.82961649, -1.54734111, -1.80667007, -1.68291819, -0.22211309, 0.37849396, -1.41953409, -0.39230293, -1.79203045, -1.54165184, -1.46726704, -1.57208169, -1.02990091, -1.09265089, -0.70456535, 0.00663035, -0.01725654, 0.04426090, 0.01658036, -0.05439220, 0.02806032, -0.07244817, -0.86466050, -1.15029991, -0.57473683, -0.97550118, -1.62455249, -1.68904972, -2.39696598, -2.43285799, -1.94233680, -2.66242456, -1.31660080, -1.00372541, -1.14037824, -0.35523444, -0.45750907, -0.10844010, -1.64960694, -2.31367803, -0.94342649, -0.47930339, -1.98419905, -1.17581832, -0.84230179, -0.06170638, 0.03529997, 0.00220758, 0.01983497, 0.17518221, -1.15202761, -1.20982182, -1.06115472, -1.37483943, -2.11173606, -2.17625093, -1.96998680, -1.57656360, -2.37868762, -2.38093853, -1.39833200, -0.98568755, -0.25783896, -0.06575494, 0.07738877, 0.06398457, -0.52181822, -0.98888570, -0.39929113, 0.62145299, 0.19363636, -0.54233444, -0.31827244, -0.87229252, -0.00176791, 0.04235867, -0.19261140, 0.47895375, 0.06567682, -0.76835853, -0.34987399, -0.35568544, -0.16202366, -0.23491843, -0.26766947, -0.33960429, -0.29398185, 0.02999692, -0.16009670, 0.33933887, -0.12496275, -0.07803550, -0.37078840, -0.34398901, -0.06410552, 0.42602253, -0.11001923, 0.03397314, -0.25009587, 0.28169635, 0.28023049, -0.34137630, -0.60424715, 0.00276150, -0.02333394, 0.52439946, 0.19724277, -0.54692721, -0.21298023, -0.63374448, -0.26063675, -0.35179269, -0.10295030, -0.08389357, 0.20757629, 0.03215651, -0.11599348, 0.11758190, 0.21894315, 0.07948443, -0.16559508, -0.17299788, -0.13053212, 0.17245077, 0.37576014, 0.41391182, -0.23533031, -0.17350586, -0.24981129, 0.19603695, -0.58782047, -0.04160723, -0.47776622, -0.87696248, 1.06441796, -0.97921693, -0.06495392, 0.10849468, -0.00783503, 0.15739433, 0.19924098, 0.35240257, 0.10630465, -0.05115876, 0.01447545, 0.17918095, 0.36788306, 0.23366295, 0.07349885, 0.07938293, 0.22067335, -0.19387022, -0.19164875, -0.02569246, -0.03938926, -0.28762639, -0.65253264, -0.12265136, 0.65992779, 0.06966479, -1.44912732, 0.99120569, 1.09237731, 0.09554005, -0.29394001, 0.22758736, -0.20924468, -0.01718010, 0.10399095, -0.07670347, -0.26632968, -0.07030927, 0.17527068, -0.25691411, 0.14889643, 0.05801640, -0.05403620, 0.15563782, -0.28205445, 0.11785759, 0.21929261, 0.15943696, 0.11627480, -0.54694808, -0.30081859, 0.03314614, 0.78159678, -0.26175699, -0.98898405, 0.99006331, 1.02127707, 0.38947058, 0.16608652, 0.72843772, 0.33456701, 0.29845750, 0.23042762, 0.02838072, 0.12570138, 0.28734356, 0.40225482, -0.02364223, -0.10298725, -0.02557080, -0.02787036, 0.44999826, 0.43645906, 0.09710706, 0.17822839, 0.74573058, 0.19227608, 0.06012897, -0.12361078, 0.18246959, 0.57779479, -0.05541587, -0.54417235, 0.36372453, 0.27885532, -0.29071400, 0.63399684, 0.31453669, 0.24125075, 0.19568950, 0.30512786, 0.34013289, 0.12509543, 0.11596806, 0.04976403, -0.43019086, -0.07574958, 0.20833087, 0.61918545, 0.09205327, 0.29033321, 0.33353901, 0.06255679, 0.48081589, 0.40888667, -0.62617153, -0.26282859, 0.39761049, 0.06777175, 0.11702239, 0.52273452, -0.98525459, -0.48005265, -0.09626737, 0.35516897, 0.35861781, 0.27405137, 0.29612705, 0.13363148, 0.11496499, 0.00191159, 0.17387217, -0.51364934, -0.20547165, 0.35770828, 0.50371009, 0.26842269, 0.06332657, 0.43008241, -0.20636511, -0.09804942, 0.08770350, -0.21049160, -0.89107460, -1.24957001, -0.30105534, 0.49608433, 0.19856410, 0.32289046, -1.29637325, 0.41873181, -0.46210408, 0.50125891, 0.31096336, 0.24289124, -0.10775448, 0.28539044, -0.11621010, -0.09466030, -0.23415403, -0.61207163, 0.22117841, 0.51988828, 0.47287488, 0.20090173, 0.12614165, 0.23519678, 0.30373058, 0.15469566, 0.63717115, 0.03025309, -0.10818239, -0.67794657, 0.36147660, -0.88967192, 0.13663077, 0.21571301, -1.22265100, 0.53285605, -0.60530406, -0.24801865, -0.36499560, -0.22322328, -0.48423681, -0.21424966, -0.40561464, -0.62279880, -0.30683398, -0.26188019, 0.35731348, 0.75648123, 0.63648653, 0.70363134, 0.26004368, 0.67203629, 0.88480830, 0.84551418, 0.54026169, -0.08557566, 0.32904735, -0.18430582, 0.06904435, -0.10853706, 0.05066453, 0.23779441, -0.75192034, 0.19724007, -0.23623632, -0.76262206, -0.50680196, -0.43950221, -0.10020085, -0.08610575, -0.66341746, -0.11320466, -0.06834825, 0.05952890, 0.38267124, 0.46407297, 0.42735994, 0.52221107, 0.35484433, 0.33744574, 0.70648575, -0.00529276, -0.29290447, -0.32238343, -0.27475652, 0.99208212, 0.87287575, 0.93231857, -0.67902035, -0.79205114, -0.41817293, -0.12503414, -0.30777565, -0.51446301, -0.38732779, -0.47546333, -0.14700963, -0.22015987, -0.08063962, 0.01805552, -0.18867038, 0.50067049, 0.60484314, 0.11498341, 0.38263181, 0.62372661, 0.69264531, 0.47297359, -0.22837633, -0.79054111, -0.98736459, -0.75281012, -0.69077164, 0.70606089, 1.25339353, 0.98221403, -0.40316057, 0.14226978, 0.45553720, 0.99149543, -0.30971020, -0.33248642, -0.05196870, -0.30460307, 0.39750111, 0.00711009, -0.19519188, 0.04105760, -0.13533558, 0.46592391, 0.17869079, 0.03801413, 0.33254671, 0.59929657, 0.34909305, 0.00844256, -0.65116364, -0.45201617, -0.06865572, -0.23919483, -1.06342900, 0.13669547, 0.49505520, 1.03332615, 0.25724393, -1.01964772, -1.68779373, -0.08483437, -0.08523717, 0.24928154, 0.30721629, 0.08327825, 0.29641882, -0.16485247, -0.05081947, -0.01290316, 0.22457984, 0.30834246, 0.43526903, 0.70684868, 0.81348449, 0.41229570, 0.05573570, -0.56008387, -0.72756243, -0.11776103, -0.06399102, 0.01834804, -0.81074363, -0.18839546, 0.34542322, -0.33244428, 0.05966467, -1.16522408, -0.83995551, -1.27582073, -0.40381041, 0.01489249, 0.22124939, 0.21077076, 0.11401080, -0.04581672, -0.24699903, 0.20859915, 0.41574001, 0.61359268, 0.52190256, 0.63825136, 0.37126678, -0.27127388, -0.40907294, -0.48983827, 0.06165491, -0.05409622, -0.33489946, -0.30002445, 0.14750418, -0.88337183, 0.06115712, -0.88517582, -0.97955507, -0.93974286, -0.88042015, -1.20408821, -0.54434890, 0.18186095, 0.02588338, 0.15124345, 0.18219805, 0.34373945, 0.10476814, 0.15591507, 0.43441191, 0.76848811, 0.32779744, 0.02719538, -0.42537457, -0.51141876, -0.48263377, -0.16723244, -0.10435113, -0.34705049, -0.13198215, -0.22242801, 0.51729411, -0.66985261, 0.45721415, 0.71756142, -0.02825671, -1.42719507, -0.76213378, -0.32471037, -0.53319347, -0.21447706, -0.11645257, -0.04035846, 0.12053157, 0.17255850, 0.07809003, -0.29715127, -0.39286357, -0.05075943, -0.38393354, -0.62597114, -0.59244877, -0.45546731, -0.48331854, -0.22575606, -0.26384100, -0.32201526, 0.12620966, 0.42305520, -0.24387921, -0.11380114, 1.90010715, 0.18636221, -0.06289354, -0.96102232, 0.00303430, -0.07453437, 0.29683709, -0.32279584, 0.08000018, -0.10415205, -0.41534415, -0.48426694, -0.48644948, -0.51553756, -0.53130388, -0.36133394, -0.54524440, -0.28739366, -0.23040815, -0.29882804, -0.34916243, -0.15075853, -0.10431977, 0.28963026, -0.03750164, 0.01934448, -0.52729005, 0.62379682, 0.85888767, -0.07755738, -0.03774879, 0.86114872, -0.12903710, -0.57144582, 0.20543736, 0.25692016, 0.15381798, -0.11025487, -0.29307392, 0.18610474, 0.07543498, -0.13948204, -0.57725286, -0.42221028, -0.14760177, 0.05790532, -0.00521746, -0.02872592, -0.20601355, -0.00785223, -0.13539435, 0.35571250, -0.04310875, -0.40000945, -0.32524738, 1.35508370, 0.19855303, -0.02148855, 0.01552045, -0.04641098, -0.83563948, -0.72032923, 0.39517382, 0.23536670, 0.21553849, 0.09094390, 0.02182687, -0.05669385, -0.08578432, -0.38881728, -0.82589722, -0.29780298, -0.19334267, -0.15942341, -0.00450925, -0.11570733, -0.24604267, -0.21381417, -0.13012320, -0.13480702, -0.03384779, -0.51022750, 0.85621607, 1.25015175, -0.67590308, 0.05671372, -0.07218079, -0.02418571, -0.49735236, -0.89469832, -0.72446567, -0.21579713, 0.04896901, 0.12239388, 0.09292280, -0.33654121, -0.28263292, -0.25150567, -0.17587389, -0.00416569, -0.20105524, -0.12219536, -0.09469374, -0.19416596, 0.06922328, -0.00795123, -0.27232826, 0.32920754, 0.20790569, 0.62629372, -0.34195334, 0.61556345, -1.15921235, 0.02688172, -0.00301169, 0.04108572, 0.58802545, -0.27772507, -0.40939975, 0.23180237, -0.07900256, -0.37230030, -0.35436234, -0.56467497, -0.23345888, -0.30158150, -0.31795898, -0.41316369, -0.35605523, -0.43698737, -0.27127060, -0.49476260, -0.22010434, -0.14154898, 0.25960231, 0.36029372, 0.35952863, 0.39203671, -1.03877115, 0.09168055, 0.25964916, -0.05412029, 0.03077397, -0.05752825, -0.17091571, -0.69615245, -1.02652156, -0.74822015, -0.55383193, -1.26532304, -0.53660709, -0.54136384, -0.25229296, -0.31387779, -0.33990934, -0.39450845, 0.05592464, -0.60909796, -0.39631000, -0.34351334, -0.27680424, -0.99111658, 0.11286407, -0.31864554, -1.09490514, -1.07262981, -1.33513677, -0.03819980, 0.06962950, -0.01780237, 0.02562685, 0.08577670, 0.08485523, 0.05552005, -0.22712658, 0.19553462, 0.11498990, 0.55603504, 0.94894946, 0.50571305, -0.40422231, -1.01979768, -1.21458161, -1.20755768, -0.47321141, -0.94631749, -0.85974294, -0.95474237, -0.62303686, -0.95735198, -1.01061702, -0.66591531, -1.39329755, -1.14864099, -0.03164957, 0.01129489, -0.05078033, 0.03616296, 0.04688828, 0.05559058, -0.05780693, 0.05132245, 0.08158185, -0.50661010, -0.61331666, -0.64930147, -0.00096971, 0.71783715, -0.89714754, -0.77021611, -0.65617341, -0.00522022, -0.44362837, 0.72305471, 0.09914181, -0.35503837, -0.08176961, 0.13881436, -0.18861136, -0.44189027, -0.68237281, -0.44270772, -0.06953498, 0.06679802, 0.02661216, -0.05994972, 
-0.04958637, -0.05161794, -0.01032876, -0.04437208, -0.08576858, -0.06800991, 0.05251378, 0.06029363, 0.02605852, -0.03267945, -0.00582086, -0.02524048, -0.04572757, 0.09569762, -0.05189007, 0.02516905, -0.05875408, -0.03224555, -0.08366778, -0.05691043, 0.02666591, -0.05905721, 0.02317733, -0.04009535, 0.04264639, 0.00734627, -0.06898925, -0.05860830, -0.06733508, 0.02187227, -0.07241566, 0.07608090, 0.01184257, -0.00203590, 0.37885478, 0.44725364, 0.61358935, 0.89197999, 1.05955637, -0.55685347, -0.59724909, -0.87748349, -0.70924115, 1.29159582, 0.44950372, 0.19067958, 0.53473735, 0.47700545, 0.42193788, 0.09492254, 0.32278526, 0.32978708, 0.01535254, 0.06408806, -0.06020548, -0.07608002, 0.07243210, -0.02498581, 0.03417004, 0.48246261, 0.25054041, 0.43942174, 1.15259087, 0.53655863, 1.31250429, 1.63155484, 2.41564131, 1.66501021, 1.41825378, 0.10039297, 0.03077579, 0.89746928, 0.97154665, 1.05432773, 2.13836074, 1.22121871, 1.39170074, 0.72729564, -0.20485726, 0.84567362, 0.51158935, 0.11037336, -0.01626686, -0.06424589, -0.03481244, -0.00724580, -0.03291078, 0.82579893, 0.98326218, 0.28264338, 0.49914625, 0.52414250, 0.95610076, 1.49366558, 0.37787375, 0.56765527, 1.49622619, 1.19413161, 0.24275059, 0.30377993, -0.08802687, 0.03619673, 0.40716511, 0.36609623, 0.51879019, 0.87850147, 0.46802029, 1.32457376, 1.49583352, 0.82212657, 0.05477658, -0.05716580, -0.02098202, -0.03533761, 0.12404006, -0.12962662, 0.19492805, 1.20363128, 0.93758929, 0.51352626, 0.34222385, 0.07883415, 0.75272483, 0.14714177, -0.20407337, -0.55546254, 0.37056127, -0.19858383, -0.08183306, 0.57192558, 0.42746779, -0.71876562, -0.97628981, -0.72029173, -0.55683041, -0.44820747, -0.75360239, -0.08623441, 0.94459277, 0.79524976, 0.02322473, -0.02801108, 0.65178114, -0.03816715, 1.03396821, 1.18467259, 0.24061431, 0.13400307, -0.39659643, -0.60678285, -0.50269735, -0.10804710, 0.07458292, 0.40448773, 0.09068018, 0.48362470, 0.48053819, 0.13597921, -0.09526511, -0.08818697, -0.31764463, -0.29394284, -0.32567728, -0.25120395, -0.17843251, -0.11087686, 0.17965779, 0.55974978, -0.01110350, 0.04483237, -0.75345367, -0.37189800, 0.25160235, -0.86771595, -0.08507611, 0.21508491, -0.12739727, -0.08046816, 0.31427819, 0.54228872, 0.28078666, 0.20807046, 0.23035420, 0.64291048, 0.96401101, 0.21325853, 0.12639883, 0.05782261, 0.26234102, -0.04239582, -0.21782225, -0.26586685, -0.23108856, 0.52669513, -0.59011078, 0.77991462, 0.05620987, -0.76418728, -0.09014902, -0.23213151, 0.58267146, -0.91409051, -0.12921868, -0.26774985, 0.00954579, -0.20029850, 0.22334269, 0.01717990, 0.01074150, 0.36543694, 0.47066370, 0.73325884, 0.77822810, -0.02533237, -0.13283631, -0.14350261, 0.13214500, 0.07568505, -0.11793743, -0.74391019, -0.80553478, -0.42294353, -0.82364988, -0.05369440, -0.94830453, -0.73523408, -1.12498033, -1.14608014, 0.13373606, -0.84855211, -0.28988490, -0.46076480, -0.24285451, -0.49730870, -0.36001018, -0.11099740, -0.17373380, 0.27573940, 0.49078450, 0.52655792, 0.50758797, -0.05049510, -0.23066042, 0.05122618, -0.30547175, -0.16863060, -0.15330467, -0.75361216, -1.17056906, -0.67322022, -0.29860029, 0.79688299, -0.26483610, -1.11803806, -0.79268342, -0.08560232, 0.09868322, -0.37276605, -0.00321694, -0.05484955, -0.36093900, -0.30980021, -0.35784703, -0.36390817, -0.26358899, -0.12947182, 0.63044018, 0.93871671, -0.24250132, -0.20423007, -0.41412127, -0.08000535, -0.32627577, -0.51028782, -0.10337584, -0.46903545, -0.78486782, -0.10742548, 0.16921173, -0.03246709, -0.25599140, -1.28405154, -1.20523715, 0.12122768, -0.10473724, -0.18770146, 0.45511135, -0.00751453, -0.33263668, -0.22993991, -0.53655946, -0.43431142, -0.64410484, -0.43424308, 0.82898033, 0.46962389, -0.31280228, -0.46524188, -0.27950484, -0.24561648, -0.25711593, -0.16673085, -0.25501940, 0.14382569, -0.22561456, -0.08672381, 0.32557255, -0.88054270, -0.22005692, -1.18191683, -0.18126813, -0.29236802, 0.02405596, -0.09712084, -0.02978539, -0.11021853, -0.17921357, -0.49450025, -0.62656027, -0.56711674, -0.84311074, -0.07995386, 1.75499117, 0.57073939, 0.03792262, -0.22363146, -0.18223146, -0.06608202, 0.13941401, 0.28017974, 0.32229123, 0.26318571, 0.93579477, 0.64910644, -0.15915340, -0.16305932, -0.36713466, -1.44327188, -0.00651532, -0.11045221, 0.65854383, 0.12653916, -0.18675941, -0.35883838, -0.33466190, -0.19422066, -0.41061282, -1.05133772, -1.44080746, 0.24387643, 1.70162547, 0.15863694, 0.02240366, 0.01047897, -0.11020052, 0.23815380, -0.29074538, -0.03977423, -0.02492752, 0.53697842, 0.53176820, 0.98784214, -0.37828836, 0.94682562, -0.01158683, -1.04126859, -0.79087222, 0.18542662, 0.05643418, -0.21631595, -0.41597614, -0.26840204, -0.21661805, -0.32214886, -0.29469246, -0.62869889, -0.40651432, 1.00252831, 0.97623116, 0.22454701, 0.00429915, -0.08581277, -0.14289808, 0.37425017, 0.09147651, 0.01970276, -0.41941726, -0.10470079, -0.00720627, 0.87665355, 1.68310189, 0.91987568, -0.60278165, -0.30174735, -1.19553816, 0.85578877, -0.52231508, -0.55233073, 0.31429711, -0.32469144, -0.18871675, -0.36644456, -0.46459579, -0.29339445, 0.39277565, 0.87385529, 0.43876120, 0.27067527, 0.15603714, -0.06446177, 0.19003400, 0.13278255, 0.33269659, 0.31763306, 0.12567447, -0.69001067, -1.07357121, 0.17283267, 1.34031785, 0.93161058, -0.49813119, 0.31664902, -1.22283030, 0.06207342, -0.46507439, -0.25106439, 0.33355454, -0.20071343, -0.19537480, -0.18594453, -0.37614760, -0.02849440, 0.59384441, 0.71241301, 0.26040161, 0.38649163, 0.53694361, 0.16999143, 0.21452691, 0.15586692, 0.31984010, 0.13955860, 0.03950687, -0.48334849, -0.53682601, 0.00993197, -0.63883775, 0.48073331, -0.05888684, 0.29617473, -0.32039231, 0.08025013, 0.37055179, 0.28826854, 0.10496381, -0.44115049, -0.42186958, 0.11398084, 0.00218113, 0.34259260, 0.67372620, 0.30429739, 0.08052597, -0.10121525, 0.12540114, -0.08540343, -0.02668324, -0.17415057, -0.03500636, -0.47321680, -0.05172854, -0.37150547, -0.04468829, 0.10042492, -0.36557195, -0.63944823, -0.00390355, 0.19125739, -0.84772229, 0.72642529, -0.60533690, -0.15239315, -0.16670088, -0.02927437, -0.10612778, 0.24278113, 0.33194780, 0.41630918, 0.64376742, 0.19248955, -0.01734152, 0.11556923, -0.05937159, -0.07453336, -0.32287255, 0.08045954, -0.04205802, -0.31390414, -0.52472740, -0.35476384, -0.67051822, 0.09921182, -0.46525964, -0.70109558, 0.63418555, 0.11765745, -0.99612433, 0.66897744, -0.71049118, -0.57761848, 0.13207173, 0.10420249, -0.12166017, -0.38113064, 0.31976846, 0.37043631, 0.20370586, 0.14077275, 0.10779446, 0.19843389, 0.01424996, 0.21696347, -0.03083054, 0.21463864, -0.11099545, -0.06450153, 0.23280503, 0.20813844, -0.13455348, 1.08515120, 0.02528610, 0.50103533, 0.01346441, -0.87711585, -0.90743846, -0.02426499, -0.61051518, -0.06716834, -0.27716517, -0.04645590, 0.05976657, 0.13333505, 0.65402585, 0.71609199, 0.60014421, 0.19970074, 0.10597494, 0.17816335, 0.35121298, 0.17292067, 0.35525900, 0.15165819, 0.03236890, 0.17061515, 0.49056578, 0.43681315, 0.38545391, 1.35855460, 0.76872361, 0.04797773, -0.05612012, -0.21876618, -0.44523892, -0.13869074, -0.03114722, 0.21583268, 0.20878220, 0.21145353, 0.33139396, 0.30371803, 0.27047974, 0.27687353, -0.02947152, 0.07737571, 0.24582186, 0.36590204, 0.22496392, 0.26446259, 0.02838995, -0.05581182, 0.12513790, 0.24867630, -0.08432242, 0.41293877, 0.90149140, 1.24338496, -0.24150474, 0.04745125, 0.02135150, 0.08908022, 0.13326186, -0.38114163, 0.37648636, 0.47119746, 0.59863091, 0.59710872, -0.00108309, -0.14899713, -0.34226394, -0.39989328, -0.00937663, 0.16981865, 0.44897246, 0.22707497, 0.41776803, 0.38752547, 0.12884188, 0.07690664, -0.21022895, -0.19756581, -0.19204263, 0.35215273, -0.14837949, 0.68462735, -1.10927331, 0.02804562, 0.00663119, 0.02820640, 0.66787052, 0.11917407, 1.29237044, -0.20779696, -0.01286459, 0.18092267, -0.14688294, -0.25071311, -0.06429856, -0.17236005, 0.36561307, -0.06227013, 0.44297224, 0.00774678, 0.22178052, 0.19364898, -0.05300508, -0.32541817, 0.00011187, -0.13925141, -0.00036142, 0.43752426, 0.21555537, 0.52914935, -1.32748342, -0.08256618, -0.07053802, -0.08291109, 0.54556882, -0.39067942, 0.62259239, -0.24816510, -0.05135934, 0.05152105, 0.15945102, -0.35305366, -0.37088707, -0.17442355, -0.11555066, -0.32347262, -0.36092722, -0.08415639, -0.18989126, -0.20896365, -0.06982103, -0.01110823, 0.52146488, 0.35256982, 0.58739430, 0.54537922, 0.54881936, 0.22453037, -0.88969779, 0.03549877, 0.00072832, -0.06238201, -0.61006701, -0.77685589, 0.07083303, -0.38503432, 0.09892872, 0.33168507, 0.26909405, -0.04640105, -0.01899938, 0.24249773, -0.11852413, -0.17686115, -0.38598222, 0.03561180, -0.06338206, -0.11866463, -0.13685940, 0.16767538, 0.24794437, 0.45476076, -0.15570623, 0.19754869, -0.35627955, -0.30132937, 0.00785202, 0.03844589, -0.02767188, -0.02884814, 1.06317961, -0.95863914, -0.47547442, 0.59492242, 0.13160527, 0.30437410, 0.29087877, 0.52256906, 0.39052811, 0.15916410, 0.06566599, 0.10020920, 0.38239697, 0.02475770, -0.35371199, 0.01531750, 0.10566489, 0.25245479, 0.27095568, -0.06001751, -0.52140230, -0.29377046, -0.30476859, 0.40229860, -0.05742278, 0.00337492, 0.05048729, 0.00023890, -0.05862745, 0.22293989, 0.85088289, 0.46982241, 0.75484896, 0.96528137, 0.55839252, 0.93970793, 0.60908777, 0.42390731, 0.56792927, 0.67846495, 0.88424152, 0.69912207, 0.88954425, 0.56280404, 0.80562037, 0.24868923, 1.05008161, 1.27285397, 0.86142236, 1.29051614, 0.76768380, -0.36294764, 0.03486063, -0.01003557, 0.03739055, 0.06617728, -0.08658280, 0.04730287, -0.76643854, -1.31581867, 0.35260978, 0.44559687, 0.21300152, 0.23148924, 0.06903861, 0.67753583, 1.01794887, -0.33197030, 0.63071430, 0.11585274, 0.59642923, 0.54259700, 0.68929875, 0.55816323, 0.84088540, 0.86745638, 0.65641403, -0.77375114, 0.02815731, -0.02771768, 0.06080028, -0.07041548, 
-0.07674876, 0.06224702, -0.01499802, 0.00384560, 0.01486705, -0.06029297, -0.04593477, 0.08511904, 0.02598144, -0.02747697, -0.03082067, 0.08102117, 0.06826611, 0.08862762, -0.04295314, -0.06436750, 0.04991643, 0.02569809, 0.04135764, 0.00822962, 0.05495553, 0.04785146, -0.01650912, 0.03510632, -0.04778856, 0.01806420, 0.01715127, -0.05221730, -0.00624127, 0.08388057, 0.08255795, 0.01887776, -0.04487207, 0.07454897, 0.04331883, 0.03492617, 0.10053983, 0.03109349, 0.31723341, 0.87874818, 1.12251449, 0.72115916, -1.20667696, 0.02281633, 1.05666006, 1.19396329, 1.04949403, 0.71198618, 0.88891184, 0.51799446, 0.52082580, 0.15786603, 0.06893604, 0.05534369, 0.02155324, 0.07852986, -0.07840388, 0.02045460, -0.07506239, 0.93633038, 0.83669460, 0.03144322, 0.50759768, 0.79039961, 1.18423569, 1.20386100, 0.95436603, 0.93107927, 0.10231071, -0.25332063, 0.56888288, -0.09806913, -0.50126785, 0.12438566, -0.40920693, -0.64503008, -0.60247952, -0.23936422, -0.14691649, -0.02207137, 1.29753423, 0.67492855, 0.07191336, 0.00479630, -0.03378912, 0.05887088, -0.52660286, 0.80741090, 0.09542615, 1.06463683, 0.49390316, 1.14321721, 1.22108078, 0.46403852, 0.46179622, 0.80896783, 0.11249814, 0.12499958, 0.34227929, 0.00755956, 0.51172310, 0.29201248, -0.12819356, -0.07423266, -0.16998447, -0.89553028, -0.79047656, 0.12496907, 0.66058564, -0.66855979, 0.08032300, -0.03091292, -0.05609976, -0.01960086, -0.53283554, -0.47357610, 1.07346463, 1.62528944, 1.62304020, 0.97084379, -0.00025596, 0.21040267, 0.41565078, -0.41787735, -0.13149810, -0.23629500, -0.27080622, -0.20832707, -0.20761448, -0.38767493, -0.36298278, 0.15088896, -0.15033503, -0.20070089, 0.41421840, -0.20301098, -0.18065032, -0.52397299, -0.88001603, 0.97437352, -0.07496383, -0.01241281, -0.12887947, -0.53052813, 0.77920926, -0.26798311, 0.10149930, 0.27806279, 0.64685100, 0.17137238, 0.69416285, 0.55799741, 0.14415549, -0.08570500, 0.00855083, 0.31607696, 0.16876815, 0.02120244, 0.29914209, 0.17443745, -0.17957740, -0.25380188, -0.32472140, -0.15879773, -0.04132122, -0.22303316, -0.60599148, 0.87438309, 0.07858153, 0.41014773, 0.09454386, -0.39624846, -0.07163777, -0.23139578, -0.20588589, 0.41173449, 0.98496193, 0.47049904, -0.03168667, -0.26966649, -0.08486697, 0.33857277, 0.25492641, 0.25130227, 0.48566833, 0.11721791, 0.05252644, -0.43581900, -0.22823589, 0.10515741, -0.08459182, -0.22646615, -0.64297527, -0.47410789, -2.45517778, -0.99269760, 0.05689060, 1.10624683, 0.75868928, -0.10951494, 0.10766546, -0.17586784, -0.24716619, -0.02316295, 0.39323643, 0.16846634, -0.22161572, -0.30448714, -0.21207516, 0.19274805, 0.11950580, -0.01179836, -0.20488603, 0.40286744, 0.08720147, -0.28005978, -0.18930307, -0.16576308, -0.01827980, -0.05535598, 0.28925252, 0.16992278, -1.92703044, -0.75770760, 0.93861687, 0.16549203, 0.31106046, -0.21922877, -0.48567024, -0.12347490, -0.28122038, -0.62158710, -0.16028830, -0.04456376, -0.05116562, -0.49564195, -0.34427154, -0.45158517, -0.21188569, -0.33312494, 0.01236051, 0.09776688, -0.11263514, -0.22305000, -0.20791024, 0.13656326, 0.01942834, -0.16070822, -0.19083451, -1.43141878, -1.70830250, -1.01291645, -0.15609597, -0.65466440, 0.13228919, -0.35006240, 0.05855722, 0.23709904, -0.13837227, -0.10326820, -0.14882261, 0.03895934, 0.20558719, -0.43315759, -0.31587616, -0.22752737, -0.05393456, -0.10804203, 0.00315964, -0.03253225, -0.29346204, -0.29350099, 0.13425797, -0.17638972, -0.36008158, 0.02692393, -0.12367731, -1.79859674, -1.47817016, -1.11278200, -0.12338466, -0.71599531, -0.45989683, -0.30098414, 0.19397974, 0.51562148, 0.63150752, 0.10328161, 0.02248171, -0.05700542, -0.09794953, -0.25406080, -0.54433244, -0.33072528, -0.07093757, -0.23449856, -0.10878840, 0.04438974, -0.18892555, -0.27387321, -0.34782642, -0.45369771, -0.55475801, 0.21025780, -0.58041936, -0.78767210, -0.80157167, -0.90617591, -0.25468951, 0.53384566, -0.94350129, 0.12691990, -0.34581494, 0.03647059, 0.43665698, -0.24120797, 0.02423300, 0.03472765, 0.00346055, -0.08072776, -0.28526816, -0.30616218, -0.04704611, -0.36619815, -0.23932146, 0.31104714, -0.27870500, -0.11754225, -0.07695344, -0.24757816, -0.24750724, -0.45810917, -0.46430743, -0.45347363, -1.46123171, -1.09999847, -0.17790125, -0.61335790, -0.90576196, -0.51873624, -0.27133968, -0.33040068, 0.32510266, -0.37091517, 0.24603991, 0.27360505, 0.19867620, -0.19031376, -0.31407583, -0.18685672, -0.17812280, -0.53638422, -0.08844052, 0.37940648, -0.01305520, 0.13338861, -0.22162451, -0.21640261, 0.25864482, -0.25984022, 0.30307716, -0.97243702, -1.61311972, -0.84803504, 0.00230991, 0.06330947, -0.64207685, -0.21007094, -0.27565199, -0.20953083, -0.20053551, -0.01399467, 0.32935607, -0.33973336, 0.25510108, -0.30286738, -0.39402464, -0.00548333, 0.07346869, -0.39546368, -0.15205720, 0.44590372, 0.49248809, 0.12589519, -0.38905430, 0.02345761, 0.40360031, 0.65855980, 0.17497276, -1.19192398, 0.04255692, 1.05551338, -0.79002053, -0.30597174, -0.91697341, -0.03372117, -0.14020570, -0.31201154, -0.00395462, 0.01305794, 0.03579673, 0.13361280, 0.14489220, 0.07107688, -0.13124348, 0.09727292, -0.04264044, -0.44351995, -0.29855245, -0.00673284, 0.42049584, 0.18706241, 0.14849456, 0.23257539, 0.19373779, 0.59225386, -0.09124131, -0.53945869, 1.48584092, 1.14312243, -0.78707528, 0.55385178, -0.63029975, -0.49748227, 0.33878803, 0.31220448, 0.06874124, 0.31362855, 0.16944429, 0.35375559, 0.31659126, -0.03869190, -0.12963374, 0.03421521, -0.20626399, -0.45795414, 0.07143597, 0.43060821, -0.11281133, 0.38411501, 0.23249498, -0.00865238, 0.07626192, 0.35687652, 0.54660928, 0.42462376, 1.58954108, 0.46192619, -0.15379326, -0.25978708, 0.14886166, -0.08475790, 0.43833551, 0.28113240, -0.25619948, 0.52354389, 0.94629663, 0.68598598, 0.52295816, 0.38377905, 0.27780005, 0.12328183, -0.15495944, -0.40156856, 0.16090688, 0.58335263, 0.35929137, 0.39296356, 0.35053465, 0.28250685, 1.16336024, 1.69567215, 1.42143619, 1.88778162, 0.71447289, 0.81627727, 0.07690066, -0.66810942, 0.63063216, 0.23362283, -0.32105505, -0.21326734, -0.38738880, 0.39522994, 0.41081747, 0.33105186, 0.32430923, 0.29258710, 0.11510919, 0.16544503, -0.14757788, -0.38219988, 0.21250209, 0.23034519, 0.23039827, 0.47102916, 0.28286162, 0.40774041, 0.96511161, 1.59869051, 1.10581064, 0.22860835, -0.40849665, 1.04805875, -0.78468037, -0.18117602, 0.12341022, 0.53028876, -0.16721503, 0.40817508, 0.35912004, 0.12804802, -0.01191942, -0.01819727, 0.21565996, 0.01148413, 0.13781881, 0.16898893, -0.53551328, 0.02438466, 0.23360263, 0.08332148, -0.05040178, 0.10864579, -0.13088258, 0.20014787, 1.94790578, 2.04770684, 1.46620071, -0.15245080, -0.82628143, -0.71887642, -0.22794035, -0.77542651, -0.17199101, 1.63676941, 0.97512776, 0.91436869, 0.38234767, 0.48044902, 0.04207627, 0.21306132, 0.10413856, -0.00350622, 0.43261689, 0.05030046, -0.05228157, 0.16631629, 0.06706733, 0.23476085, 0.04002778, -0.05660691, 0.02270954, 0.68902624, 1.45577693, 1.76106143, 1.09611440, 0.29059976, 0.10204703, -0.86567879, 0.06472047, 1.28419781, 0.04971861, 1.30073333, 1.63118589, 0.54338264, 0.37798211, 0.62628710, 0.01654803, 0.32118323, -0.05695239, -0.14512660, -0.15320459, 0.25128162, 0.35631347, 0.24906616, 0.35414556, -0.11479075, 0.10440644, -0.13366590, 0.22815751, 0.48267686, 0.57531053, 2.24169278, 1.47319531, 1.05598247, 0.05166672, -0.51390445, -0.17109539, 1.15195084, 0.85350072, 0.33198634, 0.01303461, -0.17922750, -0.28984508, 0.03369504, -0.18495551, -0.12733299, 0.03893735, -0.02648560, 0.14974675, 0.14796473, 0.05634133, 0.37989777, 0.47079030, 0.17401835, 0.05260874, 0.09675752, -0.09306229, -0.06401246, 1.36743009, 2.16378641, 0.73624074, 0.76974863, 1.01642895, -0.00027149, -0.09454128, 0.25100353, 0.81688076, 0.27892354, -0.49363926, -0.55743432, 0.16321409, -0.11246859, -0.07282963, -0.10193482, 0.06244094, -0.01987005, 0.22979790, -0.02539518, -0.03933153, 0.37023148, 0.57992941, 0.17946778, 0.31929931, 0.00976809, 0.09015222, 0.06748172, 1.94082165, 0.56128907, 0.02742489, -0.17389748, 0.24729146, 0.09445727, 0.06502567, -0.02728071, 1.67321384, 1.15615046, 0.11453094, -0.07107739, 0.36878666, 0.47986510, 0.58367556, 0.34785807, 0.24426043, 0.11771967, -0.20080681, 0.21140911, 0.01830537, 0.20238103, 0.02785949, 0.02821823, 0.70337540, 0.77613014, 0.17112453, 0.26283470, 1.25347853, 0.79899800, 1.02535594, -0.06588808, -1.01147950, 0.03973676, 0.08403651, -0.07766041, 1.19618332, 0.72152102, 0.62596720, 0.06561805, -0.04967376, -0.58290237, -0.04407867, 0.26674521, 0.13991491, -0.19232382, 0.01848195, -0.12771744, -0.05041848, -0.10438018, -0.14944610, -0.46493310, -0.24052514, -0.23824763, -0.00266915, 0.36206225, 0.07910864, 0.10577638, 0.43062577, 0.96589619, -0.00939582, 0.03757957, 0.00229719, -0.04669056, 1.10887575, -0.78210920, 0.25032261, 0.97404236, 0.50344521, -0.41603237, 0.17182516, 0.04297424, 0.04597321, -0.07505833, -0.71186197, -0.33991203, -0.52740139, -1.70255280, -1.02255797, -0.64813197, -0.32849628, -0.67474651, -0.86973721, 0.05981002, 0.32216486, -0.67648447, -0.49144283, 0.36411071, 0.19798625, 0.02902228, 0.08410081, -0.01915845, -0.03285197, 0.53469491, 0.74930269, 1.07414556, 1.60960007, 1.17697334, 1.39574385, 0.12764844, 0.54711491, 0.72575003, 0.47155064, 0.02807177, 0.01178720, -0.29094842, 0.20574540, 0.40689412, -0.12134848, -0.48748115, 0.30557615, 0.88802212, 0.27551296, 0.43110174, 0.33532983, -0.03184458, 0.06439753, 0.04865138, 0.03585529, 0.01795375, 0.02292222, -0.05395226, -0.17214118, -0.74704313, -0.52376711, -0.46777219, -0.82864976, 0.41422006, 0.10543478, 0.25507453, 0.59250796, -1.00658953, -0.40859541, -0.09183528, -0.33368754, 0.21200989, 0.81125003, 0.46903142, 0.55531353, 0.53657699, 0.56407160, -0.93356657, -0.06394520, -0.02959300, 0.03837112, 0.04778439, 
-0.02979904, 0.01791999, 0.01512107, -0.04098384, -0.04027823, -0.03562672, -0.00991428, -0.03820045, -0.06522039, 0.08092080, 0.00445719, 0.00806877, -0.03529850, 0.08594265, 0.15648629, 0.05396077, 0.01888032, -0.00293031, -0.07235215, 0.00700069, 0.00944159, -0.06125255, 0.01380048, 0.06438558, -0.08633278, -0.00878752, 0.02267905, 0.05139463, 0.03248130, -0.01069026, -0.05738247, -0.00274406, -0.01278913, -0.05258600, -0.08223850, -0.03672323, 0.08878990, -0.14376450, -0.00208785, 0.51098913, 0.14486511, -0.59098697, 0.50461602, 1.27353859, 0.57752556, 0.50894284, -0.03552799, -0.20228492, -0.18776084, -0.14981395, -0.11013588, 0.02919573, -0.03340631, -0.06564818, 0.07639876, 0.07432827, 0.01570339, 0.05048068, 0.02756411, 0.25798026, 0.02421867, -0.51477998, -0.93241888, -0.70289791, -0.60967308, -0.41390261, 0.06968946, 0.44174108, 0.21414267, -0.28346825, -0.48325557, 0.26473522, 0.97820050, 0.01091905, 0.40294692, 0.05039376, 0.36175883, -0.02927398, 0.07569750, 0.10069299, -0.64291811, 0.00504000, 0.08304645, 0.06168400, 0.07420729, -0.06074397, 0.58839172, 1.04004622, 0.59315467, -1.37566233, -1.37711763, -1.00053036, -0.47318047, 0.36168152, 0.28191870, -0.59357297, -0.08499686, -0.05852276, -0.60740948, -0.85918140, -0.25655216, 0.21367948, 0.15594956, -0.44302836, -0.34741050, -0.86276710, -1.30268753, -0.98835421, -0.33011428, -0.24781045, -0.80671698, -0.01937728, 0.03946465, 0.05148705, 0.72428018, 1.33390951, -0.62818342, -0.10611647, -0.97211421, -0.14797592, 0.99461466, 0.84609002, 0.30095708, 0.87235016, 0.26847282, 0.10275727, 0.20847762, 0.15767711, 0.06386653, -0.33844736, 0.45336622, -0.43255359, -0.74047601, -0.16769980, -0.65021807, -1.08277500, 0.20771575, 0.31573728, 0.54044932, 0.44032508, -0.07318567, -0.08384831, 0.60211134, 1.19326293, 0.15989795, 0.53407645, -0.23384105, 0.44459212, -0.67330068, -0.62241030, 0.21001133, 0.52315843, 0.04665858, 0.50794578, 0.37475350, 0.35160795, 0.69905579, 0.44904450, 0.12816036, -0.05948431, 0.17678279, 0.37714964, 0.25950417, -0.34162512, -0.19355944, -0.54377460, 1.29344511, -0.06383752, -0.07714416, 0.37016997, 0.38532695, 0.29187027, -0.23382963, -0.41633219, -0.25123656, -0.84463310, -0.75439054, -0.61815244, 0.36135334, 0.17014103, -0.02642344, 0.42907897, 0.31449744, 0.23382901, 0.01846707, -0.09124477, 0.47947651, 0.30847335, 0.09893665, -0.12489830, 0.40695679, 0.49407557, 0.27566496, 0.44645429, -0.12955603, 1.06873810, 0.04799343, 0.76251125, -0.19090673, -1.12475967, 0.20747885, 0.08786840, -0.54531133, -0.23552577, 0.21264657, -0.00847203, 0.34177262, 0.00483322, 0.26928791, 0.12424190, 0.42759427, 0.09254558, -0.09876452, -0.54856157, -0.07170667, 0.06344985, 0.36384052, 0.47812569, 0.25350091, 0.22783221, 0.28372008, 0.17711359, -0.31661001, 1.34000862, 0.74097359, 0.36246559, -0.08300131, 0.55263323, 0.58631539, -0.30358046, -0.10923894, -0.04384887, -0.15960979, -0.44423237, -0.18862697, -0.17126741, 0.33212230, 0.13402620, 0.11029045, 0.00672144, 0.21449102, -0.01377421, 0.06120704, 0.27188855, 0.05543081, 0.55699736, 0.68050623, 0.26802096, 0.63110840, -0.01786002, 0.17555706, 1.05262268, 0.08103830, -0.33858132, 0.34585142, 0.60953599, 0.61404473, -0.58345455, -0.06863341, 0.18689017, 0.29852870, -0.20386814, -0.17989881, -0.27493089, -0.51659125, -0.17689320, -0.29224694, 0.10275374, 0.44607270, 0.39007166, 0.18770635, -0.09153975, 0.20969933, 0.47946689, 0.86434346, 1.02745533, 0.87318975, 0.83728331, -0.29116890, -0.70905435, 0.12119532, 0.25642502, 0.18479952, 0.15210322, 0.17865816, -0.84580296, -0.21859862, -0.14495669, 0.15385987, -0.33509120, 0.00237612, 0.11958204, -0.11199539, -0.24955723, 0.01053847, -0.05138753, 0.15631907, 0.32371545, 0.18612537, -0.01146892, 0.45894605, 0.46178401, 0.40700215, 1.25909591, 1.22943175, 0.06269825, 0.52082121, 0.21228829, -0.09779110, 0.23162727, 0.11651193, -1.01058817, -0.28202131, -0.06641981, 0.02744925, -0.21750751, -0.25861135, -0.55931300, -0.14444456, 0.09678217, -0.17717734, 0.07165959, 0.20203322, -0.17169742, -0.11285628, -0.22136560, -0.37649086, 0.20056969, -0.19859010, -0.39097774, 0.18400198, 1.07111478, 1.68724751, 1.14417720, 1.69759369, 0.49066028, -0.06611452, -0.53718424, -0.92368186, -0.00503486, -0.61601675, 0.22329009, -0.02055411, -0.40565726, -0.29387456, -0.21558243, -0.10107443, -0.22370148, -0.17035329, 0.07933203, 0.26896337, -0.08543022, -0.24774882, -0.16543645, -0.67010885, -0.35358250, -0.13440475, -0.25170800, -0.41265219, 0.43003812, 1.74529672, 1.88990581, 0.21325813, -0.77164310, 0.24355213, -0.44402307, -1.08735073, 0.58803767, -0.78419620, -0.09488128, -0.22191094, -0.05164694, 0.13292550, 0.06598372, -0.34767970, -0.05231381, -0.01405120, 0.02553087, 0.11935701, -0.24674872, -0.41701207, -0.34099594, -0.18005979, -0.45123726, 0.02835406, -0.58546191, -0.15396188, 0.45890597, 0.90477943, 0.90839934, 0.21507367, -0.27723578, 0.77477556, 0.43680364, -0.82182384, 0.17365083, -0.24696001, -0.09674556, 0.00094888, -0.05412386, -0.22911976, -0.12882599, -0.28148660, -0.25983804, -0.13357525, 0.23901869, 0.22412631, -0.30164042, -0.38708282, -0.01650362, -0.15054150, -0.98265129, -0.81991255, -0.55905086, -0.59378535, 0.15452865, 0.39872435, -0.88378346, 0.72972900, 0.01412039, 0.69283217, 0.00616741, -0.41618526, 0.31261355, 0.05220921, 0.15351909, -0.08993897, -0.26843244, -0.07584164, 0.19966152, -0.24471435, -0.47603580, -0.00274504, 0.24312238, 0.09665645, -0.66629130, -0.28994435, -0.51162940, -0.44344312, -0.74828672, -0.65042698, -0.40473226, -0.33030924, -0.35780734, 0.67821717, 0.05009148, 0.45423189, 0.03600158, -0.21987581, 0.91361159, 0.51653570, 0.96751815, 0.17488433, 0.67907786, 0.10039391, -0.53401297, -0.59989232, 0.04229304, 0.36856386, 0.01913885, 0.20591965, 0.22497760, -0.01176660, -0.58064920, -0.28450099, -0.17633548, -0.48187101, -0.62507755, -0.58472925, 0.12687618, -0.02558644, -0.03861091, 1.18874681, -0.20761372, -0.43791744, 0.09716020, -0.02518430, 0.94835418, -0.82411075, 0.55740499, 0.60606647, 0.83822978, 0.49549282, -0.15756597, -0.30366072, -0.38886189, -0.10439432, -0.20552626, -0.16694498, -0.40413502, -0.23180744, -0.66256756, -0.37367627, -0.39463958, -0.38097250, -0.03846835, -0.25537303, -0.54017174, -0.42062661, 0.23102656, 0.41558358, -2.07763624, -1.00737059, -0.11288808, 0.41519278, 0.47950646, -1.00380802, 0.19682169, -0.34376001, 0.42942947, 0.45496196, 0.13899170, 0.13791056, 0.12889150, 0.24126543, -0.09768265, -0.13134836, -0.00448478, -0.08615934, -0.27361062, -0.34481388, 0.03093328, -0.32691500, -0.37465942, -0.04541638, -0.37280464, 0.05762483, 0.46148703, 0.71106994, -0.93122226, -1.15778708, 0.23999135, 0.08137592, 0.75257379, -0.46992373, -0.41058075, -0.29210690, 0.23918189, 0.40518734, 0.07304768, 0.24898514, 0.10374814, -0.02674501, -0.44172335, 0.01624527, 0.44924140, -0.11490522, 0.10957694, 0.00512548, 0.12850675, 0.03817002, 0.26549062, 0.53126580, -0.03106767, 0.58090997, 0.72009569, 1.19041729, 0.09446610, -0.38427043, 0.79372346, -0.00002674, 0.54582608, 0.14446913, -0.36570045, -0.56496584, 0.10377612, 1.18722165, 0.87544823, 1.07114995, 0.64430201, 0.61675745, 0.14607108, 0.05028539, 0.01837055, -0.23064287, 0.07471178, 0.05227764, 0.39049855, 0.43189910, 0.93390524, 1.11923540, 0.96616548, 1.67342150, 1.00285649, 0.21305589, 0.39025891, -0.52317327, 0.14799388, 0.13319427, -0.42794698, 0.82534963, 0.65774196, 0.21285357, 0.32669708, 1.78855133, 1.40558445, 0.45800811, 0.71628726, 0.66264993, 0.23252706, -0.13652034, 0.21213861, 0.28822038, 0.27196366, -0.06097851, 0.50725430, 0.61060119, 0.72410899, 0.57441187, 1.25713885, 1.39570081, 0.94185120, 0.30072519, 0.96294832, -0.36416161, -0.06905232, 0.27035016, 0.12528968, 0.99925798, 1.39237964, 0.95570827, 1.16398191, 0.91027802, 0.19016221, -0.08496127, 0.25061691, 0.05498782, 0.27559155, 0.19161820, 0.60733962, 0.37481719, 0.58369857, 0.44183245, 0.64071792, 0.54516375, 0.11294763, 0.43106118, 0.71533197, 0.23477934, 0.86451793, 0.93963003, 0.93720382, 0.72215217, -0.04885289, 0.07461825, -0.06670908, 1.11052644, 1.69702590, 1.55725729, 0.74963450, -0.18299419, -0.33815533, 0.45620856, 0.52058816, 0.50167662, 0.71490908, 0.56678474, 0.67899138, 0.56784564, 0.81243294, 0.92981428, 0.44436055, 0.16096270, 0.16346680, 0.26224887, 0.25045779, 0.52201533, 1.38747168, 1.20073533, 1.01863503, 1.00892091, 0.07236022, 0.06766476, 0.07658391, -0.46009642, 0.45609954, 0.95407999, -0.48416269, -1.04737592, -0.78902066, -0.46822521, 0.03740008, -0.12087938, -0.02028498, 0.33184636, 0.43807530, 0.23529021, 0.50733584, 0.30768949, 0.10282892, 0.38280961, -0.13249503, -0.11909306, -0.36581773, -0.40742591, -0.35153189, 0.65003169, -0.67990392, -0.46440881, 0.06043036, -0.00296114, -0.07101461, 0.42987585, 0.19021906, 0.97575682, 0.13348816, 0.09144807, -0.56373793, -0.06708252, 0.29328650, -0.29996490, -0.53112215, 0.27843490, -0.08954747, -0.25852785, 0.09863758, 0.24452332, 0.38759562, 0.24111322, 0.60523838, -0.46701363, -0.52630109, 0.55695236, -0.04142392, 0.55602527, -0.26859429, -0.57990766, -0.07628313, 0.02684814, 0.02441304, -0.01429485, 0.03189296, -0.64568198, -0.57574731, -1.38529229, -1.60489750, -0.93056273, -0.91117120, -0.61865395, -0.21041287, -0.20863399, 0.36931768, 0.07181022, 0.23196839, 0.63383126, 0.34695852, 0.27216318, -0.01223444, 0.33996525, 0.33719489, -0.06303390, -1.04231215, -0.30515122, -0.03093452, -0.01338751, -0.02093980, 0.01055446, 0.06758033, 0.06062068, -0.08302197, -0.03540061, -0.13508084, -0.33996847, -0.51028180, -0.58978754, -0.38487333, -0.73349845, -0.09425426, -0.55589211, -1.31604016, -1.04899299, -0.91806173, -1.02533960, -0.04140057, 0.57552665, -0.21617985, -0.54629546, -1.09977138, -0.65255898, -0.71351796, 0.00134924, -0.05689193, 0.03753062, -0.04934186, 
-0.07997355, -0.07594211, -0.02912106, -0.08590112, 0.08548413, 0.06143931, -0.02260032, 0.01957495, -0.06382665, -0.07929128, 0.02145506, 0.08574267, 0.29868552, 0.34488755, -0.08336475, -0.10781003, 0.00015141, 0.05685228, -0.05448491, 0.06938905, -0.06600825, -0.06397973, 0.08513252, 0.05700774, 0.06922831, 0.03921965, -0.08352895, 0.05581887, 0.04153822, -0.08114953, -0.04248554, 0.05229233, 0.02637105, 0.02705973, 0.08472177, 0.78860593, 0.41098213, 0.58594483, 0.82838589, 0.62107098, 0.78055793, 1.72486055, 1.46879327, 0.26556033, -0.20847991, 0.63614261, 1.16942799, 0.56224495, 0.89881176, 0.65055043, 0.24991152, 0.08879931, 0.07691415, -0.02780114, -0.01874448, 0.00247404, 0.06705266, 0.07043514, -0.23100008, -0.07339317, 0.37852854, 0.82108217, 1.14675176, 0.98851955, 0.57077444, -0.06865373, 0.34899163, -0.15646358, 0.26123676, -0.42183337, -0.57352763, -0.67724794, -0.30233559, -0.14590338, 0.19184387, 0.58345556, 0.21589580, 0.87312979, 0.84282088, 0.43535998, -0.48145890, -0.23395488, 0.05502182, 0.07838826, -0.02310848, -0.00097263, -0.39021984, 0.31162104, 1.14671600, -0.57199931, 0.27000123, -0.45480230, -0.18723209, 0.24178430, 0.45269570, -0.13146392, -0.15170041, -0.03450647, 0.00669577, -0.25397927, -0.12885520, -0.09794527, 0.14412606, -0.23182657, 0.01158752, 0.54720825, 0.47542796, -0.36638984, 0.14160417, -0.33072791, 0.66970181, 0.00654814, -0.05485582, 0.00111356, -0.75628626, -0.28329381, -1.01394761, -1.09871423, 0.14593644, 0.26615444, -0.79916394, -0.48024592, -0.52414131, -0.06272775, -0.15648910, -0.31247041, -0.21566008, -0.17907335, -0.18217607, 0.05350749, 0.26702112, 0.01188799, -0.04706535, 0.75281978, 0.99730265, 1.23652577, 0.87739301, 0.42115653, -0.69600540, 0.32523578, 0.03289682, 0.01580574, -1.08258295, -0.67152160, -1.39705777, -0.26207045, -0.14910844, -0.43755373, -0.00278844, -0.02100586, 0.33902496, 0.30447102, -0.36318097, -0.06104739, -0.18783344, -0.19056618, -0.03024366, 0.33266428, 0.14897428, -0.04303637, 0.02475416, 0.22190593, 0.24593447, 0.78748780, -0.02272077, -0.16167757, 0.24046086, 0.65537935, -0.06414661, -0.46110722, 1.00988626, -0.40454090, -0.20712817, 0.10299861, -0.28568614, -0.08524065, 0.19827308, 0.11349138, -0.16893968, -0.08310580, 0.03092641, -0.12897639, 0.14535567, 0.01130100, -0.13694023, -0.07192027, -0.03866839, 0.24691963, -0.00783506, -0.03525485, 1.22935498, 0.78255212, 0.77867663, 0.01111472, 0.25405273, -0.24631923, 0.18784806, -1.19596219, 1.52943254, -0.34420365, -0.97965664, -0.14169636, 0.04078553, 0.13867304, 0.08418191, 0.04213932, 0.15473324, 0.21364763, 0.04496145, 0.22515273, 0.19640593, -0.23247027, 0.06680205, 0.10826303, 0.03376340, 0.30194280, -0.00833729, 0.42861095, 1.18037593, 1.75989699, 1.93179989, 0.41412297, -0.59631014, 0.09962334, 0.81810099, 0.98234820, 1.53471780, -0.41878510, -0.86304611, 0.11113798, -0.06480542, -0.10804681, 0.24037008, 0.05331257, -0.13820700, 0.44564912, 0.05281452, -0.36964986, -0.11611637, -0.11494164, 0.04416636, 0.23598965, 0.08122096, -0.27654487, -0.04648066, 0.11756217, 0.78687876, 2.48164964, 2.38567209, 0.74134302, 0.08395971, 0.35383245, 0.32240587, 1.06803322, 0.04919936, -0.23659395, -0.76975477, -0.15275919, 0.12866671, 0.13687243, -0.02166661, 0.03594604, 0.29881158, 0.50464177, 0.29288417, -0.17646927, -0.58307743, -0.55456662, -0.43737876, -0.45929545, -0.02727681, -0.46712971, -0.60113639, 0.00878694, 1.48338699, 2.75980520, 2.99927878, 1.25056326, 0.49488828, 0.88609558, 0.21082145, 1.19718874, -0.30935660, -0.63577187, -0.22509603, 0.35908282, 0.25868079, 0.07011762, 0.45612451, 0.65117037, 0.32471958, 0.04997120, 0.18046007, -0.48986983, -0.87886965, -0.49787918, -0.26296702, -0.32236624, -0.52889055, -0.99857777, -0.27259898, 0.32557407, 2.03803372, 2.52179337, 2.96156430, -0.17878924, -0.75408924, -0.46822506, 0.10545587, 0.67760152, 0.93877202, -0.96413535, -0.42544514, 0.46599260, 0.61528933, 0.38130414, 0.33575723, 0.16354822, 0.06019286, 0.04261374, -0.09292810, -0.44494796, -0.58247381, -0.34408206, 0.14702742, -0.31383255, -0.17210713, -0.35896707, -0.36334893, 1.01232052, 1.82325137, 1.96579123, 1.58949816, -0.21943146, -0.58309108, 0.89548457, 0.02618261, 0.98319298, 0.98830181, -0.29973254, 0.03961460, 0.16727257, 0.80714333, 0.11207180, 0.16934043, -0.14811082, -0.17697307, -0.13140973, -0.30043295, -0.52209789, -0.68757421, -0.28503230, -0.24622048, -0.22929621, -0.05719288, 0.23405418, 1.12412775, 1.22672284, 1.84509552, 1.79371071, -0.32942054, -0.41826531, 0.20225498, 0.67607272, -0.02054474, 0.69686705, 0.93476170, 0.00253903, 0.12535186, 0.02075569, -0.06727358, -0.02176058, 0.09839055, -0.28823367, 0.36244151, 0.10666591, -0.20104878, -0.51420963, -0.26225939, -0.37774256, -0.56373405, -0.05450407, 0.14385438, 0.68970257, 1.15364540, 1.11628699, 0.71238911, 0.37040725, 0.14681745, -0.28498489, -0.59036642, -0.76764405, 0.79554951, -0.78301120, 0.63109422, -0.10825203, 0.17890272, 0.45544621, -0.05454453, -0.04117137, 0.00603045, 0.17119889, 0.21644090, -0.07878575, -0.26254997, -0.45679879, -0.17678118, -0.47003230, -0.52755654, 0.17216596, 0.71184266, 0.63296771, 0.36659789, 0.32139722, 0.36214703, -0.44673106, 0.09300554, -0.13701673, -1.42384946, -0.93609363, 0.63036919, -0.80205339, -1.71018672, -0.16469371, 0.16559491, 0.27189627, -0.54471219, 0.13562827, -0.01613749, 0.15363459, 0.23415227, 0.10974091, -0.15210153, -0.69651973, -0.71236628, -0.45769641, 0.07818840, 0.62556696, 0.81754035, 0.41022548, 0.11111279, 0.05532218, -0.09482037, -0.72642183, -0.20646067, -0.24289490, -1.73071980, -0.60845333, 0.03011301, -1.04235756, -1.93648303, 0.04628295, 0.29929423, 0.54479200, -0.34021121, -0.35657376, 0.27109057, -0.29985893, 0.15502113, 0.02158952, 0.10098500, -0.23539542, -0.36317265, 0.45408270, 0.53797704, 1.04242039, 0.26008800, 0.33721223, 0.12326355, -0.01697441, 0.15206325, -0.38847798, -0.99762213, -0.41669121, -1.77707851, 0.27209103, -0.08376815, -1.20333374, -1.72930253, 0.12557061, 0.10137898, 0.63426715, 0.03401441, -0.16960016, 0.07719940, -0.06103897, 0.18563734, -0.04979954, -0.47547695, -0.37622920, 0.31179097, 0.92222446, 0.48238328, 0.56287986, 0.17085490, -0.23296316, 0.01204560, -0.20588034, -0.35705453, -0.14098811, -0.39175439, 0.11145159, -0.68012613, 0.41191500, 1.01881337, -0.68092948, -1.28304970, -0.66651934, 0.11932711, 0.15693717, 0.15683971, 0.19975699, 0.05052003, -0.05208247, 0.38954192, -0.06045146, -0.04719583, 0.00380080, 0.32985151, -0.12944378, -0.02265260, 0.00895641, -0.36615154, -0.20009689, -0.16892065, -0.12082031, -0.37400219, -0.08377343, -0.17165144, -0.22102627, 0.32421824, -0.31335875, -0.08255017, 1.14022636, 0.90256315, -0.26415357, 0.48185757, 0.08351978, 0.54764211, 0.00495284, 0.32220188, -0.07737858, -0.04313622, 0.50341243, 0.42740452, 0.04994592, 0.11846220, -0.26933199, -0.20645720, -0.14427309, -0.16621196, -0.23123056, -0.33333752, -0.22793046, -0.27242291, -0.38004416, 0.45248449, -0.18269700, -1.33855224, -0.17092270, -0.04402115, 0.86624908, 0.83173025, -0.00335117, 0.36064708, 0.52652103, 0.13990004, -0.25229752, -0.21740441, -0.20289290, -0.09921861, 0.18521279, 0.15970701, 0.07296256, 0.16578017, 0.07786899, -0.17676248, -0.07739617, -0.17371199, -0.25836384, -0.44604903, -0.15055510, -0.04348718, -0.26322687, -0.27500549, 0.41867429, -0.76928186, -0.00245500, -0.08651098, 0.02327343, -0.55992490, -0.61794209, 0.05294471, 0.14493026, -0.04239799, -0.09866330, -0.04140875, 0.08384598, 0.05148389, 0.25213477, 0.28813061, 0.18444991, 0.23375067, -0.03052130, 0.00228631, -0.14307277, -0.13692795, -0.23142083, 0.13051704, 0.28021774, 0.07785898, 0.20217821, 0.70376641, -0.62283790, 0.46473449, -0.06089368, -0.06825007, -0.11807685, -0.61834341, -0.95683682, -0.09438696, -0.31197518, -0.52983761, -0.23910928, 0.08793838, 0.03081733, -0.09521934, 0.20223509, 0.14875671, 0.19266665, 0.24123466, 0.19048427, 0.15417147, 0.00858938, -0.05272472, -0.12603816, -0.20059353, -0.33582327, -0.10185046, 0.53577936, 0.01311804, -0.47798660, 0.34269357, -0.02005516, 0.02937928, 0.05940080, -1.30622053, -1.26208723, -0.02431677, 0.31934643, 0.17787920, -0.12144253, -0.04514659, -0.08791357, 0.00420308, -0.14573966, -0.00096134, -0.11616889, 0.58501488, 0.06968012, 0.27020627, -0.05466255, -0.52443105, -0.38715425, -0.18801184, -0.09713448, 0.22672556, 0.36522150, -0.01240265, -0.39470762, -0.27053523, 0.03558952, -0.02287095, 0.06866594, -0.93518090, -0.74472755, -0.60846597, 0.32999784, -0.18013637, -0.33083731, -0.36693755, 0.18117757, 0.14343685, 0.02988163, -0.06348436, 0.06473683, 0.07236934, 0.10886396, 0.09273373, 0.32670972, 0.00133794, -0.05846438, 0.17297271, -0.15462142, 0.69007379, 1.02555203, 0.60769349, -0.88229036, -0.20806621, -0.04870912, -0.03093145, 0.05519715, -0.32671085, 1.43799472, 0.15966330, 0.01626131, -0.31056660, 0.04181354, -0.39394143, -0.22248414, -0.25343621, 0.37705562, -0.07103446, -0.14133403, -0.16144702, 0.24151447, 0.42836821, 0.41438794, 0.50025994, 0.12125241, 0.05036268, 1.24529660, 1.58513355, 1.13680696, 1.09480429, 0.54844970, 0.01469914, 0.08351365, -0.04035739, -0.03374853, 0.00665174, 0.49688584, 0.30094308, 0.18949656, 0.59878296, 0.46956754, 1.26253784, 1.78162611, 0.97911680, 1.31696939, 1.48825336, 0.62823558, 0.94393581, 0.81170094, 0.39951771, 0.20507543, 0.37838700, 0.43672431, 0.39621580, 1.30786622, 1.30671608, 0.31542110, 0.08436710, 0.06817839, 0.00654543, -0.06984835, -0.05000348, -0.03113538, -0.03746536, 0.05676581, 0.06502093, -0.00687101, 0.52144480, 0.66817993, 0.89192796, 1.16093135, 1.33253133, 1.49446309, 1.36689162, 1.78877258, 1.96874046, 0.81696028, 1.36924541, 1.46181941, 0.92401654, 1.33882976, 1.03379405, 0.62159359, 0.12188336, -0.03851777, 0.04944947, -0.00830054, -0.03324456, 0.00701027, 
